{"learner":{"attributes":{},"feature_names":["RSQ","shooter_A","GK_A","team_elevation_dif","team_travel","team_rest_days","temperature_c","team_is_home","is_raining","match_time_aft","match_time_evening","match_time_night","match_time_nan"],"feature_types":["float","float","float","float","float","float","float","float","float","float","float","float","float"],"gradient_booster":{"model":{"gbtree_model_param":{"num_parallel_tree":"1","num_trees":"2"},"iteration_indptr":[0,1,2],"tree_info":[0,0],"trees":[{"base_weights":[4.7505355E0,1.6359265E0,5.5581923E0,3.5892195E-1,3.6930573E0,4.547318E0,7.2462244E0,-1.6946283E-1,2.2532358E0,5.728746E0,3.3292363E0,3.4501996E0,5.116478E0,6.7627273E0,4.416805E-1,-8.1517977E-1,5.140106E-1,1.0979505E0,3.2525249E0,-3.8488653E-2,6.1675625E0,2.7682679E0,4.2496243E0,2.4327722E0,4.540853E0,4.4319572E0,6.263947E0,6.2959256E0,7.784395E0,-1.0208094E0,-1.7090078E-1,2.5579965E0,2.4425127E-1,4.397862E0,2.5347805E-1,9.076022E-1,4.1591735E0,6.261597E-2,6.668848E0,2.984741E0,-1.1696936E-1,4.9809284E0,2.2028708E0,3.404815E0,1.6926839E0,3.5214384E0,5.4301715E0,3.8658555E0,5.1150303E0,5.685485E0,7.183627E0,5.4845276E0,6.7210217E0,7.8801055E0,6.261597E-2,1.0031221E-2,-5.474502E-2,1.6573977E-1,-2.899514E-2,4.850388E-2,1.9376461E-1,1.5784854E-4,7.922481E-2,6.261597E-2,3.118566E-1,-1.9501109E-2,1.15977876E-1,1.3721241E-1,-4.6577817E-3,2.7025288E-1,1.448509E-1,1.8846957E-1,3.6693817E-1,7.409019E-4,1.5955885E-1,-4.8960313E-2,1.2262305E-1,1.0346587E-1,2.811656E-1,3.2781094E-2,2.6945215E-1,2.1806963E-1,1.2727009E-1,-1.4781119E-2,1.0133135E-1,1.2887833E-1,2.7428016E-1,2.3327406E-1,3.1128314E-1,2.0074299E-1,9.606655E-3,2.0965925E-1,2.81352E-1,3.5931826E-1,2.6316783E-1,3.816323E-1,2.8635082E-1,2.8018078E-1,8.6794026E-2,3.4026217E-1,3.6756836E-2,3.7507173E-1,4.6874776E-1],"categories":[],"categories_nodes":[],"categories_segments":[],"categories_sizes":[],"default_left":[0,0,0,0,0,0,0,0,0,0,0,0,0,0,0,0,0,0,0,0,0,0,0,0,0,0,0,0,0,0,0,0,0,0,0,0,0,0,0,0,0,0,0,0,0,0,0,0,0,0,0,0,0,0,0,0,0,0,0,0,0,0,0,0,0,0,0,0,0,0,0,0,0,0,0,0,0,0,0,0,0,0,0,0,0,0,0,0,0,0,0,0,0,0,0,0,0,0,0,0,0,0,0],"id":0,"left_children":[1,3,5,7,9,11,13,15,17,19,21,23,25,27,-1,29,31,33,35,-1,37,39,41,43,45,47,49,51,53,55,57,59,61,63,65,67,69,-1,71,73,75,77,79,81,83,85,87,89,91,93,95,97,99,101,-1,-1,-1,-1,-1,-1,-1,-1,-1,-1,-1,-1,-1,-1,-1,-1,-1,-1,-1,-1,-1,-1,-1,-1,-1,-1,-1,-1,-1,-1,-1,-1,-1,-1,-1,-1,-1,-1,-1,-1,-1,-1,-1,-1,-1,-1,-1,-1,-1],"loss_changes":[8.298031E3,1.7887366E3,4.4410312E3,4.2230893E2,1.741438E2,1.00802344E3,6.926758E2,1.4629211E2,1.02646545E2,1.1359033E2,1.0374121E2,6.149453E2,8.200918E2,3.1141016E2,0E0,2.2393524E1,8.824956E1,1.22006165E2,1.00026245E2,0E0,8.001758E1,8.8954834E1,1.1303516E2,2.0575098E2,2.2666406E2,2.4298926E2,1.724414E2,1.4385938E2,1.3566016E2,1.1887573E1,6.2391827E1,3.532907E1,4.6362576E1,4.392003E1,4.90871E1,2.7629469E1,3.9270752E1,0E0,3.5104614E1,8.088281E1,2.6468605E1,1.01046265E2,1.1282108E2,9.256738E1,1.1275409E2,2.2531616E2,5.791162E1,2.048706E2,1.2029297E2,1.2114014E2,5.505078E1,7.311328E1,1.6609473E2,5.942871E1,0E0,0E0,0E0,0E0,0E0,0E0,0E0,0E0,0E0,0E0,0E0,0E0,0E0,0E0,0E0,0E0,0E0,0E0,0E0,0E0,0E0,0E0,0E0,0E0,0E0,0E0,0E0,0E0,0E0,0E0,0E0,0E0,0E0,0E0,0E0,0E0,0E0,0E0,0E0,0E0,0E0,0E0,0E0,0E0,0E0,0E0,0E0,0E0,0E0],"parents":[2147483647,0,0,1,1,2,2,3,3,4,4,5,5,6,6,7,7,8,8,9,9,10,10,11,11,12,12,13,13,15,15,16,16,17,17,18,18,20,20,21,21,22,22,23,23,24,24,25,25,26,26,27,27,28,28,29,29,30,30,31,31,32,32,33,33,34,34,35,35,36,36,38,38,39,39,40,40,41,41,42,42,43,43,44,44,45,45,46,46,47,47,48,48,49,49,50,50,51,51,52,52,53,53],"right_children":[2,4,6,8,10,12,14,16,18,20,22,24,26,28,-1,30,32,34,36,-1,38,40,42,44,46,48,50,52,54,56,58,60,62,64,66,68,70,-1,72,74,76,78,80,82,84,86,88,90,92,94,96,98,100,102,-1,-1,-1,-1,-1,-1,-1,-1,-1,-1,-1,-1,-1,-1,-1,-1,-1,-1,-1,-1,-1,-1,-1,-1,-1,-1,-1,-1,-1,-1,-1,-1,-1,-1,-1,-1,-1,-1,-1,-1,-1,-1,-1,-1,-1,-1,-1,-1,-1],"split_conditions":[7.17241E-1,8.51095E-2,1.16689E-1,5.52E-1,-2.13064E-1,6.00628E-2,2.33004E-1,5.29113E-2,5.97293E-2,9.14521E-2,1.33714E-1,1.51613E0,1.35714E0,1.30515E0,4.416805E-1,3.33333E-1,-2.18027E-1,-9.89011E-2,0E0,-3.8488653E-2,-1.96E2,1.2476E-1,1.08873E-1,5.75615E-3,4.39397E-2,9.03188E-2,1.78571E0,-1.32E2,1.101E3,-7.08E2,3.41463E-1,1.48E2,4.3956E-1,-2.18027E-1,3.87E2,6.40562E-2,-1.44E2,6.261597E-2,1E0,-8.22511E-2,2.33E2,-1.88E2,6.59631E-1,-8.1E1,-1.99E2,3.33333E0,2.09677E0,2.67936E-1,9.97143E-1,-9.40919E-2,1.133E-1,2.04771E-1,1.493E3,2E0,6.261597E-2,1.0031221E-2,-5.474502E-2,1.6573977E-1,-2.899514E-2,4.850388E-2,1.9376461E-1,1.5784854E-4,7.922481E-2,6.261597E-2,3.118566E-1,-1.9501109E-2,1.15977876E-1,1.3721241E-1,-4.6577817E-3,2.7025288E-1,1.448509E-1,1.8846957E-1,3.6693817E-1,7.409019E-4,1.5955885E-1,-4.8960313E-2,1.2262305E-1,1.0346587E-1,2.811656E-1,3.2781094E-2,2.6945215E-1,2.1806963E-1,1.2727009E-1,-1.4781119E-2,1.0133135E-1,1.2887833E-1,2.7428016E-1,2.3327406E-1,3.1128314E-1,2.0074299E-1,9.606655E-3,2.0965925E-1,2.81352E-1,3.5931826E-1,2.6316783E-1,3.816323E-1,2.8635082E-1,2.8018078E-1,8.6794026E-2,3.4026217E-1,3.6756836E-2,3.7507173E-1,4.6874776E-1],"split_indices":[1,0,0,1,2,0,0,0,0,0,0,1,1,1,0,1,2,2,2,0,3,0,2,2,0,0,1,3,3,3,1,3,1,2,3,0,3,0,11,2,3,3,1,3,3,1,1,2,1,2,2,2,3,1,0,0,0,0,0,0,0,0,0,0,0,0,0,0,0,0,0,0,0,0,0,0,0,0,0,0,0,0,0,0,0,0,0,0,0,0,0,0,0,0,0,0,0,0,0,0,0,0,0],"split_type":[0,0,0,0,0,0,0,0,0,0,0,0,0,0,0,0,0,0,0,0,0,0,0,0,0,0,0,0,0,0,0,0,0,0,0,0,0,0,0,0,0,0,0,0,0,0,0,0,0,0,0,0,0,0,0,0,0,0,0,0,0,0,0,0,0,0,0,0,0,0,0,0,0,0,0,0,0,0,0,0,0,0,0,0,0,0,0,0,0,0,0,0,0,0,0,0,0,0,0,0,0,0,0],"sum_hessian":[3.3013264E3,6.804183E2,2.620908E3,4.2053644E2,2.598818E2,1.6415586E3,9.793494E2,3.295304E2,9.100603E1,3.7168236E1,2.2271356E2,5.6312854E2,1.07843E3,7.5472894E2,2.2462051E2,1.6934637E2,1.6018402E2,4.3181873E1,4.7824158E1,2.303347E0,3.486489E1,1.4086517E2,8.184839E1,2.9301602E2,2.701125E2,6.785215E2,3.999086E2,5.229532E2,2.3177574E2,1.27931145E2,4.1415237E1,1.7686865E1,1.4249716E2,7.941472E0,3.52404E1,1.3892962E1,3.39312E1,3.5504048E0,3.1314486E1,1.3100189E2,9.863282E0,5.924617E1,2.2602217E1,1.2510314E2,1.6791289E2,1.2816183E2,1.4195067E2,3.7467026E2,3.0385123E2,2.4990497E2,1.5000362E2,1.8456625E2,3.3838693E2,2.2822534E2,3.5504048E0,7.218698E0,1.2071244E2,3.6031346E0,3.7812103E1,8.806993E0,8.879873E0,1.2162128E2,2.0875883E1,3.5504048E0,4.3910675E0,2.7489697E1,7.7507033E0,4.285608E0,9.607354E0,1.542382E1,1.8507378E1,7.12096E0,2.4193525E1,8.583645E0,1.2241825E2,7.8484416E0,2.0148401E0,1.1471726E1,4.7774445E1,1.602569E1,6.5765257E0,5.7276337E1,6.78268E1,2.416264E1,1.4375024E2,8.812567E1,4.0036167E1,7.587675E1,6.607391E1,3.5997693E2,1.4693324E1,1.11782486E2,1.9206876E2,5.134029E1,1.9856468E2,1.1141771E2,3.8585915E1,1.7840385E2,6.162409E0,3.3355692E2,4.830042E0,1.8689879E2,4.132654E1],"tree_param":{"num_deleted":"0","num_feature":"13","num_nodes":"103","size_leaf_vector":"1"}},{"base_weights":[3.7200117E0,1.1640466E0,4.143555E0,1.22962385E-1,3.2125206E0,3.3700924E0,4.987371E0,-2.287028E-1,1.2382908E0,3.808984E0,2.0009387E0,2.6541612E0,3.7975159E0,4.659504E0,5.632169E0,-5.821273E-1,2.7262065E-1,2.9561586E0,7.6572615E-1,3.0631342E0,4.830244E0,1.3122159E0,3.7108984E0,1.3438576E0,3.1023955E0,2.9776356E0,4.1147027E0,4.417961E0,5.3671937E0,2.5822103E0,5.667498E0,-8.8263005E-1,7.1670884E-1,1.8194944E0,-3.9410323E-2,-4.196376E-2,3.7498438E0,2.9732726E0,-2.6322898E-2,3.8843174E0,1.7247657E0,2.9752466E-1,3.6810482E0,1.9767792E0,-5.0986707E-2,4.4816513E0,-4.0025618E-2,2.61926E0,7.912567E-1,3.946317E0,2.5996892E0,4.408213E0,2.533071E0,3.826859E0,4.958391E0,4.435661E0,-4.118507E-2,5.418038E0,-3.885756E-2,1.9722931E-1,-3.8540408E-2,5.425655E0,3.0998853E-1,2.8326277E-2,-5.0763663E-2,-1.0118251E-2,1.2901926E-1,-4.2489957E-2,1.197583E-1,-1.7659163E-2,1.380162E-1,5.1547833E-2,2.2831777E-1,6.220272E-2,2.769216E-1,-2.7529964E-2,5.0308444E-2,3.1686895E-2,2.1368699E-1,2.4390273E-2,1.667742E-1,3.303714E-2,2.1528737E-1,4.889302E-2,1.6953154E-1,8.782432E-2,2.4611759E-1,1.8093054E-1,6.607693E-2,-4.9383976E-2,4.6598103E-2,-4.462651E-2,2.0311175E-1,1.4001265E-1,9.351473E-2,8.722078E-2,2.4722028E-1,9.658248E-2,1.7243615E-1,1.6431886E-1,2.1122327E-1,2.3107138E-1,2.9075816E-1,1.985692E-1,2.3299555E-1,3.122445E-1,2.6245618E-1,1.5216307E-1,2.743621E-1],"categories":[],"categories_nodes":[],"categories_segments":[],"categories_sizes":[],"default_left":[0,0,0,0,0,0,0,0,0,0,0,0,0,0,0,0,0,0,0,0,0,0,0,0,0,0,0,0,0,0,0,0,0,0,0,0,0,0,0,0,0,0,0,0,0,0,0,0,0,0,0,0,0,0,0,0,0,0,0,0,0,0,0,0,0,0,0,0,0,0,0,0,0,0,0,0,0,0,0,0,0,0,0,0,0,0,0,0,0,0,0,0,0,0,0,0,0,0,0,0,0,0,0,0,0,0,0,0,0],"id":1,"left_children":[1,3,5,7,9,11,13,15,17,19,21,23,25,27,29,31,33,35,37,39,41,43,45,47,49,51,53,55,57,59,61,63,65,67,69,-1,71,73,75,77,79,-1,81,83,-1,85,-1,87,89,91,93,95,97,99,101,103,-1,105,-1,-1,-1,107,-1,-1,-1,-1,-1,-1,-1,-1,-1,-1,-1,-1,-1,-1,-1,-1,-1,-1,-1,-1,-1,-1,-1,-1,-1,-1,-1,-1,-1,-1,-1,-1,-1,-1,-1,-1,-1,-1,-1,-1,-1,-1,-1,-1,-1,-1,-1],"loss_changes":[4.3005586E3,1.2082404E3,2.2096094E3,1.4807327E2,1.3035803E2,5.3550586E2,3.1821484E2,5.1066006E1,7.119017E1,8.181738E1,7.179083E1,3.892422E2,2.7747266E2,1.6191602E2,4.403125E1,6.653016E1,5.7742928E1,6.0897736E1,1.2651318E2,7.686786E1,4.4784424E1,7.6326584E1,6.66743E1,1.1950314E2,2.011582E2,1.8878394E2,1.7547266E2,7.929199E1,8.908252E1,3.991069E1,3.5535156E1,2.7017372E1,5.5804436E1,3.2886963E1,8.917946E1,0E0,3.0897446E1,7.784398E1,2.9897629E1,5.5931274E1,5.956327E1,0E0,5.03479E1,4.9867813E1,0E0,1.0145996E1,0E0,6.2283722E1,3.1404259E1,1.06890625E2,4.0878418E1,9.590857E1,1.267207E2,1.1535547E2,3.0952637E1,6.6103516E1,0E0,4.8691406E0,0E0,0E0,0E0,3.8688477E1,0E0,0E0,0E0,0E0,0E0,0E0,0E0,0E0,0E0,0E0,0E0,0E0,0E0,0E0,0E0,0E0,0E0,0E0,0E0,0E0,0E0,0E0,0E0,0E0,0E0,0E0,0E0,0E0,0E0,0E0,0E0,0E0,0E0,0E0,0E0,0E0,0E0,0E0,0E0,0E0,0E0,0E0,0E0,0E0,0E0,0E0,0E0],"parents":[2147483647,0,0,1,1,2,2,3,3,4,4,5,5,6,6,7,7,8,8,9,9,10,10,11,11,12,12,13,13,14,14,15,15,16,16,17,17,18,18,19,19,20,20,21,21,22,22,23,23,24,24,25,25,26,26,27,27,28,28,29,29,30,30,31,31,32,32,33,33,34,34,36,36,37,37,38,38,39,39,40,40,42,42,43,43,45,45,47,47,48,48,49,49,50,50,51,51,52,52,53,53,54,54,55,55,57,57,61,61],"right_children":[2,4,6,8,10,12,14,16,18,20,22,24,26,28,30,32,34,36,38,40,42,44,46,48,50,52,54,56,58,60,62,64,66,68,70,-1,72,74,76,78,80,-1,82,84,-1,86,-1,88,90,92,94,96,98,100,102,104,-1,106,-1,-1,-1,108,-1,-1,-1,-1,-1,-1,-1,-1,-1,-1,-1,-1,-1,-1,-1,-1,-1,-1,-1,-1,-1,-1,-1,-1,-1,-1,-1,-1,-1,-1,-1,-1,-1,-1,-1,-1,-1,-1,-1,-1,-1,-1,-1,-1,-1,-1,-1],"split_conditions":[5.85938E-1,9.30559E-2,1.02526E-1,7.21137E-2,8.48078E-2,1.15E0,1.79671E-1,1.66667E-1,-9.89011E-2,4E1,2.66E2,5.63356E-2,5.07515E-2,1.41007E0,6.46018E-1,6.30243E-2,-9.89011E-2,-1.42E2,-2.31E2,-1.44E2,1.04555E-1,3.7E1,1E0,-2.8888E-2,-1.21923E-2,-6.04454E-2,1.85673E0,1.4E0,3.10345E-1,1E0,3.03156E-1,-5.99E2,2.03E2,3.67395E-2,5.9E2,-4.196376E-2,-2.32666E-1,-2.66E2,8.61144E-2,-7.44E2,3.33333E-1,2.9752466E-1,1E0,-7E1,-5.0986707E-2,1E0,-4.0025618E-2,1E0,6.42857E-1,6.30435E-1,1.9E2,1.4878E0,2.25654E0,7.17716E-2,2.95455E0,1.20081E-1,-4.118507E-2,-2.22082E-1,-3.885756E-2,1.9722931E-1,-3.8540408E-2,-7.32E2,3.0998853E-1,2.8326277E-2,-5.0763663E-2,-1.0118251E-2,1.2901926E-1,-4.2489957E-2,1.197583E-1,-1.7659163E-2,1.380162E-1,5.1547833E-2,2.2831777E-1,6.220272E-2,2.769216E-1,-2.7529964E-2,5.0308444E-2,3.1686895E-2,2.1368699E-1,2.4390273E-2,1.667742E-1,3.303714E-2,2.1528737E-1,4.889302E-2,1.6953154E-1,8.782432E-2,2.4611759E-1,1.8093054E-1,6.607693E-2,-4.9383976E-2,4.6598103E-2,-4.462651E-2,2.0311175E-1,1.4001265E-1,9.351473E-2,8.722078E-2,2.4722028E-1,9.658248E-2,1.7243615E-1,1.6431886E-1,2.1122327E-1,2.3107138E-1,2.9075816E-1,1.985692E-1,2.3299555E-1,3.122445E-1,2.6245618E-1,1.5216307E-1,2.743621E-1],"split_indices":[1,0,0,0,2,1,0,1,2,3,3,0,0,1,1,0,2,3,3,3,0,3,7,2,2,2,1,1,2,7,0,3,3,0,3,0,2,3,0,3,1,0,11,3,0,11,0,7,1,1,3,1,1,0,1,0,0,2,0,0,0,3,0,0,0,0,0,0,0,0,0,0,0,0,0,0,0,0,0,0,0,0,0,0,0,0,0,0,0,0,0,0,0,0,0,0,0,0,0,0,0,0,0,0,0,0,0,0,0],"split_type":[0,0,0,0,0,0,0,0,0,0,0,0,0,0,0,0,0,0,0,0,0,0,0,0,0,0,0,0,0,0,0,0,0,0,0,0,0,0,0,0,0,0,0,0,0,0,0,0,0,0,0,0,0,0,0,0,0,0,0,0,0,0,0,0,0,0,0,0,0,0,0,0,0,0,0,0,0,0,0,0,0,0,0,0,0,0,0,0,0,0,0,0,0,0,0,0,0,0,0,0,0,0,0,0,0,0,0,0,0],"sum_hessian":[3.9760256E3,5.657336E2,3.410292E3,3.7580194E2,1.8993166E2,1.7819265E3,1.6283654E3,2.8631973E2,8.948221E1,1.25837746E2,6.40939E1,6.68838E2,1.1130885E3,1.084927E3,5.434385E2,1.678366E2,1.1848312E2,1.8171085E1,7.131113E1,7.503633E1,5.0801422E1,4.695085E1,1.7143055E1,1.7149944E2,4.973386E2,3.133954E2,7.996931E2,8.1425507E2,2.7067188E2,7.07128E0,5.363672E2,1.365617E2,3.1274895E1,1.9077332E1,9.940579E1,3.132743E0,1.50383415E1,1.810267E1,5.3208454E1,4.5324364E1,2.9711964E1,2.360907E1,2.719235E1,3.6656673E1,1.0294178E1,1.4647242E1,2.4958143E0,5.07133E1,1.2078614E2,1.83103E2,3.142356E2,7.218697E1,2.4120842E2,6.003918E2,1.9930135E2,8.1166797E2,2.5870824E0,2.685677E2,2.1041853E0,4.9027853E0,2.1684947E0,3.7649585E2,1.5987135E2,1.117721E1,1.2538449E2,2.1542572E1,9.732324E0,3.2999277E0,1.5777404E1,9.017367E1,9.232128E0,3.9957156E0,1.1042626E1,1.1700287E1,6.4023833E0,3.5598866E1,1.7609587E1,5.1300774E0,4.0194286E1,1.7542755E1,1.21692095E1,5.01302E0,2.2179329E1,2.2471598E1,1.4185075E1,2.7329755E0,1.1914267E1,2.7639902E1,2.3073397E1,8.412132E0,1.1237401E2,4.126999E0,1.78976E2,2.4423775E2,6.9997856E1,1.2808394E1,5.9378574E1,1.4746172E2,9.37467E1,2.5840167E2,3.419901E2,1.4763234E2,5.1668995E1,2.7045E2,5.4121796E2,3.9455986E1,2.291117E2,1.0757901E1,3.6573795E2],"tree_param":{"num_deleted":"0","num_feature":"13","num_nodes":"109","size_leaf_vector":"1"}}]},"name":"gbtree"},"learner_model_param":{"base_score":"9.417879E-2","boost_from_average":"0","num_class":"0","num_feature":"13","num_target":"1"},"objective":{"name":"binary:logistic","reg_loss_param":{"scale_pos_weight":"9.61810207"}}},"version":[3,0,2]}