{"learner":{"attributes":{},"feature_names":["RSQ","shooter_A","GK_A","team_elevation_dif","team_travel","team_rest_days","temperature_c","team_is_home","is_raining","match_time_aft","match_time_evening","match_time_night","match_time_nan"],"feature_types":["float","float","float","float","float","float","float","float","float","float","float","float","float"],"gradient_booster":{"model":{"gbtree_model_param":{"num_parallel_tree":"1","num_trees":"1"},"iteration_indptr":[0,1],"tree_info":[0],"trees":[{"base_weights":[4.665578E0,5.455097E-1,5.2960815E0,-6.3462216E-1,1.8567046E0,5.787195E0,4.743427E0,-5.4961365E-2,2.3606735E-1,4.7904024E0,1.3326665E0,4.672792E0,6.0551066E0,3.882291E0,5.166668E0,-5.4421827E-2,2.2987573E0,1.4558809E0,5.532709E0,1.101112E0,3.1195362E0,4.8484135E0,3.1597228E0,5.772974E0,3.2101408E-1,4.0107627E0,1.2173911E0,5.229182E0,3.1220016E-1,1.813673E-1,-5.183577E-2,3.3392465E0,-4.0257063E-2,1.3017222E-1,-3.911791E-2,6.2317853E0,2.7746668E0,9.8431516E-1,2.731424E-1,4.9913626E0,5.8634174E-3,5.1763124E0,4.030117E0,2.247488E0,4.693176E0,7.359722E0,5.6415267E0,2.453649E0,4.2259045E0,-3.6902645E-1,3.079417E0,5.4929185E0,4.917658E0,1.3217694E0,-4.7243934E-2,-1.6668895E-3,1.3630293E-1,9.427782E-2,2.7122155E-1,1.05496906E-1,3.3007574E-1,2.6097062E-1,-4.124623E-2,7.091617E-2,-1.6379412E-3,1.0983815E-1,2.6610824E-1,1.0983815E-1,-4.7719203E-2,2.8617683E-1,2.3144935E-1,2.6677248E-1,1.4006971E-1,7.098417E-2,2.0255004E-1,3.635535E-1,1.1892872E-1,3.804381E-1,8.681697E-2,2.840471E-1,1.2443755E-1,1.6608696E-1,2.527578E-3,1.88726E-1,2.2443533E-1,-5.079616E-2,1.192641E-1,2.7868274E-1,-4.4893812E-2,2.6039076E-1,3.1662855E-1,2.2293179E-1,2.709881E-1,1.3318774E-1,-4.124623E-2],"categories":[],"categories_nodes":[],"categories_segments":[],"categories_sizes":[],"default_left":[0,0,0,0,0,0,0,0,0,0,0,0,0,0,0,0,0,0,0,0,0,0,0,0,0,0,0,0,0,0,0,0,0,0,0,0,0,0,0,0,0,0,0,0,0,0,0,0,0,0,0,0,0,0,0,0,0,0,0,0,0,0,0,0,0,0,0,0,0,0,0,0,0,0,0,0,0,0,0,0,0,0,0,0,0,0,0,0,0,0,0,0,0,0,0],"id":0,"left_children":[1,3,5,7,9,11,13,-1,15,17,19,21,23,25,27,29,31,33,35,37,39,41,43,45,-1,47,49,51,53,55,-1,57,-1,-1,-1,59,61,63,-1,65,67,69,71,73,75,77,79,81,83,85,87,89,91,93,-1,-1,-1,-1,-1,-1,-1,-1,-1,-1,-1,-1,-1,-1,-1,-1,-1,-1,-1,-1,-1,-1,-1,-1,-1,-1,-1,-1,-1,-1,-1,-1,-1,-1,-1,-1,-1,-1,-1,-1,-1],"loss_changes":[9.749383E3,7.7390106E2,8.5621875E2,1.0687969E2,3.5767462E2,4.8503516E2,5.4029297E2,0E0,5.5567764E1,7.98255E1,8.026926E1,7.439258E1,1.0539453E2,1.699502E2,3.102754E2,1.9199846E1,3.9652534E1,2.212684E1,3.8010437E1,8.664734E1,1.3205475E2,5.9803223E1,4.258426E1,1.2325E2,0E0,1.5268896E2,7.475458E1,5.6351562E1,1.918238E1,3.67219E1,0E0,1.6344276E1,0E0,0E0,0E0,1.9719849E1,7.120847E1,7.824312E1,0E0,1.3920898E0,2.2103712E1,3.673535E1,1.3023547E2,3.266841E1,6.1755005E1,6.682715E1,7.7052734E1,1.2806906E2,3.3623047E1,2.799119E1,1.1980304E2,9.6515625E1,8.525195E1,2.5975086E1,0E0,0E0,0E0,0E0,0E0,0E0,0E0,0E0,0E0,0E0,0E0,0E0,0E0,0E0,0E0,0E0,0E0,0E0,0E0,0E0,0E0,0E0,0E0,0E0,0E0,0E0,0E0,0E0,0E0,0E0,0E0,0E0,0E0,0E0,0E0,0E0,0E0,0E0,0E0,0E0,0E0],"parents":[2147483647,0,0,1,1,2,2,3,3,4,4,5,5,6,6,8,8,9,9,10,10,11,11,12,12,13,13,14,14,15,15,16,16,17,17,18,18,19,19,20,20,21,21,22,22,23,23,25,25,26,26,27,27,28,28,29,29,31,31,35,35,36,36,37,37,39,39,40,40,41,41,42,42,43,43,44,44,45,45,46,46,47,47,48,48,49,49,50,50,51,51,52,52,53,53],"right_children":[2,4,6,8,10,12,14,-1,16,18,20,22,24,26,28,30,32,34,36,38,40,42,44,46,-1,48,50,52,54,56,-1,58,-1,-1,-1,60,62,64,-1,66,68,70,72,74,76,78,80,82,84,86,88,90,92,94,-1,-1,-1,-1,-1,-1,-1,-1,-1,-1,-1,-1,-1,-1,-1,-1,-1,-1,-1,-1,-1,-1,-1,-1,-1,-1,-1,-1,-1,-1,-1,-1,-1,-1,-1,-1,-1,-1,-1,-1,-1],"split_conditions":[6.33333E-1,2.85714E-1,6.04027E-2,7.14286E-2,-1.67883E-1,9.38596E-1,1.0625E0,-5.4961365E-2,4.33E2,1E0,2.71845E-1,3.01962E-2,1.35577E0,2.95775E-1,4.95798E-1,1.53E2,6.66E2,-2.30769E-1,5.5E1,8.226E3,2.95775E-1,5.39E2,8.7372E-1,-3.15789E-1,3.2101408E-1,7.2449E-1,4.44444E-1,-4.9E1,2E0,1.48E2,-5.183577E-2,6.37E2,-4.0257063E-2,1.3017222E-1,-3.911791E-2,-3.6612E-1,-4.70588E-1,1.11E2,2.731424E-1,-1.87E2,-2.43E2,-8.5E1,-6.22155E-2,5.82E2,8.74477E-1,1.3176E0,1.34722E0,3.98E2,-1.29E2,5.8E2,5.43379E-1,1.74306E0,2.07E2,5.98394E-1,-4.7243934E-2,-1.6668895E-3,1.3630293E-1,9.427782E-2,2.7122155E-1,1.05496906E-1,3.3007574E-1,2.6097062E-1,-4.124623E-2,7.091617E-2,-1.6379412E-3,1.0983815E-1,2.6610824E-1,1.0983815E-1,-4.7719203E-2,2.8617683E-1,2.3144935E-1,2.6677248E-1,1.4006971E-1,7.098417E-2,2.0255004E-1,3.635535E-1,1.1892872E-1,3.804381E-1,8.681697E-2,2.840471E-1,1.2443755E-1,1.6608696E-1,2.527578E-3,1.88726E-1,2.2443533E-1,-5.079616E-2,1.192641E-1,2.7868274E-1,-4.4893812E-2,2.6039076E-1,3.1662855E-1,2.2293179E-1,2.709881E-1,1.3318774E-1,-4.124623E-2],"split_indices":[1,1,2,1,2,1,1,0,3,11,2,2,1,2,2,3,3,2,4,4,2,4,1,2,0,1,2,3,4,3,0,3,0,0,0,2,2,3,0,3,3,3,2,4,1,1,1,4,3,3,2,1,3,2,0,0,0,0,0,0,0,0,0,0,0,0,0,0,0,0,0,0,0,0,0,0,0,0,0,0,0,0,0,0,0,0,0,0,0,0,0,0,0,0,0],"split_type":[0,0,0,0,0,0,0,0,0,0,0,0,0,0,0,0,0,0,0,0,0,0,0,0,0,0,0,0,0,0,0,0,0,0,0,0,0,0,0,0,0,0,0,0,0,0,0,0,0,0,0,0,0,0,0,0,0,0,0,0,0,0,0,0,0,0,0,0,0,0,0,0,0,0,0,0,0,0,0,0,0,0,0,0,0,0,0,0,0,0,0,0,0,0,0],"sum_hessian":[3.7531663E3,4.98374E2,3.2547922E3,2.6256772E2,2.3580626E2,1.7183336E3,1.5364586E3,1.7103822E2,9.152949E1,3.450382E1,2.0130244E2,3.3661087E2,1.3817227E3,5.0966165E2,1.026797E3,8.108402E1,1.0445469E1,6.821626E0,2.768219E1,1.7963974E2,2.1662703E1,2.9962872E2,3.6982162E1,7.889735E2,5.927492E2,4.857397E2,2.3921942E1,1.0136662E3,1.3130768E1,6.604579E1,1.5038227E1,7.7662444E0,2.6792245E0,4.401682E0,2.4199445E0,2.1079668E1,6.6025224E0,1.7614859E2,3.4911652E0,1.31527195E1,8.509982E0,2.1010995E2,8.951876E1,2.4733883E1,1.2248278E1,5.6152023E1,7.328215E2,6.047197E1,4.2526773E2,1.3349872E1,1.0572071E1,5.3992865E2,4.7373758E2,7.2537594E0,5.8770084E0,6.1816967E1,4.2288284E0,5.6980805E0,2.0681636E0,2.2872674E0,1.87924E1,3.6640184E0,2.9385042E0,1.231873E2,5.2961277E1,2.200841E0,1.0951879E1,2.200841E0,6.309141E0,1.0033562E2,1.0977434E2,4.1785603E1,4.7733162E1,1.8177612E1,6.556272E0,4.7814894E0,7.4667883E0,5.343262E1,2.7194004E0,7.2298096E2,9.840483E0,4.4143417E1,1.6328552E1,1.6214044E2,2.631273E2,1.1321884E1,2.0279877E0,6.2507415E0,4.3213296E0,4.0844394E2,1.3148468E2,2.5264772E2,2.2108986E2,4.315255E0,2.9385042E0],"tree_param":{"num_deleted":"0","num_feature":"13","num_nodes":"95","size_leaf_vector":"1"}}]},"name":"gbtree"},"learner_model_param":{"base_score":"9.555792E-2","boost_from_average":"0","num_class":"0","num_feature":"13","num_target":"1"},"objective":{"name":"binary:logistic","reg_loss_param":{"scale_pos_weight":"9.4648571"}}},"version":[2,1,3]}