{"learner":{"attributes":{},"feature_names":["team_elevation_dif","opp_elevation_dif","team_travel","opp_travel","team_rest_days","opp_rest_days","temperature_c","team_is_home","is_raining","match_state_-1.0","match_state_-1.5","match_state_0.0","match_state_1.0","match_state_1.5","match_segment_1","match_segment_2","match_segment_3","match_segment_4","match_segment_5","match_segment_6","player_dif_-1.0","player_dif_-1.5","player_dif_0.0","player_dif_1.0","player_dif_1.5","match_time_aft","match_time_evening","match_time_night"],"feature_types":["float","float","float","float","float","float","float","int","int","i","i","i","i","i","i","i","i","i","i","i","i","i","i","i","i","i","i","i"],"gradient_booster":{"model":{"gbtree_model_param":{"num_parallel_tree":"1","num_trees":"55"},"iteration_indptr":[0,1,2,3,4,5,6,7,8,9,10,11,12,13,14,15,16,17,18,19,20,21,22,23,24,25,26,27,28,29,30,31,32,33,34,35,36,37,38,39,40,41,42,43,44,45,46,47,48,49,50,51,52,53,54,55],"tree_info":[0,0,0,0,0,0,0,0,0,0,0,0,0,0,0,0,0,0,0,0,0,0,0,0,0,0,0,0,0,0,0,0,0,0,0,0,0,0,0,0,0,0,0,0,0,0,0,0,0,0,0,0,0,0,0],"trees":[{"base_weights":[1.3470422E-1,3.4978244E-2,5.508968E-1,1.1671008E-2,2.1560067E-1,7E-1,3.513083E-1,-7.0315023E-4,3.4629694E-1,1.8148877E-1,5.275866E-1,7E-1,4.5070642E-1,3.5E-2,3.0617705E-1,2.1702735E-2,-1.3100792E-1,-3.5003603E-2,4.7510394E-1,1.5949212E-1,3.0861009E-2,3.381451E-2,1.875895E-2,7E-1,8.803883E-3,3.5E-2,2.7677608E-1,1.9055873E-1,5.4485285E-1,5.4448273E-2,-4.3523084E-2,-1.4749083E-1,6.2363166E-2,2.4228175E-3,-5.62089E-3,6.211363E-1,4.537258E-3,2.1806511E-1,-4.7954936E-2,3.6535233E-1,3.5E-2,5.2843625E-3,3.252102E-2,1.02207616E-1,3.5E-2,8.170385E-2,7E-1,3.8899542E-3,-3.1644597E-3,-1.761826E-3,-1.2657425E-2,-4.038752E-3,-1.0939835E-2,-3.6857163E-3,1.0542118E-2,1.3161718E-2,3.5E-2,6.4987927E-3,2.1043528E-2,-6.2239813E-3,6.630843E-3,2.6119445E-2,8.050877E-3,-4.6191863E-3,5.4864343E-3,1.8697444E-2,2.2073078E-3,1.3478066E-2,-1.1099952E-2,3.5E-2,5.9854104E-3],"categories":[],"categories_nodes":[],"categories_segments":[],"categories_sizes":[],"default_left":[0,0,0,0,0,0,0,0,0,0,0,0,0,0,0,0,0,0,0,0,0,0,0,0,0,0,0,0,0,0,0,0,0,0,0,0,0,0,0,0,0,0,0,0,0,0,0,0,0,0,0,0,0,0,0,0,0,0,0,0,0,0,0,0,0,0,0,0,0,0,0],"id":0,"left_children":[1,3,5,7,9,11,13,15,17,19,21,23,25,-1,27,29,31,33,35,37,-1,-1,-1,39,-1,-1,41,43,45,47,49,51,53,-1,-1,55,-1,57,59,61,-1,63,-1,65,-1,67,69,-1,-1,-1,-1,-1,-1,-1,-1,-1,-1,-1,-1,-1,-1,-1,-1,-1,-1,-1,-1,-1,-1,-1,-1],"loss_changes":[6.812573E1,5.5777774E0,1.1395813E1,4.8660183E0,1.5159397E0,1.3184509E0,3.284645E0,3.3142426E0,2.0748453E0,1.2246046E0,7.266569E-2,1.2592621E0,1.933197E0,0E0,3.9376192E0,2.071256E0,5.400553E-1,7.983415E-2,1.7057152E0,1.6235142E0,0E0,0E0,0E0,1.2327423E0,0E0,0E0,2.393098E0,6.858934E0,4.54492E0,1.7791171E0,5.5443364E-1,7.1383715E-1,2.9405683E-1,0E0,0E0,2.2955675E0,0E0,1.7979579E0,4.3174055E-1,4.0950012E-1,0E0,1.5999837E-1,0E0,1.456095E0,0E0,9.810063E-1,3.5336895E0,0E0,0E0,0E0,0E0,0E0,0E0,0E0,0E0,0E0,0E0,0E0,0E0,0E0,0E0,0E0,0E0,0E0,0E0,0E0,0E0,0E0,0E0,0E0,0E0],"parents":[2147483647,0,0,1,1,2,2,3,3,4,4,5,5,6,6,7,7,8,8,9,9,10,10,11,11,12,12,14,14,15,15,16,16,17,17,18,18,19,19,23,23,26,26,27,27,28,28,29,29,30,30,31,31,32,32,35,35,37,37,38,38,39,39,41,41,43,43,45,45,46,46],"right_children":[2,4,6,8,10,12,14,16,18,20,22,24,26,-1,28,30,32,34,36,38,-1,-1,-1,40,-1,-1,42,44,46,48,50,52,54,-1,-1,56,-1,58,60,62,-1,64,-1,66,-1,68,70,-1,-1,-1,-1,-1,-1,-1,-1,-1,-1,-1,-1,-1,-1,-1,-1,-1,-1,-1,-1,-1,-1,-1,-1],"split_conditions":[1E0,1E0,5.2E1,1E0,1.557E3,9.25E2,-7.16E2,1E0,6E0,3.4E1,-4.32E2,3.6E1,4E0,3.5E-2,8.98E2,4.49E2,2.9E1,1E0,3.94E2,7.17E2,3.0861009E-2,3.381451E-2,1.875895E-2,4E0,8.803883E-3,3.5E-2,4.47E2,2.6E1,-5.25E2,1E0,1.636E3,1.35E2,1.94E2,2.4228175E-3,-5.62089E-3,-1.2E2,4.537258E-3,4.15E2,1.3E1,4.95E2,3.5E-2,8E0,3.252102E-2,1.7E2,3.5E-2,1E0,8E0,3.8899542E-3,-3.1644597E-3,-1.761826E-3,-1.2657425E-2,-4.038752E-3,-1.0939835E-2,-3.6857163E-3,1.0542118E-2,1.3161718E-2,3.5E-2,6.4987927E-3,2.1043528E-2,-6.2239813E-3,6.630843E-3,2.6119445E-2,8.050877E-3,-4.6191863E-3,5.4864343E-3,1.8697444E-2,2.2073078E-3,1.3478066E-2,-1.1099952E-2,3.5E-2,5.9854104E-3],"split_indices":[17,13,2,23,3,1,1,14,5,5,0,5,4,0,2,2,4,19,0,3,0,0,0,5,0,0,0,4,0,15,0,2,2,0,0,1,0,3,4,3,0,5,0,2,0,11,4,0,0,0,0,0,0,0,0,0,0,0,0,0,0,0,0,0,0,0,0,0,0,0,0],"split_type":[0,0,0,0,0,0,0,0,0,0,0,0,0,0,0,0,0,0,0,0,0,0,0,0,0,0,0,0,0,0,0,0,0,0,0,0,0,0,0,0,0,0,0,0,0,0,0,0,0,0,0,0,0,0,0,0,0,0,0,0,0,0,0,0,0,0,0,0,0,0,0],"sum_hessian":[1.6408422E3,1.3245454E3,3.162968E2,1.1741052E3,1.5044011E2,1.6152322E2,1.5477359E2,1.1331985E3,4.0906734E1,1.3703835E2,1.340177E1,1.3342386E2,2.8099365E1,9.31948E0,1.4545412E2,9.6764545E2,1.6555304E2,1.051323E1,3.0393505E1,1.3175319E2,5.285147E0,5.0434823E0,8.358288E0,1.2805118E2,5.3726783E0,5.4745326E0,2.2624834E1,9.919897E1,4.6255146E1,6.443337E2,3.2331177E2,1.5276837E2,1.2784668E1,5.239071E0,5.274159E0,2.1578856E1,8.81465E0,1.02703514E2,2.9049679E1,1.4383113E1,1.1366807E2,1.3691017E1,8.933816E0,9.233448E1,6.8644857E0,1.5145798E1,3.1109348E1,5.379764E2,1.0635734E2,3.1214084E2,1.1170942E1,8.002629E1,7.274207E1,6.9336696E0,5.850998E0,1.433829E1,7.240565E0,7.274664E1,2.9956871E1,2.0621227E1,8.428452E0,7.2526956E0,7.1304173E0,7.134691E0,6.556326E0,1.5297592E1,7.703689E1,9.42705E0,5.718748E0,2.0160345E1,1.0949003E1],"tree_param":{"num_deleted":"0","num_feature":"28","num_nodes":"71","size_leaf_vector":"1"}},{"base_weights":[1.3554259E-1,3.6294762E-2,5.3668886E-1,2.3334065E-2,2.9499546E-1,7E-1,3.1839022E-1,7.319757E-2,-4.950745E-2,2.0679817E-1,6.168017E-1,7E-1,4.8557225E-1,1.8040715E-1,4.61713E-1,5.048629E-2,2.2685887E-1,-2.8945649E-2,-1.7200291E-1,2.6230058E-1,-4.357992E-3,3.5E-2,1.1888376E-2,7E-1,2.8807408E-1,3.5E-2,3.2882443E-1,7.021371E-2,3.8017756E-1,6.58957E-1,5.642649E-2,7.0786946E-2,-5.9425168E-2,3.4097504E-2,1.7401639E-1,-1.288085E-1,-1.1718179E-2,-2.069411E-1,7.890936E-3,-1.4237892E-4,3.144917E-1,3.6727864E-1,3.5E-2,2.7563576E-2,-4.433124E-4,4.4299263E-1,1.9928406E-4,-6.8894975E-2,3.2659292E-1,4.2927004E-3,7E-1,7E-1,1.0278868E-1,-1.1441853E-2,1.8138984E-1,2.905817E-3,1.3218412E-2,-7.5793467E-3,1.0074027E-2,5.8679655E-3,2.684763E-2,-1.0099776E-2,2.0205693E-3,-9.334068E-3,3.467042E-5,-1.3333114E-2,-9.307425E-3,8.710104E-3,2.3619397E-2,3.5E-2,2.008499E-3,9.305399E-3,2.9839424E-2,1.2222198E-2,-7.196532E-3,3.5E-2,4.6328693E-3,-1.21079E-2,2.2793377E-2,3.5E-2,9.318286E-3,8.565586E-3,3.5E-2,-4.632301E-3,2.1923577E-2,-3.4647398E-3,2.934877E-2],"categories":[],"categories_nodes":[],"categories_segments":[],"categories_sizes":[],"default_left":[0,0,0,0,0,0,0,0,0,0,0,0,0,0,0,0,0,0,0,0,0,0,0,0,0,0,0,0,0,0,0,0,0,0,0,0,0,0,0,0,0,0,0,0,0,0,0,0,0,0,0,0,0,0,0,0,0,0,0,0,0,0,0,0,0,0,0,0,0,0,0,0,0,0,0,0,0,0,0,0,0,0,0,0,0,0,0],"id":1,"left_children":[1,3,5,7,9,11,13,15,17,19,21,23,25,27,29,31,33,35,37,39,-1,-1,-1,41,43,-1,45,47,49,51,53,55,57,-1,59,61,63,65,-1,-1,67,69,-1,-1,-1,71,-1,73,75,77,79,81,83,-1,85,-1,-1,-1,-1,-1,-1,-1,-1,-1,-1,-1,-1,-1,-1,-1,-1,-1,-1,-1,-1,-1,-1,-1,-1,-1,-1,-1,-1,-1,-1,-1,-1],"loss_changes":[6.659006E1,4.4937778E0,1.4605072E1,4.650388E0,1.6876187E0,1.3348541E0,3.1682224E0,2.640356E0,1.3059782E0,8.6638427E-1,1.0388451E0,1.6383743E0,1.7592201E0,1.8534725E0,6.3585663E0,1.4842198E0,2.2274818E0,7.672899E-1,8.923893E-1,6.061735E-1,0E0,0E0,0E0,1.2562943E0,9.851905E-1,0E0,1.094924E0,2.0294523E0,4.2296386E0,5.747793E0,1.0141339E0,1.3590539E0,2.5302122E0,0E0,1.7620142E0,8.2120275E-1,8.301638E-1,3.4668922E-2,0E0,0E0,7.2743607E-1,1.9684885E0,0E0,0E0,0E0,7.530446E-1,0E0,9.1229117E-1,2.2437277E0,1.9044101E0,1.179863E0,1.355259E0,1.2046437E0,0E0,2.026465E0,0E0,0E0,0E0,0E0,0E0,0E0,0E0,0E0,0E0,0E0,0E0,0E0,0E0,0E0,0E0,0E0,0E0,0E0,0E0,0E0,0E0,0E0,0E0,0E0,0E0,0E0,0E0,0E0,0E0,0E0,0E0,0E0],"parents":[2147483647,0,0,1,1,2,2,3,3,4,4,5,5,6,6,7,7,8,8,9,9,10,10,11,11,12,12,13,13,14,14,15,15,16,16,17,17,18,18,19,19,23,23,24,24,26,26,27,27,28,28,29,29,30,30,31,31,32,32,34,34,35,35,36,36,37,37,40,40,41,41,45,45,47,47,48,48,49,49,50,50,51,51,52,52,54,54],"right_children":[2,4,6,8,10,12,14,16,18,20,22,24,26,28,30,32,34,36,38,40,-1,-1,-1,42,44,-1,46,48,50,52,54,56,58,-1,60,62,64,66,-1,-1,68,70,-1,-1,-1,72,-1,74,76,78,80,82,84,-1,86,-1,-1,-1,-1,-1,-1,-1,-1,-1,-1,-1,-1,-1,-1,-1,-1,-1,-1,-1,-1,-1,-1,-1,-1,-1,-1,-1,-1,-1,-1,-1,-1],"split_conditions":[1E0,1E0,1.06E2,2.93E2,1.3E1,1E0,6.45E2,1E0,1E0,9E0,1.6E1,1.129E3,6E0,1E0,1E0,1E0,4E0,4E0,1.6E1,5E0,-4.357992E-3,3.5E-2,1.1888376E-2,4E0,7E0,3.5E-2,6.11E2,2.3E1,7E0,1.526E3,-4.32E2,2.9E1,1E0,3.4097504E-2,1.557E3,2.3E1,1E0,4.34E2,7.890936E-3,-1.4237892E-4,1.9E1,4.95E2,3.5E-2,2.7563576E-2,-4.433124E-4,8E0,1.9928406E-4,1.5E1,5E0,4.34E2,2E1,5E0,1.976E3,-1.1441853E-2,1.276E3,2.905817E-3,1.3218412E-2,-7.5793467E-3,1.0074027E-2,5.8679655E-3,2.684763E-2,-1.0099776E-2,2.0205693E-3,-9.334068E-3,3.467042E-5,-1.3333114E-2,-9.307425E-3,8.710104E-3,2.3619397E-2,3.5E-2,2.008499E-3,9.305399E-3,2.9839424E-2,1.2222198E-2,-7.196532E-3,3.5E-2,4.6328693E-3,-1.21079E-2,2.2793377E-2,3.5E-2,9.318286E-3,8.565586E-3,3.5E-2,-4.632301E-3,2.1923577E-2,-3.4647398E-3,2.934877E-2],"split_indices":[17,23,2,2,5,12,2,13,14,5,6,1,5,11,11,14,5,5,5,5,0,0,0,5,5,0,1,6,5,2,1,6,12,0,3,6,22,2,0,0,6,3,0,0,0,5,0,6,5,2,6,5,2,0,2,0,0,0,0,0,0,0,0,0,0,0,0,0,0,0,0,0,0,0,0,0,0,0,0,0,0,0,0,0,0,0,0],"split_type":[0,0,0,0,0,0,0,0,0,0,0,0,0,0,0,0,0,0,0,0,0,0,0,0,0,0,0,0,0,0,0,0,0,0,0,0,0,0,0,0,0,0,0,0,0,0,0,0,0,0,0,0,0,0,0,0,0,0,0,0,0,0,0,0,0,0,0,0,0,0,0,0,0,0,0,0,0,0,0,0,0,0,0,0,0,0,0],"sum_hessian":[1.6720643E3,1.3413024E3,3.3076193E2,1.2783484E3,6.2954025E1,1.6734532E2,1.6341661E2,7.5886444E2,5.1948395E2,5.070103E1,1.22529955E1,1.2865663E2,3.8688694E1,8.4410095E1,7.900652E1,6.6230383E2,9.656059E1,4.4587646E2,7.360749E1,4.273912E1,7.961911E0,5.668088E0,6.5849075E0,1.1711341E2,1.1543225E1,1.011738E1,2.8571316E1,5.5272972E1,2.9137121E1,5.2721985E1,2.6284538E1,5.5934814E2,1.029557E2,8.807043E0,8.775355E1,6.464875E1,3.8122772E2,6.689394E1,6.7135468E0,7.1845675E0,3.5554554E1,1.4774496E1,1.0233891E2,5.665245E0,5.8779798E0,2.0871918E1,7.699398E0,3.6305344E1,1.8967625E1,1.5120075E1,1.4017046E1,3.5978863E1,1.6743118E1,7.7535872E0,1.853095E1,5.2620624E2,3.314192E1,7.639064E1,2.6565067E1,7.704899E1,1.0704563E1,4.4994915E1,1.9653835E1,2.4322227E1,3.569055E2,1.4221537E1,5.2672405E1,1.994068E1,1.5613873E1,6.1166744E0,8.657822E0,8.64399E0,1.2227927E1,6.578153E0,2.9727192E1,5.008574E0,1.3959052E1,1.0081669E1,5.0384064E0,8.687491E0,5.329555E0,5.601742E0,3.0377123E1,1.1039768E1,5.7033505E0,1.1964853E1,6.566097E0],"tree_param":{"num_deleted":"0","num_feature":"28","num_nodes":"87","size_leaf_vector":"1"}},{"base_weights":[1.267002E-1,3.576779E-2,4.8868585E-1,8.196263E-2,-3.0960664E-2,6.9604766E-1,2.6266003E-1,4.634445E-2,1.6014993E-1,-2.1256404E-2,-2.1346176E-1,7E-1,3.8100764E-1,4.3937078E-1,1.6263808E-1,8.071475E-3,1.5939796E-1,2.696414E-1,5.822961E-2,-1.4857265E-2,-1.3733761E-2,-1.5049848E-1,-1.743019E-2,2.795801E-1,7E-1,6.662947E-1,1.2847698E-1,2.0798747E-1,3.5E-2,1.00333154E-1,3.5E-2,-2.6856096E-2,2.1378379E-1,7.4610114E-2,5.0698614E-1,5.530042E-1,2.2777794E-1,2.2635113E-2,3.5E-2,-4.0557902E-2,4.18275E-2,-9.8323315E-2,-1.28500685E-2,-6.7114816E-3,4.5196512E-1,7E-1,4.807343E-1,2.0344654E-2,3.5E-2,-8.018489E-3,2.007225E-2,3.1723347E-1,-9.766697E-3,-9.373389E-3,5.8076453E-1,-1.8225618E-3,1.0255478E-2,3.0905813E-2,7.4533517E-3,1.2132641E-3,1.7512353E-2,3.5E-2,8.523342E-3,4.4741724E-3,3.5E-2,1.453911E-2,-1.9602717E-3,-1.2450716E-3,1.0320858E-2,-2.6107968E-3,1.8268775E-2,5.138098E-4,1.2975568E-2,-1.2484047E-2,4.2489517E-4,3.35758E-2,1.00197345E-2,3.5E-2,2.560542E-2,2.8941462E-2,4.952703E-3,8.622349E-4,2.6877377E-2,-4.127771E-3,1.6816383E-2,4.294723E-3,3.5E-2],"categories":[],"categories_nodes":[],"categories_segments":[],"categories_sizes":[],"default_left":[0,0,0,0,0,0,0,0,0,0,0,0,0,0,0,0,0,0,0,0,0,0,0,0,0,0,0,0,0,0,0,0,0,0,0,0,0,0,0,0,0,0,0,0,0,0,0,0,0,0,0,0,0,0,0,0,0,0,0,0,0,0,0,0,0,0,0,0,0,0,0,0,0,0,0,0,0,0,0,0,0,0,0,0,0,0,0],"id":2,"left_children":[1,3,5,7,9,11,13,15,17,19,21,23,25,27,29,31,33,35,37,39,-1,41,-1,43,45,47,49,51,-1,53,-1,55,57,59,61,63,65,67,-1,69,71,73,-1,-1,75,77,79,-1,-1,-1,-1,81,-1,83,85,-1,-1,-1,-1,-1,-1,-1,-1,-1,-1,-1,-1,-1,-1,-1,-1,-1,-1,-1,-1,-1,-1,-1,-1,-1,-1,-1,-1,-1,-1,-1,-1],"loss_changes":[5.5301537E1,4.1462474E0,1.5627777E1,2.205522E0,9.706668E-1,2.4845352E0,2.8097324E0,2.3669753E0,2.755065E0,8.455875E-1,1.8315518E-1,2.833603E0,2.0223064E0,6.4414062E0,4.9152575E0,2.951305E0,4.040311E0,1.2907076E0,3.0937314E0,7.47744E-1,0E0,8.947608E-2,0E0,1.4020189E0,1.017746E0,5.4656506E-2,1.3857813E0,2.0447614E0,0E0,5.2703767E0,0E0,7.8947663E-1,1.4678066E0,1.5514588E0,2.7830725E0,1.4654794E0,1.7902589E0,1.0918303E0,0E0,1.6889303E0,1.0979338E0,2.523952E-1,0E0,0E0,6.112344E-1,2.6618958E-1,1.1168351E0,0E0,0E0,0E0,0E0,2.3562024E0,0E0,2.110031E0,2.5058117E0,0E0,0E0,0E0,0E0,0E0,0E0,0E0,0E0,0E0,0E0,0E0,0E0,0E0,0E0,0E0,0E0,0E0,0E0,0E0,0E0,0E0,0E0,0E0,0E0,0E0,0E0,0E0,0E0,0E0,0E0,0E0,0E0],"parents":[2147483647,0,0,1,1,2,2,3,3,4,4,5,5,6,6,7,7,8,8,9,9,10,10,11,11,12,12,13,13,14,14,15,15,16,16,17,17,18,18,19,19,21,21,23,23,24,24,25,25,26,26,27,27,29,29,31,31,32,32,33,33,34,34,35,35,36,36,37,37,39,39,40,40,41,41,44,44,45,45,46,46,51,51,53,53,54,54],"right_children":[2,4,6,8,10,12,14,16,18,20,22,24,26,28,30,32,34,36,38,40,-1,42,-1,44,46,48,50,52,-1,54,-1,56,58,60,62,64,66,68,-1,70,72,74,-1,-1,76,78,80,-1,-1,-1,-1,82,-1,84,86,-1,-1,-1,-1,-1,-1,-1,-1,-1,-1,-1,-1,-1,-1,-1,-1,-1,-1,-1,-1,-1,-1,-1,-1,-1,-1,-1,-1,-1,-1,-1,-1],"split_conditions":[1E0,2.93E2,1.12E2,1E0,1E0,9.52E2,-1.94E2,1E0,7E0,1.636E3,9E0,4E0,7E0,-4.32E2,3.3E1,1E0,9E0,1E0,1.7E2,1E0,-1.3733761E-2,2.1E1,-1.743019E-2,-1.69E2,1E0,3.74E2,1.7E1,-1.86E2,3.5E-2,1.174E3,3.5E-2,1.479E3,1.3E1,1.343E3,1.4E1,2.4E1,1.076E3,1E0,3.5E-2,3.6E1,2.8E1,1.7E1,-1.28500685E-2,-6.7114816E-3,1.72E2,1E0,5.49E2,2.0344654E-2,3.5E-2,-8.018489E-3,2.007225E-2,-1.466E3,-9.766697E-3,9.2E2,7E0,-1.8225618E-3,1.0255478E-2,3.0905813E-2,7.4533517E-3,1.2132641E-3,1.7512353E-2,3.5E-2,8.523342E-3,4.4741724E-3,3.5E-2,1.453911E-2,-1.9602717E-3,-1.2450716E-3,1.0320858E-2,-2.6107968E-3,1.8268775E-2,5.138098E-4,1.2975568E-2,-1.2484047E-2,4.2489517E-4,3.35758E-2,1.00197345E-2,3.5E-2,2.560542E-2,2.8941462E-2,4.952703E-3,8.622349E-4,2.6877377E-2,-4.127771E-3,1.6816383E-2,4.294723E-3,3.5E-2],"split_indices":[17,2,2,19,20,1,0,12,5,0,5,4,4,0,5,13,4,27,2,19,0,6,0,1,12,0,6,1,0,2,0,1,6,3,5,1,3,8,0,4,6,6,0,0,0,8,1,0,0,0,0,0,0,0,4,0,0,0,0,0,0,0,0,0,0,0,0,0,0,0,0,0,0,0,0,0,0,0,0,0,0,0,0,0,0,0,0],"split_type":[0,0,0,0,0,0,0,0,0,0,0,0,0,0,0,0,0,0,0,0,0,0,0,0,0,0,0,0,0,0,0,0,0,0,0,0,0,0,0,0,0,0,0,0,0,0,0,0,0,0,0,0,0,0,0,0,0,0,0,0,0,0,0,0,0,0,0,0,0,0,0,0,0,0,0,0,0,0,0,0,0,0,0,0,0,0,0],"sum_hessian":[1.6796001E3,1.3432649E3,3.3633527E2,7.9362506E2,5.4963983E2,1.7432532E2,1.6200996E2,5.4633514E2,2.4728989E2,5.2294916E2,2.6690678E1,1.4606654E2,2.8258772E1,5.733043E1,1.0467954E2,4.0895834E2,1.373768E2,1.1842361E2,1.2886627E2,5.1110184E2,1.1847324E1,1.9649513E1,7.041165E0,1.7803665E1,1.2826288E2,1.249948E1,1.5759292E1,4.4000896E1,1.3329532E1,9.88916E1,5.787942E0,3.503435E2,5.8614826E1,1.1141402E2,2.5962784E1,1.3671961E1,1.0475165E2,1.2338703E2,5.479244E0,3.518562E2,1.5924565E2,1.4479357E1,5.170156E0,5.300697E0,1.2502968E1,9.7902245E1,3.0360632E1,5.518226E0,6.9812536E0,7.8573594E0,7.9019322E0,3.4790726E1,9.210172E0,8.1305885E1,1.7585714E1,3.3723676E2,1.3106761E1,6.9075108E0,5.1707317E1,9.512717E1,1.6286856E1,1.1707894E1,1.4254889E1,5.096923E0,8.575038E0,8.467938E1,2.0072262E1,9.871754E1,2.4669495E1,3.4288034E2,8.975841E0,1.4000098E2,1.9244667E1,5.4374824E0,9.041875E0,5.7849884E0,6.71798E0,7.748214E1,2.0420105E1,2.3742172E1,6.618461E0,1.5188164E1,1.960256E1,6.772934E1,1.3576542E1,7.644458E0,9.941257E0],"tree_param":{"num_deleted":"0","num_feature":"28","num_nodes":"87","size_leaf_vector":"1"}},{"base_weights":[1.288953E-1,3.36383E-2,5.029045E-1,8.218426E-2,-2.5512176E-2,6.9948524E-1,2.9383683E-1,1.05452485E-1,-2.146402E-2,-3.6972437E-2,1.6658011E-1,3.8284048E-1,7E-1,1.8244846E-1,4.880928E-1,3.053133E-1,9.239033E-2,-6.661485E-2,1.4705716E-1,-8.414482E-2,-1.821188E-2,3.964049E-1,2.3977023E-2,5.862004E-1,-7.0850714E-3,7E-1,1.1731168E-2,7.948103E-2,3.592366E-1,6.8272865E-1,2.0313781E-1,4.5572525E-1,2.006529E-2,7.883626E-2,3.070607E-1,-9.084139E-2,1.0328128E-1,3.0245805E-2,2.799256E-2,-1.0748591E-1,1.4098135E-1,-1.1629877E-1,1.9284835E-3,3.125923E-2,7.6345326E-3,-4.1607157E-3,6.4000666E-2,4.0458235E-1,3.5E-2,3.5E-2,5.7961404E-1,-2.1297091E-1,1.3617192E-1,6.3263994E-1,1.3555427E-1,7E-1,9.579168E-4,-1.5228382E-2,3.816635E-1,9.003428E-3,3.0266348E-2,4.1554864E-3,-3.3937662E-3,3.1218415E-3,1.1246702E-2,7.431768E-3,3.5E-2,-2.3752837E-3,-9.332823E-3,-6.304593E-3,1.720085E-2,1.2475701E-2,-5.844943E-3,-7.157195E-3,-1.5139258E-3,-9.355969E-4,1.9461712E-2,1.0116833E-2,-7.599254E-3,1.5905019E-2,-5.455713E-4,-1.1387364E-3,7.7236267E-3,3.1099394E-3,3.448178E-2,5.528677E-3,3.5E-2,-1.4439106E-2,-4.58457E-3,3.3415075E-2,8.065227E-4,3.5E-2,1.3280118E-2,-3.0643654E-3,3.5E-2,3.5E-2,1.56034855E-2,2.8011752E-3,2.9585227E-2],"categories":[],"categories_nodes":[],"categories_segments":[],"categories_sizes":[],"default_left":[0,0,0,0,0,0,0,0,0,0,0,0,0,0,0,0,0,0,0,0,0,0,0,0,0,0,0,0,0,0,0,0,0,0,0,0,0,0,0,0,0,0,0,0,0,0,0,0,0,0,0,0,0,0,0,0,0,0,0,0,0,0,0,0,0,0,0,0,0,0,0,0,0,0,0,0,0,0,0,0,0,0,0,0,0,0,0,0,0,0,0,0,0,0,0,0,0,0,0],"id":3,"left_children":[1,3,5,7,9,11,13,15,17,19,21,23,25,27,29,31,33,35,37,39,41,43,45,47,-1,49,-1,51,53,55,57,59,61,63,65,67,69,-1,71,73,75,77,79,-1,-1,-1,81,83,-1,-1,85,87,89,91,93,95,-1,-1,97,-1,-1,-1,-1,-1,-1,-1,-1,-1,-1,-1,-1,-1,-1,-1,-1,-1,-1,-1,-1,-1,-1,-1,-1,-1,-1,-1,-1,-1,-1,-1,-1,-1,-1,-1,-1,-1,-1,-1,-1],"loss_changes":[6.071406E1,3.9064393E0,1.4012733E1,1.8038554E0,1.35709E0,1.8844986E0,3.5759E0,1.5648737E0,1.0581875E0,5.1169366E-1,1.1287769E0,2.6011388E0,1.295166E0,1.9601052E0,3.2517529E0,1.5784142E0,1.6466069E0,4.5950043E-1,1.5872765E0,8.807955E-1,8.2241535E-1,6.42447E-1,1.01842836E-1,2.712145E-1,0E0,1.9143677E-1,0E0,1.194879E0,2.3558993E0,2.410818E0,2.4939213E0,8.8819027E-1,8.2267076E-2,1.283283E0,2.6170642E0,3.9075196E-1,8.2283336E-1,0E0,8.1240314E-1,4.08154E-1,6.379466E-1,8.371322E-1,1.4092225E0,0E0,0E0,0E0,1.3655713E-1,1.0575701E0,0E0,0E0,5.563902E0,8.2089484E-2,3.7907634E0,1.697576E0,2.6574225E0,1.1139336E0,0E0,0E0,1.3246751E0,0E0,0E0,0E0,0E0,0E0,0E0,0E0,0E0,0E0,0E0,0E0,0E0,0E0,0E0,0E0,0E0,0E0,0E0,0E0,0E0,0E0,0E0,0E0,0E0,0E0,0E0,0E0,0E0,0E0,0E0,0E0,0E0,0E0,0E0,0E0,0E0,0E0,0E0,0E0,0E0],"parents":[2147483647,0,0,1,1,2,2,3,3,4,4,5,5,6,6,7,7,8,8,9,9,10,10,11,11,12,12,13,13,14,14,15,15,16,16,17,17,18,18,19,19,20,20,21,21,22,22,23,23,25,25,27,27,28,28,29,29,30,30,31,31,32,32,33,33,34,34,35,35,36,36,38,38,39,39,40,40,41,41,42,42,46,46,47,47,50,50,51,51,52,52,53,53,54,54,55,55,58,58],"right_children":[2,4,6,8,10,12,14,16,18,20,22,24,26,28,30,32,34,36,38,40,42,44,46,48,-1,50,-1,52,54,56,58,60,62,64,66,68,70,-1,72,74,76,78,80,-1,-1,-1,82,84,-1,-1,86,88,90,92,94,96,-1,-1,98,-1,-1,-1,-1,-1,-1,-1,-1,-1,-1,-1,-1,-1,-1,-1,-1,-1,-1,-1,-1,-1,-1,-1,-1,-1,-1,-1,-1,-1,-1,-1,-1,-1,-1,-1,-1,-1,-1,-1,-1],"split_conditions":[1E0,1.59E2,1.12E2,1E0,1E0,4E0,8.98E2,1.3E1,2.4E1,1.8E1,4.69E2,7.24E2,5.93E2,1E0,1.526E3,1E0,1E0,1.103E3,2.45E2,2.9E1,-1.002E3,8E0,1.7E1,5.97E2,-7.0850714E-3,1E0,1.1731168E-2,-7.55E2,7E0,7.28E2,1.785E3,5E0,1.076E3,4.44E2,1E1,5.12E2,1.8E1,3.0245805E-2,1E0,1E0,1E0,1E0,-4.82E2,3.125923E-2,7.6345326E-3,-4.1607157E-3,1.129E3,2.1E1,3.5E-2,3.5E-2,-2.04E2,-4.82E2,-1.94E2,2E1,8E0,1E0,9.579168E-4,-1.5228382E-2,6E0,9.003428E-3,3.0266348E-2,4.1554864E-3,-3.3937662E-3,3.1218415E-3,1.1246702E-2,7.431768E-3,3.5E-2,-2.3752837E-3,-9.332823E-3,-6.304593E-3,1.720085E-2,1.2475701E-2,-5.844943E-3,-7.157195E-3,-1.5139258E-3,-9.355969E-4,1.9461712E-2,1.0116833E-2,-7.599254E-3,1.5905019E-2,-5.455713E-4,-1.1387364E-3,7.7236267E-3,3.1099394E-3,3.448178E-2,5.528677E-3,3.5E-2,-1.4439106E-2,-4.58457E-3,3.3415075E-2,8.065227E-4,3.5E-2,1.3280118E-2,-3.0643654E-3,3.5E-2,3.5E-2,1.56034855E-2,2.8011752E-3,2.9585227E-2],"split_indices":[17,2,2,9,23,5,2,6,6,6,2,3,0,11,2,11,23,1,3,5,0,5,6,1,0,11,0,0,0,0,2,5,3,0,5,1,6,0,27,8,12,27,1,0,0,0,0,6,0,0,1,1,0,6,5,11,0,0,5,0,0,0,0,0,0,0,0,0,0,0,0,0,0,0,0,0,0,0,0,0,0,0,0,0,0,0,0,0,0,0,0,0,0,0,0,0,0,0,0],"split_type":[0,0,0,0,0,0,0,0,0,0,0,0,0,0,0,0,0,0,0,0,0,0,0,0,0,0,0,0,0,0,0,0,0,0,0,0,0,0,0,0,0,0,0,0,0,0,0,0,0,0,0,0,0,0,0,0,0,0,0,0,0,0,0,0,0,0,0,0,0,0,0,0,0,0,0,0,0,0,0,0,0,0,0,0,0,0,0,0,0,0,0,0,0,0,0,0,0,0,0],"sum_hessian":[1.7036338E3,1.3586794E3,3.449543E2,7.460182E2,6.1266125E2,1.7657748E2,1.6837685E2,6.092328E2,1.3678537E2,5.7892975E2,3.373153E1,2.2606026E1,1.5397145E2,1.08246445E2,6.0130398E1,3.600195E1,5.7323083E2,1.08358315E2,2.842706E1,1.6373697E2,4.1519275E2,1.2234365E1,2.1497164E1,1.6205687E1,6.4003396E0,1.4672868E2,7.2427745E0,6.9321075E1,3.8925373E1,3.489784E1,2.5232561E1,2.3180937E1,1.282101E1,5.404732E2,3.2757675E1,9.5242424E1,1.3115894E1,5.0245914E0,2.3402466E1,1.4882893E2,1.4908037E1,6.9915985E1,3.4527676E2,5.5031786E0,6.7311864E0,5.551094E0,1.5946071E1,1.0275534E1,5.930153E0,1.0071026E2,4.601843E1,1.0808167E1,5.851291E1,1.669322E1,2.2232153E1,2.9616848E1,5.280991E0,6.380676E0,1.8851885E1,8.930047E0,1.4250891E1,7.49954E0,5.3214703E0,4.8721118E2,5.3261986E1,2.636583E1,6.391846E0,6.6611046E1,2.8631374E1,6.96032E0,6.155574E0,8.968555E0,1.4433911E1,1.01224655E2,4.760428E1,9.63486E0,5.273177E0,6.5714083E0,6.3344574E1,1.2546852E1,3.3272992E2,8.521248E0,7.424823E0,5.2217627E0,5.0537705E0,1.8386513E1,2.7631916E1,5.8009157E0,5.0072517E0,9.929474E0,4.858343E1,5.6749854E0,1.1018234E1,1.7202072E1,5.030081E0,1.9958763E1,9.658084E0,7.888527E0,1.0963358E1],"tree_param":{"num_deleted":"0","num_feature":"28","num_nodes":"99","size_leaf_vector":"1"}},{"base_weights":[1.08642876E-1,3.3231147E-2,4.0517476E-1,5.3632844E-2,-1.0188977E-1,5.5856884E-1,2.2607403E-1,3.416073E-2,1.8904161E-1,-1.5519798E-1,1.0266777E-1,6.253574E-1,2.067163E-1,5.6171393E-1,6.542022E-2,5.255725E-2,-6.624451E-2,2.2098964E-1,-5.9167065E-2,-1.822086E-1,-9.637664E-2,-4.8383432E-3,2.8827569E-2,6.965512E-1,3.6327985E-1,7.303433E-2,3.154232E-2,7E-1,1.5800914E-1,-4.1668396E-2,3.339559E-1,3.780703E-2,1.5438034E-1,-7.884378E-2,8.94946E-3,1.706628E-1,4.104899E-1,-7.7614374E-3,5.332257E-3,-2.0855057E-1,-1.3539907E-1,-2.175401E-1,-5.251787E-2,1.2228948E-2,-6.17554E-2,7E-1,1.9386707E-1,2.813484E-1,3.5E-2,1.433741E-1,-8.339197E-3,-3.6373828E-3,7E-1,-8.628181E-3,2.001447E-2,-8.193986E-2,1.714612E-2,3.5E-2,1.7845315E-1,2.8148915E-3,-2.9371597E-3,1.886269E-2,3.5564005E-3,-1.5218459E-3,-8.817711E-3,1.3396512E-2,4.8419363E-3,6.750611E-3,3.5E-2,-6.857893E-3,-1.3002808E-2,-8.028838E-3,-2.8190722E-3,-1.3817983E-2,-6.4522694E-3,1.5570702E-3,-7.927036E-3,-1.0677442E-2,-6.937992E-4,1.4775476E-2,3.5E-2,-1.6932379E-3,2.6299281E-2,3.5E-2,8.3902255E-3,-1.4462298E-3,1.2119409E-2,3.5E-2,7.891038E-3,5.1990885E-4,-8.382718E-3,1.0238414E-3,3.1995676E-2],"categories":[],"categories_nodes":[],"categories_segments":[],"categories_sizes":[],"default_left":[0,0,0,0,0,0,0,0,0,0,0,0,0,0,0,0,0,0,0,0,0,0,0,0,0,0,0,0,0,0,0,0,0,0,0,0,0,0,0,0,0,0,0,0,0,0,0,0,0,0,0,0,0,0,0,0,0,0,0,0,0,0,0,0,0,0,0,0,0,0,0,0,0,0,0,0,0,0,0,0,0,0,0,0,0,0,0,0,0,0,0,0,0],"id":4,"left_children":[1,3,5,7,9,11,13,15,17,19,21,23,25,27,29,31,33,35,37,39,41,43,-1,45,47,49,-1,51,53,55,57,59,61,63,-1,65,67,-1,-1,69,71,73,75,-1,77,79,81,83,-1,85,-1,-1,87,-1,-1,89,-1,-1,91,-1,-1,-1,-1,-1,-1,-1,-1,-1,-1,-1,-1,-1,-1,-1,-1,-1,-1,-1,-1,-1,-1,-1,-1,-1,-1,-1,-1,-1,-1,-1,-1,-1,-1],"loss_changes":[3.794827E1,3.7394128E0,9.327175E0,3.0981734E0,1.957284E0,4.210476E0,8.613821E0,1.9072134E0,1.185215E0,2.0745301E-1,1.9084439E0,2.6336937E0,1.7090709E0,3.6465454E0,3.166503E0,1.3032551E0,5.0859874E-1,1.180903E0,2.9760838E-1,9.005332E-2,2.3669475E-1,4.6200734E-1,0E0,3.755188E0,7.8228664E-1,4.4003093E-1,0E0,3.2835655E0,1.46697E0,1.2557234E0,2.3980777E0,1.3648657E0,2.0134966E0,7.1641195E-1,0E0,7.3058105E-1,2.6876154E0,0E0,0E0,1.8325591E-1,6.534666E-2,2.7273536E-2,3.2070118E-1,0E0,1.8912417E-1,1.3590851E0,1.2716175E0,1.3221107E0,0E0,3.4158063E-1,0E0,0E0,1.8568916E0,0E0,0E0,5.760093E-1,0E0,0E0,1.8872166E0,0E0,0E0,0E0,0E0,0E0,0E0,0E0,0E0,0E0,0E0,0E0,0E0,0E0,0E0,0E0,0E0,0E0,0E0,0E0,0E0,0E0,0E0,0E0,0E0,0E0,0E0,0E0,0E0,0E0,0E0,0E0,0E0,0E0,0E0],"parents":[2147483647,0,0,1,1,2,2,3,3,4,4,5,5,6,6,7,7,8,8,9,9,10,10,11,11,12,12,13,13,14,14,15,15,16,16,17,17,18,18,19,19,20,20,21,21,23,23,24,24,25,25,27,27,28,28,29,29,30,30,31,31,32,32,33,33,35,35,36,36,39,39,40,40,41,41,42,42,44,44,45,45,46,46,47,47,49,49,52,52,55,55,58,58],"right_children":[2,4,6,8,10,12,14,16,18,20,22,24,26,28,30,32,34,36,38,40,42,44,-1,46,48,50,-1,52,54,56,58,60,62,64,-1,66,68,-1,-1,70,72,74,76,-1,78,80,82,84,-1,86,-1,-1,88,-1,-1,90,-1,-1,92,-1,-1,-1,-1,-1,-1,-1,-1,-1,-1,-1,-1,-1,-1,-1,-1,-1,-1,-1,-1,-1,-1,-1,-1,-1,-1,-1,-1,-1,-1,-1,-1,-1,-1],"split_conditions":[1E0,1E0,1.06E2,7.54E2,1E0,1.3E1,-2.69E2,9.33E2,2.9E1,8E0,9E0,1E0,3.5E1,8E0,8.98E2,1E0,3.5E1,9E0,1E0,2.03E2,1E0,4E0,2.8827569E-2,1.039E3,1.039E3,1E0,3.154232E-2,-1.652E3,1.4E1,2.6E1,9.43E2,1E0,-4.32E2,1E0,8.94946E-3,6E0,1E0,-7.7614374E-3,5.332257E-3,-1.87E2,3.67E2,3.14E2,1.35E2,1.2228948E-2,1E0,-7.13E2,1.452E3,-7.55E2,3.5E-2,7E0,-8.339197E-3,-3.6373828E-3,8E0,-8.628181E-3,2.001447E-2,1.95E2,1.714612E-2,3.5E-2,1.878E3,2.8148915E-3,-2.9371597E-3,1.886269E-2,3.5564005E-3,-1.5218459E-3,-8.817711E-3,1.3396512E-2,4.8419363E-3,6.750611E-3,3.5E-2,-6.857893E-3,-1.3002808E-2,-8.028838E-3,-2.8190722E-3,-1.3817983E-2,-6.4522694E-3,1.5570702E-3,-7.927036E-3,-1.0677442E-2,-6.937992E-4,1.4775476E-2,3.5E-2,-1.6932379E-3,2.6299281E-2,3.5E-2,8.3902255E-3,-1.4462298E-3,1.2119409E-2,3.5E-2,7.891038E-3,5.1990885E-4,-8.382718E-3,1.0238414E-3,3.1995676E-2],"split_indices":[17,14,2,1,12,4,0,2,4,4,4,12,4,4,2,13,5,4,18,1,11,5,0,1,1,8,0,0,4,4,2,15,0,18,0,4,18,0,0,0,2,2,2,0,27,0,1,1,0,0,0,0,5,0,0,1,0,0,2,0,0,0,0,0,0,0,0,0,0,0,0,0,0,0,0,0,0,0,0,0,0,0,0,0,0,0,0,0,0,0,0,0,0],"split_type":[0,0,0,0,0,0,0,0,0,0,0,0,0,0,0,0,0,0,0,0,0,0,0,0,0,0,0,0,0,0,0,0,0,0,0,0,0,0,0,0,0,0,0,0,0,0,0,0,0,0,0,0,0,0,0,0,0,0,0,0,0,0,0,0,0,0,0,0,0,0,0,0,0,0,0,0,0,0,0,0,0,0,0,0,0,0,0,0,0,0,0,0,0],"sum_hessian":[1.6966013E3,1.3535013E3,3.4310004E2,1.1764708E3,1.7703043E2,1.8367207E2,1.5942796E2,1.029656E3,1.468148E2,1.406246E2,3.640583E1,1.5371634E2,2.9955725E1,5.079986E1,1.08628105E2,8.70616E2,1.5904007E2,1.3016974E2,1.6645056E1,9.493364E1,4.569096E1,3.048071E1,5.92512E0,1.1957559E2,3.4140747E1,2.3667988E1,6.287738E0,3.4346085E1,1.6453773E1,7.826276E1,3.0365356E1,7.6165326E2,1.0896276E2,1.5191376E2,7.126314E0,1.0435586E2,2.581388E1,1.057966E1,6.0653954E0,5.8536842E1,3.6396797E1,1.1091041E1,3.4599922E1,5.0507245E0,2.5429985E1,1.03998314E2,1.557728E1,2.899136E1,5.149389E0,1.861135E1,5.0566373E0,5.319409E0,2.9026674E1,7.0805964E0,9.373177E0,7.15568E1,6.7059503E0,5.297792E0,2.5067564E1,6.395809E2,1.2207235E2,2.8672527E1,8.029023E1,1.0239446E2,4.9519295E1,4.389387E1,6.046199E1,1.5995177E1,9.818705E0,2.6067394E1,3.2469448E1,2.6819147E1,9.577651E0,5.387351E0,5.7036896E0,1.9734404E1,1.4865517E1,5.2681346E0,2.016185E1,1.0301596E1,9.369672E1,9.773606E0,5.8036733E0,5.034189E0,2.395717E1,7.050442E0,1.1560907E1,2.204291E1,6.9837646E0,3.487045E1,3.6686356E1,1.945255E1,5.6150117E0],"tree_param":{"num_deleted":"0","num_feature":"28","num_nodes":"93","size_leaf_vector":"1"}},{"base_weights":[1.1486259E-1,1.3962922E-1,-1.0587941E-1,1.6378969E-1,-2.9180905E-2,-1.446013E-1,3.726728E-2,1.9181623E-1,-2.417296E-2,-7.353052E-2,1.1363293E-1,-1.0395898E-1,-1.8573815E-1,-3.056821E-2,1.656511E-2,2.6397443E-1,1.16501905E-1,-5.393808E-2,4.2320246E-1,2.6091686E-3,-1.2846094E-1,-4.1306246E-2,3.1684682E-1,-1.2220831E-1,4.8051025E-3,-2.2133167E-3,-2.0704748E-1,5.6067845E-3,-7.073551E-2,3.4037942E-1,1.990589E-1,1.0173528E-1,4.233347E-1,-1.0631188E-1,1.4087781E-1,9.70371E-3,2.8967438E-2,-3.1822346E-2,1.0896897E-2,-1.6232798E-1,2.8907342E-2,1.1542828E-2,-1.199948E-1,3.5E-2,8.657395E-2,-2.1867642E-1,-9.3477935E-2,-2.378401E-1,-1.4397849E-1,-1.4362073E-1,4.6416023E-3,2.8313965E-2,1.4843184E-2,1.3008008E-2,4.067868E-3,1.773054E-2,4.286386E-3,3.5E-2,6.3565313E-3,3.8762249E-3,-6.596572E-3,-2.227554E-3,1.2162804E-2,-9.87211E-3,1.7124839E-3,1.4611845E-3,-9.461294E-3,-4.2375387E-3,1.1556293E-2,-1.0030258E-2,2.3935537E-3,-7.5430223E-3,1.2805233E-2,-5.289948E-3,-1.468427E-2,-6.8970523E-3,-8.7987987E-4,-1.3218708E-2,-8.738602E-3,-3.9492915E-3,-1.1450544E-2,-9.0872945E-4,-1.219862E-2],"categories":[],"categories_nodes":[],"categories_segments":[],"categories_sizes":[],"default_left":[0,0,0,0,0,0,0,0,0,0,0,0,0,0,0,0,0,0,0,0,0,0,0,0,0,0,0,0,0,0,0,0,0,0,0,0,0,0,0,0,0,0,0,0,0,0,0,0,0,0,0,0,0,0,0,0,0,0,0,0,0,0,0,0,0,0,0,0,0,0,0,0,0,0,0,0,0,0,0,0,0,0,0],"id":5,"left_children":[1,3,5,7,9,11,13,15,17,19,21,23,25,27,-1,29,31,33,35,37,39,41,43,45,-1,-1,47,-1,49,51,53,55,57,59,61,-1,-1,63,-1,65,67,-1,69,-1,71,73,75,77,79,81,-1,-1,-1,-1,-1,-1,-1,-1,-1,-1,-1,-1,-1,-1,-1,-1,-1,-1,-1,-1,-1,-1,-1,-1,-1,-1,-1,-1,-1,-1,-1,-1,-1],"loss_changes":[9.39546E0,6.298771E0,9.6798706E-1,7.1170883E0,1.237493E0,2.0956206E-1,7.634859E-1,6.3551483E0,2.3675485E0,6.221921E-1,1.4733082E0,2.7144474E-1,1.9209814E-1,1.890937E-1,0E0,2.9047585E0,2.570096E0,1.7085457E0,2.845999E-1,4.761934E-1,4.6512783E-1,6.101931E-1,1.7829001E0,1.614446E-1,0E0,0E0,7.790947E-2,0E0,3.146686E-1,2.5242386E0,2.3264074E0,2.2023473E0,2.569903E0,6.290268E-1,6.866279E-1,0E0,0E0,6.1343175E-1,0E0,3.7260032E-1,3.9074266E-1,0E0,3.0400833E-1,0E0,5.986536E-1,9.011465E-2,1.740689E-1,1.616478E-2,1.00618064E-1,2.2062281E-1,0E0,0E0,0E0,0E0,0E0,0E0,0E0,0E0,0E0,0E0,0E0,0E0,0E0,0E0,0E0,0E0,0E0,0E0,0E0,0E0,0E0,0E0,0E0,0E0,0E0,0E0,0E0,0E0,0E0,0E0,0E0,0E0,0E0],"parents":[2147483647,0,0,1,1,2,2,3,3,4,4,5,5,6,6,7,7,8,8,9,9,10,10,11,11,12,12,13,13,15,15,16,16,17,17,18,18,19,19,20,20,21,21,22,22,23,23,26,26,28,28,29,29,30,30,31,31,32,32,33,33,34,34,37,37,39,39,40,40,42,42,44,44,45,45,46,46,47,47,48,48,49,49],"right_children":[2,4,6,8,10,12,14,16,18,20,22,24,26,28,-1,30,32,34,36,38,40,42,44,46,-1,-1,48,-1,50,52,54,56,58,60,62,-1,-1,64,-1,66,68,-1,70,-1,72,74,76,78,80,82,-1,-1,-1,-1,-1,-1,-1,-1,-1,-1,-1,-1,-1,-1,-1,-1,-1,-1,-1,-1,-1,-1,-1,-1,-1,-1,-1,-1,-1,-1,-1,-1,-1],"split_conditions":[1E0,1E0,1E0,1E0,1E0,1.35E2,9E0,5.2E1,1E0,8.9E1,1.98E2,1.4E1,4E0,4E0,1.656511E-2,7E0,3.4E1,1E0,2.93E2,9.94E2,8.04E2,1.8E1,3.01E2,1E0,4.8051025E-3,-2.2133167E-3,1.94E2,5.6067845E-3,2.3E1,1.82E2,1E0,-7.16E2,4.6E2,-7.41E2,1.8E1,9.70371E-3,2.8967438E-2,-7.13E2,1.0896897E-2,8E0,8E0,1.1542828E-2,4.04E2,3.5E-2,4.96E2,7E0,8E0,8E0,7.07E2,1.7E1,4.6416023E-3,2.8313965E-2,1.4843184E-2,1.3008008E-2,4.067868E-3,1.773054E-2,4.286386E-3,3.5E-2,6.3565313E-3,3.8762249E-3,-6.596572E-3,-2.227554E-3,1.2162804E-2,-9.87211E-3,1.7124839E-3,1.4611845E-3,-9.461294E-3,-4.2375387E-3,1.1556293E-2,-1.0030258E-2,2.3935537E-3,-7.5430223E-3,1.2805233E-2,-5.289948E-3,-1.468427E-2,-6.8970523E-3,-8.7987987E-4,-1.3218708E-2,-8.738602E-3,-3.9492915E-3,-1.1450544E-2,-9.0872945E-4,-1.219862E-2],"split_indices":[14,16,12,15,12,2,4,2,13,1,1,2,4,5,0,5,4,12,3,3,1,6,0,11,0,0,1,0,6,3,19,1,2,1,6,0,0,1,0,0,5,0,3,0,0,4,5,5,2,6,0,0,0,0,0,0,0,0,0,0,0,0,0,0,0,0,0,0,0,0,0,0,0,0,0,0,0,0,0,0,0,0,0],"split_type":[0,0,0,0,0,0,0,0,0,0,0,0,0,0,0,0,0,0,0,0,0,0,0,0,0,0,0,0,0,0,0,0,0,0,0,0,0,0,0,0,0,0,0,0,0,0,0,0,0,0,0,0,0,0,0,0,0,0,0,0,0,0,0,0,0,0,0,0,0,0,0,0,0,0,0,0,0,0,0,0,0,0,0],"sum_hessian":[1.7148629E3,1.5422001E3,1.7266295E2,1.3491381E3,1.9306192E2,1.3589304E2,3.67699E1,1.1740575E3,1.7508064E2,1.476848E2,4.537712E1,7.013164E1,6.57614E1,3.0605162E1,6.164742E0,5.9831274E2,5.757447E2,1.6498328E2,1.0097358E1,6.2292694E1,8.539211E1,2.6198769E1,1.9178354E1,6.46257E1,5.505938E0,9.011527E0,5.6749874E1,6.328816E0,2.4276344E1,2.728855E2,3.2542728E2,5.505791E2,2.516559E1,1.3038516E2,3.4598118E1,5.0013304E0,5.096027E0,5.443986E1,7.8528314E0,7.024356E1,1.5148548E1,5.44212E0,2.0756649E1,6.265708E0,1.2912646E1,1.331306E1,5.1312645E1,3.6270267E1,2.0479607E1,1.6877659E1,7.398687E0,4.2135826E1,2.3074968E2,2.1342413E2,1.12003136E2,3.1518627E1,5.190605E2,1.0738919E1,1.4426671E1,1.5700227E1,1.1468494E2,1.2508105E1,2.2090014E1,1.4957719E1,3.9482143E1,8.638508E0,6.1605057E1,1.0069706E1,5.0788426E0,1.3891041E1,6.8656073E0,5.4249372E0,7.4877086E0,6.277234E0,7.0358257E0,3.1838543E1,1.94741E1,2.3282816E1,1.2987451E1,1.2700867E1,7.778741E0,8.025886E0,8.851772E0],"tree_param":{"num_deleted":"0","num_feature":"28","num_nodes":"83","size_leaf_vector":"1"}},{"base_weights":[1.0604403E-1,2.2668391E-2,4.2458367E-1,4.8548575E-3,1.5866905E-1,5.746159E-1,2.440437E-1,3.5750303E-2,-6.3450806E-2,5.265959E-1,1.255257E-1,7E-1,5.133429E-1,2.0670147E-1,3.5E-2,5.2229697E-3,1.138919E-1,-8.885813E-2,-3.7210707E-3,3.1256717E-2,1.5889315E-2,-2.2034142E-2,1.7409529E-1,1.8120559E-2,3.5E-2,2.5563154E-1,5.9033483E-1,1.16152845E-1,5.155611E-1,-4.2017043E-2,7.5188026E-2,8.448162E-2,3.35477E-1,-1.145714E-1,2.0146795E-2,-5.352169E-2,1.1819749E-1,1.1755189E-1,-1.2356272E-1,2.1626651E-1,-2.43449E-2,1.3529275E-1,3.4223896E-2,7E-1,3.9440328E-1,1.9529324E-2,2.89351E-1,-9.985865E-2,7E-1,-4.704217E-3,5.724234E-3,1.9502424E-3,9.724754E-3,2.2076136E-3,1.3946953E-2,2.043347E-2,1.5186279E-3,-3.5864585E-3,-8.641934E-3,-2.8600486E-3,1.4684692E-2,7.935643E-3,-4.106806E-3,-1.232653E-3,2.4162056E-2,1.1553428E-2,7.880341E-4,-1.1533636E-2,-1.2981893E-3,1.6366964E-2,7.641792E-3,5.4942383E-3,-9.883738E-3,1.9263271E-3,2.815317E-2,3.5E-2,1.5665917E-2,3.5E-2,1.1098697E-2,4.41309E-3,-4.8181624E-3,2.8618071E-2,4.3009813E-3,3.6595258E-4,-9.713688E-3,3.5E-2,1.5803942E-2],"categories":[],"categories_nodes":[],"categories_segments":[],"categories_sizes":[],"default_left":[0,0,0,0,0,0,0,0,0,0,0,0,0,0,0,0,0,0,0,0,0,0,0,0,0,0,0,0,0,0,0,0,0,0,0,0,0,0,0,0,0,0,0,0,0,0,0,0,0,0,0,0,0,0,0,0,0,0,0,0,0,0,0,0,0,0,0,0,0,0,0,0,0,0,0,0,0,0,0,0,0,0,0,0,0,0,0],"id":6,"left_children":[1,3,5,7,9,11,13,15,17,19,21,23,25,27,-1,29,31,33,35,-1,-1,37,39,-1,-1,41,43,45,47,49,51,53,55,57,59,61,63,65,67,69,71,73,-1,75,77,79,81,83,85,-1,-1,-1,-1,-1,-1,-1,-1,-1,-1,-1,-1,-1,-1,-1,-1,-1,-1,-1,-1,-1,-1,-1,-1,-1,-1,-1,-1,-1,-1,-1,-1,-1,-1,-1,-1,-1,-1],"loss_changes":[4.5534332E1,3.2944584E0,9.49411E0,2.542437E0,1.8544211E0,2.6238747E0,3.5565805E0,1.9780045E0,5.6912017E-1,6.269002E-2,1.0487094E0,3.8168144E-1,3.3549957E0,4.3037305E0,0E0,1.9779323E0,1.4898274E0,7.4005914E-1,6.9257325E-1,0E0,0E0,5.387668E-1,9.241185E-1,0E0,0E0,2.095977E0,3.5976295E0,2.0351238E0,5.6912403E0,2.9223285E0,1.0335522E0,1.6110423E0,5.8964825E-1,5.196228E-1,1.0977547E0,5.0455195E-1,1.7374674E0,1.8226463E-1,2.2297686E-1,5.88686E-1,4.9037033E-1,1.400695E0,0E0,1.8880501E0,4.343276E0,6.4057106E-1,2.4595394E0,1.180654E-1,1.6027288E0,0E0,0E0,0E0,0E0,0E0,0E0,0E0,0E0,0E0,0E0,0E0,0E0,0E0,0E0,0E0,0E0,0E0,0E0,0E0,0E0,0E0,0E0,0E0,0E0,0E0,0E0,0E0,0E0,0E0,0E0,0E0,0E0,0E0,0E0,0E0,0E0,0E0,0E0],"parents":[2147483647,0,0,1,1,2,2,3,3,4,4,5,5,6,6,7,7,8,8,9,9,10,10,11,11,12,12,13,13,15,15,16,16,17,17,18,18,21,21,22,22,25,25,26,26,27,27,28,28,29,29,30,30,31,31,32,32,33,33,34,34,35,35,36,36,37,37,38,38,39,39,40,40,41,41,43,43,44,44,45,45,46,46,47,47,48,48],"right_children":[2,4,6,8,10,12,14,16,18,20,22,24,26,28,-1,30,32,34,36,-1,-1,38,40,-1,-1,42,44,46,48,50,52,54,56,58,60,62,64,66,68,70,72,74,-1,76,78,80,82,84,86,-1,-1,-1,-1,-1,-1,-1,-1,-1,-1,-1,-1,-1,-1,-1,-1,-1,-1,-1,-1,-1,-1,-1,-1,-1,-1,-1,-1,-1,-1,-1,-1,-1,-1,-1,-1,-1,-1],"split_conditions":[1E0,1E0,1.06E2,4.69E2,1.3E1,-1.466E3,3.4E1,1E0,1E0,1E0,1.7E1,6E0,-1.87E2,1E0,3.5E-2,1E0,9.49E2,1E0,1.268E3,3.1256717E-2,1.5889315E-2,3.94E2,6.36E2,1.8120559E-2,3.5E-2,2.8E1,5.93E2,8.98E2,4.01E2,1E0,5.84E2,3.08E2,1E0,9.71E2,2.3E1,-4.82E2,2.2E1,1E0,8.16E2,-6E1,1E0,1E0,3.4223896E-2,2.4E1,1E0,1.95E2,1.268E3,3.22E2,8.02E2,-4.704217E-3,5.724234E-3,1.9502424E-3,9.724754E-3,2.2076136E-3,1.3946953E-2,2.043347E-2,1.5186279E-3,-3.5864585E-3,-8.641934E-3,-2.8600486E-3,1.4684692E-2,7.935643E-3,-4.106806E-3,-1.232653E-3,2.4162056E-2,1.1553428E-2,7.880341E-4,-1.1533636E-2,-1.2981893E-3,1.6366964E-2,7.641792E-3,5.4942383E-3,-9.883738E-3,1.9263271E-3,2.815317E-2,3.5E-2,1.5665917E-2,3.5E-2,1.1098697E-2,4.41309E-3,-4.8181624E-3,2.8618071E-2,4.3009813E-3,3.6595258E-4,-9.713688E-3,3.5E-2,1.5803942E-2],"split_indices":[17,13,2,2,6,1,4,18,19,18,6,4,1,9,0,19,1,12,2,0,0,1,2,0,0,6,1,2,2,12,1,2,9,2,6,1,6,19,1,1,19,26,0,6,27,1,2,2,2,0,0,0,0,0,0,0,0,0,0,0,0,0,0,0,0,0,0,0,0,0,0,0,0,0,0,0,0,0,0,0,0,0,0,0,0,0,0],"split_type":[0,0,0,0,0,0,0,0,0,0,0,0,0,0,0,0,0,0,0,0,0,0,0,0,0,0,0,0,0,0,0,0,0,0,0,0,0,0,0,0,0,0,0,0,0,0,0,0,0,0,0,0,0,0,0,0,0,0,0,0,0,0,0,0,0,0,0,0,0,0,0,0,0,0,0,0,0,0,0,0,0,0,0,0,0,0,0],"sum_hessian":[1.7138575E3,1.359174E3,3.546836E2,1.202681E3,1.5649294E2,1.9251617E2,1.6216742E2,8.284431E2,3.7423785E2,1.17018175E1,1.4479112E2,1.682217E1,1.7569402E2,1.550283E2,7.1391287E0,5.964836E2,2.3195953E2,2.622125E2,1.1202537E2,6.5955434E0,5.1062737E0,3.5991447E1,1.0879967E2,6.648609E0,1.0173562E1,4.1408745E1,1.3428526E2,1.2094641E2,3.408189E1,3.5630676E2,2.4017685E2,2.0599918E2,2.5960358E1,2.1212343E2,5.0089054E1,7.9934975E1,3.209039E1,1.5088829E1,2.0902618E1,8.96566E1,1.914307E1,3.336239E1,8.046357E0,7.4093765E1,6.0191498E1,7.834961E1,4.25968E1,1.0526956E1,2.3554934E1,2.6765738E2,8.864937E1,1.8530492E2,5.4871944E1,1.7163097E2,3.436821E1,2.0663813E1,5.296545E0,1.2352795E2,8.8595474E1,3.966448E1,1.0424579E1,8.956633E0,7.097834E1,2.3734833E1,8.355558E0,6.533123E0,8.555706E0,9.315664E0,1.1586954E1,3.1077158E1,5.857944E1,1.0994655E1,8.148415E0,2.8096687E1,5.265702E0,5.918946E1,1.4904308E1,1.5031768E1,4.515973E1,4.933116E1,2.9018444E1,1.7050222E1,2.554658E1,5.362293E0,5.164663E0,1.0356876E1,1.3198057E1],"tree_param":{"num_deleted":"0","num_feature":"28","num_nodes":"87","size_leaf_vector":"1"}},{"base_weights":[1.0221485E-1,2.2111613E-2,4.056391E-1,6.282356E-2,-7.216019E-2,5.3641635E-1,2.5011146E-1,2.1221178E-2,1.548982E-1,-1.094088E-1,-2.8072849E-2,4.3130597E-1,7E-1,2.182959E-1,3.5E-2,-4.505735E-2,1.09633215E-1,1.21158965E-1,3.160888E-1,-2.212878E-1,-7.0065856E-2,-3.218737E-3,-2.2321442E-1,6.7880625E-1,3.6186987E-1,7E-1,2.1740517E-2,3.949978E-1,1.2441288E-1,-9.122488E-2,9.845854E-2,8.63181E-2,4.0591118E-1,3.79788E-1,1.0310044E-1,2.150791E-1,3.5E-2,2.1226525E-3,-2.4956504E-1,-4.8147973E-2,-2.044826E-1,6.073967E-2,-7.2535105E-2,-1.7872359E-1,-1.4609895E-2,1.0514273E-2,7E-1,3.1021032E-1,3.5E-2,1.8971564E-2,3.5E-2,7E-1,9.1723874E-2,-6.9652095E-2,2.763502E-1,-5.531779E-3,9.45258E-3,2.4595743E-3,1.7600168E-2,2.4054607E-3,1.103305E-2,1.0817986E-2,3.5E-2,3.1703707E-2,6.7449766E-3,6.683547E-3,-3.4445436E-3,5.8605704E-3,2.662532E-2,-1.522532E-2,-8.833422E-3,-1.3192734E-3,-7.807986E-3,-6.046835E-4,-1.3517231E-2,-3.3754304E-3,7.23819E-3,2.0745346E-2,-6.632957E-3,-1.1661973E-2,-4.481922E-3,1.9202579E-2,3.5E-2,1.7532516E-2,6.4148167E-3,1.3620796E-2,3.5E-2,2.1720225E-2,9.8883E-5,-1.1304436E-2,6.258385E-3,2.2355026E-2,7.4406865E-4],"categories":[],"categories_nodes":[],"categories_segments":[],"categories_sizes":[],"default_left":[0,0,0,0,0,0,0,0,0,0,0,0,0,0,0,0,0,0,0,0,0,0,0,0,0,0,0,0,0,0,0,0,0,0,0,0,0,0,0,0,0,0,0,0,0,0,0,0,0,0,0,0,0,0,0,0,0,0,0,0,0,0,0,0,0,0,0,0,0,0,0,0,0,0,0,0,0,0,0,0,0,0,0,0,0,0,0,0,0,0,0,0,0],"id":7,"left_children":[1,3,5,7,9,11,13,15,17,19,21,23,25,27,-1,29,31,33,35,37,39,41,43,45,47,49,-1,51,53,55,57,59,61,63,65,67,-1,-1,69,71,73,75,77,79,-1,-1,81,83,-1,-1,-1,85,87,89,91,-1,-1,-1,-1,-1,-1,-1,-1,-1,-1,-1,-1,-1,-1,-1,-1,-1,-1,-1,-1,-1,-1,-1,-1,-1,-1,-1,-1,-1,-1,-1,-1,-1,-1,-1,-1,-1,-1],"loss_changes":[4.1860584E1,5.239239E0,7.18264E0,3.6475368E0,6.7323613E-1,5.7218246E0,2.7165737E0,3.8585346E0,1.5739684E0,9.655535E-1,9.205413E-1,2.4722042E0,6.0329437E-2,2.584948E0,0E0,2.50406E0,1.9133554E0,1.1133561E0,2.0862083E0,4.3959904E-1,4.8027444E-1,7.55874E-1,1.359427E-2,1.2439518E0,3.0800705E0,2.7983093E-1,0E0,7.1910563E0,3.119689E0,1.5737903E0,1.1335877E0,1.3381144E0,9.824369E-1,8.9418817E-1,1.229209E0,1.2649586E0,0E0,0E0,1.5486145E-1,3.3517778E-1,2.8836316E-1,9.6563107E-1,2.4523518E0,5.491221E-2,0E0,0E0,5.7180595E-1,8.2340527E-1,0E0,0E0,0E0,1.3202858E0,1.06002E0,1.4598825E0,2.6353984E0,0E0,0E0,0E0,0E0,0E0,0E0,0E0,0E0,0E0,0E0,0E0,0E0,0E0,0E0,0E0,0E0,0E0,0E0,0E0,0E0,0E0,0E0,0E0,0E0,0E0,0E0,0E0,0E0,0E0,0E0,0E0,0E0,0E0,0E0,0E0,0E0,0E0,0E0],"parents":[2147483647,0,0,1,1,2,2,3,3,4,4,5,5,6,6,7,7,8,8,9,9,10,10,11,11,12,12,13,13,15,15,16,16,17,17,18,18,19,19,20,20,21,21,22,22,23,23,24,24,25,25,27,27,28,28,29,29,30,30,31,31,32,32,33,33,34,34,35,35,38,38,39,39,40,40,41,41,42,42,43,43,46,46,47,47,51,51,52,52,53,53,54,54],"right_children":[2,4,6,8,10,12,14,16,18,20,22,24,26,28,-1,30,32,34,36,38,40,42,44,46,48,50,-1,52,54,56,58,60,62,64,66,68,-1,-1,70,72,74,76,78,80,-1,-1,82,84,-1,-1,-1,86,88,90,92,-1,-1,-1,-1,-1,-1,-1,-1,-1,-1,-1,-1,-1,-1,-1,-1,-1,-1,-1,-1,-1,-1,-1,-1,-1,-1,-1,-1,-1,-1,-1,-1,-1,-1,-1,-1,-1,-1],"split_conditions":[1E0,4.72E2,1.06E2,1E0,2.1E1,1E0,3.4E1,1E0,1E0,5E0,1E0,2.91E2,9E0,-1.94E2,3.5E-2,1E0,1E0,1.3E1,1.174E3,5.48E2,1E0,2.5E1,1E0,5.2E1,3.3E1,1.6E1,2.1740517E-2,6.9E2,4.39E2,1E0,1.2E1,3.94E2,3.61E2,6E0,9.94E2,4.96E2,3.5E-2,2.1226525E-3,1.12E3,1E0,-8.2E2,6E0,4E0,2.3E1,-1.4609895E-2,1.0514273E-2,5E0,1E0,3.5E-2,1.8971564E-2,3.5E-2,7E0,1E0,7E0,8E0,-5.531779E-3,9.45258E-3,2.4595743E-3,1.7600168E-2,2.4054607E-3,1.103305E-2,1.0817986E-2,3.5E-2,3.1703707E-2,6.7449766E-3,6.683547E-3,-3.4445436E-3,5.8605704E-3,2.662532E-2,-1.522532E-2,-8.833422E-3,-1.3192734E-3,-7.807986E-3,-6.046835E-4,-1.3517231E-2,-3.3754304E-3,7.23819E-3,2.0745346E-2,-6.632957E-3,-1.1661973E-2,-4.481922E-3,1.9202579E-2,3.5E-2,1.7532516E-2,6.4148167E-3,1.3620796E-2,3.5E-2,2.1720225E-2,9.8883E-5,-1.1304436E-2,6.258385E-3,2.2355026E-2,7.4406865E-4],"split_indices":[17,2,2,19,6,9,4,18,26,5,8,3,5,0,0,12,23,6,3,2,26,6,18,3,4,6,0,2,2,13,4,0,0,4,3,0,0,0,2,15,0,5,4,6,0,0,4,26,0,0,0,4,22,5,4,0,0,0,0,0,0,0,0,0,0,0,0,0,0,0,0,0,0,0,0,0,0,0,0,0,0,0,0,0,0,0,0,0,0,0,0,0,0],"split_type":[0,0,0,0,0,0,0,0,0,0,0,0,0,0,0,0,0,0,0,0,0,0,0,0,0,0,0,0,0,0,0,0,0,0,0,0,0,0,0,0,0,0,0,0,0,0,0,0,0,0,0,0,0,0,0,0,0,0,0,0,0,0,0,0,0,0,0,0,0,0,0,0,0,0,0,0,0,0,0,0,0,0,0,0,0,0,0,0,0,0,0,0,0],"sum_hessian":[1.7216536E3,1.3629192E3,3.587343E2,9.520872E2,4.10832E2,1.9354268E2,1.6519164E2,6.566303E2,2.954569E2,2.2188428E2,1.8894771E2,1.5714777E2,3.639492E1,1.5778252E2,7.4091263E0,3.7557156E2,2.8105875E2,2.4576651E2,4.969039E1,5.652378E1,1.653605E2,1.6850291E2,2.0444798E1,3.2506077E1,1.24641685E2,2.9569408E1,6.825513E0,5.3631905E1,1.0415061E2,2.844359E2,9.113564E1,2.6175195E2,1.93068E1,1.4733047E1,2.3103348E2,4.172774E1,7.9626513E0,5.4248714E0,5.1098907E1,1.4334499E2,2.201552E1,8.770292E1,8.0799995E1,1.4611769E1,5.8330297E0,6.2929783E0,2.6213097E1,1.1704269E2,7.5989943E0,6.491249E0,2.307816E1,2.013659E1,3.3495316E1,4.5972668E1,5.817794E1,2.665791E2,1.7856815E1,7.7307755E1,1.3827888E1,2.0484845E2,5.6903484E1,1.2803452E1,6.5033493E0,6.4481807E0,8.284865E0,1.9635521E2,3.4678253E1,3.2940834E1,8.786908E0,2.7326208E1,2.37727E1,1.20342354E2,2.3002626E1,5.9165E0,1.609902E1,3.4793392E1,5.290953E1,8.224101E0,7.257589E1,8.060787E0,6.5509806E0,9.636836E0,1.6576262E1,9.4997025E1,2.2045668E1,8.901589E0,1.1234999E1,6.154612E0,2.7340702E1,2.5409122E1,2.0563547E1,3.476497E1,2.341297E1],"tree_param":{"num_deleted":"0","num_feature":"28","num_nodes":"93","size_leaf_vector":"1"}},{"base_weights":[1.0930526E-1,2.9301977E-2,4.0228808E-1,7.764961E-2,-3.0365158E-2,3.5E-2,3.7639138E-1,2.9438135E-1,6.478906E-2,-1.0335546E-2,-1.6988605E-1,1.54579E-1,4.0956947E-1,1.9220038E-1,5.01782E-1,8.274419E-2,-6.75706E-2,-2.1949406E-3,-2.6086733E-1,-1.8572402E-1,-4.3480992E-4,7.676124E-2,2.2568947E-2,3.355362E-1,5.157371E-1,-5.3408753E-2,4.474254E-1,1.4674455E-2,2.997374E-2,-3.6679633E-2,1.0024992E-1,-1.1010093E-1,5.9847657E-2,1.6822489E-2,-1.1101835E-1,-1.5284585E-2,-6.8937815E-3,-2.603167E-1,-1.5320587E-1,-1.20313644E-1,2.8816304E-1,4.5763546E-1,1.4010403E-1,5.622014E-1,1.7870946E-1,-7.417166E-3,3.014114E-3,3.122192E-2,1.4425893E-2,2.1825496E-3,-1.0266385E-2,6.171554E-3,-1.2173505E-3,-8.39603E-3,-2.6520807E-3,1.020673E-2,-8.936696E-4,1.3075314E-3,-8.307812E-3,-7.2986814E-3,2.7650145E-3,-1.4694057E-2,-7.0491913E-3,-1.1414743E-2,-5.8012726E-3,-1.0942637E-2,6.7135096E-3,4.267072E-3,3.5E-2,1.8461617E-2,3.5E-2,1.659742E-2,-1.171758E-3,3.3259865E-2,1.6732752E-2,1.9585561E-2,-9.295902E-3],"categories":[],"categories_nodes":[],"categories_segments":[],"categories_sizes":[],"default_left":[0,0,0,0,0,0,0,0,0,0,0,0,0,0,0,0,0,0,0,0,0,0,0,0,0,0,0,0,0,0,0,0,0,0,0,0,0,0,0,0,0,0,0,0,0,0,0,0,0,0,0,0,0,0,0,0,0,0,0,0,0,0,0,0,0,0,0,0,0,0,0,0,0,0,0,0,0],"id":8,"left_children":[1,3,5,7,9,-1,11,13,15,17,19,21,23,25,27,29,31,33,35,37,-1,39,-1,41,43,45,47,-1,-1,49,51,53,55,57,59,-1,-1,61,63,65,67,69,71,73,75,-1,-1,-1,-1,-1,-1,-1,-1,-1,-1,-1,-1,-1,-1,-1,-1,-1,-1,-1,-1,-1,-1,-1,-1,-1,-1,-1,-1,-1,-1,-1,-1],"loss_changes":[4.1339043E1,4.0030217E0,4.708824E0,2.1169968E0,1.7349579E0,0E0,2.6584244E0,8.0731225E-1,1.7279022E0,1.1099492E0,1.9739103E-1,1.1138732E0,2.3508492E0,1.9164094E0,9.784746E-2,1.338728E0,4.7869298E-1,1.0953813E0,5.227804E-2,1.3216543E-1,0E0,1.7262602E0,0E0,4.5185432E0,1.9362717E0,1.846394E-1,2.3929667E-1,0E0,0E0,1.1249255E0,1.6124363E0,2.0774317E-1,2.5539958E-1,7.735392E-1,4.658053E-1,0E0,0E0,3.908813E-2,1.1820161E-1,5.7423484E-1,1.7069694E0,3.6101265E0,2.3698883E0,2.4453125E0,1.4105823E0,0E0,0E0,0E0,0E0,0E0,0E0,0E0,0E0,0E0,0E0,0E0,0E0,0E0,0E0,0E0,0E0,0E0,0E0,0E0,0E0,0E0,0E0,0E0,0E0,0E0,0E0,0E0,0E0,0E0,0E0,0E0,0E0],"parents":[2147483647,0,0,1,1,2,2,3,3,4,4,6,6,7,7,8,8,9,9,10,10,11,11,12,12,13,13,14,14,15,15,16,16,17,17,18,18,19,19,21,21,23,23,24,24,25,25,26,26,29,29,30,30,31,31,32,32,33,33,34,34,37,37,38,38,39,39,40,40,41,41,42,42,43,43,44,44],"right_children":[2,4,6,8,10,-1,12,14,16,18,20,22,24,26,28,30,32,34,36,38,-1,40,-1,42,44,46,48,-1,-1,50,52,54,56,58,60,-1,-1,62,64,66,68,70,72,74,76,-1,-1,-1,-1,-1,-1,-1,-1,-1,-1,-1,-1,-1,-1,-1,-1,-1,-1,-1,-1,-1,-1,-1,-1,-1,-1,-1,-1,-1,-1,-1,-1],"split_conditions":[1E0,1.59E2,-1.796E3,1.3E1,1E0,3.5E-2,4E0,1E0,1E0,2.296E3,1.6E1,5.97E2,2.17E2,1.81E2,1.1E1,1.5E1,1E0,1E0,6E0,4.34E2,-4.3480992E-4,2E1,2.2568947E-2,8E0,1.129E3,1.1E1,7.01E2,1.4674455E-2,2.997374E-2,1E0,1E0,1.25E2,6E0,1E0,1E0,-1.5284585E-2,-6.8937815E-3,2.4E1,-7.32E2,1.12E3,4.58E2,2.8E1,-1.86E2,1.12E2,8E0,-7.417166E-3,3.014114E-3,3.122192E-2,1.4425893E-2,2.1825496E-3,-1.0266385E-2,6.171554E-3,-1.2173505E-3,-8.39603E-3,-2.6520807E-3,1.020673E-2,-8.936696E-4,1.3075314E-3,-8.307812E-3,-7.2986814E-3,2.7650145E-3,-1.4694057E-2,-7.0491913E-3,-1.1414743E-2,-5.8012726E-3,-1.0942637E-2,6.7135096E-3,4.267072E-3,3.5E-2,1.8461617E-2,3.5E-2,1.659742E-2,-1.171758E-3,3.3259865E-2,1.6732752E-2,1.9585561E-2,-9.295902E-3],"split_indices":[17,2,1,6,14,0,5,19,14,2,5,1,1,1,6,6,12,15,5,2,0,6,0,5,1,6,1,0,0,18,16,0,5,20,12,0,0,6,0,2,2,6,0,2,5,0,0,0,0,0,0,0,0,0,0,0,0,0,0,0,0,0,0,0,0,0,0,0,0,0,0,0,0,0,0,0,0],"split_type":[0,0,0,0,0,0,0,0,0,0,0,0,0,0,0,0,0,0,0,0,0,0,0,0,0,0,0,0,0,0,0,0,0,0,0,0,0,0,0,0,0,0,0,0,0,0,0,0,0,0,0,0,0,0,0,0,0,0,0,0,0,0,0,0,0,0,0,0,0,0,0,0,0,0,0,0,0],"sum_hessian":[1.7631449E3,1.385825E3,3.7731998E2,7.6536035E2,6.204646E2,8.4834E0,3.6883658E2,4.1645287E1,7.237151E2,5.4351215E2,7.695249E1,4.8727505E1,3.2010907E2,2.9190561E1,1.2454727E1,6.375972E2,8.611783E1,5.273844E2,1.6127703E1,6.9929276E1,7.023222E0,3.9602726E1,9.124779E0,1.9104749E2,1.2906158E2,1.5278466E1,1.3912095E1,5.254884E0,7.1998434E0,8.137345E1,5.562238E2,6.466838E1,2.1449442E1,4.496511E2,7.773334E1,1.0731235E1,5.3964677E0,1.9103317E1,5.0825954E1,2.0718872E1,1.8883856E1,1.16758896E2,7.428858E1,1.1283717E2,1.622441E1,8.159939E0,7.118527E0,5.1952925E0,8.716803E0,5.5621113E1,2.5752335E1,4.6897983E2,8.724399E1,3.1155153E1,3.351323E1,6.9396586E0,1.4509784E1,4.2865558E2,2.09955E1,6.433446E1,1.3398882E1,1.37681E1,5.335217E0,1.5129821E1,3.5696136E1,1.5038448E1,5.680423E0,1.3741629E1,5.142226E0,9.970034E1,1.7058554E1,3.3711987E1,4.05766E1,7.635343E1,3.6483738E1,1.0194743E1,6.0296655E0],"tree_param":{"num_deleted":"0","num_feature":"28","num_nodes":"77","size_leaf_vector":"1"}},{"base_weights":[1.00602955E-1,2.2626007E-2,3.8271725E-1,7.576612E-2,-3.1664804E-2,4.9658343E-1,2.5450358E-1,9.285765E-2,-5.2066844E-2,-4.3351974E-2,1.6295438E-1,4.2655042E-1,7E-1,7E-1,2.0869571E-1,7.8847885E-2,2.8720266E-1,-1.2351999E-1,1.2761351E-1,-5.0498486E-2,2.613935E-1,2.4999559E-1,3.2145582E-2,7E-1,3.473136E-1,7E-1,2.9864297E-3,3.5E-2,1.2762797E-2,1.6797695E-1,3.5E-2,3.6337095E-1,7.01006E-2,3.5E-2,1.0789419E-1,-8.521595E-2,-2.740815E-1,-1.8097956E-2,2.4275945E-2,-1.3748579E-1,-3.0870432E-2,1.9764721E-2,1.2528928E-3,2.2627432E-2,8.767746E-2,-3.512267E-3,6.3752825E-3,1.573421E-2,3.5E-2,2.9603392E-1,7E-1,5.318224E-3,7E-1,1.00864604E-1,3.7327567E-1,9.00121E-3,3.0326882E-2,4.6755667E-3,-2.178999E-3,-7.2014034E-3,1.8556748E-2,-5.205543E-3,2.656233E-3,-8.516864E-3,-1.6556934E-2,-4.7829403E-3,5.4144966E-3,-4.9748314E-3,-1.4022554E-2,-8.395221E-4,-6.1557502E-3,-9.895058E-4,8.410406E-3,1.0180166E-2,2.1792581E-2,3.5E-2,1.9438723E-3,1.9004107E-2,3.5E-2,9.222826E-3,-1.737023E-3,3.5E-2,1.1261711E-2],"categories":[],"categories_nodes":[],"categories_segments":[],"categories_sizes":[],"default_left":[0,0,0,0,0,0,0,0,0,0,0,0,0,0,0,0,0,0,0,0,0,0,0,0,0,0,0,0,0,0,0,0,0,0,0,0,0,0,0,0,0,0,0,0,0,0,0,0,0,0,0,0,0,0,0,0,0,0,0,0,0,0,0,0,0,0,0,0,0,0,0,0,0,0,0,0,0,0,0,0,0,0,0],"id":9,"left_children":[1,3,5,7,9,11,13,15,17,19,21,23,25,27,29,31,33,35,37,39,41,43,45,47,49,51,-1,-1,-1,53,-1,55,57,-1,59,61,63,65,-1,67,69,-1,-1,-1,71,-1,-1,-1,-1,73,75,-1,77,79,81,-1,-1,-1,-1,-1,-1,-1,-1,-1,-1,-1,-1,-1,-1,-1,-1,-1,-1,-1,-1,-1,-1,-1,-1,-1,-1,-1,-1],"loss_changes":[3.8114433E1,3.922505E0,5.351425E0,1.5057509E0,1.5374213E0,3.3933563E0,4.1504908E0,1.6281581E0,1.0641335E0,1.3972197E0,4.2832315E-1,3.9142418E0,2.4620953E0,8.8479805E-1,4.3282337E0,1.3854685E0,4.324444E0,3.165105E-1,1.2460716E0,1.05736E0,4.5601952E-1,7.1207154E-1,1.69674E-1,9.380455E-1,2.366269E0,2.088005E0,0E0,0E0,0E0,2.147616E0,0E0,6.340294E-1,1.4711292E0,0E0,2.2659929E0,1.3212615E-1,1.167202E-2,1.8509065E-1,0E0,5.922189E-1,6.584917E-1,0E0,0E0,0E0,1.2391441E-1,0E0,0E0,0E0,0E0,1.4415312E0,2.49538E0,0E0,3.9432144E-1,1.3768716E0,2.5439215E0,0E0,0E0,0E0,0E0,0E0,0E0,0E0,0E0,0E0,0E0,0E0,0E0,0E0,0E0,0E0,0E0,0E0,0E0,0E0,0E0,0E0,0E0,0E0,0E0,0E0,0E0,0E0,0E0],"parents":[2147483647,0,0,1,1,2,2,3,3,4,4,5,5,6,6,7,7,8,8,9,9,10,10,11,11,12,12,13,13,14,14,15,15,16,16,17,17,18,18,19,19,20,20,21,21,22,22,23,23,24,24,25,25,29,29,31,31,32,32,34,34,35,35,36,36,37,37,39,39,40,40,44,44,49,49,50,50,52,52,53,53,54,54],"right_children":[2,4,6,8,10,12,14,16,18,20,22,24,26,28,30,32,34,36,38,40,42,44,46,48,50,52,-1,-1,-1,54,-1,56,58,-1,60,62,64,66,-1,68,70,-1,-1,-1,72,-1,-1,-1,-1,74,76,-1,78,80,82,-1,-1,-1,-1,-1,-1,-1,-1,-1,-1,-1,-1,-1,-1,-1,-1,-1,-1,-1,-1,-1,-1,-1,-1,-1,-1,-1,-1],"split_conditions":[1E0,1.4E1,5.2E1,1E0,1E0,1E0,-7.16E2,2.9E1,1E0,3.6E1,8E0,2.91E2,9.25E2,8.27E2,3.3E1,9.2E1,3E1,1E0,8E0,1.6E1,4.2E1,4.69E2,1.3E1,5E0,1.5E1,1.76E2,2.9864297E-3,3.5E-2,1.2762797E-2,1.214E3,3.5E-2,1E0,1E0,3.5E-2,-1.42E2,1.276E3,1.8E1,6.37E2,2.4275945E-2,1E0,1E0,1.9764721E-2,1.2528928E-3,2.2627432E-2,7E0,-3.512267E-3,6.3752825E-3,1.573421E-2,3.5E-2,8.27E2,9E2,5.318224E-3,1.6E1,5.5E2,1.268E3,9.00121E-3,3.0326882E-2,4.6755667E-3,-2.178999E-3,-7.2014034E-3,1.8556748E-2,-5.205543E-3,2.656233E-3,-8.516864E-3,-1.6556934E-2,-4.7829403E-3,5.4144966E-3,-4.9748314E-3,-1.4022554E-2,-8.395221E-4,-6.1557502E-3,-9.895058E-4,8.410406E-3,1.0180166E-2,2.1792581E-2,3.5E-2,1.9438723E-3,1.9004107E-2,3.5E-2,9.222826E-3,-1.737023E-3,3.5E-2,1.1261711E-2],"split_indices":[17,2,2,14,23,9,1,6,12,4,5,3,1,2,5,3,6,9,4,6,5,2,5,4,5,3,0,0,0,2,0,18,9,0,1,3,6,3,0,9,14,0,0,0,5,0,0,0,0,3,3,0,6,2,2,0,0,0,0,0,0,0,0,0,0,0,0,0,0,0,0,0,0,0,0,0,0,0,0,0,0,0,0],"split_type":[0,0,0,0,0,0,0,0,0,0,0,0,0,0,0,0,0,0,0,0,0,0,0,0,0,0,0,0,0,0,0,0,0,0,0,0,0,0,0,0,0,0,0,0,0,0,0,0,0,0,0,0,0,0,0,0,0,0,0,0,0,0,0,0,0,0,0,0,0,0,0,0,0,0,0,0,0,0,0,0,0,0,0],"sum_hessian":[1.7319927E3,1.3577798E3,3.742128E2,6.859617E2,6.718182E2,1.9667407E2,1.7753873E2,6.0530475E2,8.0656906E1,6.3449316E2,3.732501E1,1.6032166E2,3.6352413E1,1.2516009E1,1.6502272E2,5.659153E2,3.9389473E1,5.7931824E1,2.272508E1,6.207699E2,1.37232275E1,2.1864826E1,1.5460182E1,2.8937035E1,1.3138463E2,3.0151245E1,6.2011666E0,6.565464E0,5.950545E0,1.5760454E2,7.4181747E0,1.5670181E1,5.502451E2,7.025996E0,3.2363476E1,4.7430992E1,1.0500831E1,1.6824766E1,5.9003143E0,1.1317927E2,5.0759064E2,8.330698E0,5.39253E0,8.931447E0,1.293338E1,7.582257E0,7.8779254E0,8.618517E0,2.031852E1,1.1741077E2,1.3973864E1,6.315487E0,2.3835758E1,1.1990032E2,3.770422E1,9.926199E0,5.743983E0,4.5642828E2,9.3816826E1,1.676867E1,1.5594806E1,4.1948936E1,5.4820585E0,5.1401424E0,5.3606887E0,1.0577049E1,6.247717E0,9.075858E1,2.2420685E1,4.4139865E2,6.619201E1,5.863216E0,7.070164E0,7.2162094E1,4.5248672E1,8.14363E0,5.8302336E0,7.640403E0,1.6195356E1,7.395285E1,4.5947475E1,6.914202E0,3.0790016E1],"tree_param":{"num_deleted":"0","num_feature":"28","num_nodes":"83","size_leaf_vector":"1"}},{"base_weights":[1.0266022E-1,1.2460919E-1,-1.1066668E-1,1.8028177E-1,3.94707E-2,-1.4330396E-1,1.0921221E-2,2.0375149E-1,-1.778617E-2,5.750298E-2,-1.0218757E-1,-9.9765904E-2,-1.8607897E-1,-2.9467074E-2,1.0778981E-2,2.320362E-1,2.0434644E-2,-4.518201E-2,1.5012874E-2,4.9248155E-2,2.2530576E-2,-1.3157769E-1,2.9065305E-2,-1.1697773E-1,4.372258E-3,-1.4133453E-2,-1.5112522E-1,-1.12915605E-1,5.599966E-3,3.0020142E-1,9.44139E-2,-4.3382045E-2,2.0286189E-1,-8.302887E-2,6.7351595E-2,6.916308E-2,-6.941879E-2,-1.9463108E-1,-8.0495484E-2,-4.21087E-3,5.987293E-3,-8.6661115E-2,-2.2501361E-1,-7.3799096E-2,-1.9845015E-1,-3.315121E-2,-1.11485515E-2,2.3957873E-2,6.8493756E-3,2.9813617E-3,1.3411856E-2,-1.1649724E-3,-1.3152252E-2,-1.9561308E-3,1.9108323E-2,-2.1888814E-3,-8.353676E-3,7.6356092E-3,-4.0912903E-3,1.586831E-2,2.5352656E-3,-5.3503853E-3,2.618275E-3,-1.1980753E-2,-9.180849E-4,1.1534457E-3,-8.965897E-3,-2.203862E-3,-7.298107E-3,-6.0241227E-3,-1.4075914E-2,-7.3451735E-3,5.7008895E-3,-1.2929236E-2,-6.7343623E-3,3.1300317E-3,-7.2072796E-3],"categories":[],"categories_nodes":[],"categories_segments":[],"categories_sizes":[],"default_left":[0,0,0,0,0,0,0,0,0,0,0,0,0,0,0,0,0,0,0,0,0,0,0,0,0,0,0,0,0,0,0,0,0,0,0,0,0,0,0,0,0,0,0,0,0,0,0,0,0,0,0,0,0,0,0,0,0,0,0,0,0,0,0,0,0,0,0,0,0,0,0,0,0,0,0,0,0],"id":10,"left_children":[1,3,5,7,9,11,13,15,17,19,21,23,25,27,-1,29,31,33,-1,35,-1,37,39,41,-1,-1,43,45,-1,47,49,51,53,55,57,59,61,63,65,-1,-1,67,69,71,73,75,-1,-1,-1,-1,-1,-1,-1,-1,-1,-1,-1,-1,-1,-1,-1,-1,-1,-1,-1,-1,-1,-1,-1,-1,-1,-1,-1,-1,-1,-1,-1],"loss_changes":[8.253004E0,7.557537E0,6.550958E-1,4.4880505E0,1.620976E0,2.2336721E-1,3.0210772E-1,4.467716E0,9.1204417E-1,1.7999619E0,2.8062922E-1,2.2462195E-1,1.7461276E-1,3.7580886E-1,0E0,6.980896E0,1.3638648E0,4.1364917E-1,0E0,1.3071691E0,0E0,1.737535E-1,1.5335779E-1,1.8147463E-1,0E0,0E0,1.6619003E-1,1.6683698E-1,0E0,1.4515575E1,1.4893506E0,3.7790218E-1,1.3314266E0,2.306807E-1,3.2657552E-1,2.1480992E0,3.7042186E-1,1.9871253E-1,3.5409695E-1,0E0,0E0,1.1867198E-1,4.1799724E-2,2.9620484E-1,8.0443025E-2,1.4380506E-1,0E0,0E0,0E0,0E0,0E0,0E0,0E0,0E0,0E0,0E0,0E0,0E0,0E0,0E0,0E0,0E0,0E0,0E0,0E0,0E0,0E0,0E0,0E0,0E0,0E0,0E0,0E0,0E0,0E0,0E0,0E0],"parents":[2147483647,0,0,1,1,2,2,3,3,4,4,5,5,6,6,7,7,8,8,9,9,10,10,11,11,12,12,13,13,15,15,16,16,17,17,19,19,21,21,22,22,23,23,26,26,27,27,29,29,30,30,31,31,32,32,33,33,34,34,35,35,36,36,37,37,38,38,41,41,42,42,43,43,44,44,45,45],"right_children":[2,4,6,8,10,12,14,16,18,20,22,24,26,28,-1,30,32,34,-1,36,-1,38,40,42,-1,-1,44,46,-1,48,50,52,54,56,58,60,62,64,66,-1,-1,68,70,72,74,76,-1,-1,-1,-1,-1,-1,-1,-1,-1,-1,-1,-1,-1,-1,-1,-1,-1,-1,-1,-1,-1,-1,-1,-1,-1,-1,-1,-1,-1,-1,-1],"split_conditions":[1E0,2.93E2,1E0,1E0,1E0,1.35E2,1E1,1E0,1E0,4.1E1,1E0,1.4E1,4.26E2,5.73E2,1.0778981E-2,1E0,1E0,1E0,1.5012874E-2,1E0,2.2530576E-2,6.66E2,1.9E1,1E0,4.372258E-3,-1.4133453E-2,7.07E2,1.15E2,5.599966E-3,1E0,2.5E1,1E0,1.72E2,8E0,5.97E2,-7.16E2,1E0,3.69E2,1.076E3,-4.21087E-3,5.987293E-3,2.2E1,1.8E1,1.98E2,1.174E3,3.09E2,-1.11485515E-2,2.3957873E-2,6.8493756E-3,2.9813617E-3,1.3411856E-2,-1.1649724E-3,-1.3152252E-2,-1.9561308E-3,1.9108323E-2,-2.1888814E-3,-8.353676E-3,7.6356092E-3,-4.0912903E-3,1.586831E-2,2.5352656E-3,-5.3503853E-3,2.618275E-3,-1.1980753E-2,-9.180849E-4,1.1534457E-3,-8.965897E-3,-2.203862E-3,-7.298107E-3,-6.0241227E-3,-1.4075914E-2,-7.3451735E-3,5.7008895E-3,-1.2929236E-2,-6.7343623E-3,3.1300317E-3,-7.2072796E-3],"split_indices":[14,2,12,15,15,2,5,16,13,5,12,2,2,1,0,18,12,12,0,16,0,2,6,9,0,0,2,1,0,19,6,10,1,5,1,1,8,1,2,0,0,6,6,1,2,2,0,0,0,0,0,0,0,0,0,0,0,0,0,0,0,0,0,0,0,0,0,0,0,0,0,0,0,0,0,0,0],"split_type":[0,0,0,0,0,0,0,0,0,0,0,0,0,0,0,0,0,0,0,0,0,0,0,0,0,0,0,0,0,0,0,0,0,0,0,0,0,0,0,0,0,0,0,0,0,0,0,0,0,0,0,0,0,0,0,0,0,0,0,0,0,0,0,0,0,0,0,0,0,0,0,0,0,0,0,0,0],"sum_hessian":[1.7586477E3,1.5949598E3,1.6368782E2,9.636837E2,6.312762E2,1.2890724E2,3.4780575E1,8.615653E2,1.0211837E2,5.6051935E2,7.075683E1,6.553526E1,6.3371983E1,2.9763014E1,5.017562E0,7.4616986E2,1.15395424E2,9.480955E1,7.3088255E0,5.500933E2,1.0426046E1,5.7809628E1,1.2947199E1,6.036095E1,5.174313E0,1.4956021E1,4.8415962E1,1.8847202E1,1.09158125E1,4.9821796E2,2.4795192E2,8.605416E1,2.9341265E1,7.1144646E1,2.36649E1,4.713993E2,7.8694E1,2.4615408E1,3.3194218E1,5.7879167E0,7.159282E0,4.8541557E1,1.1819392E1,1.9353271E1,2.9062689E1,1.1681832E1,7.1653695E0,2.3672495E2,2.61493E2,2.0772388E2,4.0228054E1,7.9859146E1,6.1950192E0,1.28206625E1,1.6520603E1,4.9532463E1,2.1612185E1,1.5036939E1,8.627962E0,3.1508453E1,4.3989084E2,6.0226368E1,1.8467634E1,1.9324438E1,5.29097E0,1.6582539E1,1.661168E1,2.9267754E1,1.9273804E1,5.246273E0,6.573119E0,1.4087717E1,5.265555E0,1.3384453E1,1.5678236E1,6.5056157E0,5.1762166E0],"tree_param":{"num_deleted":"0","num_feature":"28","num_nodes":"77","size_leaf_vector":"1"}},{"base_weights":[1.0043832E-1,2.6933612E-2,3.5848382E-1,-3.4364124E-3,9.153123E-2,2.7298605E-1,6.6107047E-1,-3.1141248E-2,8.904709E-2,1.21187136E-1,-9.929983E-3,3.315073E-1,1.0021154E-1,7E-1,3.7965748E-1,-8.427637E-2,3.8861573E-2,3.7275974E-2,1.5318488E-1,1.7407672E-1,4.5492414E-2,3.9332505E-2,-2.699114E-1,2.5818583E-1,7E-1,2.9525409E-2,4.1232035E-2,7E-1,9.197338E-3,1.897891E-1,3.5E-2,-9.935782E-2,1.2064092E-1,7.289687E-2,-1.914287E-1,-2.9986493E-2,1.3560328E-1,8.365026E-2,3.267379E-1,1.3099922E-1,3.261994E-1,1.1794987E-2,3.1152275E-1,1.7655008E-2,-5.0393143E-3,-7.8827655E-3,-1.8122E-2,1.670909E-1,3.9295432E-1,7E-1,1.2199184E-2,3.1079265E-1,-6.1954837E-2,3.5E-2,1.4807018E-2,3.468461E-2,3.148706E-2,7.6595094E-4,-5.654403E-3,1.5935456E-2,-4.524329E-3,2.3345005E-2,3.1170784E-3,-2.1514748E-3,-1.2263346E-2,-4.126722E-3,6.548706E-3,1.0018556E-3,2.0205064E-2,1.3385872E-2,1.5658999E-3,-2.8179798E-3,2.531075E-2,2.1571058E-3,1.0227635E-2,2.144934E-2,1.031034E-3,-5.5320146E-3,2.7722795E-3,-2.7442821E-3,2.6244227E-2,3.6551673E-3,-4.794902E-3,2.2301609E-2,3.5079017E-3,2.4881488E-2,-9.3476055E-4,3.5E-2,2.3460407E-2,-2.0927542E-3,3.2119237E-2,2.131983E-3,-9.47758E-3,-4.8280475E-3,1.8811505E-2],"categories":[],"categories_nodes":[],"categories_segments":[],"categories_sizes":[],"default_left":[0,0,0,0,0,0,0,0,0,0,0,0,0,0,0,0,0,0,0,0,0,0,0,0,0,0,0,0,0,0,0,0,0,0,0,0,0,0,0,0,0,0,0,0,0,0,0,0,0,0,0,0,0,0,0,0,0,0,0,0,0,0,0,0,0,0,0,0,0,0,0,0,0,0,0,0,0,0,0,0,0,0,0,0,0,0,0,0,0,0,0,0,0,0,0],"id":11,"left_children":[1,3,5,7,9,11,13,15,17,19,21,23,25,27,29,31,33,35,37,39,41,43,45,47,49,-1,51,53,-1,55,-1,57,59,61,63,65,67,69,71,73,75,77,79,-1,81,-1,-1,83,85,87,-1,89,91,-1,-1,-1,93,-1,-1,-1,-1,-1,-1,-1,-1,-1,-1,-1,-1,-1,-1,-1,-1,-1,-1,-1,-1,-1,-1,-1,-1,-1,-1,-1,-1,-1,-1,-1,-1,-1,-1,-1,-1,-1,-1],"loss_changes":[3.3631313E1,2.7105417E0,9.989929E0,2.4129558E0,1.3306179E0,3.0832043E0,3.0026474E0,2.6983664E0,7.1513736E-1,1.3611383E0,1.3023052E0,6.6935425E0,2.272217E0,1.1825905E0,3.3970528E0,1.2859433E0,2.4699118E0,8.0729264E-1,1.1389489E0,1.2741432E0,1.2694066E0,1.1944035E0,1.1105895E-1,2.3486786E0,1.5496387E0,0E0,2.0209806E0,5.02121E-1,0E0,2.2794282E0,0E0,6.071632E-1,1.2294466E0,1.1092358E0,3.1400037E-1,6.2770426E-1,1.5282643E0,6.6920114E-1,1.9056268E0,1.0140038E0,1.3630157E0,6.8533105E-1,1.2739199E0,0E0,5.468531E-1,0E0,0E0,3.1885383E0,3.3951406E0,1.2543297E-1,0E0,2.3759077E0,7.137766E-1,0E0,0E0,0E0,1.0516458E0,0E0,0E0,0E0,0E0,0E0,0E0,0E0,0E0,0E0,0E0,0E0,0E0,0E0,0E0,0E0,0E0,0E0,0E0,0E0,0E0,0E0,0E0,0E0,0E0,0E0,0E0,0E0,0E0,0E0,0E0,0E0,0E0,0E0,0E0,0E0,0E0,0E0,0E0],"parents":[2147483647,0,0,1,1,2,2,3,3,4,4,5,5,6,6,7,7,8,8,9,9,10,10,11,11,12,12,13,13,14,14,15,15,16,16,17,17,18,18,19,19,20,20,21,21,22,22,23,23,24,24,26,26,27,27,29,29,31,31,32,32,33,33,34,34,35,35,36,36,37,37,38,38,39,39,40,40,41,41,42,42,44,44,47,47,48,48,49,49,51,51,52,52,56,56],"right_children":[2,4,6,8,10,12,14,16,18,20,22,24,26,28,30,32,34,36,38,40,42,44,46,48,50,-1,52,54,-1,56,-1,58,60,62,64,66,68,70,72,74,76,78,80,-1,82,-1,-1,84,86,88,-1,90,92,-1,-1,-1,94,-1,-1,-1,-1,-1,-1,-1,-1,-1,-1,-1,-1,-1,-1,-1,-1,-1,-1,-1,-1,-1,-1,-1,-1,-1,-1,-1,-1,-1,-1,-1,-1,-1,-1,-1,-1,-1,-1],"split_conditions":[1E0,1E0,1E0,1E0,1E0,3.94E2,8E0,1E0,2.03E2,2.93E2,5.55E2,3.61E2,1.72E2,8.51E2,4.47E2,1E0,9.58E2,2.3E1,2E1,1E0,2.8E1,1E0,3.74E2,7E0,1.9E1,2.9525409E-2,1.4E1,7.17E2,9.197338E-3,-7.29E2,3.5E-2,-7.32E2,1E0,1.1E1,1.5E1,1E1,3.67E2,4E0,1E0,2E1,1E0,5E0,6.66E2,1.7655008E-2,2.1E1,-7.8827655E-3,-1.8122E-2,-8.2E2,5.73E2,6.61E2,1.2199184E-2,5E0,4.69E2,3.5E-2,1.4807018E-2,3.468461E-2,2.5E1,7.6595094E-4,-5.654403E-3,1.5935456E-2,-4.524329E-3,2.3345005E-2,3.1170784E-3,-2.1514748E-3,-1.2263346E-2,-4.126722E-3,6.548706E-3,1.0018556E-3,2.0205064E-2,1.3385872E-2,1.5658999E-3,-2.8179798E-3,2.531075E-2,2.1571058E-3,1.0227635E-2,2.144934E-2,1.031034E-3,-5.5320146E-3,2.7722795E-3,-2.7442821E-3,2.6244227E-2,3.6551673E-3,-4.794902E-3,2.2301609E-2,3.5079017E-3,2.4881488E-2,-9.3476055E-4,3.5E-2,2.3460407E-2,-2.0927542E-3,3.2119237E-2,2.131983E-3,-9.47758E-3,-4.8280475E-3,1.8811505E-2],"split_indices":[17,19,9,12,12,0,5,18,1,2,0,0,1,0,0,13,2,6,6,8,6,22,1,1,6,0,6,2,0,1,0,1,16,6,6,5,2,5,27,6,9,5,2,0,6,0,0,1,1,1,0,5,2,0,0,0,6,0,0,0,0,0,0,0,0,0,0,0,0,0,0,0,0,0,0,0,0,0,0,0,0,0,0,0,0,0,0,0,0,0,0,0,0,0,0],"split_type":[0,0,0,0,0,0,0,0,0,0,0,0,0,0,0,0,0,0,0,0,0,0,0,0,0,0,0,0,0,0,0,0,0,0,0,0,0,0,0,0,0,0,0,0,0,0,0,0,0,0,0,0,0,0,0,0,0,0,0,0,0,0,0,0,0,0,0,0,0,0,0,0,0,0,0,0,0,0,0,0,0,0,0,0,0,0,0,0,0,0,0,0,0,0,0],"sum_hessian":[1.7726055E3,1.3804781E3,3.921272E2,9.396544E2,4.408238E2,3.072219E2,8.490531E1,7.235633E2,2.1609108E2,3.4096838E2,9.985543E1,2.2880394E2,7.841795E1,5.0601646E1,3.4303665E1,4.112234E2,3.1233994E2,1.2044818E2,9.56429E1,1.9995538E2,1.41013E2,8.4661995E1,1.5193437E1,1.9565959E2,3.3144344E1,7.4525785E0,7.096538E1,4.5321033E1,5.2806125E0,2.7849224E1,6.454439E0,3.8351282E2,2.7710552E1,2.7271765E2,3.9622303E1,7.193491E1,4.8513268E1,6.934256E1,2.6300343E1,1.5727888E2,4.2676483E1,1.2608629E2,1.492671E1,9.627194E0,7.50348E1,8.0865965E0,7.10684E0,1.18082886E2,7.7576706E1,2.4336096E1,8.8082485E0,1.908823E1,5.1877148E1,4.0238247E1,5.0827875E0,5.8489413E0,2.2000282E1,4.0995655E1,3.4251718E2,1.4034551E1,1.3676002E1,5.9874434E0,2.667302E2,1.1026952E1,2.859535E1,5.4597874E1,1.7337036E1,3.4666733E1,1.3846534E1,1.4439407E1,5.490315E1,8.609393E0,1.7690948E1,7.239368E1,8.4885216E1,3.1632442E1,1.1044043E1,3.273459E1,9.33517E1,5.7665358E0,9.160174E0,4.044536E1,3.458944E1,2.9523214E1,8.855967E1,6.168293E1,1.5893779E1,1.378187E1,1.0554225E1,9.673863E0,9.414367E0,2.8874098E1,2.300305E1,1.6566782E1,5.433501E0],"tree_param":{"num_deleted":"0","num_feature":"28","num_nodes":"95","size_leaf_vector":"1"}},{"base_weights":[8.7857954E-2,2.1613605E-2,3.2176328E-1,-1.3369001E-2,7.786327E-2,7E-1,2.878162E-1,3.0100453E-3,-1.3071054E-1,3.3142486E-1,5.9112534E-2,2.0752696E-2,3.5E-2,1.871911E-1,3.8321638E-1,-2.1814678E-3,1.6080337E-2,-1.5785399E-1,8.657492E-3,4.5505062E-1,9.066742E-2,-9.048676E-2,8.383592E-2,7.940809E-2,2.7533552E-1,1.8182015E-1,4.9402267E-1,2.5803694E-3,-2.664401E-1,-1.9253269E-1,-9.104433E-2,6.9064575E-1,1.8791565E-1,1.242253E-2,-2.4471264E-3,6.893057E-3,-1.2559974E-1,4.693373E-2,1.8186702E-1,2.4054998E-1,-3.994804E-3,4.794535E-1,1.4663833E-1,9.303691E-2,5.7532424E-1,6.329429E-1,3.737876E-1,9.1311027E-4,-4.2660115E-3,-1.7341835E-2,-6.7430637E-3,-4.4867042E-3,-1.0639152E-2,8.683342E-3,-7.2202072E-3,3.5E-2,1.3286036E-2,4.85429E-3,1.2697818E-2,-3.9833663E-3,-1.1400655E-2,8.44171E-3,8.943537E-4,7.2736964E-3,3.5E-2,1.7754532E-2,-6.065063E-3,-9.092174E-3,4.5435317E-3,6.4404553E-4,3.2654967E-2,4.821413E-3,2.9919729E-2,1.3356969E-2,-1.8594217E-3,3.5E-2,2.2361763E-3,3.5E-2,5.9229797E-3,2.1120444E-2,-8.961498E-3],"categories":[],"categories_nodes":[],"categories_segments":[],"categories_sizes":[],"default_left":[0,0,0,0,0,0,0,0,0,0,0,0,0,0,0,0,0,0,0,0,0,0,0,0,0,0,0,0,0,0,0,0,0,0,0,0,0,0,0,0,0,0,0,0,0,0,0,0,0,0,0,0,0,0,0,0,0,0,0,0,0,0,0,0,0,0,0,0,0,0,0,0,0,0,0,0,0,0,0,0,0],"id":12,"left_children":[1,3,5,7,9,11,13,15,17,19,21,-1,-1,23,25,27,-1,29,-1,31,33,35,37,39,41,43,45,47,49,51,53,55,57,-1,-1,-1,59,61,63,65,67,69,71,73,75,77,79,-1,-1,-1,-1,-1,-1,-1,-1,-1,-1,-1,-1,-1,-1,-1,-1,-1,-1,-1,-1,-1,-1,-1,-1,-1,-1,-1,-1,-1,-1,-1,-1,-1,-1],"loss_changes":[2.7473812E1,2.722808E0,7.0909576E0,1.6410778E0,2.5027518E0,1.7243195E-1,3.5201454E0,1.241324E0,8.8992906E-1,1.0395634E0,1.8391616E0,0E0,0E0,1.7267175E0,4.1750965E0,9.306651E-1,0E0,2.061224E-1,0E0,1.3645797E0,3.110583E-1,5.842979E-1,1.5307143E0,1.1326809E0,2.578833E0,2.3715146E0,1.8129292E0,1.0036176E0,9.1709256E-2,1.1132455E-1,5.17785E-1,8.207054E-1,5.033192E-2,0E0,0E0,0E0,2.7260786E-1,1.0963116E0,2.360162E0,1.2340642E0,9.6929747E-1,3.115281E0,1.3778759E0,1.3210322E0,2.3516908E0,3.1128902E0,1.9099579E0,0E0,0E0,0E0,0E0,0E0,0E0,0E0,0E0,0E0,0E0,0E0,0E0,0E0,0E0,0E0,0E0,0E0,0E0,0E0,0E0,0E0,0E0,0E0,0E0,0E0,0E0,0E0,0E0,0E0,0E0,0E0,0E0,0E0,0E0],"parents":[2147483647,0,0,1,1,2,2,3,3,4,4,5,5,6,6,7,7,8,8,9,9,10,10,13,13,14,14,15,15,17,17,19,19,20,20,21,21,22,22,23,23,24,24,25,25,26,26,27,27,28,28,29,29,30,30,31,31,32,32,36,36,37,37,38,38,39,39,40,40,41,41,42,42,43,43,44,44,45,45,46,46],"right_children":[2,4,6,8,10,12,14,16,18,20,22,-1,-1,24,26,28,-1,30,-1,32,34,36,38,40,42,44,46,48,50,52,54,56,58,-1,-1,-1,60,62,64,66,68,70,72,74,76,78,80,-1,-1,-1,-1,-1,-1,-1,-1,-1,-1,-1,-1,-1,-1,-1,-1,-1,-1,-1,-1,-1,-1,-1,-1,-1,-1,-1,-1,-1,-1,-1,-1,-1,-1],"split_conditions":[1E0,3.96E2,-1.613E3,1E0,1.3E1,8.98E2,1.4E1,7.54E2,2.7E1,1E0,1.5E1,2.0752696E-2,3.5E-2,7E0,7E0,1.636E3,1.6080337E-2,2.17E2,8.657492E-3,1E0,4E0,-7.13E2,7.54E2,-1.94E2,8E0,2.8E1,5.73E2,1E0,6E0,4E0,3.52E2,1.076E3,1.1E1,1.242253E-2,-2.4471264E-3,6.893057E-3,1E0,5E0,1E0,2.5E1,3.18E2,-5.25E2,3.6E1,-7.32E2,3E1,1E0,1.5E1,9.1311027E-4,-4.2660115E-3,-1.7341835E-2,-6.7430637E-3,-4.4867042E-3,-1.0639152E-2,8.683342E-3,-7.2202072E-3,3.5E-2,1.3286036E-2,4.85429E-3,1.2697818E-2,-3.9833663E-3,-1.1400655E-2,8.44171E-3,8.943537E-4,7.2736964E-3,3.5E-2,1.7754532E-2,-6.065063E-3,-9.092174E-3,4.5435317E-3,6.4404553E-4,3.2654967E-2,4.821413E-3,2.9919729E-2,1.3356969E-2,-1.8594217E-3,3.5E-2,2.2361763E-3,3.5E-2,5.9229797E-3,2.1120444E-2,-8.961498E-3],"split_indices":[17,3,1,14,6,3,3,1,4,11,6,0,0,4,1,0,0,1,0,12,4,0,1,0,4,6,1,15,4,5,0,3,6,0,0,0,18,4,23,6,0,0,4,1,6,9,5,0,0,0,0,0,0,0,0,0,0,0,0,0,0,0,0,0,0,0,0,0,0,0,0,0,0,0,0,0,0,0,0,0,0],"split_type":[0,0,0,0,0,0,0,0,0,0,0,0,0,0,0,0,0,0,0,0,0,0,0,0,0,0,0,0,0,0,0,0,0,0,0,0,0,0,0,0,0,0,0,0,0,0,0,0,0,0,0,0,0,0,0,0,0,0,0,0,0,0,0,0,0,0,0,0,0,0,0,0,0,0,0,0,0,0,0,0,0],"sum_hessian":[1.7725353E3,1.3821803E3,3.9035498E2,8.526594E2,5.295208E2,1.7187412E1,3.7316757E2,7.4907465E2,1.03584785E2,3.5313244E1,4.9420755E2,7.1586123E0,1.00288E1,1.8305215E2,1.9011542E2,7.3804144E2,1.1033187E1,9.553157E1,8.053209E0,2.2744278E1,1.2568963E1,6.971395E1,4.244936E2,8.320722E1,9.984493E1,6.8412674E1,1.2170275E2,7.259504E2,1.2091106E1,6.164953E1,3.3882042E1,1.1243172E1,1.1501106E1,5.5344644E0,7.0344987E0,8.901196E0,6.081276E1,3.0947543E2,1.1501817E2,2.7735514E1,5.5471706E1,3.7555393E1,6.2289536E1,5.682755E1,1.1585124E1,5.448559E1,6.7217155E1,6.167176E2,1.0923277E2,6.489788E0,5.601318E0,1.1039578E1,5.060995E1,5.3058357E0,2.8576206E1,5.287775E0,5.9553967E0,5.8817134E0,5.6193933E0,4.3210663E1,1.7602093E1,5.862608E1,2.5084935E2,1.0955837E2,5.459803E0,2.1081154E1,6.6543603E0,1.8977272E1,3.6494434E1,1.0477462E1,2.7077932E1,5.715099E1,5.138547E0,2.3867268E1,3.296028E1,5.5115223E0,6.0736012E0,4.4094376E1,1.0391215E1,6.200211E1,5.215049E0],"tree_param":{"num_deleted":"0","num_feature":"28","num_nodes":"81","size_leaf_vector":"1"}},{"base_weights":[8.903868E-2,1.7254367E-2,3.359758E-1,6.120986E-3,2.3227727E-1,2.9323044E-1,5.0015855E-1,4.5911133E-2,-5.3308968E-2,3.2271373E-1,5.697728E-2,2.5901577E-1,7E-1,6.456187E-1,-1.0281406E-1,1.521984E-2,1.1146015E-1,-1.11686796E-1,-3.0481774E-2,2.3457658E-1,3.5E-2,-7.130272E-2,1.1369686E-2,-1.5954593E-1,2.7667695E-1,3.5E-2,1.4572689E-2,7E-1,-4.9759843E-3,2.3657174E-3,-1.3837307E-2,-1.4237697E-3,1.5883757E-1,9.3984075E-2,3.9992812E-1,-1.5080607E-1,8.655636E-2,-6.253172E-2,4.2553283E-2,3.545059E-1,5.673551E-2,-4.3915745E-4,-7.5180456E-3,1.4760323E-3,-1.4996843E-2,3.225204E-1,8.97984E-2,3.5E-2,5.150888E-1,2.9304918E-4,-1.2366588E-2,2.5307516E-2,5.331386E-3,8.776235E-3,1.1245097E-3,6.543821E-3,3.4262482E-2,-5.4081455E-3,-1.1139923E-2,1.9860847E-2,-4.3084277E-3,-3.811134E-3,1.5717128E-2,3.1016862E-3,-1.3374026E-2,5.2640922E-3,3.3690896E-2,-4.9543534E-3,7.6817893E-3,1.24783395E-2,2.7669236E-2,-3.0696967E-3,1.30603835E-2,3.5E-2,1.644765E-2],"categories":[],"categories_nodes":[],"categories_segments":[],"categories_sizes":[],"default_left":[0,0,0,0,0,0,0,0,0,0,0,0,0,0,0,0,0,0,0,0,0,0,0,0,0,0,0,0,0,0,0,0,0,0,0,0,0,0,0,0,0,0,0,0,0,0,0,0,0,0,0,0,0,0,0,0,0,0,0,0,0,0,0,0,0,0,0,0,0,0,0,0,0,0,0],"id":13,"left_children":[1,3,5,7,9,11,13,15,17,19,21,23,25,27,29,31,33,35,37,39,-1,41,-1,43,45,-1,-1,47,-1,-1,-1,49,51,53,55,57,59,61,63,65,67,-1,-1,-1,-1,69,71,-1,73,-1,-1,-1,-1,-1,-1,-1,-1,-1,-1,-1,-1,-1,-1,-1,-1,-1,-1,-1,-1,-1,-1,-1,-1,-1,-1],"loss_changes":[3.1611698E1,3.3093538E0,2.6722908E0,3.1142635E0,1.0605323E0,5.4334145E0,7.219593E0,1.5850812E0,7.004615E-1,1.6769867E0,5.4908353E-1,2.28903E0,1.0384684E0,5.198557E0,4.4951725E-1,1.2870961E0,1.2296598E0,1.1616006E0,8.946991E-1,8.1945634E-1,0E0,7.117987E-2,0E0,3.5203686E-1,2.4705029E0,0E0,0E0,9.9269867E-1,0E0,0E0,0E0,8.6748797E-1,9.600353E-1,1.3853874E0,9.890158E-1,3.5675693E-1,1.3780429E0,1.3926634E0,7.2215766E-1,1.784816E0,2.725853E-1,0E0,0E0,0E0,0E0,3.8012104E0,1.5413635E0,0E0,3.111042E0,0E0,0E0,0E0,0E0,0E0,0E0,0E0,0E0,0E0,0E0,0E0,0E0,0E0,0E0,0E0,0E0,0E0,0E0,0E0,0E0,0E0,0E0,0E0,0E0,0E0,0E0],"parents":[2147483647,0,0,1,1,2,2,3,3,4,4,5,5,6,6,7,7,8,8,9,9,10,10,11,11,12,12,13,13,14,14,15,15,16,16,17,17,18,18,19,19,21,21,23,23,24,24,27,27,31,31,32,32,33,33,34,34,35,35,36,36,37,37,38,38,39,39,40,40,45,45,46,46,48,48],"right_children":[2,4,6,8,10,12,14,16,18,20,22,24,26,28,30,32,34,36,38,40,-1,42,-1,44,46,-1,-1,48,-1,-1,-1,50,52,54,56,58,60,62,64,66,68,-1,-1,-1,-1,70,72,-1,74,-1,-1,-1,-1,-1,-1,-1,-1,-1,-1,-1,-1,-1,-1,-1,-1,-1,-1,-1,-1,-1,-1,-1,-1,-1,-1],"split_conditions":[1E0,1E0,1E0,2.93E2,3.94E2,3.4E1,1E1,1E0,5E0,3.61E2,8.7E2,-1.581E3,3.5E1,1.214E3,3E1,1E0,1.79E2,2.6E1,1E0,8E0,3.5E-2,8E0,1.1369686E-2,1.9E1,5.12E2,3.5E-2,1.4572689E-2,1E0,-4.9759843E-3,2.3657174E-3,-1.3837307E-2,3.6E1,1.06E2,7E0,7E0,7.12E2,-7.41E2,3.6E1,1.452E3,7E0,9E0,-4.3915745E-4,-7.5180456E-3,1.4760323E-3,-1.4996843E-2,3.61E2,8.16E2,3.5E-2,-6.97E2,2.9304918E-4,-1.2366588E-2,2.5307516E-2,5.331386E-3,8.776235E-3,1.1245097E-3,6.543821E-3,3.4262482E-2,-5.4081455E-3,-1.1139923E-2,1.9860847E-2,-4.3084277E-3,-3.811134E-3,1.5717128E-2,3.1016862E-3,-1.3374026E-2,5.2640922E-3,3.3690896E-2,-4.9543534E-3,7.6817893E-3,1.24783395E-2,2.7669236E-2,-3.0696967E-3,1.30603835E-2,3.5E-2,1.644765E-2],"split_indices":[17,23,9,2,0,4,4,19,5,0,0,0,5,2,4,13,2,6,19,4,0,5,0,6,0,0,0,27,0,0,0,5,3,4,5,2,0,4,0,4,4,0,0,0,0,0,0,0,0,0,0,0,0,0,0,0,0,0,0,0,0,0,0,0,0,0,0,0,0,0,0,0,0,0,0],"split_type":[0,0,0,0,0,0,0,0,0,0,0,0,0,0,0,0,0,0,0,0,0,0,0,0,0,0,0,0,0,0,0,0,0,0,0,0,0,0,0,0,0,0,0,0,0,0,0,0,0,0,0,0,0,0,0,0,0,0,0,0,0,0,0,0,0,0,0,0,0,0,0,0,0,0,0],"sum_hessian":[1.782658E3,1.3819862E3,4.0067175E2,1.3149307E3,6.705556E1,3.2011508E2,8.055669E1,7.8774146E2,5.271892E2,4.3680218E1,2.3375341E1,3.0267908E2,1.7435999E1,6.484327E1,1.5713414E1,5.3736786E2,2.5037361E2,1.4710162E2,3.800876E2,3.8364002E1,5.316214E0,1.3668245E1,9.707097E0,1.1929191E1,2.9074988E2,9.278552E0,8.157448E0,5.6639603E1,8.20367E0,8.824539E0,6.888875E0,4.8244788E2,5.4919964E1,2.3732188E2,1.3051724E1,1.23057915E2,2.4043701E1,2.6426437E2,1.1582322E2,2.2319313E1,1.604469E1,8.252907E0,5.4153385E0,5.4198813E0,6.50931E0,2.3289278E2,5.7857105E1,1.4275977E1,4.2363625E1,4.6951517E2,1.2932704E1,6.0407667E0,4.8879196E1,1.1019104E2,1.2713085E2,7.4681377E0,5.583586E0,7.885328E1,4.420464E1,8.12696E0,1.5916741E1,2.5577058E2,8.493795E0,1.0972852E2,6.09469E0,1.3282216E1,9.037097E0,6.1432834E0,9.901406E0,1.7855122E2,5.4341564E1,3.1082483E1,2.6774622E1,6.438207E0,3.5925415E1],"tree_param":{"num_deleted":"0","num_feature":"28","num_nodes":"75","size_leaf_vector":"1"}},{"base_weights":[8.1357144E-2,2.1087974E-2,2.889334E-1,3.83333E-2,-1.04094036E-1,2.2765094E-1,5.2180445E-1,6.755964E-2,-2.4625076E-2,-1.3966353E-1,1.7473647E-2,1.9696553E-1,7E-1,3.6665285E-1,3.5E-2,2.7173245E-1,5.46757E-2,-3.336835E-2,1.50138885E-2,-9.870587E-2,-1.7771259E-1,-4.538857E-2,1.5463391E-2,2.646683E-1,7.765503E-2,3.5E-2,1.5406812E-2,7E-1,9.4765544E-2,1.4112498E-1,3.179883E-2,5.034127E-2,2.4201034E-2,-1.5513128E-1,-6.502911E-3,-1.5870692E-1,-7.032558E-2,-3.003678E-3,-1.9544059E-1,-9.392386E-2,5.217112E-3,1.1967124E-1,3.8908467E-1,-3.2222874E-2,3.291022E-1,3.0435434E-1,3.5E-2,-3.495527E-2,2.6220372E-2,3.4213716E-3,2.4869481E-2,1.8847728E-3,5.909651E-3,-3.9530746E-3,-1.4607822E-2,-4.4588055E-3,1.0035596E-3,-1.3853259E-3,-1.01391515E-2,-6.645787E-3,-1.2748064E-3,-1.3360296E-2,-8.313656E-3,3.1526058E-3,-9.534875E-3,8.984324E-3,-1.1666323E-2,3.5E-2,1.36183025E-2,3.4451985E-3,-1.0148176E-2,3.5E-2,8.001857E-3,3.278158E-2,-6.7175934E-3,-5.9688236E-3,1.2436249E-2],"categories":[],"categories_nodes":[],"categories_segments":[],"categories_sizes":[],"default_left":[0,0,0,0,0,0,0,0,0,0,0,0,0,0,0,0,0,0,0,0,0,0,0,0,0,0,0,0,0,0,0,0,0,0,0,0,0,0,0,0,0,0,0,0,0,0,0,0,0,0,0,0,0,0,0,0,0,0,0,0,0,0,0,0,0,0,0,0,0,0,0,0,0,0,0,0,0],"id":14,"left_children":[1,3,5,7,9,11,13,15,17,19,21,23,25,27,-1,29,31,33,-1,35,37,39,-1,41,43,-1,-1,45,47,49,-1,51,-1,53,55,57,59,-1,61,63,-1,65,67,69,71,73,-1,75,-1,-1,-1,-1,-1,-1,-1,-1,-1,-1,-1,-1,-1,-1,-1,-1,-1,-1,-1,-1,-1,-1,-1,-1,-1,-1,-1,-1,-1],"loss_changes":[2.232616E1,2.9928463E0,5.6123047E0,2.2420816E0,7.2848344E-1,4.5066395E0,4.4839153E0,2.1733162E0,1.1086915E0,1.850667E-1,7.274986E-1,2.4159307E0,8.81588E-1,8.089031E0,0E0,2.2471998E0,1.4340856E0,1.2339525E0,0E0,9.928769E-2,1.2621284E-1,2.48701E-1,0E0,3.4174786E0,3.066664E0,0E0,0E0,1.4589939E0,2.4808717E0,9.357324E-1,0E0,6.622344E-1,0E0,6.877394E-1,6.8356967E-1,1.1004615E-1,1.2520273E-1,0E0,7.497215E-2,3.9715797E-1,0E0,1.9511367E0,4.458948E0,1.3588085E0,3.1380606E0,2.0068498E0,0E0,8.6490107E-1,0E0,0E0,0E0,0E0,0E0,0E0,0E0,0E0,0E0,0E0,0E0,0E0,0E0,0E0,0E0,0E0,0E0,0E0,0E0,0E0,0E0,0E0,0E0,0E0,0E0,0E0,0E0,0E0,0E0],"parents":[2147483647,0,0,1,1,2,2,3,3,4,4,5,5,6,6,7,7,8,8,9,9,10,10,11,11,12,12,13,13,15,15,16,16,17,17,19,19,20,20,21,21,23,23,24,24,27,27,28,28,29,29,31,31,33,33,34,34,35,35,36,36,38,38,39,39,41,41,42,42,43,43,44,44,45,45,47,47],"right_children":[2,4,6,8,10,12,14,16,18,20,22,24,26,28,-1,30,32,34,-1,36,38,40,-1,42,44,-1,-1,46,48,50,-1,52,-1,54,56,58,60,-1,62,64,-1,66,68,70,72,74,-1,76,-1,-1,-1,-1,-1,-1,-1,-1,-1,-1,-1,-1,-1,-1,-1,-1,-1,-1,-1,-1,-1,-1,-1,-1,-1,-1,-1,-1,-1],"split_conditions":[1E0,1E0,1E0,4.47E2,1E0,3.4E1,2.5E1,1.3E1,3.6E1,9.2E1,9E0,2.93E2,3.5E1,6E0,3.5E-2,1E0,4.32E2,1.6E1,1.50138885E-2,5E0,4E0,2.3E1,1.5463391E-2,7E0,1.214E3,3.5E-2,1.5406812E-2,1.79E2,4.96E2,8.92E2,3.179883E-2,8.16E2,2.4201034E-2,1.4E1,5.72E2,1.6E1,8.9E1,-3.003678E-3,4.15E2,1.6E1,5.217112E-3,1.12E2,7E0,1.92E2,1.268E3,2E1,3.5E-2,9.58E2,2.6220372E-2,3.4213716E-3,2.4869481E-2,1.8847728E-3,5.909651E-3,-3.9530746E-3,-1.4607822E-2,-4.4588055E-3,1.0035596E-3,-1.3853259E-3,-1.01391515E-2,-6.645787E-3,-1.2748064E-3,-1.3360296E-2,-8.313656E-3,3.1526058E-3,-9.534875E-3,8.984324E-3,-1.1666323E-2,3.5E-2,1.36183025E-2,3.4451985E-3,-1.0148176E-2,3.5E-2,8.001857E-3,3.278158E-2,-6.7175934E-3,-5.9688236E-3,1.2436249E-2],"split_indices":[17,14,9,2,12,4,6,6,4,2,4,2,5,5,0,13,2,6,0,4,4,6,0,4,2,0,0,3,0,1,0,1,0,6,2,6,0,0,2,6,0,2,5,1,2,6,0,3,0,0,0,0,0,0,0,0,0,0,0,0,0,0,0,0,0,0,0,0,0,0,0,0,0,0,0,0,0],"split_type":[0,0,0,0,0,0,0,0,0,0,0,0,0,0,0,0,0,0,0,0,0,0,0,0,0,0,0,0,0,0,0,0,0,0,0,0,0,0,0,0,0,0,0,0,0,0,0,0,0,0,0,0,0,0,0,0,0,0,0,0,0,0,0,0,0,0,0,0,0,0,0,0,0,0,0,0,0],"sum_hessian":[1.7840884E3,1.383496E3,4.0059247E2,1.2165898E3,1.6690608E2,3.1870062E2,8.189182E1,8.30831E2,3.8575885E2,1.2901015E2,3.789593E1,3.0063257E2,1.8068071E1,6.744863E1,1.4443193E1,4.8123505E1,7.827075E2,3.7652374E2,9.235118E0,6.3861286E1,6.5148865E1,3.1873716E1,6.022214E0,1.9101994E2,1.0961262E2,1.0135969E1,7.932102E0,2.4264423E1,4.3184204E1,3.6443398E1,1.1680107E1,7.759908E2,6.7167187E0,6.719585E1,3.0932788E2,1.9032019E1,4.4829266E1,9.1068E0,5.6042065E1,2.4352547E1,7.52117E0,8.911989E1,1.0190006E2,7.688646E1,3.272616E1,1.1450818E1,1.2813606E1,3.3875034E1,9.309172E0,3.1257267E1,5.18613E0,6.553972E2,1.2059355E2,4.422258E1,2.2973269E1,7.467011E1,2.3465778E2,5.201382E0,1.3830637E1,1.7888588E1,2.6940678E1,1.3836597E1,4.2205467E1,9.420334E0,1.4932213E1,7.658943E1,1.2530454E1,2.144294E1,8.045712E1,4.8661503E1,2.8224958E1,5.369698E0,2.7356459E1,6.0844564E0,5.3663616E0,2.6552414E1,7.3226204E0],"tree_param":{"num_deleted":"0","num_feature":"28","num_nodes":"77","size_leaf_vector":"1"}},{"base_weights":[8.5457936E-2,1.0210443E-1,-8.177175E-2,1.3947816E-1,4.307459E-2,-1.3269728E-1,1.0901628E-1,1.3558713E-1,3.5E-2,3.472185E-2,3.7795278E-1,-1.0159377E-1,-2.2071041E-1,-5.2350564E-3,2.0356866E-2,1.5122023E-1,1.4963615E-2,3.0166509E-2,2.2512516E-2,3.383312E-2,3.480641E-3,-5.5329163E-2,-1.5528774E-1,-1.3534136E-1,-1.47295E-2,6.284866E-2,-9.092003E-2,1.7962544E-1,8.1583515E-2,-2.164406E-2,3.4605938E-1,4.2318046E-2,-1.5433499E-1,-8.179182E-2,2.571837E-2,-2.2809313E-1,-1.14471585E-1,-2.4009171E-1,3.6738354E-3,-2.6110886E-3,1.1682551E-2,-4.3049623E-4,-8.285508E-3,1.5075298E-2,7.4161426E-3,2.8986228E-3,1.87468E-2,-3.0445855E-3,5.6880596E-3,3.4042303E-2,-1.8943998E-3,2.6185026E-3,-7.43802E-3,-5.8384147E-3,-1.0756342E-2,-4.863371E-3,3.1255488E-4,5.241364E-3,-2.3119885E-3,-1.4390232E-2,-4.7768936E-3,-9.25937E-3,-2.3079661E-3,-1.5975986E-2,-6.0429717E-3],"categories":[],"categories_nodes":[],"categories_segments":[],"categories_sizes":[],"default_left":[0,0,0,0,0,0,0,0,0,0,0,0,0,0,0,0,0,0,0,0,0,0,0,0,0,0,0,0,0,0,0,0,0,0,0,0,0,0,0,0,0,0,0,0,0,0,0,0,0,0,0,0,0,0,0,0,0,0,0,0,0,0,0,0,0],"id":15,"left_children":[1,3,5,7,9,11,13,15,-1,17,19,21,23,25,-1,27,29,31,-1,-1,-1,33,35,37,-1,39,41,43,45,47,49,51,53,55,57,59,61,63,-1,-1,-1,-1,-1,-1,-1,-1,-1,-1,-1,-1,-1,-1,-1,-1,-1,-1,-1,-1,-1,-1,-1,-1,-1,-1,-1],"loss_changes":[4.9591827E0,3.563324E0,1.5841829E0,2.128521E0,1.745362E0,3.2790542E-1,1.180203E0,1.8548527E0,0E0,1.1495366E0,1.3526874E0,2.3090237E-1,1.6550648E-1,1.5734485E-1,0E0,1.7096691E0,1.3904876E0,1.3716283E0,0E0,0E0,0E0,1.1650619E-1,1.04845524E-1,3.8854945E-1,0E0,3.0848736E-1,7.193474E-2,2.3143444E0,1.7402929E0,5.5793864E-1,1.4935542E0,1.106524E0,6.1294854E-2,5.572316E-2,8.391774E-2,8.9830756E-2,1.3755965E-1,7.054365E-2,0E0,0E0,0E0,0E0,0E0,0E0,0E0,0E0,0E0,0E0,0E0,0E0,0E0,0E0,0E0,0E0,0E0,0E0,0E0,0E0,0E0,0E0,0E0,0E0,0E0,0E0,0E0],"parents":[2147483647,0,0,1,1,2,2,3,3,4,4,5,5,6,6,7,7,9,9,10,10,11,11,12,12,13,13,15,15,16,16,17,17,21,21,22,22,23,23,25,25,26,26,27,27,28,28,29,29,30,30,31,31,32,32,33,33,34,34,35,35,36,36,37,37],"right_children":[2,4,6,8,10,12,14,16,-1,18,20,22,24,26,-1,28,30,32,-1,-1,-1,34,36,38,-1,40,42,44,46,48,50,52,54,56,58,60,62,64,-1,-1,-1,-1,-1,-1,-1,-1,-1,-1,-1,-1,-1,-1,-1,-1,-1,-1,-1,-1,-1,-1,-1,-1,-1,-1,-1],"split_conditions":[1E0,2.93E2,1E0,2.91E2,4.1E1,1E0,8E0,1E0,3.5E-2,3.6E1,4.2E1,1.35E2,7E0,3.74E2,2.0356866E-2,1E0,1.3E2,2.8E1,2.2512516E-2,3.383312E-2,3.480641E-3,9E0,4.58E2,3.69E2,-1.47295E-2,-1.79E2,6E0,1E0,1E0,9.94E2,1.75E2,1E0,3.3E1,1.264E3,1.5E1,2.3E1,7E0,5.43E2,3.6738354E-3,-2.6110886E-3,1.1682551E-2,-4.3049623E-4,-8.285508E-3,1.5075298E-2,7.4161426E-3,2.8986228E-3,1.87468E-2,-3.0445855E-3,5.6880596E-3,3.4042303E-2,-1.8943998E-3,2.6185026E-3,-7.43802E-3,-5.8384147E-3,-1.0756342E-2,-4.863371E-3,3.1255488E-4,5.241364E-3,-2.3119885E-3,-1.4390232E-2,-4.7768936E-3,-9.25937E-3,-2.3079661E-3,-1.5975986E-2,-6.0429717E-3],"split_indices":[14,2,12,2,5,9,4,16,0,4,4,2,4,1,0,18,2,4,0,0,0,5,2,1,0,1,5,27,23,3,2,20,4,3,5,6,1,2,0,0,0,0,0,0,0,0,0,0,0,0,0,0,0,0,0,0,0,0,0,0,0,0,0,0,0],"split_type":[0,0,0,0,0,0,0,0,0,0,0,0,0,0,0,0,0,0,0,0,0,0,0,0,0,0,0,0,0,0,0,0,0,0,0,0,0,0,0,0,0,0,0,0,0,0,0,0,0,0,0,0,0,0,0,0,0,0,0,0,0,0,0,0,0],"sum_hessian":[1.7774508E3,1.6168905E3,1.6056027E2,9.892201E2,6.276705E2,1.26972885E2,3.358739E1,9.8383386E2,5.3862205E0,6.1347253E2,1.4197926E1,9.540974E1,3.1563147E1,2.4991959E1,8.59543E0,8.7073126E2,1.1310261E2,6.0788104E2,5.5914607E0,6.6048403E0,7.5930853E0,5.2341194E1,4.3068546E1,1.5956766E1,1.5606381E1,1.4074853E1,1.0917106E1,6.1733673E2,2.5339453E2,1.0268396E2,1.0418645E1,5.7104205E2,3.6839024E1,3.9450962E1,1.2890231E1,1.3823221E1,2.9245323E1,1.052653E1,5.430236E0,8.824201E0,5.250653E0,5.7281375E0,5.188968E0,1.24387314E2,4.929494E2,2.3562723E2,1.776731E1,8.003567E1,2.2648296E1,5.1525493E0,5.266095E0,5.431924E2,2.784963E1,2.4574097E1,1.2264927E1,3.3464092E1,5.986869E0,5.922456E0,6.9677753E0,8.722733E0,5.1004887E0,1.3529202E1,1.5716121E1,5.309641E0,5.2168894E0],"tree_param":{"num_deleted":"0","num_feature":"28","num_nodes":"65","size_leaf_vector":"1"}},{"base_weights":[8.770231E-2,2.572054E-2,2.949269E-1,6.0731843E-2,-2.3337686E-2,3.700784E-1,1.6582353E-1,5.223856E-2,2.406262E-1,-9.35616E-2,2.649824E-3,3.1776026E-1,5.962341E-1,2.4688266E-1,6.4498945E-3,7.918169E-2,2.5827866E-3,1.24611214E-1,2.6988318E-2,-7.5075105E-2,-1.5947903E-2,1.2265118E-2,-1.907481E-1,2.7804315E-1,3.5E-2,7E-1,-4.201648E-3,4.0629077E-1,3.7456427E-2,-6.027234E-2,2.4074784E-2,-8.754009E-2,9.2533946E-2,1.2372171E-1,-2.2690272E-2,2.6346368E-1,-6.811653E-2,-2.0980015E-1,-5.9477743E-2,4.2776853E-2,-4.8317425E-2,-2.7988487E-1,-1.1974007E-3,-8.60753E-2,3.0541864E-1,3.7372372E-1,3.5E-2,2.2669749E-1,7E-1,-8.9052E-2,2.7785305E-2,2.9731743E-2,-1.7654274E-1,-1.9131432E-3,-1.1600283E-2,3.7090355E-3,1.0160761E-2,1.1558729E-2,1.2962425E-3,-2.0315214E-3,1.0131026E-2,5.15644E-3,1.7028414E-2,4.0593484E-4,-7.065834E-3,-1.3317242E-2,-4.449819E-3,1.0052088E-2,-4.748523E-3,-6.317572E-3,3.6568807E-3,3.0042625E-3,-5.277881E-3,-1.6733455E-2,-9.182064E-3,-1.0586733E-2,2.948868E-3,3.5E-2,1.3814784E-2,2.896191E-2,-3.7392075E-4,3.1376805E-2,1.9662161E-3,-3.854165E-6,3.5E-2,1.3157383E-2,-7.7077793E-3,9.791003E-3,-5.034375E-3,-1.3096492E-2,-2.3651735E-3],"categories":[],"categories_nodes":[],"categories_segments":[],"categories_sizes":[],"default_left":[0,0,0,0,0,0,0,0,0,0,0,0,0,0,0,0,0,0,0,0,0,0,0,0,0,0,0,0,0,0,0,0,0,0,0,0,0,0,0,0,0,0,0,0,0,0,0,0,0,0,0,0,0,0,0,0,0,0,0,0,0,0,0,0,0,0,0,0,0,0,0,0,0,0,0,0,0,0,0,0,0,0,0,0,0,0,0,0,0,0,0],"id":16,"left_children":[1,3,5,7,9,11,13,15,17,19,21,23,25,27,29,31,33,35,-1,37,-1,39,41,43,-1,45,-1,47,49,51,-1,53,55,57,59,61,63,65,67,69,71,73,-1,75,77,79,-1,81,83,85,-1,87,89,-1,-1,-1,-1,-1,-1,-1,-1,-1,-1,-1,-1,-1,-1,-1,-1,-1,-1,-1,-1,-1,-1,-1,-1,-1,-1,-1,-1,-1,-1,-1,-1,-1,-1,-1,-1,-1,-1],"loss_changes":[2.3019878E1,2.373674E0,3.9426308E0,1.2192786E0,1.0512557E0,2.8872795E0,1.9833789E0,1.031529E0,1.1845834E0,6.2434924E-1,7.858279E-1,3.5011368E0,4.087593E0,3.3840523E0,1.7034799E0,1.120892E0,8.3642757E-1,7.482821E-1,0E0,2.924294E-1,0E0,7.4572885E-1,2.9089016E-1,1.9946442E0,0E0,2.229803E0,0E0,3.7184372E0,3.006947E0,4.993042E-1,0E0,2.5864562E-1,9.260578E-1,4.8954892E-1,9.222784E-1,1.6352224E-1,6.9357395E-2,7.643515E-2,1.2344651E0,1.3858371E0,8.453942E-1,6.827235E-3,0E0,2.78392E-1,2.7503128E0,2.0058732E0,0E0,3.0555246E0,3.6428738E0,8.9170194E-1,0E0,6.146883E-1,2.1652567E-1,0E0,0E0,0E0,0E0,0E0,0E0,0E0,0E0,0E0,0E0,0E0,0E0,0E0,0E0,0E0,0E0,0E0,0E0,0E0,0E0,0E0,0E0,0E0,0E0,0E0,0E0,0E0,0E0,0E0,0E0,0E0,0E0,0E0,0E0,0E0,0E0,0E0,0E0],"parents":[2147483647,0,0,1,1,2,2,3,3,4,4,5,5,6,6,7,7,8,8,9,9,10,10,11,11,12,12,13,13,14,14,15,15,16,16,17,17,19,19,21,21,22,22,23,23,25,25,27,27,28,28,29,29,31,31,32,32,33,33,34,34,35,35,36,36,37,37,38,38,39,39,40,40,41,41,43,43,44,44,45,45,47,47,48,48,49,49,51,51,52,52],"right_children":[2,4,6,8,10,12,14,16,18,20,22,24,26,28,30,32,34,36,-1,38,-1,40,42,44,-1,46,-1,48,50,52,-1,54,56,58,60,62,64,66,68,70,72,74,-1,76,78,80,-1,82,84,86,-1,88,90,-1,-1,-1,-1,-1,-1,-1,-1,-1,-1,-1,-1,-1,-1,-1,-1,-1,-1,-1,-1,-1,-1,-1,-1,-1,-1,-1,-1,-1,-1,-1,-1,-1,-1,-1,-1,-1,-1],"split_conditions":[1E0,1.81E2,2.93E2,1E0,5E0,1E0,8E0,1E0,1E1,1.149E3,1E0,3.3E1,1.4E1,3.66E2,3.5E1,-1.347E3,-1.002E3,3.7E1,2.6988318E-2,-1.412E3,-1.5947903E-2,9.33E2,1E0,-7.13E2,3.5E-2,5.12E2,-4.201648E-3,-1.79E2,1.385E3,8.53E2,2.4074784E-2,-6.97E2,1.3E1,7E0,1.452E3,-1.613E3,3.61E2,1E0,-5.6E2,-1.119E3,-5.78E2,1E0,-1.1974007E-3,7E0,-1.613E3,8.9E1,3.5E-2,6.9E2,4.6E2,1.15E2,2.7785305E-2,3.7E1,1.506E3,-1.9131432E-3,-1.1600283E-2,3.7090355E-3,1.0160761E-2,1.1558729E-2,1.2962425E-3,-2.0315214E-3,1.0131026E-2,5.15644E-3,1.7028414E-2,4.0593484E-4,-7.065834E-3,-1.3317242E-2,-4.449819E-3,1.0052088E-2,-4.748523E-3,-6.317572E-3,3.6568807E-3,3.0042625E-3,-5.277881E-3,-1.6733455E-2,-9.182064E-3,-1.0586733E-2,2.948868E-3,3.5E-2,1.3814784E-2,2.896191E-2,-3.7392075E-4,3.1376805E-2,1.9662161E-3,-3.854165E-6,3.5E-2,1.3157383E-2,-7.7077793E-3,9.791003E-3,-5.034375E-3,-1.3096492E-2,-2.3651735E-3],"split_indices":[17,2,2,23,5,26,4,11,5,0,20,4,5,0,4,1,1,0,0,0,0,2,11,0,0,1,0,1,2,2,0,0,4,4,1,1,0,12,0,0,0,19,0,4,1,1,0,2,2,1,0,1,2,0,0,0,0,0,0,0,0,0,0,0,0,0,0,0,0,0,0,0,0,0,0,0,0,0,0,0,0,0,0,0,0,0,0,0,0,0,0],"split_type":[0,0,0,0,0,0,0,0,0,0,0,0,0,0,0,0,0,0,0,0,0,0,0,0,0,0,0,0,0,0,0,0,0,0,0,0,0,0,0,0,0,0,0,0,0,0,0,0,0,0,0,0,0,0,0,0,0,0,0,0,0,0,0,0,0,0,0,0,0,0,0,0,0,0,0,0,0,0,0,0,0,0,0,0,0,0,0,0,0,0,0],"sum_hessian":[1.7918373E3,1.380152E3,4.1168527E2,8.0523987E2,5.749122E2,2.5903415E2,1.5265114E2,7.701686E2,3.507129E1,1.5458623E2,4.2032593E2,2.1232141E2,4.671272E1,1.0082261E2,5.182853E1,4.9888165E2,2.7128693E2,2.6291332E1,8.779957E0,1.4410052E2,1.0485711E1,4.013103E2,1.901563E1,1.9646933E2,1.5852087E1,3.943019E1,7.2825274E0,5.67139E1,4.4108704E1,4.6211105E1,5.617427E0,3.6579426E1,4.6230225E2,4.6156067E1,2.2513084E2,1.506825E1,1.12230835E1,1.3659871E1,1.3044066E2,2.6708817E2,1.3422212E2,1.1951088E1,7.064543E0,1.3588314E1,1.8288101E2,2.4548592E1,1.4881602E1,4.0011185E1,1.6702715E1,3.6119778E1,7.9889264E0,2.646727E1,1.9743834E1,2.8218834E1,8.360592E0,3.9797928E2,6.432297E1,2.1342491E1,2.4813576E1,2.092863E2,1.5844552E1,5.6522403E0,9.41601E0,5.9330854E0,5.2899976E0,8.483991E0,5.17588E0,1.5080945E1,1.153597E2,4.0167664E1,2.269205E2,4.6365143E1,8.785698E1,6.0372353E0,5.9138527E0,7.034557E0,6.553757E0,6.359776E0,1.7652124E2,1.5612204E1,8.936387E0,1.1997143E1,2.8014044E1,7.4325795E0,9.270135E0,5.160475E0,3.0959305E1,1.1421093E1,1.5046176E1,1.1270696E1,8.473139E0],"tree_param":{"num_deleted":"0","num_feature":"28","num_nodes":"91","size_leaf_vector":"1"}},{"base_weights":[8.04497E-2,1.7871888E-2,2.8659785E-1,5.7995047E-2,-3.3772204E-2,3.3722964E-1,9.742217E-2,2.1665797E-1,4.7602534E-2,-4.4799816E-2,1.4486071E-1,2.2930323E-1,4.2755646E-1,1.6452968E-1,-1.6412345E-1,2.5240472E-1,-2.428365E-3,-4.871483E-2,6.1669413E-2,-3.0180313E-2,-1.509765E-1,2.3561336E-1,-5.8087255E-3,3.2594737E-1,9.5784664E-2,6.3127583E-1,2.6794663E-1,1.0203826E-1,4.0331087E-1,7.3182546E-3,-3.0787286E-1,1.9237807E-2,1.9486798E-1,3.4839705E-2,-1.309825E-1,3.3858214E-2,1.3272099E-1,-2.0047945E-1,-2.1562114E-2,-1.8946652E-1,9.621539E-3,3.5965946E-1,4.2248856E-2,5.424254E-1,2.2478102E-1,-1.1284623E-1,2.2789058E-1,7E-1,1.619491E-1,3.5E-2,1.6903488E-1,1.910209E-1,-2.7145818E-1,3.5E-2,7.1987766E-3,-1.7770756E-2,-9.739672E-3,-1.2743924E-3,1.4981593E-2,4.063755E-3,-5.735647E-3,-4.8896554E-3,-1.092781E-2,2.20645E-3,-1.07522635E-2,3.6954482E-3,1.5283649E-2,-3.397169E-3,-1.8232023E-2,-8.071096E-4,-1.2683423E-2,-1.0477244E-2,-5.187175E-3,8.197191E-3,2.6771287E-2,6.0623614E-3,-2.1047466E-3,3.5E-2,1.4799349E-2,3.0430525E-3,1.9886281E-2,-9.51188E-3,4.2923787E-3,1.7325765E-2,-9.923952E-3,3.5E-2,4.217395E-3,1.7824551E-2,-4.328316E-3,1.193704E-2,-1.6875028E-3,1.8779451E-3,2.2190813E-2,-7.876783E-3,-1.679861E-2],"categories":[],"categories_nodes":[],"categories_segments":[],"categories_sizes":[],"default_left":[0,0,0,0,0,0,0,0,0,0,0,0,0,0,0,0,0,0,0,0,0,0,0,0,0,0,0,0,0,0,0,0,0,0,0,0,0,0,0,0,0,0,0,0,0,0,0,0,0,0,0,0,0,0,0,0,0,0,0,0,0,0,0,0,0,0,0,0,0,0,0,0,0,0,0,0,0,0,0,0,0,0,0,0,0,0,0,0,0,0,0,0,0,0,0],"id":17,"left_children":[1,3,5,7,9,11,13,15,17,19,21,23,25,27,29,31,-1,33,35,37,39,41,-1,43,45,47,49,51,53,-1,55,-1,57,59,61,63,65,67,69,71,-1,73,75,77,79,81,83,85,87,-1,89,91,93,-1,-1,-1,-1,-1,-1,-1,-1,-1,-1,-1,-1,-1,-1,-1,-1,-1,-1,-1,-1,-1,-1,-1,-1,-1,-1,-1,-1,-1,-1,-1,-1,-1,-1,-1,-1,-1,-1,-1,-1,-1,-1],"loss_changes":[2.3171692E1,2.8600454E0,3.973812E0,1.2702308E0,1.1957169E0,3.1149445E0,1.6018384E0,4.622171E-1,9.9226296E-1,8.7923753E-1,8.645114E-1,1.9342642E0,5.6271896E0,1.0317818E0,8.8511986E-1,2.4473262E-1,0E0,6.479877E-1,1.2553E0,7.320157E-1,9.43964E-1,6.2167764E-1,0E0,1.8040838E0,1.8275118E0,5.4542522E0,5.5729957E0,1.9903681E0,1.1156108E0,0E0,1.6642809E-3,0E0,7.2994983E-1,3.3730745E-1,1.1632508E-1,1.1842577E0,1.7981753E0,4.983983E-1,5.9805787E-1,8.5390806E-2,0E0,4.6407008E-1,8.1793234E-2,2.3018246E0,1.7233107E0,4.163645E-1,2.110062E0,2.3607254E0,1.084744E0,0E0,1.2638059E0,1.8335344E0,3.2589078E-2,0E0,0E0,0E0,0E0,0E0,0E0,0E0,0E0,0E0,0E0,0E0,0E0,0E0,0E0,0E0,0E0,0E0,0E0,0E0,0E0,0E0,0E0,0E0,0E0,0E0,0E0,0E0,0E0,0E0,0E0,0E0,0E0,0E0,0E0,0E0,0E0,0E0,0E0,0E0,0E0,0E0,0E0],"parents":[2147483647,0,0,1,1,2,2,3,3,4,4,5,5,6,6,7,7,8,8,9,9,10,10,11,11,12,12,13,13,14,14,15,15,17,17,18,18,19,19,20,20,21,21,23,23,24,24,25,25,26,26,27,27,28,28,30,30,32,32,33,33,34,34,35,35,36,36,37,37,38,38,39,39,41,41,42,42,43,43,44,44,45,45,46,46,47,47,48,48,50,50,51,51,52,52],"right_children":[2,4,6,8,10,12,14,16,18,20,22,24,26,28,30,32,-1,34,36,38,40,42,-1,44,46,48,50,52,54,-1,56,-1,58,60,62,64,66,68,70,72,-1,74,76,78,80,82,84,86,88,-1,90,92,94,-1,-1,-1,-1,-1,-1,-1,-1,-1,-1,-1,-1,-1,-1,-1,-1,-1,-1,-1,-1,-1,-1,-1,-1,-1,-1,-1,-1,-1,-1,-1,-1,-1,-1,-1,-1,-1,-1,-1,-1,-1,-1],"split_conditions":[1E0,1.47E2,1E0,1.3E1,1E0,7E0,4.96E2,1E0,1.5E1,1E0,7.17E2,1.06E2,8E0,3.62E2,4.6E2,4E0,-2.428365E-3,7E0,8.17E2,1E0,2.7E1,2E1,-5.8087255E-3,3.09E2,4.34E2,3.96E2,1.5E1,9.58E2,5E0,7.3182546E-3,1.264E3,1.9237807E-2,6E0,1E0,1.174E3,1E0,1.95E2,1E0,1.636E3,1.268E3,9.621539E-3,4.26E2,2.2E1,1.55E2,1.92E2,6E0,1.557E3,6.9E2,8E0,3.5E-2,2.8E1,8E0,2E1,3.5E-2,7.1987766E-3,-1.7770756E-2,-9.739672E-3,-1.2743924E-3,1.4981593E-2,4.063755E-3,-5.735647E-3,-4.8896554E-3,-1.092781E-2,2.20645E-3,-1.07522635E-2,3.6954482E-3,1.5283649E-2,-3.397169E-3,-1.8232023E-2,-8.071096E-4,-1.2683423E-2,-1.0477244E-2,-5.187175E-3,8.197191E-3,2.6771287E-2,6.0623614E-3,-2.1047466E-3,3.5E-2,1.4799349E-2,3.0430525E-3,1.9886281E-2,-9.51188E-3,4.2923787E-3,1.7325765E-2,-9.923952E-3,3.5E-2,4.217395E-3,1.7824551E-2,-4.328316E-3,1.193704E-2,-1.6875028E-3,1.8779451E-3,2.2190813E-2,-7.876783E-3,-1.679861E-2],"split_indices":[17,2,12,6,23,4,0,14,6,14,2,2,5,0,2,4,0,4,3,22,4,6,0,3,2,0,6,3,5,0,2,0,5,18,3,20,0,18,0,2,0,2,6,0,0,4,2,2,4,0,4,5,6,0,0,0,0,0,0,0,0,0,0,0,0,0,0,0,0,0,0,0,0,0,0,0,0,0,0,0,0,0,0,0,0,0,0,0,0,0,0,0,0,0,0],"split_type":[0,0,0,0,0,0,0,0,0,0,0,0,0,0,0,0,0,0,0,0,0,0,0,0,0,0,0,0,0,0,0,0,0,0,0,0,0,0,0,0,0,0,0,0,0,0,0,0,0,0,0,0,0,0,0,0,0,0,0,0,0,0,0,0,0,0,0,0,0,0,0,0,0,0,0,0,0,0,0,0,0,0,0,0,0,0,0,0,0,0,0,0,0,0,0],"sum_hessian":[1.7956102E3,1.3783027E3,4.173074E2,7.756018E2,6.02701E2,3.285818E2,8.872563E1,4.6459244E1,7.291426E2,5.683632E2,3.4337772E1,1.5131848E2,1.7726329E2,7.0903984E1,1.7821648E1,4.0983826E1,5.4754167E0,9.260482E1,6.365377E2,5.007052E2,6.765803E1,2.5551733E1,8.786039E0,8.6944565E1,6.437391E1,7.657325E1,1.0069005E2,5.7328E1,1.3575983E1,5.63413E0,1.2187518E1,1.0695013E1,3.0288813E1,4.62291E1,4.637572E1,4.5853375E2,1.7800398E2,2.3045923E1,4.7765927E2,6.1242115E1,6.4159093E0,1.504204E1,1.0509693E1,2.6301762E1,6.0642803E1,2.5014717E1,3.9359196E1,5.577477E1,2.0798481E1,1.2852305E1,8.783774E1,4.6692444E1,1.0635556E1,5.232526E0,8.343456E0,7.07141E0,5.1161075E0,1.0003853E1,2.028496E1,3.5624428E1,1.06046715E1,3.5165215E1,1.1210506E1,4.4115268E2,1.7381079E1,1.3389914E2,4.4104843E1,1.3533488E1,9.512435E0,4.6780508E2,9.854186E0,4.844963E1,1.2792482E1,8.031597E0,7.0104427E0,5.200886E0,5.3088074E0,6.0446777E0,2.0257084E1,3.1827782E1,2.8815023E1,1.8033297E1,6.9814205E0,3.0938707E1,8.420488E0,4.92536E1,6.5211673E0,1.1422376E1,9.376104E0,6.523601E1,2.2601732E1,2.9769276E1,1.692317E1,5.0897193E0,5.5458364E0],"tree_param":{"num_deleted":"0","num_feature":"28","num_nodes":"95","size_leaf_vector":"1"}},{"base_weights":[7.673538E-2,8.644224E-3,2.9498237E-1,2.384975E-2,-9.7805895E-2,7E-1,2.6838362E-1,5.49391E-3,1.1806397E-1,-1.3001816E-1,1.4638321E-2,1.7080726E-2,7E-1,1.889311E-1,3.3281198E-1,2.7062148E-2,-6.370986E-2,4.2738196E-1,8.8524505E-2,-1.436293E-1,1.8479275E-2,-4.61008E-2,1.806251E-2,3.5E-2,1.5636863E-2,7.410697E-2,3.093733E-1,5.6356996E-1,2.8854448E-1,4.0561903E-2,-4.510581E-2,-1.0440024E-1,2.2250475E-2,2.8633103E-2,1.3660225E-2,6.802137E-2,2.0625522E-2,-1.5769403E-1,-7.0276815E-3,2.5398626E-3,-7.4242585E-4,3.8817275E-2,-1.6295673E-1,-2.894886E-2,3.3049116E-1,2.7307066E-1,3.5E-2,3.5E-2,4.1638058E-1,6.4780974E-1,2.4077655E-1,2.2394701E-3,-1.4987335E-2,-5.3624617E-4,-6.1436947E-3,-5.9248633E-3,1.2889303E-2,-3.150052E-3,5.458047E-3,4.758469E-3,-3.4040404E-3,-7.17595E-3,-1.3188006E-2,3.264625E-3,-3.6928335E-3,6.7071714E-3,-6.028363E-3,-3.390702E-3,-1.2689126E-2,2.499741E-4,-1.599287E-2,3.5E-2,5.5030487E-3,8.143521E-3,2.1550668E-2,2.684533E-2,-3.273584E-3,-7.982025E-3,3.5E-2,-4.325385E-3,1.5223938E-2],"categories":[],"categories_nodes":[],"categories_segments":[],"categories_sizes":[],"default_left":[0,0,0,0,0,0,0,0,0,0,0,0,0,0,0,0,0,0,0,0,0,0,0,0,0,0,0,0,0,0,0,0,0,0,0,0,0,0,0,0,0,0,0,0,0,0,0,0,0,0,0,0,0,0,0,0,0,0,0,0,0,0,0,0,0,0,0,0,0,0,0,0,0,0,0,0,0,0,0,0,0],"id":18,"left_children":[1,3,5,7,9,11,13,15,17,19,21,-1,23,25,27,29,31,33,35,37,39,41,-1,-1,-1,43,45,47,49,51,53,55,57,-1,-1,59,-1,61,63,-1,-1,65,67,69,71,73,-1,-1,75,77,79,-1,-1,-1,-1,-1,-1,-1,-1,-1,-1,-1,-1,-1,-1,-1,-1,-1,-1,-1,-1,-1,-1,-1,-1,-1,-1,-1,-1,-1,-1],"loss_changes":[2.6978535E1,2.2439437E0,5.4830704E0,2.0963843E0,6.2957394E-1,6.0203266E-1,2.0472279E0,1.51808E0,1.7683687E0,2.7512002E-1,8.479743E-1,0E0,5.720606E-1,2.561799E0,2.149208E0,7.570925E-1,8.4768987E-1,2.2368026E-1,1.1789713E0,2.3635697E-1,1.3899524E-2,3.485383E-1,0E0,0E0,0E0,2.5723603E0,1.1823435E0,1.256999E0,3.1379118E0,9.537153E-1,3.2657745E-1,8.6898386E-1,5.883104E-1,0E0,0E0,6.423338E-1,0E0,1.3055682E-1,6.564456E-2,0E0,0E0,3.318953E-1,1.09871894E-1,6.939452E-1,3.5388415E0,1.4140472E0,0E0,0E0,1.771862E0,4.194666E0,3.5915365E0,0E0,0E0,0E0,0E0,0E0,0E0,0E0,0E0,0E0,0E0,0E0,0E0,0E0,0E0,0E0,0E0,0E0,0E0,0E0,0E0,0E0,0E0,0E0,0E0,0E0,0E0,0E0,0E0,0E0,0E0],"parents":[2147483647,0,0,1,1,2,2,3,3,4,4,5,5,6,6,7,7,8,8,9,9,10,10,12,12,13,13,14,14,15,15,16,16,17,17,18,18,19,19,20,20,21,21,25,25,26,26,27,27,28,28,29,29,30,30,31,31,32,32,35,35,37,37,38,38,41,41,42,42,43,43,44,44,45,45,48,48,49,49,50,50],"right_children":[2,4,6,8,10,12,14,16,18,20,22,-1,24,26,28,30,32,34,36,38,40,42,-1,-1,-1,44,46,48,50,52,54,56,58,-1,-1,60,-1,62,64,-1,-1,66,68,70,72,74,-1,-1,76,78,80,-1,-1,-1,-1,-1,-1,-1,-1,-1,-1,-1,-1,-1,-1,-1,-1,-1,-1,-1,-1,-1,-1,-1,-1,-1,-1,-1,-1,-1,-1],"split_conditions":[1E0,1E0,-1.613E3,5.97E2,1E0,8.98E2,7E0,3.18E2,1.3E1,1.276E3,9E0,1.7080726E-2,2.276E3,1.61E2,1.5E1,1E0,8E0,7.54E2,1E0,3E1,1.785E3,2E1,1.806251E-2,3.5E-2,1.5636863E-2,8.25E2,1.479E3,1E0,-7.16E2,2.296E3,8E0,1.076E3,1.8E1,2.8633103E-2,1.3660225E-2,1E0,2.0625522E-2,1.2E1,3.4E1,2.5398626E-3,-7.4242585E-4,1.32E2,1.15E2,7.14E2,9.58E2,2.2E1,3.5E-2,3.5E-2,9.25E2,1E0,-1.87E2,2.2394701E-3,-1.4987335E-2,-5.3624617E-4,-6.1436947E-3,-5.9248633E-3,1.2889303E-2,-3.150052E-3,5.458047E-3,4.758469E-3,-3.4040404E-3,-7.17595E-3,-1.3188006E-2,3.264625E-3,-3.6928335E-3,6.7071714E-3,-6.028363E-3,-3.390702E-3,-1.2689126E-2,2.499741E-4,-1.599287E-2,3.5E-2,5.5030487E-3,8.143521E-3,2.1550668E-2,2.684533E-2,-3.273584E-3,-7.982025E-3,3.5E-2,-4.325385E-3,1.5223938E-2],"split_indices":[17,14,1,1,12,3,4,1,6,3,4,0,3,3,6,16,4,1,23,4,3,6,0,0,0,2,1,22,1,2,4,3,6,0,0,15,0,4,4,0,0,2,1,2,2,6,0,0,1,22,1,0,0,0,0,0,0,0,0,0,0,0,0,0,0,0,0,0,0,0,0,0,0,0,0,0,0,0,0,0,0],"split_type":[0,0,0,0,0,0,0,0,0,0,0,0,0,0,0,0,0,0,0,0,0,0,0,0,0,0,0,0,0,0,0,0,0,0,0,0,0,0,0,0,0,0,0,0,0,0,0,0,0,0,0,0,0,0,0,0,0,0,0,0,0,0,0,0,0,0,0,0,0,0,0,0,0,0,0,0,0,0,0,0,0],"sum_hessian":[1.8146008E3,1.3838816E3,4.3071927E2,1.2115916E3,1.7228996E2,1.9507822E1,4.1121146E2,1.01491345E3,1.9667816E2,1.3380275E2,3.8487217E1,7.5022683E0,1.2005554E1,1.8589713E2,2.2531433E2,7.742252E2,2.406882E2,1.5971098E1,1.8070706E2,1.2259829E2,1.1204459E1,3.3486202E1,5.001015E0,5.923849E0,6.081705E0,9.599507E1,8.9902054E1,3.4377907E1,1.9093642E2,6.525896E2,1.2163563E2,1.6321423E2,7.747397E1,6.8253365E0,9.1457615E0,1.7108977E2,9.617298E0,1.11013725E2,1.1584568E1,5.422291E0,5.782169E0,1.978005E1,1.3706151E1,6.9104866E1,2.6890207E1,8.427532E1,5.626729E0,5.4736915E0,2.8904215E1,2.0933416E1,1.70003E2,6.4543994E2,7.1496263E0,8.513554E1,3.650009E1,1.5774722E2,5.467014E0,3.9249134E1,3.822484E1,1.4288881E2,2.8200964E1,1.000022E2,1.1011525E1,5.574747E0,6.009821E0,1.2476411E1,7.303639E0,7.547041E0,6.15911E0,6.2763344E1,6.3415194E0,5.3722496E0,2.1517958E1,5.083663E1,3.343869E1,2.302956E1,5.8746543E0,5.420197E0,1.5513219E1,2.7639738E1,1.4236327E2],"tree_param":{"num_deleted":"0","num_feature":"28","num_nodes":"81","size_leaf_vector":"1"}},{"base_weights":[8.710555E-2,2.3304505E-2,2.9731336E-1,6.567559E-2,-3.1683758E-2,2.3875184E-1,5.0682604E-1,2.723521E-1,5.239563E-2,-8.973007E-2,1.7031068E-2,2.0915951E-1,6.4580977E-1,3.484076E-1,3.5E-2,-1.268291E-3,3.4067217E-1,5.812246E-2,-1.0843266E-2,-1.1561305E-1,1.12585634E-1,-2.594158E-2,1.02189735E-1,2.520875E-1,1.0244668E-1,3.5E-2,1.0761923E-2,2.369899E-1,3.5E-2,3.5E-2,1.9982405E-1,3.065721E-2,1.14901304E-1,-1.2337447E-1,4.7123595E-3,-1.1378348E-1,2.7445698E-1,1.7316606E-2,-1.3115577E-1,-1.0770061E-1,1.6258758E-1,2.0895992E-1,4.674397E-1,2.1244264E-1,-1.2228018E-1,1.2188904E-1,6.1688477E-1,5.688473E-3,1.7450405E-2,-5.3290925E-5,6.050628E-3,3.8563397E-3,1.4049622E-2,-5.4690274E-3,-1.0600204E-2,-1.2175221E-3,-8.300134E-3,4.4729225E-3,2.7514612E-2,-2.8182345E-3,5.538234E-3,-9.4176E-3,9.1392E-3,-9.2260055E-3,7.898354E-3,1.3312595E-2,-1.150383E-3,-6.946446E-3,1.1971257E-2,3.5E-2,1.3078152E-2,1.863599E-3,1.8297147E-2,-9.502551E-3,5.1481775E-3,1.6764825E-2,-1.9608794E-3,3.5E-2,3.301282E-3],"categories":[],"categories_nodes":[],"categories_segments":[],"categories_sizes":[],"default_left":[0,0,0,0,0,0,0,0,0,0,0,0,0,0,0,0,0,0,0,0,0,0,0,0,0,0,0,0,0,0,0,0,0,0,0,0,0,0,0,0,0,0,0,0,0,0,0,0,0,0,0,0,0,0,0,0,0,0,0,0,0,0,0,0,0,0,0,0,0,0,0,0,0,0,0,0,0,0,0],"id":19,"left_children":[1,3,5,7,9,11,13,15,17,19,21,23,25,27,-1,-1,29,31,-1,33,35,37,39,41,43,-1,-1,45,-1,-1,47,49,51,53,-1,55,57,59,61,63,65,67,69,71,73,75,77,-1,-1,-1,-1,-1,-1,-1,-1,-1,-1,-1,-1,-1,-1,-1,-1,-1,-1,-1,-1,-1,-1,-1,-1,-1,-1,-1,-1,-1,-1,-1,-1],"loss_changes":[2.417141E1,3.2269666E0,5.0283012E0,2.1322541E0,1.7067803E0,3.8387756E0,5.672388E0,9.642167E-1,1.147671E0,1.4547873E0,1.2055994E0,1.3897724E0,2.0167484E0,4.162259E0,0E0,0E0,1.8153634E0,1.1217005E0,0E0,4.100263E-1,1.1940954E0,1.0002578E0,1.4176576E0,1.9426632E0,2.2589352E0,0E0,0E0,2.8216832E0,0E0,0E0,3.3223033E-1,1.397978E0,1.4519479E0,2.6989245E-1,0E0,6.1052322E-2,9.099554E-1,1.0822138E0,1.1836673E0,5.451156E-1,1.6639345E0,1.9922667E0,2.6283236E0,1.6269395E0,4.8240024E-1,1.8041224E0,3.0569148E0,0E0,0E0,0E0,0E0,0E0,0E0,0E0,0E0,0E0,0E0,0E0,0E0,0E0,0E0,0E0,0E0,0E0,0E0,0E0,0E0,0E0,0E0,0E0,0E0,0E0,0E0,0E0,0E0,0E0,0E0,0E0,0E0],"parents":[2147483647,0,0,1,1,2,2,3,3,4,4,5,5,6,6,7,7,8,8,9,9,10,10,11,11,12,12,13,13,16,16,17,17,19,19,20,20,21,21,22,22,23,23,24,24,27,27,30,30,31,31,32,32,33,33,35,35,36,36,37,37,38,38,39,39,40,40,41,41,42,42,43,43,44,44,45,45,46,46],"right_children":[2,4,6,8,10,12,14,16,18,20,22,24,26,28,-1,-1,30,32,-1,34,36,38,40,42,44,-1,-1,46,-1,-1,48,50,52,54,-1,56,58,60,62,64,66,68,70,72,74,76,78,-1,-1,-1,-1,-1,-1,-1,-1,-1,-1,-1,-1,-1,-1,-1,-1,-1,-1,-1,-1,-1,-1,-1,-1,-1,-1,-1,-1,-1,-1,-1,-1],