{"learner":{"attributes":{},"feature_names":["team_elevation_dif","opp_elevation_dif","team_travel","opp_travel","team_rest_days","opp_rest_days","temperature_c","team_is_home","is_raining","match_state_-1.0","match_state_-1.5","match_state_0.0","match_state_1.0","match_state_1.5","match_segment_1","match_segment_2","match_segment_3","match_segment_4","match_segment_5","match_segment_6","player_dif_-1.0","player_dif_-1.5","player_dif_0.0","player_dif_1.0","player_dif_1.5","match_time_aft","match_time_evening","match_time_night"],"feature_types":["float","float","float","float","float","float","float","int","int","i","i","i","i","i","i","i","i","i","i","i","i","i","i","i","i","i","i","i"],"gradient_booster":{"model":{"gbtree_model_param":{"num_parallel_tree":"1","num_trees":"52"},"iteration_indptr":[0,1,2,3,4,5,6,7,8,9,10,11,12,13,14,15,16,17,18,19,20,21,22,23,24,25,26,27,28,29,30,31,32,33,34,35,36,37,38,39,40,41,42,43,44,45,46,47,48,49,50,51,52],"tree_info":[0,0,0,0,0,0,0,0,0,0,0,0,0,0,0,0,0,0,0,0,0,0,0,0,0,0,0,0,0,0,0,0,0,0,0,0,0,0,0,0,0,0,0,0,0,0,0,0,0,0,0,0],"trees":[{"base_weights":[1.2641585E-1,3.6568806E-2,5.14847E-1,9.896937E-2,-3.9415944E-2,2.4372014E-1,7E-1,8.2392484E-2,3.519217E-1,-2.4021725E-1,-2.1833492E-2,3.2122543E-1,6.390572E-2,7E-1,2.3974812E-1,3.5739735E-2,1.8387166E-1,2.3297183E-1,3.376915E-2,-1.8161947E-2,-2.1323262E-1,-6.436938E-2,6.385867E-2,6.2432613E-2,3.840751E-1,-2.742851E-2,2.929139E-1,4.3532947E-1,7E-1,1.622386E-2,5.511993E-3,1.35528585E-2,1.4350103E-1,2.8556243E-1,1.3057628E-1,3.0618483E-1,-2.2670266E-3,-2.4213882E-1,-5.1570497E-3,-5.348227E-2,-2.5878063E-1,2.3800306E-1,-3.8119752E-3,-1.5926586E-2,2.5613868E-1,3.168265E-1,7E-1,1.3634841E-2,-1.082268E-1,3.8291092E-3,2.141652E-2,3.5E-2,1.6135283E-1,7E-1,1.9903334E-2,1.7836228E-3,-3.8666816E-3,1.384033E-2,1.493012E-3,1.1222652E-2,2.4504133E-2,2.3828814E-2,5.074808E-3,9.540997E-3,2.6337935E-2,-8.909736E-3,-1.4809887E-2,-1.4455364E-3,-7.922668E-3,9.143621E-4,-1.7813215E-2,-3.589153E-3,1.4627975E-2,1.1121809E-2,-2.2524844E-3,3.829096E-4,2.3990287E-2,2.0380225E-2,2.756214E-3,1.45584745E-2,3.5E-2,-1.0385042E-2,3.7389887E-3,1.5577197E-2,-7.970479E-4,3.5E-2,2.4994347E-2],"categories":[],"categories_nodes":[],"categories_segments":[],"categories_sizes":[],"default_left":[0,0,0,0,0,0,0,0,0,0,0,0,0,0,0,0,0,0,0,0,0,0,0,0,0,0,0,0,0,0,0,0,0,0,0,0,0,0,0,0,0,0,0,0,0,0,0,0,0,0,0,0,0,0,0,0,0,0,0,0,0,0,0,0,0,0,0,0,0,0,0,0,0,0,0,0,0,0,0,0,0,0,0,0,0,0,0],"id":0,"left_children":[1,3,5,7,9,11,13,15,17,19,21,23,25,27,29,31,33,35,-1,-1,37,39,41,43,45,47,49,51,53,-1,-1,55,57,59,61,63,-1,65,-1,67,69,71,73,-1,75,77,79,-1,81,-1,-1,-1,83,85,-1,-1,-1,-1,-1,-1,-1,-1,-1,-1,-1,-1,-1,-1,-1,-1,-1,-1,-1,-1,-1,-1,-1,-1,-1,-1,-1,-1,-1,-1,-1,-1,-1],"loss_changes":[5.8888176E1,6.508768E0,2.1751984E1,3.1308522E0,2.1813571E0,2.19586E0,1.9748917E0,3.3478074E0,1.6141229E0,8.774519E-2,2.0838296E0,1.7795544E0,1.0360637E0,1.0706482E0,9.19134E-2,1.1615235E0,1.1707711E0,7.3089397E-1,0E0,0E0,1.126076E-1,7.94263E-1,2.2372622E0,1.7686269E0,2.1672068E0,9.037311E-1,3.802235E-1,2.0773854E0,3.9954376E-1,0E0,0E0,8.162472E-1,1.2488015E0,8.3745146E-1,1.4417281E0,6.117058E-1,0E0,6.3021064E-2,0E0,9.31218E-1,5.463413E-1,9.188111E-1,1.2942812E0,0E0,8.694122E-1,1.8451786E0,5.277171E-1,0E0,5.4564214E-1,0E0,0E0,0E0,3.8382196E-1,8.214569E-2,0E0,0E0,0E0,0E0,0E0,0E0,0E0,0E0,0E0,0E0,0E0,0E0,0E0,0E0,0E0,0E0,0E0,0E0,0E0,0E0,0E0,0E0,0E0,0E0,0E0,0E0,0E0,0E0,0E0,0E0,0E0,0E0,0E0],"parents":[2147483647,0,0,1,1,2,2,3,3,4,4,5,5,6,6,7,7,8,8,9,9,10,10,11,11,12,12,13,13,14,14,15,15,16,16,17,17,20,20,21,21,22,22,23,23,24,24,25,25,26,26,27,27,28,28,31,31,32,32,33,33,34,34,35,35,37,37,39,39,40,40,41,41,42,42,44,44,45,45,46,46,48,48,52,52,53,53],"right_children":[2,4,6,8,10,12,14,16,18,20,22,24,26,28,30,32,34,36,-1,-1,38,40,42,44,46,48,50,52,54,-1,-1,56,58,60,62,64,-1,66,-1,68,70,72,74,-1,76,78,80,-1,82,-1,-1,-1,84,86,-1,-1,-1,-1,-1,-1,-1,-1,-1,-1,-1,-1,-1,-1,-1,-1,-1,-1,-1,-1,-1,-1,-1,-1,-1,-1,-1,-1,-1,-1,-1,-1,-1],"split_conditions":[1E0,1.61E2,1.4E1,1E0,-1.519E3,5.49E2,4.79E2,1E0,8E0,1E0,1E0,-1.054E3,1E0,4E0,7E0,1.3E1,6E0,8E0,3.376915E-2,-1.8161947E-2,2.267E3,1E0,-2.33E2,6E0,1.267E3,1.84E2,2.32E2,4.32E2,1E0,1.622386E-2,5.511993E-3,1E0,1E0,1E0,-7.16E2,7E0,-2.2670266E-3,7.12E2,-5.1570497E-3,1E0,4.14E2,4.34E2,4E0,-1.5926586E-2,1E0,6.89E2,7E0,1.3634841E-2,8E0,3.8291092E-3,2.141652E-2,3.5E-2,6.89E2,3E1,1.9903334E-2,1.7836228E-3,-3.8666816E-3,1.384033E-2,1.493012E-3,1.1222652E-2,2.4504133E-2,2.3828814E-2,5.074808E-3,9.540997E-3,2.6337935E-2,-8.909736E-3,-1.4809887E-2,-1.4455364E-3,-7.922668E-3,9.143621E-4,-1.7813215E-2,-3.589153E-3,1.4627975E-2,1.1121809E-2,-2.2524844E-3,3.829096E-4,2.3990287E-2,2.0380225E-2,2.756214E-3,1.45584745E-2,3.5E-2,-1.0385042E-2,3.7389887E-3,1.5577197E-2,-7.970479E-4,3.5E-2,2.4994347E-2],"split_indices":[17,2,3,23,0,0,0,19,5,22,19,0,9,5,5,4,4,4,0,0,2,20,0,5,2,1,1,3,23,0,0,14,11,13,0,4,0,2,0,14,2,2,5,0,11,2,5,0,5,0,0,0,3,5,0,0,0,0,0,0,0,0,0,0,0,0,0,0,0,0,0,0,0,0,0,0,0,0,0,0,0,0,0,0,0,0,0],"split_type":[0,0,0,0,0,0,0,0,0,0,0,0,0,0,0,0,0,0,0,0,0,0,0,0,0,0,0,0,0,0,0,0,0,0,0,0,0,0,0,0,0,0,0,0,0,0,0,0,0,0,0,0,0,0,0,0,0,0,0,0,0,0,0,0,0,0,0,0,0,0,0,0,0,0,0,0,0,0,0,0,0,0,0,0,0,0,0],"sum_hessian":[1.6869094E3,1.3709033E3,3.160061E2,7.525709E2,6.183324E2,1.5803386E2,1.5797224E2,7.075296E2,4.5041283E1,4.8763535E1,5.695689E2,1.0988414E2,4.814972E1,1.4733618E2,1.0636052E1,4.856262E2,2.2190343E2,3.4188885E1,1.0852397E1,6.53047E0,4.2233063E1,3.8079745E2,1.8877145E2,2.1861118E1,8.8023026E1,3.5050804E1,1.3098914E1,2.1279116E1,1.26057076E2,5.519521E0,5.116531E0,4.0364572E2,8.198048E1,7.4807724E1,1.470957E2,2.6988997E1,7.199888E0,3.250022E1,9.732842E0,3.6181097E2,1.898646E1,5.2122288E1,1.3664915E2,7.151587E0,1.4709531E1,7.761537E1,1.0407648E1,6.930908E0,2.8119896E1,5.645538E0,7.4533763E0,8.0513735E0,1.3227742E1,1.17299385E2,8.7576885E0,3.2512546E2,7.8520256E1,3.706538E1,4.49151E1,5.9212776E1,1.5594946E1,1.021133E1,1.3688437E2,1.8945301E1,8.0436945E0,1.685703E1,1.564319E1,2.9421646E2,6.7594536E1,5.153006E0,1.3833453E1,7.7574787E0,4.436481E1,2.0389488E1,1.16259674E2,7.458183E0,7.251348E0,5.7212322E1,2.0403051E1,5.0889316E0,5.318717E0,1.8130207E1,9.989691E0,6.7512918E0,6.47645E0,1.0401199E2,1.3287392E1],"tree_param":{"num_deleted":"0","num_feature":"28","num_nodes":"87","size_leaf_vector":"1"}},{"base_weights":[1.3233688E-1,3.803044E-2,5.242277E-1,9.540419E-2,-3.8909417E-2,7E-1,3.237252E-1,8.261938E-2,2.7968335E-1,-5.0788604E-2,2.5130957E-1,7E-1,4.5538458E-1,4.016581E-1,7.5428165E-2,1.2259073E-1,1.7477283E-2,1.9285484E-1,3.5E-2,-3.285924E-2,-1.6911004E-1,2.21222E-2,4.4743192E-1,3.5E-2,2.9663834E-1,2.8228816E-1,7E-1,1.7509742E-1,4.8947224E-1,2.3506576E-2,-1.4306576E-3,9.436069E-2,2.6112115E-1,4.064995E-2,-1.0636432E-1,2.9805377E-1,2.3846095E-2,-1.7939232E-1,-2.0291764E-2,-2.0423037E-1,3.463075E-2,6.5207235E-3,-3.7903727E-3,2.7285073E-2,1.4789191E-2,4.8880073E-1,-9.687363E-3,3.1684883E-2,4.8610425E-1,7E-1,1.649517E-2,-6.429626E-2,5.752075E-1,5.5083334E-1,1.5818637E-3,6.7440055E-2,-1.15384E-2,4.129426E-3,1.7562633E-2,1.7269703E-2,-5.97516E-4,3.64958E-3,-4.1011195E-3,-9.282424E-3,-1.6811108E-3,2.2169834E-2,6.968457E-3,3.8914494E-3,-2.4024167E-3,-4.9188514E-3,-1.3653855E-2,-3.8331226E-4,-7.0544593E-3,-5.2295253E-3,-1.2558115E-2,7.924231E-3,-4.589589E-3,3.5E-2,2.9716955E-3,6.806315E-3,-3.5448808E-3,3.2200575E-2,-1.388484E-3,3.5E-2,2.0081807E-2,-8.069862E-3,6.7413994E-3,3.5E-2,8.611775E-3,2.0122364E-2,3.5E-2,6.629556E-3,-7.2105676E-3],"categories":[],"categories_nodes":[],"categories_segments":[],"categories_sizes":[],"default_left":[0,0,0,0,0,0,0,0,0,0,0,0,0,0,0,0,0,0,0,0,0,0,0,0,0,0,0,0,0,0,0,0,0,0,0,0,0,0,0,0,0,0,0,0,0,0,0,0,0,0,0,0,0,0,0,0,0,0,0,0,0,0,0,0,0,0,0,0,0,0,0,0,0,0,0,0,0,0,0,0,0,0,0,0,0,0,0,0,0,0,0,0,0],"id":1,"left_children":[1,3,5,7,9,11,13,15,17,19,21,23,25,27,29,31,33,35,-1,37,39,41,43,-1,45,47,49,51,53,-1,55,57,59,61,63,65,67,69,71,73,75,-1,-1,-1,-1,77,-1,79,81,83,-1,85,87,89,-1,91,-1,-1,-1,-1,-1,-1,-1,-1,-1,-1,-1,-1,-1,-1,-1,-1,-1,-1,-1,-1,-1,-1,-1,-1,-1,-1,-1,-1,-1,-1,-1,-1,-1,-1,-1,-1,-1],"loss_changes":[6.356446E1,6.1300206E0,1.2171486E1,1.8505692E0,2.05902E0,4.477783E0,3.1089973E0,1.9379897E0,1.7552757E0,1.2058406E0,1.0467273E0,3.235611E0,5.048029E0,2.3663082E0,1.2137359E0,1.7805581E0,8.2078916E-1,7.7310026E-1,0E0,9.1184664E-1,5.430236E-1,1.3600038E-1,2.6589632E-2,0E0,2.252516E0,3.0600004E0,1.0122128E0,3.483598E0,2.4621677E0,0E0,5.599499E-1,1.1353753E0,1.7893577E0,9.5970595E-1,2.5398582E-1,5.6000257E-1,7.329719E-2,2.7021194E-1,6.989337E-1,2.7316856E-1,2.0037425E-1,0E0,0E0,0E0,0E0,1.7585459E0,0E0,3.1044918E-1,2.7066464E0,1.1758995E-1,0E0,4.7444803E-1,1.2001591E0,2.8099613E0,0E0,3.9529955E-1,0E0,0E0,0E0,0E0,0E0,0E0,0E0,0E0,0E0,0E0,0E0,0E0,0E0,0E0,0E0,0E0,0E0,0E0,0E0,0E0,0E0,0E0,0E0,0E0,0E0,0E0,0E0,0E0,0E0,0E0,0E0,0E0,0E0,0E0,0E0,0E0,0E0],"parents":[2147483647,0,0,1,1,2,2,3,3,4,4,5,5,6,6,7,7,8,8,9,9,10,10,11,11,12,12,13,13,14,14,15,15,16,16,17,17,19,19,20,20,21,21,22,22,24,24,25,25,26,26,27,27,28,28,30,30,31,31,32,32,33,33,34,34,35,35,36,36,37,37,38,38,39,39,40,40,45,45,47,47,48,48,49,49,51,51,52,52,53,53,55,55],"right_children":[2,4,6,8,10,12,14,16,18,20,22,24,26,28,30,32,34,36,-1,38,40,42,44,-1,46,48,50,52,54,-1,56,58,60,62,64,66,68,70,72,74,76,-1,-1,-1,-1,78,-1,80,82,84,-1,86,88,90,-1,92,-1,-1,-1,-1,-1,-1,-1,-1,-1,-1,-1,-1,-1,-1,-1,-1,-1,-1,-1,-1,-1,-1,-1,-1,-1,-1,-1,-1,-1,-1,-1,-1,-1,-1,-1,-1,-1],"split_conditions":[1E0,1.89E2,9.8E1,1E0,1E0,2.76E2,3.56E2,1E0,1E1,1E0,8E0,9.94E2,8.27E2,4.26E2,1.3E2,2.5E1,9.08E2,5E0,3.5E-2,1E0,1E0,-1.94E2,1.98E2,3.5E-2,8E0,7E0,8E0,1.85E2,1.871E3,2.3506576E-2,1E0,2.267E3,3E1,1E0,8.27E2,4.49E2,1E0,2.3E1,1.6E1,4.95E2,5.48E2,6.5207235E-3,-3.7903727E-3,2.7285073E-2,1.4789191E-2,-7.32E2,-9.687363E-3,6.76E2,8.54E2,1.8E1,1.649517E-2,8E0,1.94E2,1.12E3,1.5818637E-3,1E0,-1.15384E-2,4.129426E-3,1.7562633E-2,1.7269703E-2,-5.97516E-4,3.64958E-3,-4.1011195E-3,-9.282424E-3,-1.6811108E-3,2.2169834E-2,6.968457E-3,3.8914494E-3,-2.4024167E-3,-4.9188514E-3,-1.3653855E-2,-3.8331226E-4,-7.0544593E-3,-5.2295253E-3,-1.2558115E-2,7.924231E-3,-4.589589E-3,3.5E-2,2.9716955E-3,6.806315E-3,-3.5448808E-3,3.2200575E-2,-1.388484E-3,3.5E-2,2.0081807E-2,-8.069862E-3,6.7413994E-3,3.5E-2,8.611775E-3,2.0122364E-2,3.5E-2,6.629556E-3,-7.2105676E-3],"split_indices":[17,2,2,23,23,1,1,11,5,14,1,3,3,2,2,6,1,1,0,22,12,1,1,0,5,5,5,1,2,0,12,3,6,14,3,3,11,6,5,2,2,0,0,0,0,1,0,1,1,6,0,5,2,2,0,26,0,0,0,0,0,0,0,0,0,0,0,0,0,0,0,0,0,0,0,0,0,0,0,0,0,0,0,0,0,0,0,0,0,0,0,0,0],"split_type":[0,0,0,0,0,0,0,0,0,0,0,0,0,0,0,0,0,0,0,0,0,0,0,0,0,0,0,0,0,0,0,0,0,0,0,0,0,0,0,0,0,0,0,0,0,0,0,0,0,0,0,0,0,0,0,0,0,0,0,0,0,0,0,0,0,0,0,0,0,0,0,0,0,0,0,0,0,0,0,0,0,0,0,0,0,0,0,0,0,0,0,0,0],"sum_hessian":[1.7194581E3,1.3868235E3,3.3263467E2,7.9428687E2,5.925366E2,1.7140149E2,1.6123318E2,7.441107E2,5.017618E1,5.700293E2,2.2507326E1,8.937889E1,8.20226E1,1.2224617E2,3.898701E1,4.6060214E2,2.8350854E2,4.2882336E1,7.2938457E0,4.9612817E2,7.390109E1,1.0891908E1,1.1615418E1,6.748037E1,2.1898521E1,5.921112E1,2.2811478E1,3.4983257E1,8.726291E1,5.520424E0,3.3466587E1,3.840257E2,7.657646E1,2.3938728E2,4.4121277E1,2.5960049E1,1.6922289E1,3.814099E1,4.5798718E2,6.3033184E1,1.0867906E1,5.014772E0,5.877136E0,5.471415E0,6.144004E0,1.5735603E1,6.162919E0,2.7075607E1,3.2135513E1,1.2844142E1,9.967336E0,2.241264E1,1.2570617E1,7.677064E1,1.0492273E1,2.628043E1,7.1861587E0,3.6846225E2,1.5563431E1,5.8314964E1,1.8261496E1,1.8976273E2,4.9624554E1,2.0368639E1,2.375264E1,1.2613162E1,1.3346887E1,9.617965E0,7.304323E0,2.1552893E1,1.6588099E1,4.156117E2,4.237549E1,2.1216845E1,4.181634E1,5.3616166E0,5.506289E0,9.436413E0,6.29919E0,1.3254215E1,1.3821391E1,2.4388098E1,7.7474165E0,7.0188875E0,5.825255E0,1.519326E1,7.2193794E0,6.7438474E0,5.82677E0,5.5816673E1,2.0953964E1,2.0380419E1,5.9000106E0],"tree_param":{"num_deleted":"0","num_feature":"28","num_nodes":"93","size_leaf_vector":"1"}},{"base_weights":[1.05704874E-1,3.9484896E-2,3.8608062E-1,8.6608924E-2,-2.453155E-2,1.8970835E-1,6.3354766E-1,1.3095021E-1,1.1142735E-2,-6.329891E-3,-2.5743833E-1,1.3103451E-1,4.3625122E-1,4.4333097E-1,7E-1,1.07353635E-1,2.4865839E-1,4.3653483E-3,1.7011276E-2,-1.8655889E-1,9.507614E-3,-3.9486457E-3,-2.8523743E-1,3.1684723E-1,4.1774992E-2,7E-1,1.5066692E-1,7E-1,2.2691408E-1,7E-1,3.07939E-1,8.161364E-2,2.1210203E-1,3.185196E-1,5.3810325E-2,1.0115339E-1,-1.5652198E-2,-2.5005022E-1,2.395946E-3,-3.0264623E-2,9.112658E-2,-3.611301E-1,-1.7154367E-1,7E-1,1.5357703E-1,-1.2699668E-1,1.1410463E-1,2.096482E-2,3.5E-2,3.3350855E-1,-4.4328207E-3,1.9302255E-2,3.5E-2,3.5E-2,8.5641764E-2,3.5E-2,1.553783E-2,3.144167E-2,1.4514427E-1,1.110136E-2,2.6152234E-3,4.611216E-3,2.0583948E-2,1.165781E-2,2.2546789E-2,-1.3663243E-2,9.126089E-3,-3.6776622E-3,8.050839E-3,1.3461369E-3,-3.7751168E-3,-7.4771233E-3,-1.3923913E-2,-2.6359323E-3,4.4881655E-3,1.40042E-2,3.1908494E-4,-2.1279812E-2,-1.140849E-2,-1.2140747E-2,-4.8099565E-3,1.0302478E-2,3.5E-2,1.1348303E-2,-1.2942322E-2,-1.1978093E-2,4.03369E-3,-7.6003536E-3,9.714204E-3,2.540198E-2,7.8102993E-3,2.229708E-2,-3.6470995E-3,1.3046557E-2,-7.1905577E-3],"categories":[],"categories_nodes":[],"categories_segments":[],"categories_sizes":[],"default_left":[0,0,0,0,0,0,0,0,0,0,0,0,0,0,0,0,0,0,0,0,0,0,0,0,0,0,0,0,0,0,0,0,0,0,0,0,0,0,0,0,0,0,0,0,0,0,0,0,0,0,0,0,0,0,0,0,0,0,0,0,0,0,0,0,0,0,0,0,0,0,0,0,0,0,0,0,0,0,0,0,0,0,0,0,0,0,0,0,0,0,0,0,0,0,0],"id":2,"left_children":[1,3,5,7,9,11,13,15,17,19,21,23,25,27,29,31,33,35,-1,37,39,-1,41,43,45,47,49,51,53,55,57,59,61,63,65,67,69,71,-1,73,75,77,79,81,83,85,87,-1,-1,89,-1,-1,-1,-1,91,-1,-1,-1,93,-1,-1,-1,-1,-1,-1,-1,-1,-1,-1,-1,-1,-1,-1,-1,-1,-1,-1,-1,-1,-1,-1,-1,-1,-1,-1,-1,-1,-1,-1,-1,-1,-1,-1,-1,-1],"loss_changes":[3.2032745E1,4.2178164E0,1.5900627E1,2.6927667E0,2.5135503E0,2.6224704E0,2.7916374E0,1.3816795E0,6.655599E-1,1.5754538E0,1.9070768E-1,2.4921865E0,4.0572467E0,5.8820047E0,3.7787628E0,1.126287E0,1.1251402E0,5.713087E-1,0E0,6.756903E-1,1.6509659E0,0E0,2.5562215E-1,3.716332E0,1.2742009E0,4.7172546E-2,1.0438257E0,3.2435703E-1,3.720535E0,5.1895905E-1,1.3594954E0,1.3962946E0,1.9487877E0,5.907631E-1,1.0328677E0,5.402939E-1,6.251233E-1,5.905485E-2,0E0,9.2682624E-1,2.6660638E0,8.432174E-2,6.5986246E-2,1.0530066E0,1.2123826E0,7.54076E-1,1.5820522E0,0E0,0E0,3.3375025E-1,0E0,0E0,0E0,0E0,2.228562E0,0E0,0E0,0E0,6.974482E-1,0E0,0E0,0E0,0E0,0E0,0E0,0E0,0E0,0E0,0E0,0E0,0E0,0E0,0E0,0E0,0E0,0E0,0E0,0E0,0E0,0E0,0E0,0E0,0E0,0E0,0E0,0E0,0E0,0E0,0E0,0E0,0E0,0E0,0E0,0E0,0E0],"parents":[2147483647,0,0,1,1,2,2,3,3,4,4,5,5,6,6,7,7,8,8,9,9,10,10,11,11,12,12,13,13,14,14,15,15,16,16,17,17,19,19,20,20,22,22,23,23,24,24,25,25,26,26,27,27,28,28,29,29,30,30,31,31,32,32,33,33,34,34,35,35,36,36,37,37,39,39,40,40,41,41,42,42,43,43,44,44,45,45,46,46,49,49,54,54,58,58],"right_children":[2,4,6,8,10,12,14,16,18,20,22,24,26,28,30,32,34,36,-1,38,40,-1,42,44,46,48,50,52,54,56,58,60,62,64,66,68,70,72,-1,74,76,78,80,82,84,86,88,-1,-1,90,-1,-1,-1,-1,92,-1,-1,-1,94,-1,-1,-1,-1,-1,-1,-1,-1,-1,-1,-1,-1,-1,-1,-1,-1,-1,-1,-1,-1,-1,-1,-1,-1,-1,-1,-1,-1,-1,-1,-1,-1,-1,-1,-1,-1],"split_conditions":[1E0,1.94E2,1.76E2,1E0,1E0,1.214E3,1.9E1,2.5E1,1.81E2,-1.519E3,4E0,2.46E2,1.526E3,4E0,1E0,9E0,3E1,-1.054E3,1.7011276E-2,1E0,1E0,-3.9486457E-3,1E0,1.7E2,1E0,8E0,1.7E1,8.05E2,1E0,1.276E3,2.2E1,4E0,4.33E2,8E0,-3.87E2,6E0,5.68E2,-1.838E3,2.395946E-3,1E0,-1.89E2,1E0,1E0,6E0,1.4E1,6.76E2,1.7E1,2.096482E-2,3.5E-2,6E0,-4.4328207E-3,1.9302255E-2,3.5E-2,3.5E-2,-7.5E2,3.5E-2,1.553783E-2,3.144167E-2,9.43E2,1.110136E-2,2.6152234E-3,4.611216E-3,2.0583948E-2,1.165781E-2,2.2546789E-2,-1.3663243E-2,9.126089E-3,-3.6776622E-3,8.050839E-3,1.3461369E-3,-3.7751168E-3,-7.4771233E-3,-1.3923913E-2,-2.6359323E-3,4.4881655E-3,1.40042E-2,3.1908494E-4,-2.1279812E-2,-1.140849E-2,-1.2140747E-2,-4.8099565E-3,1.0302478E-2,3.5E-2,1.1348303E-2,-1.2942322E-2,-1.1978093E-2,4.03369E-3,-7.6003536E-3,9.714204E-3,2.540198E-2,7.8102993E-3,2.229708E-2,-3.6470995E-3,1.3046557E-2,-7.1905577E-3],"split_indices":[17,2,3,11,20,2,6,6,2,0,4,2,2,4,12,4,6,1,0,12,19,0,19,0,27,1,6,3,27,3,6,5,1,5,1,5,3,0,0,12,0,11,9,4,5,0,6,0,0,4,0,0,0,0,1,0,0,0,3,0,0,0,0,0,0,0,0,0,0,0,0,0,0,0,0,0,0,0,0,0,0,0,0,0,0,0,0,0,0,0,0,0,0,0,0],"split_type":[0,0,0,0,0,0,0,0,0,0,0,0,0,0,0,0,0,0,0,0,0,0,0,0,0,0,0,0,0,0,0,0,0,0,0,0,0,0,0,0,0,0,0,0,0,0,0,0,0,0,0,0,0,0,0,0,0,0,0,0,0,0,0,0,0,0,0,0,0,0,0,0,0,0,0,0,0,0,0,0,0,0,0,0,0,0,0,0,0,0,0,0,0,0,0],"sum_hessian":[1.7251213E3,1.3964456E3,3.286758E2,8.041435E2,5.92302E2,1.8424149E2,1.4443434E2,5.0606323E2,2.9808026E2,5.503216E2,4.1980442E1,1.500606E2,3.4180893E1,5.856164E1,8.5872696E1,4.2314813E2,8.291511E1,2.9305804E2,5.0222006E0,4.358215E1,5.0673944E2,6.175518E0,3.5804924E1,4.786651E1,1.02194084E2,1.2002235E1,2.2178658E1,1.3558999E1,4.5002644E1,5.9101456E1,2.6771242E1,3.411066E2,8.204154E1,6.0565224E1,2.2349886E1,4.952817E1,2.4352988E2,3.4243393E1,9.338757E0,3.4113596E2,1.6560349E2,2.0166845E1,1.5638079E1,1.0751755E1,3.7114754E1,3.0431168E1,7.1762924E1,5.8173823E0,6.184853E0,1.2349876E1,9.828782E0,7.2619185E0,6.29708E0,7.5685782E0,3.7434063E1,5.3442135E1,5.659319E0,8.046861E0,1.8724382E1,5.7769707E1,2.8333688E2,5.2168285E1,2.9873259E1,3.8504013E1,2.206121E1,5.9943233E0,1.6355562E1,1.2581465E1,3.694671E1,1.426235E2,1.00906364E2,8.930361E0,2.5313032E1,2.8784805E2,5.3287907E1,5.0561176E1,1.1504231E2,1.20994625E1,8.067382E0,6.8940277E0,8.744051E0,5.324131E0,5.4276237E0,3.1889776E1,5.2249756E0,1.9634802E1,1.0796364E1,1.64084E1,5.5354523E1,5.2835417E0,7.0663347E0,1.0886982E1,2.6547081E1,1.3437034E1,5.2873483E0],"tree_param":{"num_deleted":"0","num_feature":"28","num_nodes":"95","size_leaf_vector":"1"}},{"base_weights":[1.19842105E-1,3.7544087E-2,4.6176037E-1,-5.4884707E-3,1.1091086E-1,2.5059202E-1,7E-1,-1.6050467E-2,2.6223785E-1,1.528236E-1,4.32326E-2,2.0403501E-1,6.701197E-1,1.8297319E-1,7E-1,-2.016351E-1,-4.040203E-3,3.7002805E-1,1.1888009E-1,2.9671434E-1,1.2850256E-1,1.7414397E-2,2.8176738E-2,1.14637055E-1,4.961969E-1,3.5E-2,3.548665E-3,3.2480887E-1,-4.5364182E-3,7E-1,1.075057E-4,-2.867645E-1,-1.4648695E-1,3.0568736E-2,-4.393411E-2,2.1807931E-1,3.1169046E-2,-1.4086453E-3,1.1836412E-2,3.883729E-1,-4.0493207E-3,1.4080901E-1,-1.0785114E-1,1.0571295E-1,-1.24633815E-2,2.1491347E-1,-5.30144E-2,7E-1,2.4917069E-1,-2.8240876E-4,2.3964006E-2,7E-1,3.40878E-3,-1.7241176E-2,-5.660606E-3,-1.0872114E-2,-2.6102706E-3,1.0220808E-3,3.5E-2,-5.2270846E-4,-5.914916E-3,5.093906E-3,1.4098606E-2,1.2767987E-2,3.2153063E-2,2.7847982E-3,9.258545E-3,-1.4668669E-2,9.280254E-3,-2.642375E-3,8.5921185E-3,-4.417006E-3,2.8796566E-3,8.137757E-3,3.5E-2,3.4066688E-3,-9.473869E-3,3.5E-2,3.275884E-3,2.1934465E-2,7.0701367E-3,2.052367E-2,3.5E-2],"categories":[],"categories_nodes":[],"categories_segments":[],"categories_sizes":[],"default_left":[0,0,0,0,0,0,0,0,0,0,0,0,0,0,0,0,0,0,0,0,0,0,0,0,0,0,0,0,0,0,0,0,0,0,0,0,0,0,0,0,0,0,0,0,0,0,0,0,0,0,0,0,0,0,0,0,0,0,0,0,0,0,0,0,0,0,0,0,0,0,0,0,0,0,0,0,0,0,0,0,0,0,0],"id":3,"left_children":[1,3,5,7,9,11,13,15,17,19,21,23,25,27,29,31,33,35,37,39,41,-1,43,45,47,-1,-1,49,-1,51,-1,53,55,57,59,61,-1,-1,-1,63,-1,65,67,69,71,73,75,77,79,-1,-1,81,-1,-1,-1,-1,-1,-1,-1,-1,-1,-1,-1,-1,-1,-1,-1,-1,-1,-1,-1,-1,-1,-1,-1,-1,-1,-1,-1,-1,-1,-1,-1],"loss_changes":[4.9173244E1,4.452425E0,1.8970886E1,2.520101E0,1.4722347E0,3.6063223E0,5.817436E0,1.9091417E0,4.787054E-1,1.0872107E0,9.123516E-1,4.4860015E0,3.5309296E0,9.454567E-1,2.6775131E0,2.0241785E-1,1.1139462E0,5.891266E-1,2.8379232E-1,1.6145954E0,8.204088E-1,0E0,6.0766876E-1,2.2722232E0,2.6901598E0,0E0,0E0,8.071873E-1,0E0,2.2710419E0,0E0,1.566819E-1,2.1369153E-1,2.9485278E0,9.3177086E-1,7.010418E-2,0E0,0E0,0E0,1.0882845E0,0E0,9.8485947E-1,8.3119166E-1,7.0405835E-1,6.8095636E-1,2.2580733E0,8.582655E-1,2.369834E0,4.263767E-1,0E0,0E0,1.19255066E-1,0E0,0E0,0E0,0E0,0E0,0E0,0E0,0E0,0E0,0E0,0E0,0E0,0E0,0E0,0E0,0E0,0E0,0E0,0E0,0E0,0E0,0E0,0E0,0E0,0E0,0E0,0E0,0E0,0E0,0E0,0E0],"parents":[2147483647,0,0,1,1,2,2,3,3,4,4,5,5,6,6,7,7,8,8,9,9,10,10,11,11,12,12,13,13,14,14,15,15,16,16,17,17,18,18,19,19,20,20,22,22,23,23,24,24,27,27,29,29,31,31,32,32,33,33,34,34,35,35,39,39,41,41,42,42,43,43,44,44,45,45,46,46,47,47,48,48,51,51],"right_children":[2,4,6,8,10,12,14,16,18,20,22,24,26,28,30,32,34,36,38,40,42,-1,44,46,48,-1,-1,50,-1,52,-1,54,56,58,60,62,-1,-1,-1,64,-1,66,68,70,72,74,76,78,80,-1,-1,82,-1,-1,-1,-1,-1,-1,-1,-1,-1,-1,-1,-1,-1,-1,-1,-1,-1,-1,-1,-1,-1,-1,-1,-1,-1,-1,-1,-1,-1,-1,-1],"split_conditions":[1E0,3.67E2,1.76E2,1E0,1E0,2.8E1,4E0,-1.519E3,2.58E2,4E0,-1.799E3,9.43E2,8E0,6.89E2,1E0,1.8E1,3.01E2,3.4E1,8.54E2,1E0,1E0,1.7414397E-2,5.71E2,4.69E2,1.526E3,3.5E-2,3.548665E-3,4.14E2,-4.5364182E-3,4.79E2,1.075057E-4,1E0,-1.652E3,3.94E2,6.66E2,-1.19E2,3.1169046E-2,-1.4086453E-3,1.1836412E-2,2E1,-4.0493207E-3,-2.54E2,2.2E1,4.26E2,7E0,4.39E2,1.07E2,1E0,5E0,-2.8240876E-4,2.3964006E-2,1.3E1,3.40878E-3,-1.7241176E-2,-5.660606E-3,-1.0872114E-2,-2.6102706E-3,1.0220808E-3,3.5E-2,-5.2270846E-4,-5.914916E-3,5.093906E-3,1.4098606E-2,1.2767987E-2,3.2153063E-2,2.7847982E-3,9.258545E-3,-1.4668669E-2,9.280254E-3,-2.642375E-3,8.5921185E-3,-4.417006E-3,2.8796566E-3,8.137757E-3,3.5E-2,3.4066688E-3,-9.473869E-3,3.5E-2,3.275884E-3,2.1934465E-2,7.0701367E-3,2.052367E-2,3.5E-2],"split_indices":[17,3,3,23,11,6,5,0,0,5,1,2,5,3,10,6,0,1,0,9,20,0,3,2,2,0,0,3,0,0,0,12,0,1,2,1,0,0,0,6,0,1,6,3,5,2,1,11,5,0,0,6,0,0,0,0,0,0,0,0,0,0,0,0,0,0,0,0,0,0,0,0,0,0,0,0,0,0,0,0,0,0,0],"split_type":[0,0,0,0,0,0,0,0,0,0,0,0,0,0,0,0,0,0,0,0,0,0,0,0,0,0,0,0,0,0,0,0,0,0,0,0,0,0,0,0,0,0,0,0,0,0,0,0,0,0,0,0,0,0,0,0,0,0,0,0,0,0,0,0,0,0,0,0,0,0,0,0,0,0,0,0,0,0,0,0,0,0,0],"sum_hessian":[1.7471161E3,1.4090698E3,3.3804626E2,8.887232E2,5.203466E2,1.9063727E2,1.4740898E2,8.5589746E2,3.282573E1,3.2056476E2,1.9978186E2,1.7293246E2,1.7704802E1,2.2595362E1,1.24813614E2,5.1063717E1,8.0483374E2,1.7834715E1,1.4991013E1,4.4729763E1,2.75835E2,8.355397E0,1.9142647E2,1.3348123E2,3.9451244E1,8.500381E0,9.204421E0,1.4759875E1,7.835486E0,1.1930941E2,5.50421E0,1.8423855E1,3.2639862E1,4.3108807E2,3.737457E2,1.2311593E1,5.523122E0,7.0076647E0,7.9833484E0,3.5972E1,8.757763E0,2.6256787E2,1.3267122E1,6.5279755E1,1.2614671E2,8.334728E1,5.013394E1,1.6537828E1,2.2913416E1,5.008574E0,9.751302E0,1.1339301E2,5.9163947E0,1.3065993E1,5.357861E0,1.787843E1,1.4761434E1,4.2575156E2,5.336497E0,2.5850378E2,1.15241905E2,5.288311E0,7.0232816E0,2.4946243E1,1.1025754E1,9.073622E1,1.7183165E2,8.128554E0,5.138568E0,1.927187E1,4.6007885E1,6.0432526E1,6.571418E1,7.728564E1,6.0616484E0,2.6822468E1,2.3311474E1,1.0433852E1,6.1039767E0,7.193095E0,1.5720321E1,6.268059E0,1.07124954E2],"tree_param":{"num_deleted":"0","num_feature":"28","num_nodes":"83","size_leaf_vector":"1"}},{"base_weights":[1.1465135E-1,3.292075E-2,4.468468E-1,1.8060448E-2,3.0110365E-1,6.314491E-1,2.4825153E-1,6.351608E-2,-6.783091E-2,2.0629258E-1,4.7815177E-1,7E-1,4.4394648E-1,3.005194E-1,-1.11829326E-1,7.7409334E-2,-2.6143186E-2,-8.7612696E-2,4.619503E-2,1.2004295E-1,3.936067E-1,3.0296642E-1,3.5E-2,7E-1,4.676275E-1,3.247072E-1,3.5E-2,2.0031399E-1,6.4969E-1,-1.6774733E-2,-1.4026354E-2,9.606311E-2,-2.343349E-2,-1.1780354E-1,2.702347E-1,-7.029482E-2,-2.0642504E-1,-1.0801251E-2,8.393046E-2,5.205964E-2,2.2113377E-2,3.2224484E-2,9.653975E-3,2.0445475E-2,6.236025E-3,2.95027E-1,3.5E-2,2.781335E-1,7E-1,9.009028E-2,5.089866E-1,3.0365947E-1,-1.7440286E-1,5.268985E-2,3.5E-2,-8.951495E-3,1.0045107E-2,-3.8432635E-3,5.3078607E-3,1.8319912E-3,-4.916276E-3,-7.283058E-3,5.0493684E-3,1.7863488E-2,-1.5236314E-3,-1.1494996E-2,-2.6902424E-3,1.1169949E-3,-1.2541555E-2,9.922617E-3,1.3080355E-3,5.0867544E-3,-4.7271894E-3,-2.0709024E-4,2.986162E-2,4.7014E-3,2.8079176E-2,3.5E-2,2.0422403E-2,1.3246876E-2,3.5908015E-4,3.0758461E-2,-5.201559E-3,3.4348954E-2,7.6536643E-3,-1.3641437E-2,-8.0652395E-4,-5.299458E-3,1.0018713E-2],"categories":[],"categories_nodes":[],"categories_segments":[],"categories_sizes":[],"default_left":[0,0,0,0,0,0,0,0,0,0,0,0,0,0,0,0,0,0,0,0,0,0,0,0,0,0,0,0,0,0,0,0,0,0,0,0,0,0,0,0,0,0,0,0,0,0,0,0,0,0,0,0,0,0,0,0,0,0,0,0,0,0,0,0,0,0,0,0,0,0,0,0,0,0,0,0,0,0,0,0,0,0,0,0,0,0,0,0,0],"id":4,"left_children":[1,3,5,7,9,11,13,15,17,19,21,23,25,27,29,31,33,35,37,39,41,43,-1,45,47,49,-1,51,53,55,-1,57,59,61,63,65,67,-1,69,71,-1,-1,-1,-1,-1,73,-1,75,77,79,81,83,85,87,-1,-1,-1,-1,-1,-1,-1,-1,-1,-1,-1,-1,-1,-1,-1,-1,-1,-1,-1,-1,-1,-1,-1,-1,-1,-1,-1,-1,-1,-1,-1,-1,-1,-1,-1],"loss_changes":[4.7255077E1,5.5673213E0,1.2443298E1,5.181278E0,1.132649E0,3.9038925E0,3.180749E0,1.0827744E0,1.0402217E0,7.529285E-1,9.994788E-1,1.9860687E0,4.3166924E0,4.988469E0,3.4686777E-1,1.4158258E0,3.2143986E0,7.916558E-1,6.9660044E-1,7.5139666E-1,6.3908744E-1,2.7378356E-1,0E0,1.5579185E0,2.9655495E0,3.034452E0,0E0,4.510902E0,4.520051E0,5.6882095E-1,0E0,1.115458E0,5.3497785E-1,5.643283E-1,7.430935E-1,8.9162123E-1,5.066962E-1,0E0,3.9613694E-1,2.3047334E-1,0E0,0E0,0E0,0E0,0E0,1.1314335E0,0E0,1.6864614E0,1.983366E-1,4.7005773E-1,2.6473932E0,5.124305E0,3.9316338E-1,3.0599418E-1,0E0,0E0,0E0,0E0,0E0,0E0,0E0,0E0,0E0,0E0,0E0,0E0,0E0,0E0,0E0,0E0,0E0,0E0,0E0,0E0,0E0,0E0,0E0,0E0,0E0,0E0,0E0,0E0,0E0,0E0,0E0,0E0,0E0,0E0,0E0],"parents":[2147483647,0,0,1,1,2,2,3,3,4,4,5,5,6,6,7,7,8,8,9,9,10,10,11,11,12,12,13,13,14,14,15,15,16,16,17,17,18,18,19,19,20,20,21,21,23,23,24,24,25,25,27,27,28,28,29,29,31,31,32,32,33,33,34,34,35,35,36,36,38,38,39,39,45,45,47,47,48,48,49,49,50,50,51,51,52,52,53,53],"right_children":[2,4,6,8,10,12,14,16,18,20,22,24,26,28,30,32,34,36,38,40,42,44,-1,46,48,50,-1,52,54,56,-1,58,60,62,64,66,68,-1,70,72,-1,-1,-1,-1,-1,74,-1,76,78,80,82,84,86,88,-1,-1,-1,-1,-1,-1,-1,-1,-1,-1,-1,-1,-1,-1,-1,-1,-1,-1,-1,-1,-1,-1,-1,-1,-1,-1,-1,-1,-1,-1,-1,-1,-1,-1,-1],"split_conditions":[1E0,1E0,5.2E1,4.15E2,1E0,2.76E2,1.082E3,1E0,1E0,1E0,8E0,7E0,1.505E3,1.12E3,1.521E3,1E0,1E0,1E0,-7.16E2,9.58E2,3.7E1,1E0,3.5E-2,4E0,1.5E1,7E0,3.5E-2,1E0,-7.45E2,3.67E2,-1.4026354E-2,1E0,2.98E2,9.25E2,3.94E2,1E0,4E0,-1.0801251E-2,-1.84E2,1E0,2.2113377E-2,3.2224484E-2,9.653975E-3,2.0445475E-2,6.236025E-3,-1.84E2,3.5E-2,8E0,5E0,4E0,1.5E1,-2.33E2,3.54E2,1.956E3,3.5E-2,-8.951495E-3,1.0045107E-2,-3.8432635E-3,5.3078607E-3,1.8319912E-3,-4.916276E-3,-7.283058E-3,5.0493684E-3,1.7863488E-2,-1.5236314E-3,-1.1494996E-2,-2.6902424E-3,1.1169949E-3,-1.2541555E-2,9.922617E-3,1.3080355E-3,5.0867544E-3,-4.7271894E-3,-2.0709024E-4,2.986162E-2,4.7014E-3,2.8079176E-2,3.5E-2,2.0422403E-2,1.3246876E-2,3.5908015E-4,3.0758461E-2,-5.201559E-3,3.4348954E-2,7.6536643E-3,-1.3641437E-2,-8.0652395E-4,-5.299458E-3,1.0018713E-2],"split_indices":[17,23,2,2,18,1,0,14,12,12,5,5,1,2,0,15,12,14,1,2,0,12,0,5,4,5,0,26,0,1,0,22,1,1,0,22,4,0,1,26,0,0,0,0,0,0,0,0,0,4,5,0,0,2,0,0,0,0,0,0,0,0,0,0,0,0,0,0,0,0,0,0,0,0,0,0,0,0,0,0,0,0,0,0,0,0,0,0,0],"split_type":[0,0,0,0,0,0,0,0,0,0,0,0,0,0,0,0,0,0,0,0,0,0,0,0,0,0,0,0,0,0,0,0,0,0,0,0,0,0,0,0,0,0,0,0,0,0,0,0,0,0,0,0,0,0,0,0,0,0,0,0,0,0,0,0,0,0,0,0,0,0,0,0,0,0,0,0,0,0,0,0,0,0,0,0,0,0,0,0,0],"sum_hessian":[1.740026E3,1.3973362E3,3.4268985E2,1.3249847E3,7.235149E1,1.7647226E2,1.6621759E2,8.666138E2,4.583709E2,4.8528927E1,2.3822557E1,9.773461E1,7.873764E1,1.452929E2,2.092471E1,7.5046173E2,1.1615203E2,3.9080392E2,6.756697E1,3.4352173E1,1.417675E1,1.6198912E1,7.623646E0,5.2878998E1,4.4855614E1,7.024561E1,8.492027E0,1.14117096E2,3.1175787E1,1.408679E1,6.837919E0,6.333524E2,1.1710933E2,8.917541E1,2.6976624E1,3.4247678E2,4.832716E1,7.905771E0,5.9661198E1,2.9326418E1,5.0257573E0,5.31415E0,8.8626E0,9.34845E0,6.8504624E0,1.1487054E1,4.139194E1,3.2329037E1,1.2526579E1,3.1557182E1,3.8688435E1,8.959638E1,2.4520716E1,1.1151219E1,2.0024567E1,8.172555E0,5.9142356E0,3.4566E1,5.9878644E2,6.526718E1,5.184215E1,7.940002E1,9.775386E0,2.0775408E1,6.201216E0,3.085847E1,3.1161832E2,7.9367304E0,4.0390427E1,1.9187992E1,4.0473206E1,2.2132904E1,7.1935124E0,6.268166E0,5.218888E0,2.0406439E1,1.1922596E1,5.4287157E0,7.0978637E0,9.444344E0,2.2112839E1,3.2973488E1,5.714945E0,2.4265678E1,6.53307E1,1.4672463E1,9.848252E0,5.5116124E0,5.6396074E0],"tree_param":{"num_deleted":"0","num_feature":"28","num_nodes":"89","size_leaf_vector":"1"}},{"base_weights":[1.1789598E-1,1.9285929E-1,3.5043705E-2,1.7691934E-1,6.264009E-1,5.0632857E-2,-1.9925006E-1,2.0280418E-1,-4.558522E-2,7E-1,2.5448538E-3,7.18036E-2,-1.2106957E-1,-4.7813702E-2,-2.4930161E-1,2.3060338E-1,-1.9911718E-2,1.7268947E-1,-8.007612E-2,3.5E-2,1.1144475E-2,1.0043418E-1,-3.592686E-2,-1.8656202E-1,1.6576768E-1,7.092774E-3,-9.158277E-3,-1.8034358E-2,-2.1723099E-1,2.6337147E-1,2.806055E-2,-9.30925E-2,2.0616134E-1,1.6723864E-2,-2.070599E-3,-5.5228733E-2,-1.3295367E-2,1.2053752E-1,-4.1309226E-2,1.0625759E-2,-1.8490113E-1,-1.03582524E-1,-2.4937712E-1,1.3355521E-2,-7.761029E-4,-5.94677E-3,-2.6420584E-1,7.8049363E-3,1.6825056E-2,-1.1781951E-3,8.583469E-3,-5.8202106E-3,8.4166145E-3,4.10537E-5,1.8492732E-2,-4.0262206E-3,4.314332E-3,4.8462786E-3,1.4054638E-2,-1.10060675E-2,3.907744E-4,-2.509183E-3,7.764282E-3,-5.1935404E-3,-1.21789E-2,-9.647833E-3,2.8913284E-3,-1.3324252E-2,-6.7760535E-3,-1.7251758E-2,-1.0934307E-2],"categories":[],"categories_nodes":[],"categories_segments":[],"categories_sizes":[],"default_left":[0,0,0,0,0,0,0,0,0,0,0,0,0,0,0,0,0,0,0,0,0,0,0,0,0,0,0,0,0,0,0,0,0,0,0,0,0,0,0,0,0,0,0,0,0,0,0,0,0,0,0,0,0,0,0,0,0,0,0,0,0,0,0,0,0,0,0,0,0,0,0],"id":5,"left_children":[1,3,5,7,9,11,13,15,17,19,-1,21,23,25,27,29,31,33,35,-1,-1,37,39,41,43,-1,-1,-1,45,47,49,51,53,-1,-1,55,-1,57,59,61,63,65,67,-1,-1,-1,69,-1,-1,-1,-1,-1,-1,-1,-1,-1,-1,-1,-1,-1,-1,-1,-1,-1,-1,-1,-1,-1,-1,-1,-1],"loss_changes":[1.0960798E1,6.294258E0,3.0781984E0,5.16613E0,2.3328428E0,2.8746111E0,3.8682675E-1,4.9715576E0,7.224369E-1,1.3115902E0,0E0,2.1703792E0,1.6636264E0,3.9323682E-1,6.204319E-2,4.7267494E0,1.5072492E0,4.6971282E-1,3.6377305E-1,0E0,0E0,1.5872092E0,1.0299872E0,3.4543037E-1,3.1069073E-1,0E0,0E0,0E0,1.2109065E-1,4.763031E0,7.48752E-1,4.3789154E-1,7.4947894E-1,0E0,0E0,2.7026826E-1,0E0,1.8172679E0,6.141049E-1,1.0096185E0,1.4276052E-1,4.7853026E-1,4.1465282E-2,0E0,0E0,0E0,3.764391E-3,0E0,0E0,0E0,0E0,0E0,0E0,0E0,0E0,0E0,0E0,0E0,0E0,0E0,0E0,0E0,0E0,0E0,0E0,0E0,0E0,0E0,0E0,0E0,0E0],"parents":[2147483647,0,0,1,1,2,2,3,3,4,4,5,5,6,6,7,7,8,8,9,9,11,11,12,12,13,13,14,14,15,15,16,16,17,17,18,18,21,21,22,22,23,23,24,24,28,28,29,29,30,30,31,31,32,32,35,35,37,37,38,38,39,39,40,40,41,41,42,42,46,46],"right_children":[2,4,6,8,10,12,14,16,18,20,-1,22,24,26,28,30,32,34,36,-1,-1,38,40,42,44,-1,-1,-1,46,48,50,52,54,-1,-1,56,-1,58,60,62,64,66,68,-1,-1,-1,70,-1,-1,-1,-1,-1,-1,-1,-1,-1,-1,-1,-1,-1,-1,-1,-1,-1,-1,-1,-1,-1,-1,-1,-1],"split_conditions":[1.12E2,2.276E3,1E0,1E0,2.398E3,1E0,4.14E2,1E0,-6.85E2,1.8E1,2.5448538E-3,3.67E2,1E0,5E0,1.8E1,1E0,1E0,1E0,1.276E3,3.5E-2,1.1144475E-2,1E0,1E0,5.32E2,3.67E2,7.092774E-3,-9.158277E-3,-1.8034358E-2,-7.68E2,1.9E1,1E0,1.218E3,4.81E2,1.6723864E-2,-2.070599E-3,4.44E2,-1.3295367E-2,2.8E1,1E0,1E0,4.15E2,4.26E2,1.4E1,1.3355521E-2,-7.761029E-4,-5.94677E-3,-1.39E2,7.8049363E-3,1.6825056E-2,-1.1781951E-3,8.583469E-3,-5.8202106E-3,8.4166145E-3,4.10537E-5,1.8492732E-2,-4.0262206E-3,4.314332E-3,4.8462786E-3,1.4054638E-2,-1.10060675E-2,3.907744E-4,-2.509183E-3,7.764282E-3,-5.1935404E-3,-1.21789E-2,-9.647833E-3,2.8913284E-3,-1.3324252E-2,-6.7760535E-3,-1.7251758E-2,-1.0934307E-2],"split_indices":[2,3,20,15,3,14,2,14,0,6,0,1,12,5,6,16,12,11,3,0,0,16,10,2,0,0,0,0,0,6,12,1,3,0,0,0,0,6,27,8,2,2,4,0,0,0,0,0,0,0,0,0,0,0,0,0,0,0,0,0,0,0,0,0,0,0,0,0,0,0,0],"split_type":[0,0,0,0,0,0,0,0,0,0,0,0,0,0,0,0,0,0,0,0,0,0,0,0,0,0,0,0,0,0,0,0,0,0,0,0,0,0,0,0,0,0,0,0,0,0,0,0,0,0,0,0,0,0,0,0,0,0,0,0,0,0,0,0,0,0,0,0,0,0,0],"sum_hessian":[1.7648612E3,9.25845E2,8.3901624E2,8.943699E2,3.1475067E1,7.874085E2,5.1607735E1,8.012463E2,9.3123604E1,2.5357788E1,6.11728E0,7.0149646E2,8.5912025E1,1.3305577E1,3.830216E1,7.1230194E2,8.894433E1,1.2160351E1,8.096325E1,1.8443398E1,6.9143906E0,5.542627E2,1.4723378E2,7.022697E1,1.5685061E1,5.520968E0,7.7846093E0,6.2720037E0,3.2030155E1,6.1285223E2,9.944972E1,6.7637886E1,2.1306444E1,6.6061287E0,5.554222E0,7.255867E1,8.40458E0,4.8554752E2,6.871518E1,1.1288675E2,3.434704E1,3.1398363E1,3.8828598E1,9.757266E0,5.927795E0,1.1499393E1,2.053076E1,2.4970227E2,3.6314996E2,7.376766E1,2.5682058E1,6.260961E1,5.0282764E0,9.896759E0,1.1409685E1,6.1921307E1,1.0637364E1,4.2469388E2,6.085363E1,1.4059233E1,5.465595E1,7.9937294E1,3.2949455E1,1.5589206E1,1.8757833E1,2.0082817E1,1.1315546E1,3.259096E1,6.2376375E0,5.02607E0,1.5504691E1],"tree_param":{"num_deleted":"0","num_feature":"28","num_nodes":"71","size_leaf_vector":"1"}},{"base_weights":[1.0559618E-1,2.4987055E-2,4.2754346E-1,7.778042E-2,-4.6987824E-2,5.9452796E-1,2.4022196E-1,6.681407E-2,2.536806E-1,-6.871967E-2,7.322257E-2,7E-1,4.355645E-1,6.656976E-1,1.9231854E-1,3.682696E-2,1.3258925E-1,1.1152E-1,4.7332436E-1,-1.0927709E-1,1.651067E-2,7.0015187E-3,2.773565E-1,1.9578196E-1,7E-1,7E-1,2.930103E-1,-7.8701405E-3,3.5E-2,1.3252725E-1,3.9963666E-1,-1.0597641E-3,1.4294188E-1,2.533539E-1,1.0872733E-1,2.1135083E-1,-4.3983427E-3,3.5E-2,8.849672E-3,-6.286111E-2,-1.6676593E-1,-9.603824E-2,9.726524E-2,-3.0733781E-2,1.3859073E-2,-1.8549132E-3,4.5551422E-1,1.932928E-4,1.7620599E-2,3.4025893E-1,7E-1,1.5223197E-3,7E-1,1.481793E-1,5.6382394E-1,2.4869728E-1,1.6216462E-3,3.5E-2,1.8825927E-1,-3.1914946E-3,4.7033685E-3,3.4981128E-3,2.096537E-2,1.745077E-2,2.993385E-4,3.8171355E-3,1.1983847E-2,-2.6777235E-3,1.7047763E-2,-4.3652696E-3,4.590929E-3,-1.3686697E-2,-6.600654E-3,-7.947921E-3,-1.5515891E-4,7.976251E-3,-7.797838E-3,3.1601748E-4,-1.0242745E-2,3.5E-2,8.187383E-3,2.8432999E-2,5.882345E-3,3.5E-2,2.3464106E-2,3.5E-2,1.7283892E-2,1.0133219E-2,-8.9163855E-3,9.226963E-3,3.5E-2,6.392326E-3,3.5E-2,-2.3161005E-3,1.2825045E-2,1.9832293E-2,-4.93515E-3],"categories":[],"categories_nodes":[],"categories_segments":[],"categories_sizes":[],"default_left":[0,0,0,0,0,0,0,0,0,0,0,0,0,0,0,0,0,0,0,0,0,0,0,0,0,0,0,0,0,0,0,0,0,0,0,0,0,0,0,0,0,0,0,0,0,0,0,0,0,0,0,0,0,0,0,0,0,0,0,0,0,0,0,0,0,0,0,0,0,0,0,0,0,0,0,0,0,0,0,0,0,0,0,0,0,0,0,0,0,0,0,0,0,0,0,0,0],"id":6,"left_children":[1,3,5,7,9,11,13,15,17,19,21,23,25,27,29,31,33,35,37,39,41,43,45,47,49,51,53,-1,-1,55,57,59,61,63,65,67,-1,-1,-1,69,71,73,75,77,-1,-1,79,-1,-1,81,83,-1,85,87,89,91,93,-1,95,-1,-1,-1,-1,-1,-1,-1,-1,-1,-1,-1,-1,-1,-1,-1,-1,-1,-1,-1,-1,-1,-1,-1,-1,-1,-1,-1,-1,-1,-1,-1,-1,-1,-1,-1,-1,-1,-1],"loss_changes":[4.5651955E1,5.3546925E0,1.0876038E1,1.550827E0,1.5633128E0,3.3852615E0,3.2900305E0,1.5067883E0,1.4253578E0,1.74982E0,1.2391378E0,2.5478745E0,3.226366E0,4.382244E0,1.8329082E0,2.122088E0,6.6293097E-1,6.169702E-1,1.4107337E0,9.0416574E-1,1.4991444E0,7.2573507E-1,1.2752802E0,3.578242E-1,1.5560989E0,2.7528915E0,2.202887E0,0E0,0E0,1.8180633E0,3.4285789E0,2.3343222E0,2.7715602E0,9.156141E-1,8.376062E-1,7.1587604E-1,0E0,0E0,0E0,7.3115444E-1,5.3083324E-1,4.028707E-1,1.5373462E0,4.0535584E-1,0E0,0E0,1.1579194E0,0E0,0E0,7.369851E-1,7.427254E-1,0E0,5.290756E-1,7.359592E-1,1.0262332E0,3.7033873E0,7.112229E-1,0E0,1.6252983E0,0E0,0E0,0E0,0E0,0E0,0E0,0E0,0E0,0E0,0E0,0E0,0E0,0E0,0E0,0E0,0E0,0E0,0E0,0E0,0E0,0E0,0E0,0E0,0E0,0E0,0E0,0E0,0E0,0E0,0E0,0E0,0E0,0E0,0E0,0E0,0E0,0E0,0E0],"parents":[2147483647,0,0,1,1,2,2,3,3,4,4,5,5,6,6,7,7,8,8,9,9,10,10,11,11,12,12,13,13,14,14,15,15,16,16,17,17,18,18,19,19,20,20,21,21,22,22,23,23,24,24,25,25,26,26,29,29,30,30,31,31,32,32,33,33,34,34,35,35,39,39,40,40,41,41,42,42,43,43,46,46,49,49,50,50,52,52,53,53,54,54,55,55,56,56,58,58],"right_children":[2,4,6,8,10,12,14,16,18,20,22,24,26,28,30,32,34,36,38,40,42,44,46,48,50,52,54,-1,-1,56,58,60,62,64,66,68,-1,-1,-1,70,72,74,76,78,-1,-1,80,-1,-1,82,84,-1,86,88,90,92,94,-1,96,-1,-1,-1,-1,-1,-1,-1,-1,-1,-1,-1,-1,-1,-1,-1,-1,-1,-1,-1,-1,-1,-1,-1,-1,-1,-1,-1,-1,-1,-1,-1,-1,-1,-1,-1,-1,-1,-1],"split_conditions":[1E0,1.89E2,9.8E1,1E0,1E0,2.76E2,-7.16E2,1E0,1E0,1E0,2.4E1,1E0,1.6E1,6.36E2,1.214E3,1E0,4E0,1E0,2.2E1,8.02E2,5.72E2,1E0,-1.86E2,1E0,1.6E1,1.3E1,1E0,-7.8701405E-3,3.5E-2,4.69E2,1E0,1E0,9E0,2E1,1E0,1.9E1,-4.3983427E-3,3.5E-2,8.849672E-3,6.72E2,-6.85E2,7E0,9E0,1E0,1.3859073E-2,-1.8549132E-3,2.7E1,1.932928E-4,1.7620599E-2,-1.163E3,8E0,1.5223197E-3,1E0,1.37E3,5.11E2,4.26E2,2.8E1,3.5E-2,1.871E3,-3.1914946E-3,4.7033685E-3,3.4981128E-3,2.096537E-2,1.745077E-2,2.993385E-4,3.8171355E-3,1.1983847E-2,-2.6777235E-3,1.7047763E-2,-4.3652696E-3,4.590929E-3,-1.3686697E-2,-6.600654E-3,-7.947921E-3,-1.5515891E-4,7.976251E-3,-7.797838E-3,3.1601748E-4,-1.0242745E-2,3.5E-2,8.187383E-3,2.8432999E-2,5.882345E-3,3.5E-2,2.3464106E-2,3.5E-2,1.7283892E-2,1.0133219E-2,-8.9163855E-3,9.226963E-3,3.5E-2,6.392326E-3,3.5E-2,-2.3161005E-3,1.2825045E-2,1.9832293E-2,-4.93515E-3],"split_indices":[17,2,2,23,12,1,1,19,18,19,6,22,6,2,2,12,4,11,6,2,2,15,1,11,6,6,26,0,0,2,27,18,4,6,26,6,0,0,0,2,1,4,4,26,0,0,6,0,0,1,4,0,11,1,1,2,6,0,2,0,0,0,0,0,0,0,0,0,0,0,0,0,0,0,0,0,0,0,0,0,0,0,0,0,0,0,0,0,0,0,0,0,0,0,0,0,0],"split_type":[0,0,0,0,0,0,0,0,0,0,0,0,0,0,0,0,0,0,0,0,0,0,0,0,0,0,0,0,0,0,0,0,0,0,0,0,0,0,0,0,0,0,0,0,0,0,0,0,0,0,0,0,0,0,0,0,0,0,0,0,0,0,0,0,0,0,0,0,0,0,0,0,0,0,0,0,0,0,0,0,0,0,0,0,0,0,0,0,0,0,0,0,0,0,0,0,0],"sum_hessian":[1.7585112E3,1.4072433E3,3.5126782E2,8.117479E2,5.954954E2,1.8456589E2,1.6670193E2,7.65409E2,4.6338947E1,5.0468576E2,9.080965E1,1.00625465E2,8.394043E1,1.5564268E1,1.5113766E2,5.267994E2,2.3860959E2,2.9046705E1,1.7292244E1,3.4177008E2,1.629157E2,6.934759E1,2.1462059E1,1.0949054E1,8.967641E1,2.6646034E1,5.729439E1,5.654161E0,9.910108E0,1.1857845E2,3.255922E1,3.889284E2,1.3787099E2,3.7781387E1,2.008282E2,1.9319178E1,9.727526E0,7.9074173E0,9.384826E0,1.9025406E2,1.5151602E2,6.798069E1,9.4935005E1,6.1626614E1,7.7209754E0,8.048295E0,1.3413763E1,5.3807697E0,5.568284E0,1.481058E1,7.486583E1,6.2337155E0,2.041232E1,3.833827E1,1.8956123E1,6.2348484E1,5.6229965E1,7.0345955E0,2.5524624E1,2.3451288E2,1.5441553E2,1.1006054E2,2.7810448E1,2.6948845E1,1.0832541E1,1.622787E2,3.8549496E1,6.5395117E0,1.2779667E1,1.6466704E2,2.5587029E1,3.5468548E1,1.1604747E2,4.0112644E1,2.7868044E1,7.649675E1,1.8438255E1,5.1607826E1,1.0018785E1,5.6871686E0,7.726595E0,6.54297E0,8.26761E0,5.2707798E1,2.2158033E1,1.3295047E1,7.117271E0,3.3180626E1,5.157643E0,6.099357E0,1.2856766E1,5.122341E1,1.11250725E1,4.8016212E1,8.213755E0,1.4565332E1,1.0959291E1],"tree_param":{"num_deleted":"0","num_feature":"28","num_nodes":"97","size_leaf_vector":"1"}},{"base_weights":[9.785939E-2,2.5277449E-2,3.8286373E-1,6.418689E-2,-4.974188E-2,2.6427695E-1,5.215142E-1,3.2710563E-2,1.2844631E-1,-6.251829E-2,2.2434546E-1,7E-1,2.3463416E-1,1.4371824E-1,5.809884E-1,2.039273E-2,3.2410923E-1,1.166448E-1,2.26998E-2,-2.4703373E-1,-4.813808E-2,2.790602E-2,5.172871E-2,1.5687872E-2,3.5E-2,-1.4091524E-2,2.548976E-1,3.0995408E-1,-1.1334614E-2,4.9638975E-1,7E-1,7.2374186E-3,1.4371167E-1,5.3402925E-1,4.6594504E-2,1.423069E-1,-5.3494193E-2,-3.4553766E-1,-1.1686069E-1,-7.871431E-2,2.0244865E-2,6.08497E-3,-2.1107008E-3,2.0887235E-1,5.0441426E-1,1.1231446E-1,3.2116834E-2,7E-1,4.1760695E-1,2.2852687E-2,3.5E-2,-9.994453E-4,3.933727E-3,3.6907492E-3,2.964443E-2,1.641967E-2,3.5E-2,4.5542414E-3,-3.9120158E-4,8.242413E-3,-3.8545005E-4,2.5690957E-3,-1.0819784E-2,-1.06660025E-2,-1.912788E-2,-2.2383777E-3,-8.09117E-3,-5.6016357E-3,4.7459416E-3,-7.1563306E-3,4.5846896E-3,1.4961912E-2,2.348551E-3,3.5E-2,1.1000182E-2,-2.6412378E-3,1.2635793E-2,1.8446209E-2,3.5E-2,2.6204137E-2,1.0962674E-2],"categories":[],"categories_nodes":[],"categories_segments":[],"categories_sizes":[],"default_left":[0,0,0,0,0,0,0,0,0,0,0,0,0,0,0,0,0,0,0,0,0,0,0,0,0,0,0,0,0,0,0,0,0,0,0,0,0,0,0,0,0,0,0,0,0,0,0,0,0,0,0,0,0,0,0,0,0,0,0,0,0,0,0,0,0,0,0,0,0,0,0,0,0,0,0,0,0,0,0,0,0],"id":7,"left_children":[1,3,5,7,9,11,13,15,17,19,21,23,25,27,29,31,33,35,-1,37,39,-1,41,-1,-1,-1,43,45,-1,47,49,51,53,55,57,59,61,63,65,67,69,-1,-1,71,73,75,-1,77,79,-1,-1,-1,-1,-1,-1,-1,-1,-1,-1,-1,-1,-1,-1,-1,-1,-1,-1,-1,-1,-1,-1,-1,-1,-1,-1,-1,-1,-1,-1,-1,-1],"loss_changes":[3.6454742E1,4.107302E0,5.7439575E0,1.8693087E0,1.6975508E0,2.503975E0,3.598854E0,2.229824E0,1.1157694E0,1.2089846E0,1.2173349E0,4.2899084E-1,2.0041037E0,1.5246223E0,2.5728989E0,9.704957E-1,1.4433146E0,1.295196E0,0E0,3.8308525E-1,8.967001E-1,0E0,1.0609505E-1,0E0,0E0,0E0,1.9409809E0,1.0265602E0,0E0,3.2487469E0,3.0025482E-2,1.056115E0,1.7669642E0,3.8855648E-1,2.964331E-2,8.6872673E-1,6.838607E-1,7.908106E-3,4.3766275E-2,1.723217E0,1.5663925E0,0E0,0E0,2.2119007E0,2.8659072E0,2.8463218E-1,0E0,2.5373077E-1,2.216343E0,0E0,0E0,0E0,0E0,0E0,0E0,0E0,0E0,0E0,0E0,0E0,0E0,0E0,0E0,0E0,0E0,0E0,0E0,0E0,0E0,0E0,0E0,0E0,0E0,0E0,0E0,0E0,0E0,0E0,0E0,0E0,0E0],"parents":[2147483647,0,0,1,1,2,2,3,3,4,4,5,5,6,6,7,7,8,8,9,9,10,10,11,11,12,12,13,13,14,14,15,15,16,16,17,17,19,19,20,20,22,22,26,26,27,27,29,29,30,30,31,31,32,32,33,33,34,34,35,35,36,36,37,37,38,38,39,39,40,40,43,43,44,44,45,45,47,47,48,48],"right_children":[2,4,6,8,10,12,14,16,18,20,22,24,26,28,30,32,34,36,-1,38,40,-1,42,-1,-1,-1,44,46,-1,48,50,52,54,56,58,60,62,64,66,68,70,-1,-1,72,74,76,-1,78,80,-1,-1,-1,-1,-1,-1,-1,-1,-1,-1,-1,-1,-1,-1,-1,-1,-1,-1,-1,-1,-1,-1,-1,-1,-1,-1,-1,-1,-1,-1,-1,-1],"split_conditions":[1E0,4.14E2,1.76E2,1E0,1E0,-1.624E3,4E0,1E0,2.267E3,1E0,2.58E2,1.9E1,1.2E1,5E0,1E0,1E0,8.25E2,1.214E3,2.26998E-2,1E0,1E0,2.790602E-2,8.7E2,1.5687872E-2,3.5E-2,-1.4091524E-2,1.267E3,1E0,-1.1334614E-2,-7.16E2,3.4E1,1E0,2.6E1,8E0,-1.87E2,2.7E1,2.1E1,1E0,7E0,1E0,5.74E2,6.08497E-3,-2.1107008E-3,4.95E2,1.526E3,4.95E2,3.2116834E-2,8.27E2,2.3E1,2.2852687E-2,3.5E-2,-9.994453E-4,3.933727E-3,3.6907492E-3,2.964443E-2,1.641967E-2,3.5E-2,4.5542414E-3,-3.9120158E-4,8.242413E-3,-3.8545005E-4,2.5690957E-3,-1.0819784E-2,-1.06660025E-2,-1.912788E-2,-2.2383777E-3,-8.09117E-3,-5.6016357E-3,4.7459416E-3,-7.1563306E-3,4.5846896E-3,1.4961912E-2,2.348551E-3,3.5E-2,1.1000182E-2,-2.6412378E-3,1.2635793E-2,1.8446209E-2,3.5E-2,2.6204137E-2,1.0962674E-2],"split_indices":[17,2,3,19,23,0,5,23,3,22,0,6,6,4,9,13,3,3,0,19,19,0,2,0,0,0,2,12,0,0,0,12,6,5,0,6,6,18,4,12,2,0,0,2,2,3,0,3,6,0,0,0,0,0,0,0,0,0,0,0,0,0,0,0,0,0,0,0,0,0,0,0,0,0,0,0,0,0,0,0,0],"split_type":[0,0,0,0,0,0,0,0,0,0,0,0,0,0,0,0,0,0,0,0,0,0,0,0,0,0,0,0,0,0,0,0,0,0,0,0,0,0,0,0,0,0,0,0,0,0,0,0,0,0,0,0,0,0,0,0,0,0,0,0,0,0,0,0,0,0,0,0,0,0,0,0,0,0,0,0,0,0,0,0,0],"sum_hessian":[1.7617441E3,1.4050176E3,3.5672656E2,9.25265E2,4.7975253E2,1.938414E2,1.6288516E2,6.220661E2,3.031989E2,4.591227E2,2.0629824E1,1.0206575E1,1.8363483E2,2.2619106E1,1.4026607E2,5.978636E2,2.4202555E1,2.9390292E2,9.295984E0,3.202499E1,4.2709775E2,6.270935E0,1.4358889E1,5.1601386E0,5.0464363E0,6.4455433E0,1.7718929E2,1.5725089E1,6.894017E0,1.2114448E2,1.9121588E1,5.411897E2,5.6673878E1,1.325316E1,1.0949393E1,2.5552554E2,3.837739E1,1.7288254E1,1.4736735E1,2.9502942E2,1.3206833E2,8.060087E0,6.298801E0,1.511463E2,2.6042974E1,1.0700387E1,5.024701E0,1.1762476E1,1.09382E2,7.810545E0,1.1311043E1,3.9236902E2,1.4882066E2,5.0049915E1,6.6239634E0,8.205335E0,5.047827E0,5.653524E0,5.295869E0,2.2205998E2,3.346556E1,2.3763203E1,1.4614187E1,5.260946E0,1.20273075E1,6.427137E0,8.309598E0,2.4782848E2,4.7200935E1,3.9879253E1,9.218907E1,9.645902E1,5.4687283E1,7.9871182E0,1.8055857E1,5.2036486E0,5.496739E0,5.785173E0,5.9773026E0,7.010669E1,3.927531E1],"tree_param":{"num_deleted":"0","num_feature":"28","num_nodes":"81","size_leaf_vector":"1"}},{"base_weights":[9.260783E-2,2.0438598E-2,3.6949438E-1,6.192416E-2,-5.8873314E-2,4.6348247E-1,2.600368E-1,7.807383E-2,-5.101392E-2,-9.9266775E-2,2.1031633E-2,4.118869E-1,7E-1,2.9584935E-1,-8.085128E-2,1.8006031E-1,6.1072234E-2,-1.2676954E-1,1.8876268E-1,-1.2333399E-1,4.592817E-2,-2.4089366E-1,5.263738E-2,7E-1,3.618127E-1,7E-1,2.6850545E-1,3.4085172E-1,-1.5239551E-2,4.9657025E-3,-9.983863E-3,1.3339518E-1,3.531288E-1,-5.6042425E-2,7.9890266E-2,-9.4548844E-2,-2.0736873E-1,2.6651824E-1,-1.9289547E-3,-1.0980889E-1,-3.2173455E-1,-2.4729673E-2,1.4183554E-2,-1.6264696E-2,-7.4302717E-3,2.514282E-1,-5.474648E-2,3.5E-2,1.5857803E-2,3.978356E-1,2.3159074E-2,1.3760929E-2,3.5E-2,1.625556E-2,8.232942E-3,1.2800902E-1,4.60677E-1,-1.0155668E-1,1.0617629E-2,1.9357959E-2,4.1191066E-3,1.0088187E-2,2.9947473E-2,-6.89358E-3,-7.124101E-4,4.933578E-3,-1.2645458E-3,-7.907046E-3,-2.370678E-3,-6.911865E-3,-1.2562044E-2,5.615283E-3,2.0645512E-2,-3.699618E-3,-1.00851515E-2,-1.1889222E-2,-2.0592887E-2,-6.0102786E-3,1.1346436E-2,-1.0267327E-3,1.6350862E-2,-7.7184862E-3,3.409636E-3,-7.500691E-3,2.1250388E-2,5.5478504E-3,-5.2884384E-3,-3.3639993E-3,1.5135947E-2,1.1550588E-2,2.9415203E-2,-1.9409791E-4,-1.2349384E-2],"categories":[],"categories_nodes":[],"categories_segments":[],"categories_sizes":[],"default_left":[0,0,0,0,0,0,0,0,0,0,0,0,0,0,0,0,0,0,0,0,0,0,0,0,0,0,0,0,0,0,0,0,0,0,0,0,0,0,0,0,0,0,0,0,0,0,0,0,0,0,0,0,0,0,0,0,0,0,0,0,0,0,0,0,0,0,0,0,0,0,0,0,0,0,0,0,0,0,0,0,0,0,0,0,0,0,0,0,0,0,0,0,0],"id":8,"left_children":[1,3,5,7,9,11,13,15,17,19,21,23,25,27,29,31,33,35,37,39,41,43,45,47,49,51,53,55,57,-1,-1,59,61,63,65,67,69,71,-1,73,75,77,-1,-1,-1,79,81,-1,-1,83,85,-1,-1,-1,-1,87,89,91,-1,-1,-1,-1,-1,-1,-1,-1,-1,-1,-1,-1,-1,-1,-1,-1,-1,-1,-1,-1,-1,-1,-1,-1,-1,-1,-1,-1,-1,-1,-1,-1,-1,-1,-1],"loss_changes":[3.6083996E1,4.7211757E0,3.720604E0,1.7218454E0,1.593032E0,2.263321E0,2.1575098E0,1.4184914E0,2.1752663E0,1.1503687E0,1.3896511E0,3.019699E0,1.8318787E0,2.2223082E0,3.923452E-1,9.0010905E-1,1.565114E0,2.1567726E-1,5.2003694E-1,7.1943235E-1,8.016932E-1,9.255922E-2,3.1996837E0,4.5922756E-1,1.8498306E0,7.551346E-1,1.97739E-2,3.470686E0,4.3355435E-1,0E0,0E0,1.1847427E0,7.833488E-1,3.353127E-1,1.2085335E0,1.9202012E-1,4.1204214E-2,4.4158018E-1,0E0,8.567498E-1,3.395927E-2,9.2561376E-1,0E0,0E0,0E0,1.0864537E0,1.2073845E0,0E0,0E0,2.113243E0,1.8960236E-1,0E0,0E0,0E0,0E0,1.7684339E0,2.4482594E0,2.2463529E-1,0E0,0E0,0E0,0E0,0E0,0E0,0E0,0E0,0E0,0E0,0E0,0E0,0E0,0E0,0E0,0E0,0E0,0E0,0E0,0E0,0E0,0E0,0E0,0E0,0E0,0E0,0E0,0E0,0E0,0E0,0E0,0E0,0E0,0E0,0E0],"parents":[2147483647,0,0,1,1,2,2,3,3,4,4,5,5,6,6,7,7,8,8,9,9,10,10,11,11,12,12,13,13,14,14,15,15,16,16,17,17,18,18,19,19,20,20,21,21,22,22,23,23,24,24,25,25,26,26,27,27,28,28,31,31,32,32,33,33,34,34,35,35,36,36,37,37,39,39,40,40,41,41,45,45,46,46,49,49,50,50,55,55,56,56,57,57],"right_children":[2,4,6,8,10,12,14,16,18,20,22,24,26,28,30,32,34,36,38,40,42,44,46,48,50,52,54,56,58,-1,-1,60,62,64,66,68,70,72,-1,74,76,78,-1,-1,-1,80,82,-1,-1,84,86,-1,-1,-1,-1,88,90,92,-1,-1,-1,-1,-1,-1,-1,-1,-1,-1,-1,-1,-1,-1,-1,-1,-1,-1,-1,-1,-1,-1,-1,-1,-1,-1,-1,-1,-1,-1,-1,-1,-1,-1,-1],"split_conditions":[1E0,4.15E2,9.8E1,1E0,1E0,1E0,2.9E1,-4.82E2,1E0,1E0,-1.519E3,-7.16E2,8E0,1.082E3,-1.49E2,8E0,-9.1E1,9.2E1,3.82E2,1E0,2.3E1,1.9E1,-2.33E2,1E0,4.47E2,-1.84E2,9E0,4.26E2,1.878E3,4.9657025E-3,-9.983863E-3,1E0,1E0,-7.45E2,1E0,1.07E2,1.93E2,3.7E1,-1.9289547E-3,1.237E3,2.3E1,1.557E3,1.4183554E-2,-1.6264696E-2,-7.4302717E-3,1.8E1,8.27E2,3.5E-2,1.5857803E-2,-1.376E3,1.075E3,1.3760929E-2,3.5E-2,1.625556E-2,8.232942E-3,1.93E2,6E0,7.75E2,1.0617629E-2,1.9357959E-2,4.1191066E-3,1.0088187E-2,2.9947473E-2,-6.89358E-3,-7.124101E-4,4.933578E-3,-1.2645458E-3,-7.907046E-3,-2.370678E-3,-6.911865E-3,-1.2562044E-2,5.615283E-3,2.0645512E-2,-3.699618E-3,-1.00851515E-2,-1.1889222E-2,-2.0592887E-2,-6.0102786E-3,1.1346436E-2,-1.0267327E-3,1.6350862E-2,-7.7184862E-3,3.409636E-3,-7.500691E-3,2.1250388E-2,5.5478504E-3,-5.2884384E-3,-3.3639993E-3,1.5135947E-2,1.1550588E-2,2.9415203E-2,-1.9409791E-4,-1.2349384E-2],"split_indices":[17,2,2,14,19,9,5,0,12,12,0,0,5,0,0,5,0,2,0,20,6,6,0,12,0,0,5,2,2,0,0,22,18,1,15,0,1,0,0,2,6,2,0,0,0,6,2,0,0,1,1,0,0,0,0,1,5,2,0,0,0,0,0,0,0,0,0,0,0,0,0,0,0,0,0,0,0,0,0,0,0,0,0,0,0,0,0,0,0,0,0,0,0],"split_type":[0,0,0,0,0,0,0,0,0,0,0,0,0,0,0,0,0,0,0,0,0,0,0,0,0,0,0,0,0,0,0,0,0,0,0,0,0,0,0,0,0,0,0,0,0,0,0,0,0,0,0,0,0,0,0,0,0,0,0,0,0,0,0,0,0,0,0,0,0,0,0,0,0,0,0,0,0,0,0,0,0,0,0,0,0,0,0,0,0,0,0,0,0],"sum_hessian":[1.8051403E3,1.4327692E3,3.7237106E2,9.408562E2,4.91913E2,1.9860245E2,1.7376863E2,8.2341943E2,1.17436806E2,3.265789E2,1.6533409E2,1.6668259E2,3.191986E1,1.5736818E2,1.640045E1,1.1628378E2,7.071356E2,8.959974E1,2.7837065E1,2.8027213E2,4.6306774E1,1.7089231E1,1.4824486E2,1.5293053E1,1.5138953E2,2.0449217E1,1.1470643E1,1.373966E2,1.9971571E1,6.5831723E0,9.817278E0,9.298313E1,2.3300648E1,9.761945E1,6.095162E2,6.5563034E1,2.4036705E1,2.0614246E1,7.222819E0,2.6383948E2,1.6432646E1,3.638811E1,9.918664E0,7.607339E0,9.481892E0,5.152308E1,9.672179E1,9.8167515E0,5.476301E0,1.3667638E2,1.4713154E1,5.9005733E0,1.4548643E1,6.0449286E0,5.425715E0,5.023453E1,8.716207E1,1.4881395E1,5.090175E0,1.4460429E1,7.8522705E1,1.5547803E1,7.752845E0,3.2225716E1,6.539374E1,5.1722217E2,9.2294E1,2.690687E1,3.8656166E1,1.094347E1,1.3093235E1,1.0899563E1,9.714683E0,1.9114445E2,7.2695015E1,1.0391429E1,6.041218E0,2.6758596E1,9.629514E0,1.1364156E1,4.0158924E1,5.3286026E1,4.3435757E1,6.2448864E0,1.3043149E2,8.835617E0,5.877537E0,2.4010612E1,2.6223919E1,3.2138607E1,5.5023468E1,9.516556E0,5.3648396E0],"tree_param":{"num_deleted":"0","num_feature":"28","num_nodes":"93","size_leaf_vector":"1"}},{"base_weights":[1.0530801E-1,3.0175379E-2,3.875986E-1,-1.5420506E-2,1.06023595E-1,2.5949848E-1,5.362636E-1,-2.6813595E-2,2.5521874E-1,8.276113E-2,2.6866868E-1,6.558002E-1,2.218203E-1,3.0516306E-1,6.795273E-1,1.5502222E-2,-6.331405E-2,4.842224E-1,1.122842E-1,1.02510385E-1,-4.773213E-2,3.4676783E-2,1.6958311E-1,-1.9844265E-3,7E-1,1.5860693E-1,4.396169E-1,1.9634986E-1,3.5E-2,7E-1,1.0928741E-1,3.6928236E-2,-1.2069632E-1,-4.9735084E-2,-2.4535486E-1,2.7965044E-3,3.5E-2,1.7431797E-2,1.8291835E-2,1.2543817E-1,-4.879874E-2,4.783695E-3,-7.678032E-2,1.15314126E-1,1.9739777E-2,1.0336513E-2,3.5E-2,2.6085904E-1,-1.6621195E-2,7E-1,1.2777206E-1,1.14655174E-1,2.8572533E-2,7E-1,3.7585112E-1,-1.032187E-2,2.5793621E-2,-4.704313E-3,2.8532164E-3,-8.7097E-3,3.986516E-3,-1.3014137E-2,-1.9943244E-3,-7.477851E-3,-1.850047E-2,8.049703E-3,-5.723387E-3,9.948619E-3,4.6799364E-3,-5.3368914E-3,9.08221E-3,-6.6423914E-3,-1.603541E-3,2.5167174E-3,1.3239612E-2,9.783297E-3,3.3046205E-2,3.325407E-3,-7.2569735E-3,5.9374026E-3,3.5E-2,-2.6862135E-3,1.3136903E-2,1.679815E-2,-3.6077276E-3,2.6710665E-2,3.5E-2,2.4050785E-2,-1.5039681E-3],"categories":[],"categories_nodes":[],"categories_segments":[],"categories_sizes":[],"default_left":[0,0,0,0,0,0,0,0,0,0,0,0,0,0,0,0,0,0,0,0,0,0,0,0,0,0,0,0,0,0,0,0,0,0,0,0,0,0,0,0,0,0,0,0,0,0,0,0,0,0,0,0,0,0,0,0,0,0,0,0,0,0,0,0,0,0,0,0,0,0,0,0,0,0,0,0,0,0,0,0,0,0,0,0,0,0,0,0,0],"id":9,"left_children":[1,3,5,7,9,11,13,15,17,19,21,23,25,27,29,31,33,35,37,39,41,-1,43,-1,45,47,49,51,-1,53,55,57,59,61,63,-1,-1,65,-1,67,69,-1,71,73,-1,-1,-1,75,77,79,81,83,-1,85,87,-1,-1,-1,-1,-1,-1,-1,-1,-1,-1,-1,-1,-1,-1,-1,-1,-1,-1,-1,-1,-1,-1,-1,-1,-1,-1,-1,-1,-1,-1,-1,-1,-1,-1],"loss_changes":[3.784818E1,4.8811054E0,7.00515E0,2.7266188E0,1.9824748E0,2.892415E0,5.510395E0,1.3097346E0,1.1150758E0,1.2032604E0,2.6547585E0,3.1219606E0,2.5089092E0,4.1326776E0,4.683983E0,1.1519264E0,1.112834E0,1.4121525E0,5.539731E-1,1.4083352E0,2.6480964E-1,0E0,6.233213E-1,0E0,1.0086651E0,2.6333368E0,4.0248976E0,1.7717652E0,0E0,2.5857964E0,2.026219E0,9.0372384E-1,5.895068E-1,8.704567E-1,3.188939E-1,0E0,0E0,3.5938993E-1,0E0,8.038354E-1,7.391412E-1,0E0,1.2596521E-1,4.2872185E-1,0E0,0E0,0E0,2.28892E0,5.9735906E-1,1.6657925E0,5.6270397E-1,2.1113954E0,0E0,1.7525864E-1,1.264122E0,0E0,0E0,0E0,0E0,0E0,0E0,0E0,0E0,0E0,0E0,0E0,0E0,0E0,0E0,0E0,0E0,0E0,0E0,0E0,0E0,0E0,0E0,0E0,0E0,0E0,0E0,0E0,0E0,0E0,0E0,0E0,0E0,0E0,0E0],"parents":[2147483647,0,0,1,1,2,2,3,3,4,4,5,5,6,6,7,7,8,8,9,9,10,10,11,11,12,12,13,13,14,14,15,15,16,16,17,17,18,18,19,19,20,20,22,22,24,24,25,25,26,26,27,27,29,29,30,30,31,31,32,32,33,33,34,34,37,37,39,39,40,40,42,42,43,43,47,47,48,48,49,49,50,50,51,51,53,53,54,54],"right_children":[2,4,6,8,10,12,14,16,18,20,22,24,26,28,30,32,34,36,38,40,42,-1,44,-1,46,48,50,52,-1,54,56,58,60,62,64,-1,-1,66,-1,68,70,-1,72,74,-1,-1,-1,76,78,80,82,84,-1,86,88,-1,-1,-1,-1,-1,-1,-1,-1,-1,-1,-1,-1,-1,-1,-1,-1,-1,-1,-1,-1,-1,-1,-1,-1,-1,-1,-1,-1,-1,-1,-1,-1,-1,-1],"split_conditions":[1E0,3.67E2,1.75E2,1E0,1.4E1,-7.16E2,1.9E1,4.15E2,3.7E1,1E0,1.4E1,-1.799E3,1.12E3,2.276E3,1.237E3,1E0,1E0,-5.67E2,1.146E3,1E0,4E0,3.4676783E-2,1.276E3,-1.9844265E-3,7E0,4.69E2,1.526E3,1E0,3.5E-2,1E0,1.785E3,-1.6E1,1E0,-1.799E3,1E0,2.7965044E-3,3.5E-2,3.62E2,1.8291835E-2,5.32E2,9.88E2,4.783695E-3,7.19E2,1E0,1.9739777E-2,1.0336513E-2,3.5E-2,4.29E2,1.07E2,-4.97E2,-7.32E2,6E0,2.8572533E-2,6E0,3.83E2,-1.032187E-2,2.5793621E-2,-4.704313E-3,2.8532164E-3,-8.7097E-3,3.986516E-3,-1.3014137E-2,-1.9943244E-3,-7.477851E-3,-1.850047E-2,8.049703E-3,-5.723387E-3,9.948619E-3,4.6799364E-3,-5.3368914E-3,9.08221E-3,-6.6423914E-3,-1.603541E-3,2.5167174E-3,1.3239612E-2,9.783297E-3,3.3046205E-2,3.325407E-3,-7.2569735E-3,5.9374026E-3,3.5E-2,-2.6862135E-3,1.3136903E-2,1.679815E-2,-3.6077276E-3,2.6710665E-2,3.5E-2,2.4050785E-2,-1.5039681E-3],"split_indices":[17,3,3,23,4,1,6,2,0,15,5,0,2,3,3,14,20,0,0,14,4,0,3,0,5,2,2,26,0,12,3,1,12,0,18,0,0,0,0,3,1,0,3,18,0,0,0,2,1,0,0,4,0,5,1,0,0,0,0,0,0,0,0,0,0,0,0,0,0,0,0,0,0,0,0,0,0,0,0,0,0,0,0,0,0,0,0,0,0],"split_type":[0,0,0,0,0,0,0,0,0,0,0,0,0,0,0,0,0,0,0,0,0,0,0,0,0,0,0,0,0,0,0,0,0,0,0,0,0,0,0,0,0,0,0,0,0,0,0,0,0,0,0,0,0,0,0,0,0,0,0,0,0,0,0,0,0,0,0,0,0,0,0,0,0,0,0,0,0,0,0,0,0,0,0,0,0,0,0,0,0],"sum_hessian":[1.7840654E3,1.4099178E3,3.7414764E2,8.810653E2,5.2885254E2,2.0244896E2,1.7169868E2,8.4633795E2,3.472733E1,4.6399768E2,6.485486E1,1.6152334E1,1.8629663E2,6.690441E1,1.04794266E2,3.922124E2,4.5412555E2,1.2427998E1,2.229933E1,4.0319183E2,6.080585E1,1.1130267E1,5.372459E1,5.6627836E0,1.0489551E1,1.4572856E2,4.0568073E1,5.895629E1,7.9481215E0,9.083954E1,1.395473E1,3.395285E2,5.2683918E1,4.237872E2,3.033835E1,5.092579E0,7.335419E0,1.7006176E1,5.2931542E0,3.5028442E2,5.290741E1,9.855799E0,5.095005E1,4.451091E1,9.213679E0,5.159362E0,5.3301888E0,9.171864E1,5.4009914E1,1.9172892E1,2.1395182E1,4.9484524E1,9.471766E0,6.2566475E1,2.8273066E1,8.13215E0,5.822581E0,4.4742306E1,2.947862E2,4.168759E1,1.0996323E1,1.7801004E1,4.0598618E2,1.8398643E1,1.1939707E1,8.0374565E0,8.9687195E0,1.0425495E2,2.4602948E2,4.27067E1,1.020071E1,2.1729292E1,2.9220758E1,3.1956013E1,1.2554898E1,8.014723E1,1.1571412E1,3.3089302E1,2.0920614E1,5.3808455E0,1.3792046E1,9.3814125E0,1.2013769E1,2.2285337E1,2.7199188E1,2.3204336E1,3.9362137E1,2.2308596E1,5.964469E0],"tree_param":{"num_deleted":"0","num_feature":"28","num_nodes":"89","size_leaf_vector":"1"}},{"base_weights":[9.700147E-2,1.6114081E-1,2.6870046E-2,5.4891336E-1,1.4961252E-1,5.4352764E-2,-6.84273E-2,3.0703205E-1,3.5E-2,1.702549E-1,-4.306395E-2,7.800344E-2,-1.0944297E-1,-3.2966256E-2,-2.2123936E-1,1.7869028E-1,2.7725294E-2,1.905564E-1,-3.2701556E-4,-5.944039E-3,-1.187717E-1,5.5740662E-2,2.887791E-1,-1.6339418E-1,1.7192192E-1,-5.867106E-2,1.6340998E-1,-2.8853264E-1,-6.0199805E-2,1.7295405E-2,2.1310495E-3,2.1504699E-1,3.417223E-2,-7.5375356E-2,2.1047075E-1,-2.9403493E-2,8.804394E-3,2.6537047E-3,-1.7571479E-1,1.8624812E-2,1.640375E-1,3.5E-2,1.9258963E-1,-9.472991E-2,-2.5210947E-1,1.0374086E-4,1.3394251E-2,-1.3695619E-1,-1.1030387E-2,4.3272227E-1,-1.6363531E-2,-2.3234786E-1,-1.9922895E-2,1.3660791E-3,-7.501051E-3,1.4074563E-2,5.3976546E-3,-7.498815E-4,7.856618E-3,-4.8609255E-3,5.377801E-3,1.5137752E-2,2.9105693E-3,-2.7375834E-3,4.0475084E-3,-1.1908095E-2,-5.3645754E-3,2.4587826E-3,-4.81907E-3,1.0674135E-2,-4.241361E-3,5.7267337E-3,3.2553997E-2,3.8457052E-3,-8.141755E-3,-1.3832942E-2,-6.6004694E-3,-5.3108516E-3,-1.4910655E-2,8.212523E-4,-1.1518554E-2,1.2596904E-2,2.6778927E-2,-1.50242215E-2,-4.809001E-3],"categories":[],"categories_nodes":[],"categories_segments":[],"categories_sizes":[],"default_left":[0,0,0,0,0,0,0,0,0,0,0,0,0,0,0,0,0,0,0,0,0,0,0,0,0,0,0,0,0,0,0,0,0,0,0,0,0,0,0,0,0,0,0,0,0,0,0,0,0,0,0,0,0,0,0,0,0,0,0,0,0,0,0,0,0,0,0,0,0,0,0,0,0,0,0,0,0,0,0,0,0,0,0,0,0],"id":10,"left_children":[1,3,5,7,9,11,13,15,-1,17,19,21,23,25,27,29,-1,31,33,35,37,39,41,43,45,47,49,51,53,-1,-1,55,57,59,61,63,-1,-1,65,67,69,-1,71,73,75,-1,-1,77,79,81,-1,83,-1,-1,-1,-1,-1,-1,-1,-1,-1,-1,-1,-1,-1,-1,-1,-1,-1,-1,-1,-1,-1,-1,-1,-1,-1,-1,-1,-1,-1,-1,-1,-1,-1],"loss_changes":[8.063824E0,4.105013E0,2.2508507E0,2.1039019E0,3.6305695E0,2.5905004E0,1.0358136E0,5.59621E-1,0E0,2.8502598E0,2.4927121E-1,2.7195785E0,1.3109686E0,8.041834E-1,3.7363768E-1,3.295646E-1,0E0,2.809557E0,1.416438E0,2.6455736E-1,2.9517823E-1,2.1214235E0,2.8938022E0,4.1121638E-1,2.2901377E-1,5.203655E-1,2.5842218E0,6.2957525E-2,9.7627036E-2,0E0,0E0,4.493246E0,6.1163884E-1,2.7427596E-1,3.126837E-1,1.5733664E-1,0E0,0E0,6.919092E-2,1.3917439E0,1.6765854E0,0E0,1.6992694E0,5.019213E-1,5.3584576E-2,0E0,0E0,2.3030269E-1,5.342019E-1,9.498572E-2,0E0,1.4797938E-1,0E0,0E0,0E0,0E0,0E0,0E0,0E0,0E0,0E0,0E0,0E0,0E0,0E0,0E0,0E0,0E0,0E0,0E0,0E0,0E0,0E0,0E0,0E0,0E0,0E0,0E0,0E0,0E0,0E0,0E0,0E0,0E0,0E0],"parents":[2147483647,0,0,1,1,2,2,3,3,4,4,5,5,6,6,7,7,9,9,10,10,11,11,12,12,13,13,14,14,15,15,17,17,18,18,19,19,20,20,21,21,22,22,23,23,24,24,25,25,26,26,27,27,28,28,31,31,32,32,33,33,34,34,35,35,38,38,39,39,40,40,42,42,43,43,44,44,47,47,48,48,49,49,51,51],"right_children":[2,4,6,8,10,12,14,16,-1,18,20,22,24,26,28,30,-1,32,34,36,38,40,42,44,46,48,50,52,54,-1,-1,56,58,60,62,64,-1,-1,66,68,70,-1,72,74,76,-1,-1,78,80,82,-1,84,-1,-1,-1,-1,-1,-1,-1,-1,-1,-1,-1,-1,-1,-1,-1,-1,-1,-1,-1,-1,-1,-1,-1,-1,-1,-1,-1,-1,-1,-1,-1,-1,-1],"split_conditions":[9.2E1,-1.799E3,1E0,7E0,1E0,1E0,1.237E3,-1.838E3,3.5E-2,1E0,2.2E1,2.8E1,1E0,9.04E2,8E0,1.6E1,2.7725294E-2,1E0,1E0,1.5E1,5E0,9.43E2,-7.28E2,7.12E2,1.6E1,6E0,2.4E1,1E0,1E1,1.7295405E-2,2.1310495E-3,1E0,1E0,1.218E3,5.11E2,2E1,8.804394E-3,2.6537047E-3,2.5E1,1E0,1E0,3.5E-2,1.174E3,1.8E1,9E0,1.0374086E-4,1.3394251E-2,3.94E2,2.8E1,5E0,-1.6363531E-2,6E0,-1.9922895E-2,1.3660791E-3,-7.501051E-3,1.4074563E-2,5.3976546E-3,-7.498815E-4,7.856618E-3,-4.8609255E-3,5.377801E-3,1.5137752E-2,2.9105693E-3,-2.7375834E-3,4.0475084E-3,-1.1908095E-2,-5.3645754E-3,2.4587826E-3,-4.81907E-3,1.0674135E-2,-4.241361E-3,5.7267337E-3,3.2553997E-2,3.8457052E-3,-8.141755E-3,-1.3832942E-2,-6.6004694E-3,-5.3108516E-3,-1.4910655E-2,8.212523E-4,-1.1518554E-2,1.2596904E-2,2.6778927E-2,-1.50242215E-2,-4.809001E-3],"split_indices":[2,1,18,5,15,14,2,1,0,14,6,6,12,2,5,6,0,16,12,5,5,2,1,2,6,5,6,8,5,0,0,19,12,1,1,6,0,0,6,26,15,0,2,6,5,0,0,1,6,1,0,5,0,0,0,0,0,0,0,0,0,0,0,0,0,0,0,0,0,0,0,0,0,0,0,0,0,0,0,0,0,0,0,0,0],"split_type":[0,0,0,0,0,0,0,0,0,0,0,0,0,0,0,0,0,0,0,0,0,0,0,0,0,0,0,0,0,0,0,0,0,0,0,0,0,0,0,0,0,0,0,0,0,0,0,0,0,0,0,0,0,0,0,0,0,0,0,0,0,0,0,0,0,0,0,0,0,0,0,0,0,0,0,0,0,0,0,0,0,0,0,0,0],"sum_hessian":[1.792647E3,9.356458E2,8.570012E2,2.5667418E1,9.099784E2,6.655061E2,1.9149509E2,1.9739302E1,5.928115E0,8.220269E2,8.795147E1,5.8199493E2,8.3511185E1,1.5641393E2,3.5081158E1,1.4132262E1,5.60704E0,7.3449524E2,8.7531715E1,5.973943E1,2.8212042E1,5.275391E2,5.445584E1,7.0426346E1,1.3084843E1,1.3892984E2,1.7484087E1,2.4183825E1,1.0897333E1,5.6485353E0,8.4837265E0,6.347196E2,9.977558E1,6.502419E1,2.2507523E1,5.3662163E1,6.0772676E0,7.0385833E0,2.1173458E1,3.9376025E2,1.3377882E2,5.889816E0,4.8566025E1,4.0865143E1,2.95612E1,5.092731E0,7.9921117E0,5.185113E1,8.7078705E1,1.1364659E1,6.1194277E0,1.8064451E1,6.119373E0,5.8717494E0,5.0255833E0,3.9069333E2,2.4402629E2,7.190136E1,2.787422E1,5.8506683E1,6.5175133E0,1.3398366E1,9.109156E0,4.4048172E1,9.613989E0,9.773171E0,1.1400287E1,3.1156656E2,8.2193726E1,1.1172345E2,2.205538E1,4.256878E1,5.9972463E0,1.1571755E1,2.9293388E1,2.346185E1,6.09935E0,4.494273E1,6.9084044E0,7.821362E1,8.865082E0,5.372014E0,5.9926457E0,1.1235592E1,6.8288593E0],"tree_param":{"num_deleted":"0","num_feature":"28","num_nodes":"85","size_leaf_vector":"1"}},{"base_weights":[1.0131336E-1,2.8762268E-2,3.73952E-1,-5.7449024E-3,9.769833E-2,4.2572984E-1,9.048558E-2,-3.4363598E-2,9.5041215E-2,-2.1950316E-1,1.09004825E-1,-1.0260951E-2,4.4693223E-1,1.2353284E-4,4.1547492E-1,-9.140362E-2,4.4943877E-2,1.9079436E-1,-1.953261E-2,-1.6678983E-2,-4.6610865E-3,2.682137E-1,8.805565E-2,4.0213513E-1,7E-1,7.4373156E-2,-1.5360141E-1,3.5E-2,2.002801E-3,-1.05003536E-1,1.6641645E-1,9.291052E-2,-1.15797006E-1,2.617413E-1,6.663704E-2,1.9671458E-1,-5.314887E-2,3.1778628E-1,-2.8491465E-3,8.102585E-2,2.7077952E-2,3.5E-2,3.6894086E-1,7E-1,1.564159E-2,-6.2133153E-3,1.2142666E-1,-1.1731198E-2,-2.3657328E-3,-3.033234E-3,-7.605997E-3,1.277551E-2,-3.8465478E-3,-4.536669E-3,6.2258383E-3,-2.0937764E-3,-9.105175E-3,1.0318163E-2,3.08558E-2,-2.4655233E-3,9.419165E-3,-3.1001938E-3,2.0440243E-2,-1.484057E-2,-1.3079521E-3,2.2599144E-2,9.041282E-3,7.882819E-3,2.5493698E-3,2.0280449E-2,-1.1921852E-3,1.8282315E-2,3.5E-2,1.06906695E-2,-2.6190784E-3],"categories":[],"categories_nodes":[],"categories_segments":[],"categories_sizes":[],"default_left":[0,0,0,0,0,0,0,0,0,0,0,0,0,0,0,0,0,0,0,0,0,0,0,0,0,0,0,0,0,0,0,0,0,0,0,0,0,0,0,0,0,0,0,0,0,0,0,0,0,0,0,0,0,0,0,0,0,0,0,0,0,0,0,0,0,0,0,0,0,0,0,0,0,0,0],"id":11,"left_children":[1,3,5,7,9,11,13,15,17,19,21,-1,23,25,27,29,31,33,35,-1,-1,37,39,41,43,45,47,-1,-1,49,51,53,55,57,59,61,63,65,-1,67,-1,-1,69,71,-1,-1,73,-1,-1,-1,-1,-1,-1,-1,-1,-1,-1,-1,-1,-1,-1,-1,-1,-1,-1,-1,-1,-1,-1,-1,-1,-1,-1,-1,-1],"loss_changes":[3.592015E1,3.416027E0,5.5638733E0,2.7658625E0,1.7418947E0,4.405754E0,1.7685158E0,3.3819435E0,2.3304725E0,2.1118653E-1,1.5212893E0,0E0,4.278881E0,5.606878E-1,1.5086639E0,1.5415056E0,2.4244065E0,1.0010471E0,7.189385E-1,0E0,0E0,8.7852716E-1,1.2658489E0,4.6306534E0,4.3178558E-1,3.2467663E-1,1.2667784E-1,0E0,0E0,8.5457945E-1,5.002261E-1,1.4139309E0,3.4719998E-1,1.3139639E0,6.217447E-1,7.56509E-1,5.521236E-1,7.7228403E-1,0E0,9.258981E-1,0E0,0E0,3.937683E0,3.1053734E-1,0E0,0E0,4.4933134E-1,0E0,0E0,0E0,0E0,0E0,0E0,0E0,0E0,0E0,0E0,0E0,0E0,0E0,0E0,0E0,0E0,0E0,0E0,0E0,0E0,0E0,0E0,0E0,0E0,0E0,0E0,0E0,0E0],"parents":[2147483647,0,0,1,1,2,2,3,3,4,4,5,5,6,6,7,7,8,8,9,9,10,10,12,12,13,13,14,14,15,15,16,16,17,17,18,18,21,21,22,22,23,23,24,24,25,25,26,26,29,29,30,30,31,31,32,32,33,33,34,34,35,35,36,36,37,37,39,39,42,42,43,43,46,46],"right_children":[2,4,6,8,10,12,14,16,18,20,22,-1,24,26,28,30,32,34,36,-1,-1,38,40,42,44,46,48,-1,-1,50,52,54,56,58,60,62,64,66,-1,68,-1,-1,70,72,-1,-1,74,-1,-1,-1,-1,-1,-1,-1,-1,-1,-1,-1,-1,-1,-1,-1,-1,-1,-1,-1,-1,-1,-1,-1,-1,-1,-1,-1,-1],"split_conditions":[1E0,1E0,5.71E2,1E0,-1.519E3,1.2E1,1E0,1E0,1E0,7E0,-7.16E2,-1.0260951E-2,3.94E2,1E0,9.88E2,1E0,7.12E2,3.54E2,-1.054E3,-1.6678983E-2,-4.6610865E-3,1E0,1.621E3,-1.799E3,1E1,5.93E2,3.96E2,3.5E-2,2.002801E-3,1.48E2,8E0,1.5E1,1.9E1,3.94E2,5.9E2,1E0,1.4E1,-7.28E2,-2.8491465E-3,5E0,2.7077952E-2,3.5E-2,3E1,4E0,1.564159E-2,-6.2133153E-3,1.146E3,-1.1731198E-2,-2.3657328E-3,-3.033234E-3,-7.605997E-3,1.277551E-2,-3.8465478E-3,-4.536669E-3,6.2258383E-3,-2.0937764E-3,-9.105175E-3,1.0318163E-2,3.08558E-2,-2.4655233E-3,9.419165E-3,-3.1001938E-3,2.0440243E-2,-1.484057E-2,-1.3079521E-3,2.2599144E-2,9.041282E-3,7.882819E-3,2.5493698E-3,2.0280449E-2,-1.1921852E-3,1.8282315E-2,3.5E-2,1.06906695E-2,-2.6190784E-3],"split_indices":[17,19,0,12,0,6,9,18,18,5,0,0,0,12,0,13,2,0,1,0,0,12,1,1,5,0,1,0,0,2,5,6,6,1,0,26,6,1,0,5,0,0,5,5,0,0,0,0,0,0,0,0,0,0,0,0,0,0,0,0,0,0,0,0,0,0,0,0,0,0,0,0,0,0,0],"split_type":[0,0,0,0,0,0,0,0,0,0,0,0,0,0,0,0,0,0,0,0,0,0,0,0,0,0,0,0,0,0,0,0,0,0,0,0,0,0,0,0,0,0,0,0,0,0,0,0,0,0,0,0,0,0,0,0,0,0,0,0,0,0,0,0,0,0,0,0,0,0,0,0,0,0,0],"sum_hessian":[1.8155057E3,1.4348005E3,3.807052E2,9.5678265E2,4.7801788E2,3.2148163E2,5.9223553E1,7.456974E2,2.1108525E2,1.5818527E1,4.6219937E2,1.0169655E1,3.1131198E2,4.7121876E1,1.2101677E1,4.3365137E2,3.1204602E2,1.146245E2,9.6460754E1,7.4484243E0,8.370103E0,5.2373096E1,4.0982626E2,2.7818628E2,3.3125706E1,3.2122704E1,1.4999172E1,6.07729E0,6.024387E0,4.1248563E2,2.1165741E1,2.4065439E2,7.1391624E1,7.223772E1,4.238678E1,1.2324937E1,8.413581E1,4.5465218E1,6.907879E0,4.0473114E2,5.0951076E0,6.458222E0,2.7172806E2,2.797632E1,5.149383E0,5.8376627E0,2.628504E1,7.825965E0,7.1732073E0,2.1368503E2,1.988006E2,1.5456767E1,5.7089734E0,3.5061783E1,2.055926E2,3.4528847E1,3.686278E1,6.3866146E1,8.371573E0,2.2015165E1,2.0371614E1,5.8709316E0,6.4540052E0,7.3932085E0,7.674261E1,2.1802567E1,2.3662651E1,1.1277767E2,2.919535E2,2.4849716E2,2.32309E1,6.16091E0,2.181541E1,1.701216E1,9.272881E0],"tree_param":{"num_deleted":"0","num_feature":"28","num_nodes":"75","size_leaf_vector":"1"}},{"base_weights":[9.738675E-2,2.4576854E-2,3.66609E-1,-1.7232725E-2,9.142072E-2,2.4075156E-1,5.1251274E-1,-1.3869134E-1,-1.7976988E-3,1.1036571E-1,-3.5278797E-2,3.5E-2,2.115298E-1,7E-1,3.809823E-1,-7.512829E-2,-2.0810747E-1,-1.096507E-2,2.0420149E-1,8.465544E-2,2.0259197E-1,1.0686952E-2,-7.299464E-2,-1.419956E-2,2.2978477E-1,2.244735E-1,7E-1,3.0000085E-1,7E-1,-1.5467408E-1,-4.0205894E-3,-2.37784E-1,-3.6432957E-5,3.9434303E-3,-1.108421E-1,2.6997894E-2,4.9770527E-2,1.5347132E-1,3.233392E-2,3.7175798E-1,1.16202384E-1,-1.05875276E-1,9.019685E-3,1.1082003E-2,2.645247E-1,2.5072003E-2,-4.8790197E-3,9.332649E-3,3.5E-2,4.7604464E-2,4.438516E-1,2.8567475E-1,3.5E-2,-1.1713049E-2,-2.1197558E-3,-5.8677807E-3,3.3618372E-3,-1.3374879E-2,-3.4852128E-3,3.6756364E-3,-9.869749E-4,-7.755364E-3,5.503177E-3,-3.7368492E-3,1.3890119E-2,9.107827E-3,-8.869882E-4,-2.5000179E-3,3.1827998E-3,8.722759E-3,3.3635523E-2,3.9268676E-3,2.4192704E-2,-3.4644727E-3,-9.624423E-3,-6.1878697E-3,5.6130392E-3,1.5630448E-2,1.0220795E-3,3.5E-2,-4.583472E-3,2.8198529E-2,4.0254565E-3,-3.8602523E-4,2.734091E-2],"categories":[],"categories_nodes":[],"categories_segments":[],"categories_sizes":[],"default_left":[0,0,0,0,0,0,0,0,0,0,0,0,0,0,0,0,0,0,0,0,0,0,0,0,0,0,0,0,0,0,0,0,0,0,0,0,0,0,0,0,0,0,0,0,0,0,0,0,0,0,0,0,0,0,0,0,0,0,0,0,0,0,0,0,0,0,0,0,0,0,0,0,0,0,0,0,0,0,0,0,0,0,0,0,0],"id":12,"left_children":[1,3,5,7,9,11,13,15,17,19,21,-1,23,25,27,29,31,33,35,37,39,-1,41,-1,43,45,47,49,51,53,55,57,-1,59,61,-1,63,65,67,69,71,73,-1,75,77,-1,-1,-1,-1,79,81,83,-1,-1,-1,-1,-1,-1,-1,-1,-1,-1,-1,-1,-1,-1,-1,-1,-1,-1,-1,-1,-1,-1,-1,-1,-1,-1,-1,-1,-1,-1,-1,-1,-1],"loss_changes":[3.557324E1,3.9977007E0,6.971081E0,1.6504602E0,1.3249722E0,2.869379E0,5.782688E0,4.2235827E-1,1.4794866E0,1.1186996E0,6.9509715E-1,0E0,1.8661957E0,2.98666E0,3.8402996E0,3.0132753E-1,2.8836107E-1,1.117E0,1.703879E0,1.3499844E0,1.472444E0,0E0,5.4880285E-1,0E0,1.4601746E0,1.4203448E0,2.046833E0,3.8050652E0,1.5602341E0,2.1498305E-1,2.438135E-1,1.8617511E-1,0E0,1.0780584E0,9.697639E-1,0E0,7.011637E-1,8.001821E-1,5.577584E-1,1.9373956E0,9.328034E-1,1.6698563E-1,0E0,3.8825303E-1,1.9434261E0,0E0,0E0,0E0,0E0,3.6979368E0,2.8790045E0,9.192888E-1,0E0,0E0,0E0,0E0,0E0,0E0,0E0,0E0,0E0,0E0,0E0,0E0,0E0,0E0,0E0,0E0,0E0,0E0,0E0,0E0,0E0,0E0,0E0,0E0,0E0,0E0,0E0,0E0,0E0,0E0,0E0,0E0,0E0],"parents":[2147483647,0,0,1,1,2,2,3,3,4,4,5,5,6,6,7,7,8,8,9,9,10,10,12,12,13,13,14,14,15,15,16,16,17,17,18,18,19,19,20,20,22,22,24,24,25,25,26,26,27,27,28,28,29,29,30,30,31,31,33,33,34,34,36,36,37,37,38,38,39,39,40,40,41,41,43,43,44,44,49,49,50,50,51,51],"right_children":[2,4,6,8,10,12,14,16,18,20,22,-1,24,26,28,30,32,34,36,38,40,-1,42,-1,44,46,48,50,52,54,56,58,-1,60,62,-1,64,66,68,70,72,74,-1,76,78,-1,-1,-1,-1,80,82,84,-1,-1,-1,-1,-1,-1,-1,-1,-1,-1,-1,-1,-1,-1,-1,-1,-1,-1,-1,-1,-1,-1,-1,-1,-1,-1,-1,-1,-1,-1,-1,-1,-1],"split_conditions":[1E0,3.67E2,1.76E2,-9.76E2,1E0,-1.624E3,5E0,1E0,1E0,9E0,-1.519E3,3.5E-2,1.2E1,4E0,1E0,-1.519E3,3.1E1,1E0,3.7E1,6.89E2,1.4E1,1.0686952E-2,1.5E1,-1.419956E-2,-7.32E2,1.85E2,-1.69E2,1.9E1,1E0,-7.28E2,6E0,1E0,-3.6432957E-5,-1.4E1,1E0,2.6997894E-2,1.146E3,1E0,8.53E2,6.21E2,2.116E3,8E0,9.019685E-3,6E0,1E0,2.5072003E-2,-4.8790197E-3,9.332649E-3,3.5E-2,-1.624E3,3.83E2,9.33E2,3.5E-2,-1.1713049E-2,-2.1197558E-3,-5.8677807E-3,3.3618372E-3,-1.3374879E-2,-3.4852128E-3,3.6756364E-3,-9.869749E-4,-7.755364E-3,5.503177E-3,-3.7368492E-3,1.3890119E-2,9.107827E-3,-8.869882E-4,-2.5000179E-3,3.1827998E-3,8.722759E-3,3.3635523E-2,3.9268676E-3,2.4192704E-2,-3.4644727E-3,-9.624423E-3,-6.1878697E-3,5.6130392E-3,1.5630448E-2,1.0220795E-3,3.5E-2,-4.583472E-3,2.8198529E-2,4.0254565E-3,-3.8602523E-4,2.734091E-2],"split_indices":[17,3,3,0,15,0,4,11,23,4,1,0,6,5,9,0,5,14,0,3,5,0,5,0,0,0,0,6,26,1,4,15,0,0,12,0,0,14,3,1,3,4,0,5,12,0,0,0,0,1,1,3,0,0,0,0,0,0,0,0,0,0,0,0,0,0,0,0,0,0,0,0,0,0,0,0,0,0,0,0,0,0,0,0,0],"split_type":[0,0,0,0,0,0,0,0,0,0,0,0,0,0,0,0,0,0,0,0,0,0,0,0,0,0,0,0,0,0,0,0,0,0,0,0,0,0,0,0,0,0,0,0,0,0,0,0,0,0,0,0,0,0,0,0,0,0,0,0,0,0,0,0,0,0,0,0,0,0,0,0,0,0,0,0,0,0,0,0,0,0,0,0,0],"sum_hessian":[1.8142316E3,1.4288871E3,3.8534448E2,8.795114E2,5.493757E2,2.0830734E2,1.7703714E2,9.826626E1,7.812452E2,4.780267E2,7.134895E1,1.0214369E1,1.9809297E2,5.4909794E1,1.2212735E2,5.2382694E1,4.5883564E1,7.488659E2,3.2379242E1,3.7531628E2,1.0271043E2,8.771076E0,6.257788E1,6.5212164E0,1.9157176E2,1.4374915E1,4.0534878E1,1.04383286E2,1.774407E1,2.416968E1,2.8213017E1,4.0011223E1,5.872342E0,6.52438E2,9.6427956E1,9.414422E0,2.2964819E1,1.6127116E2,2.1404512E2,3.3604202E1,6.9106224E1,5.590553E1,6.6723523E0,2.643994E1,1.6513182E2,7.4289804E0,6.945935E0,8.626529E0,3.190835E1,3.837773E1,6.6005554E1,1.0943201E1,6.800868E0,1.3508211E1,1.0661468E1,1.064121E1,1.7571808E1,3.3497887E1,6.513334E0,1.6516295E2,4.8727502E2,8.057929E1,1.5848659E1,1.5289087E1,7.675732E0,1.3807391E2,2.3197256E1,5.882345E1,1.5522166E2,2.1251507E1,1.2352697E1,6.3785202E1,5.321022E0,4.056898E1,1.5336545E1,1.123889E1,1.520105E1,1.3772025E2,2.741158E1,5.954195E0,3.242354E1,4.9191082E1,1.681447E1,5.6103716E0,5.3328295E0],"tree_param":{"num_deleted":"0","num_feature":"28","num_nodes":"85","size_leaf_vector":"1"}},{"base_weights":[1.0101947E-1,3.1849988E-2,3.5667503E-1,1.9457944E-2,2.314038E-1,1.8223737E-1,5.5871516E-1,4.9069967E-2,-3.860329E-2,9.002174E-2,2.970822E-1,2.1501157E-1,-8.700578E-2,4.8739967E-1,7E-1,6.164108E-2,-3.45695E-2,-1.285086E-1,-6.186906E-3,1.7800233E-4,1.2615687E-2,2.6540885E-2,2.4008343E-1,-1.6852789E-2,2.322096E-1,-1.6364144E-1,8.002005E-3,4.2104575E-1,3.5E-2,1.1073571E-2,3.5E-2,1.2657664E-2,8.8623255E-2,1.0991778E-1,-6.423913E-2,-1.4550512E-1,3.4756418E-3,1.4696266E-1,-4.117609E-2,3.7554388E-3,-4.3988796E-3,3.6772352E-1,8.520304E-2,-1.283957E-2,2.4737574E-1,-4.797913E-2,-1.5725883E-2,6.998305E-2,5.1087487E-1,-1.5735308E-3,4.616871E-3,3.5775087E-3,9.913542E-3,2.2737829E-2,-1.9840156E-3,-4.4453144E-3,7.1020247E-3,-3.5968982E-3,-9.433038E-3,3.9205006E-3,2.9322091E-2,-4.2499825E-3,2.5783617E-3,2.4069136E-2,8.271692E-3,9.964499E-3,-6.9088856E-4,1.0040489E-2,2.291598E-2,1.9149622E-3,-6.6024656E-3,7.935402E-3,-1.2315639E-2,8.049435E-3,3.0584259E-2],"categories":[],"categories_nodes":[],"categories_segments":[],"categories_sizes":[],"default_left":[0,0,0,0,0,0,0,0,0,0,0,0,0,0,0,0,0,0,0,0,0,0,0,0,0,0,0,0,0,0,0,0,0,0,0,0,0,0,0,0,0,0,0,0,0,0,0,0,0,0,0,0,0,0,0,0,0,0,0,0,0,0,0,0,0,0,0,0,0,0,0,0,0,0,0],"id":13,"left_children":[1,3,5,7,9,11,13,15,17,19,21,23,25,27,29,31,33,35,37,39,-1,-1,41,-1,43,45,-1,47,-1,-1,-1,49,51,53,55,57,-1,59,61,-1,-1,63,65,-1,67,69,-1,71,73,-1,-1,-1,-1,-1,-1,-1,-1,-1,-1,-1,-1,-1,-1,-1,-1,-1,-1,-1,-1,-1,-1,-1,-1,-1,-1],"loss_changes":[3.240844E1,3.566413E0,1.3653622E1,2.3413496E0,7.5639486E-1,1.8800993E0,2.8435898E0,9.500613E-1,1.3402388E0,4.1093594E-1,6.339698E-1,1.8664389E0,4.730484E-1,3.9327888E0,1.6703606E0,1.0352249E0,5.1479924E-1,4.2035937E-1,1.8239442E0,1.3306025E-1,0E0,0E0,9.13085E-1,0E0,1.4224825E0,3.0790326E-1,0E0,4.5666294E0,0E0,0E0,0E0,9.8628175E-1,9.3200517E-1,1.0779796E0,5.1583093E-1,3.43848E-1,0E0,1.8614119E0,1.1299552E0,0E0,0E0,5.155797E-1,2.6128346E-1,0E0,1.6587601E0,8.961165E-2,0E0,9.060695E-1,3.99481E0,0E0,0E0,0E0,0E0,0E0,0E0,0E0,0E0,0E0,0E0,0E0,0E0,0E0,0E0,0E0,0E0,0E0,0E0,0E0,0E0,0E0,0E0,0E0,0E0,0E0,0E0],"parents":[2147483647,0,0,1,1,2,2,3,3,4,4,5,5,6,6,7,7,8,8,9,9,10,10,11,11,12,12,13,13,14,14,15,15,16,16,17,17,18,18,19,19,22,22,24,24,25,25,27,27,31,31,32,32,33,33,34,34,35,35,37,37,38,38,41,41,42,42,44,44,45,45,47,47,48,48],"right_children":[2,4,6,8,10,12,14,16,18,20,22,24,26,28,30,32,34,36,38,40,-1,-1,42,-1,44,46,-1,48,-1,-1,-1,50,52,54,56,58,-1,60,62,-1,-1,64,66,-1,68,70,-1,72,74,-1,-1,-1,-1,-1,-1,-1,-1,-1,-1,-1,-1,-1,-1,-1,-1,-1,-1,-1,-1,-1,-1,-1,-1,-1,-1],"split_conditions":[1E0,1E0,1.76E2,4.15E2,1E0,1.082E3,1E0,1E0,5.68E2,1E0,1.6E1,-1.799E3,9E0,2.276E3,2E1,1.8E1,4E0,1E0,6.9E2,3.23E2,1.2615687E-2,2.6540885E-2,3.7E1,-1.6852789E-2,1.2E1,1.505E3,8.002005E-3,1.7E1,3.5E-2,1.1073571E-2,3.5E-2,1E0,1E0,6.4E1,2.7E1,4.47E2,3.4756418E-3,6.72E2,1E0,3.7554388E-3,-4.3988796E-3,4.25E2,6E0,-1.283957E-2,9.71E2,1.9E1,-1.5725883E-2,8E0,5E0,-1.5735308E-3,4.616871E-3,3.5775087E-3,9.913542E-3,2.2737829E-2,-1.9840156E-3,-4.4453144E-3,7.1020247E-3,-3.5968982E-3,-9.433038E-3,3.9205006E-3,2.9322091E-2,-4.2499825E-3,2.5783617E-3,2.4069136E-2,8.271692E-3,9.964499E-3,-6.9088856E-4,1.0040489E-2,2.291598E-2,1.9149622E-3,-6.6024656E-3,7.935402E-3,-1.2315639E-2,8.049435E-3,3.0584259E-2],"split_indices":[17,23,3,2,27,0,9,15,2,18,6,0,4,3,0,6,4,13,2,3,0,0,0,0,6,0,0,6,0,0,0,19,13,0,4,2,0,2,19,0,0,3,4,0,2,6,0,4,5,0,0,0,0,0,0,0,0,0,0,0,0,0,0,0,0,0,0,0,0,0,0,0,0,0,0],"split_type":[0,0,0,0,0,0,0,0,0,0,0,0,0,0,0,0,0,0,0,0,0,0,0,0,0,0,0,0,0,0,0,0,0,0,0,0,0,0,0,0,0,0,0,0,0,0,0,0,0,0,0,0,0,0,0,0,0,0,0,0,0,0,0,0,0,0,0,0,0,0,0,0,0,0,0],"sum_hessian":[1.8323295E3,1.4430314E3,3.8929813E2,1.3596936E3,8.3337776E1,2.09941E2,1.7935713E2,9.005537E2,4.591399E2,2.7186218E1,5.615156E1,1.8733826E2,2.2602732E1,1.5240587E2,2.6951267E1,7.8311383E2,1.1743991E2,1.2089077E2,3.382491E2,1.8143305E1,9.0429125E0,9.37884E0,4.677272E1,5.097779E0,1.8224048E2,1.7508926E1,5.093805E0,1.4494225E2,7.4636207E0,8.434317E0,1.851695E1,2.7867557E2,5.0443826E2,1.9546457E1,9.789345E1,1.11578964E2,9.311807E0,6.2310856E1,2.7593826E2,9.88728E0,8.256024E0,2.4887875E1,2.1884848E1,5.0028315E0,1.7723766E2,1.0657131E1,6.851795E0,2.9893597E1,1.1504865E2,1.7973802E2,9.8937546E1,4.3790518E2,6.6533066E1,5.2968426E0,1.4249616E1,8.794579E1,9.947659E0,4.223987E1,6.9339096E1,5.4922173E1,7.3886814E0,1.8744789E2,8.849037E1,1.505138E1,9.8364935E0,9.698315E0,1.2186533E1,1.4678644E2,3.045122E1,5.5281816E0,5.128949E0,2.3734108E1,6.159489E0,2.6314587E1,8.873406E1],"tree_param":{"num_deleted":"0","num_feature":"28","num_nodes":"75","size_leaf_vector":"1"}},{"base_weights":[9.2702225E-2,1.8866912E-2,3.6537477E-1,4.954812E-2,-4.3128546E-2,4.7879532E-1,2.1543826E-1,3.7048534E-2,1.2868616E-1,-5.473858E-2,1.9774252E-1,1.05974786E-1,5.360299E-1,2.970785E-1,-7.111707E-2,4.917652E-2,-3.6057584E-2,4.4440705E-2,3.148353E-1,-4.1441202E-2,-2.3680668E-1,2.7938968E-2,1.2939036E-2,-1.4324309E-2,2.5601912E-1,5.717925E-1,-8.497399E-3,3.5E-2,2.4956094E-1,-2.3499121E-1,2.0834604E-2,3.46601E-2,1.0998428E-1,-1.1800625E-1,1.9302304E-1,1.4825298E-2,1.7160911E-2,2.8086811E-2,2.0122536E-1,-7.312319E-2,1.56485E-2,-7.0404597E-3,-2.731584E-1,6.920494E-3,-6.565907E-3,-5.3353035E-3,3.7139073E-1,7E-1,4.628446E-1,7.1423724E-2,3.5145164E-1,-3.0704278E-1,2.1454324E-3,2.9183791E-3,-1.2789288E-4,6.886841E-3,-4.142003E-3,-8.164943E-3,-1.3220347E-3,3.3683975E-3,1.8217191E-2,1.7469515E-3,-9.686839E-3,-2.0821197E-3,1.4129819E-2,7.812336E-3,-4.1843457E-3,-1.0640837E-3,1.3995344E-2,-1.746795E-2,-1.0238472E-2,2.8627122E-2,5.816388E-3,3.5E-2,1.0151485E-2,2.7917227E-2,1.1736237E-2,2.925849E-4,1.1692952E-2,2.2185793E-2,-1.0016289E-3,-1.890583E-2,-8.180234E-3],"categories":[],"categories_nodes":[],"categories_segments":[],"categories_sizes":[],"default_left":[0,0,0,0,0,0,0,0,0,0,0,0,0,0,0,0,0,0,0,0,0,0,0,0,0,0,0,0,0,0,0,0,0,0,0,0,0,0,0,0,0,0,0,0,0,0,0,0,0,0,0,0,0,0,0,0,0,0,0,0,0,0,0,0,0,0,0,0,0,0,0,0,0,0,0,0,0,0,0,0,0,0,0],"id":14,"left_children":[1,3,5,7,9,11,13,15,17,19,21,23,25,27,29,31,33,35,37,39,41,-1,43,-1,45,47,-1,-1,49,51,-1,53,55,57,59,-1,61,-1,63,65,67,-1,69,-1,-1,-1,71,73,75,77,79,81,-1,-1,-1,-1,-1,-1,-1,-1,-1,-1,-1,-1,-1,-1,-1,-1,-1,-1,-1,-1,-1,-1,-1,-1,-1,-1,-1,-1,-1,-1,-1],"loss_changes":[3.693102E1,2.7503138E0,6.544342E0,9.5174766E-1,1.3499386E0,4.674469E0,4.002033E0,7.434156E-1,2.0480952E0,1.0980827E0,1.4763839E0,1.8844278E0,4.944031E0,3.0750332E0,3.178584E0,6.29863E-1,2.267992E0,6.253854E-1,1.0315318E0,7.74694E-1,6.948948E-2,0E0,3.0291554E-1,0E0,9.928174E-1,4.413273E0,0E0,0E0,2.2199683E0,6.0358083E-1,0E0,5.1277876E-1,7.492995E-1,3.6357665E-1,6.6197956E-1,0E0,3.2094917E-1,0E0,5.948243E-1,6.799327E-1,1.5035826E0,0E0,3.98494E-2,0E0,0E0,0E0,8.314636E-1,1.311348E0,2.93301E0,4.9137163E-1,2.6970615E0,1.7809987E-1,0E0,0E0,0E0,0E0,0E0,0E0,0E0,0E0,0E0,0E0,0E0,0E0,0E0,0E0,0E0,0E0,0E0,0E0,0E0,0E0,0E0,0E0,0E0,0E0,0E0,0E0,0E0,0E0,0E0,0E0,0E0],"parents":[2147483647,0,0,1,1,2,2,3,3,4,4,5,5,6,6,7,7,8,8,9,9,10,10,11,11,12,12,13,13,14,14,15,15,16,16,17,17,18,18,19,19,20,20,22,22,24,24,25,25,28,28,29,29,31,31,32,32,33,33,34,34,36,36,38,38,39,39,40,40,42,42,46,46,47,47,48,48,49,49,50,50,51,51],"right_children":[2,4,6,8,10,12,14,16,18,20,22,24,26,28,30,32,34,36,38,40,42,-1,44,-1,46,48,-1,-1,50,52,-1,54,56,58,60,-1,62,-1,64,66,68,-1,70,-1,-1,-1,72,74,76,78,80,82,-1,-1,-1,-1,-1,-1,-1,-1,-1,-1,-1,-1,-1,-1,-1,-1,-1,-1,-1,-1,-1,-1,-1,-1,-1,-1,-1,-1,-1,-1,-1],"split_conditions":[1E0,4.15E2,1.3E2,1E0,1E0,4E0,1E0,1E0,2.3E1,1E0,2.58E2,-2.07E2,1E0,-7.28E2,1.174E3,1.3E1,1E0,4E0,-4.82E2,2.2E1,6E0,2.7938968E-2,8.7E2,-1.4324309E-2,1.94E2,5E0,-8.497399E-3,3.5E-2,2E1,1E0,2.0834604E-2,5.5E2,2.6E1,3.94E2,4.95E2,1.4825298E-2,1.4E1,2.8086811E-2,-1.49E2,1E1,1E0,-7.0404597E-3,8E0,6.920494E-3,-6.565907E-3,-5.3353035E-3,4E0,2.4E1,1E0,2.8E1,1.082E3,5.11E2,2.1454324E-3,2.9183791E-3,-1.2789288E-4,6.886841E-3,-4.142003E-3,-8.164943E-3,-1.3220347E-3,3.3683975E-3,1.8217191E-2,1.7469515E-3,-9.686839E-3,-2.0821197E-3,1.4129819E-2,7.812336E-3,-4.1843457E-3,-1.0640837E-3,1.3995344E-2,-1.746795E-2,-1.0238472E-2,2.8627122E-2,5.816388E-3,3.5E-2,1.0151485E-2,2.7917227E-2,1.1736237E-2,2.925849E-4,1.1692952E-2,2.2185793E-2,-1.0016289E-3,-1.890583E-2,-8.180234E-3],"split_indices":[17,2,2,13,23,5,26,14,6,20,0,1,10,1,2,5,12,5,0,6,4,0,2,0,3,4,0,0,1,10,0,3,6,1,3,0,4,0,1,6,12,0,5,0,0,0,4,6,12,6,0,0,0,0,0,0,0,0,0,0,0,0,0,0,0,0,0,0,0,0,0,0,0,0,0,0,0,0,0,0,0,0,0],"split_type":[0,0,0,0,0,0,0,0,0,0,0,0,0,0,0,0,0,0,0,0,0,0,0,0,0,0,0,0,0,0,0,0,0,0,0,0,0,0,0,0,0,0,0,0,0,0,0,0,0,0,0,0,0,0,0,0,0,0,0,0,0,0,0,0,0,0,0,0,0,0,0,0,0,0,0,0,0,0,0,0,0,0,0],"sum_hessian":[1.8337079E3,1.4438153E3,3.8989264E2,9.659653E2,4.7785007E2,2.2072801E2,1.6916461E2,8.354732E2,1.3049202E2,4.5661392E2,2.1236135E1,2.9755447E1,1.9097256E2,1.3162706E2,3.7537556E1,7.168742E2,1.1859899E2,9.068809E1,3.980394E1,4.2667896E2,2.9934967E1,6.504716E0,1.473142E1,7.978161E0,2.1777287E1,1.8194583E2,9.026738E0,8.935361E0,1.2269169E2,2.84862E1,9.051354E0,5.7998615E2,1.3688806E2,8.770816E1,3.0890837E1,7.8924828E0,8.27956E1,1.1300623E1,2.8503319E1,2.7421964E2,1.524593E2,9.560683E0,2.0374283E1,7.900404E0,6.831016E0,5.273296E0,1.650399E1,4.2298454E1,1.3964738E2,4.5261406E1,7.743028E1,2.2537893E1,5.948307E0,3.5395312E2,2.2603304E2,1.1991483E2,1.6973234E1,5.815738E1,2.9550777E1,1.8624176E1,1.2266661E1,7.712823E1,5.6673737E0,7.2757277E0,2.122759E1,1.1466074E1,2.6275357E2,1.3457227E2,1.7887041E1,7.6935444E0,1.2680739E1,8.53124E0,7.97275E0,3.6004948E1,6.2935057E0,9.741714E1,4.2230244E1,3.2982876E1,1.227853E1,6.186953E1,1.5560756E1,1.3976449E1,8.561444E0],"tree_param":{"num_deleted":"0","num_feature":"28","num_nodes":"83","size_leaf_vector":"1"}},{"base_weights":[8.7983035E-2,1.483198E-1,1.974833E-2,4.9442825E-1,1.3790137E-1,9.560659E-3,2.5525185E-1,-2.5412147E-3,6.479683E-1,2.7144918E-1,1.1395503E-1,-1.7731193E-1,2.2090033E-2,1.1884094E-3,3.1327948E-1,6.704581E-3,3.5E-2,-4.9857084E-2,3.1729326E-1,1.3762021E-1,3.9745104E-3,-2.2761004E-1,2.2963136E-3,-2.0780409E-2,9.08434E-2,4.0025488E-1,3.8977605E-3,-7.894923E-3,6.5611716E-4,3.4683835E-2,2.654687E-1,1.0753976E-1,2.3640272E-1,-3.0030876E-2,2.2377467E-1,-7.650079E-2,-2.776453E-1,-9.509668E-3,-1.2683576E-1,1.16234556E-1,-1.2964235E-1,2.437119E-2,8.456862E-3,2.1394452E-3,1.6850444E-2,2.81622E-3,8.193493E-3,2.2209182E-2,9.080901E-3,-4.3647364E-3,6.4247223E-3,5.099576E-4,2.00153E-2,-1.4813024E-3,-5.403819E-3,-1.7413897E-2,-6.567082E-3,6.858985E-4,-2.9997968E-3,-3.3799165E-3,-1.5086517E-2,4.0577147E-3,1.5021999E-2,1.0486985E-2,-1.0762819E-2],"categories":[],"categories_nodes":[],"categories_segments":[],"categories_sizes":[],"default_left":[0,0,0,0,0,0,0,0,0,0,0,0,0,0,0,0,0,0,0,0,0,0,0,0,0,0,0,0,0,0,0,0,0,0,0,0,0,0,0,0,0,0,0,0,0,0,0,0,0,0,0,0,0,0,0,0,0,0,0,0,0,0,0,0,0],"id":15,"left_children":[1,3,5,7,9,11,13,-1,15,17,19,21,23,-1,25,-1,-1,27,29,31,33,35,-1,37,39,41,-1,-1,-1,-1,43,45,47,49,51,53,55,57,59,61,63,-1,-1,-1,-1,-1,-1,-1,-1,-1,-1,-1,-1,-1,-1,-1,-1,-1,-1,-1,-1,-1,-1,-1,-1],"loss_changes":[7.515712E0,3.4261036E0,2.0565112E0,2.3712358E0,2.9819317E0,1.9323504E0,4.7001648E-1,0E0,1.4487972E0,2.1151524E0,2.083168E0,5.927955E-1,2.279595E0,0E0,5.488217E-1,0E0,0E0,1.2904204E-1,2.251377E0,1.932147E0,1.0740187E0,3.000512E-1,0E0,5.687088E-1,1.6776481E0,3.2953954E-1,0E0,0E0,0E0,0E0,1.7597575E0,1.4530168E0,1.6603785E0,1.1417979E0,7.217017E-1,1.4486656E-2,2.8022003E-1,5.074978E-1,4.532848E-1,1.699893E0,9.4996625E-1,0E0,0E0,0E0,0E0,0E0,0E0,0E0,0E0,0E0,0E0,0E0,0E0,0E0,0E0,0E0,0E0,0E0,0E0,0E0,0E0,0E0,0E0,0E0,0E0],"parents":[2147483647,0,0,1,1,2,2,3,3,4,4,5,5,6,6,8,8,9,9,10,10,11,11,12,12,14,14,17,17,18,18,19,19,20,20,21,21,23,23,24,24,25,25,30,30,31,31,32,32,33,33,34,34,35,35,36,36,37,37,38,38,39,39,40,40],"right_children":[2,4,6,8,10,12,14,-1,16,18,20,22,24,-1,26,-1,-1,28,30,32,34,36,-1,38,40,42,-1,-1,-1,-1,44,46,48,50,52,54,56,58,60,62,64,-1,-1,-1,-1,-1,-1,-1,-1,-1,-1,-1,-1,-1,-1,-1,-1,-1,-1,-1,-1,-1,-1,-1,-1],"split_conditions":[9.8E1,-1.799E3,1E0,8.27E2,4E0,1E0,4.07E2,-2.5412147E-3,7E0,1.61E2,1.267E3,9.71E2,2.1E1,1.1884094E-3,8E0,6.704581E-3,3.5E-2,1.6E1,2.84E2,1E0,1E0,3.67E2,2.2963136E-3,4.47E2,1E0,9.94E2,3.8977605E-3,-7.894923E-3,6.5611716E-4,3.4683835E-2,4.26E2,2E1,5E0,1E0,1.8E1,3.7E1,1E0,1.9E1,1E0,1.2E3,-4.82E2,2.437119E-2,8.456862E-3,2.1394452E-3,1.6850444E-2,2.81622E-3,8.193493E-3,2.2209182E-2,9.080901E-3,-4.3647364E-3,6.4247223E-3,5.099576E-4,2.00153E-2,-1.4813024E-3,-5.403819E-3,-1.7413897E-2,-6.567082E-3,6.858985E-4,-2.9997968E-3,-3.3799165E-3,-1.5086517E-2,4.0577147E-3,1.5021999E-2,1.0486985E-2,-1.0762819E-2],"split_indices":[2,1,23,3,4,22,2,0,4,3,3,2,6,0,5,0,0,6,3,26,16,2,0,1,14,2,0,0,0,0,3,6,4,8,6,1,19,6,18,2,1,0,0,0,0,0,0,0,0,0,0,0,0,0,0,0,0,0,0,0,0,0,0,0,0],"split_type":[0,0,0,0,0,0,0,0,0,0,0,0,0,0,0,0,0,0,0,0,0,0,0,0,0,0,0,0,0,0,0,0,0,0,0,0,0,0,0,0,0,0,0,0,0,0,0,0,0,0,0,0,0,0,0,0,0,0,0,0,0,0,0,0,0],"sum_hessian":[1.825216E3,9.6804517E2,8.5717084E2,2.6930664E1,9.411145E2,8.226254E2,3.4545444E1,6.064248E0,2.0866415E1,1.4152106E2,7.9959344E2,5.0863083E1,7.717623E2,7.20658E0,2.7338863E1,5.2388215E0,1.5627595E1,1.7660038E1,1.2386102E2,6.577993E2,1.4179408E2,4.1494354E1,9.3687315E0,4.7578766E2,2.9597464E2,1.9449501E1,7.8893633E0,5.9483995E0,1.1711638E1,1.3491558E1,1.1036947E2,5.0585046E2,1.5194887E2,1.23543915E2,1.8250164E1,1.0950916E1,3.0543436E1,4.310669E2,4.472078E1,2.65834E2,3.0140642E1,1.3317612E1,6.131889E0,2.7225147E1,8.314432E1,2.6600156E2,2.398489E2,3.0221302E1,1.2172757E2,9.108923E1,3.2454685E1,8.737238E0,9.512927E0,5.187783E0,5.763133E0,1.9667719E1,1.0875718E1,2.9573425E2,1.3533264E2,3.4441746E1,1.0279036E1,2.2451729E2,4.1316727E1,5.779668E0,2.4360973E1],"tree_param":{"num_deleted":"0","num_feature":"28","num_nodes":"65","size_leaf_vector":"1"}},{"base_weights":[7.4911E-2,1.4663918E-2,2.8893453E-1,5.12317E-2,-3.753221E-2,5.9282774E-1,2.3502347E-1,2.0762594E-2,1.144405E-1,-1.176997E-2,-2.9842326E-2,6.79807E-1,4.7627874E-3,5.1850192E-2,3.0003533E-1,1.8884857E-3,9.1010496E-2,2.655959E-1,8.497874E-2,-3.7718978E-2,1.2911528E-1,7E-1,4.447322E-1,1.3262966E-1,-1.0034537E-1,6.790094E-1,2.1640678E-1,7.452436E-2,-1.3148952E-2,3.4963065E-1,3.9571486E-2,4.6528128E-1,1.3702841E-1,2.4557878E-1,6.814433E-2,-1.3719431E-2,-1.04217E-1,-9.831057E-3,2.1965888E-1,3.5E-2,1.7013079E-2,1.439531E-1,3.5E-2,-1.4492031E-2,3.8655895E-1,-2.3757267E-1,7.745387E-2,7E-1,-4.5327796E-3,2.512052E-1,-1.2538126E-1,-2.9052796E-3,7.2674663E-3,-5.200417E-3,3.9423487E-4,1.0249508E-2,2.7304087E-2,3.7479305E-3,-6.5004653E-3,6.967917E-3,3.5E-2,-5.855114E-3,1.2785489E-2,2.8992837E-2,5.1783095E-3,-2.715524E-3,4.799724E-3,-1.1654309E-3,1.2847346E-2,-6.031493E-3,3.5222073E-3,1.3444143E-3,1.6870657E-2,-1.0413586E-2,1.8462867E-2,-7.6229363E-3,4.092028E-3,2.9185584E-2,1.6299203E-3,-7.2790124E-3,-1.4887962E-2,-5.7387105E-3,1.33387325E-2,3.5E-2,4.4348114E-3,6.397534E-3,1.8010858E-2,1.7163074E-3,-9.25416E-3],"categories":[],"categories_nodes":[],"categories_segments":[],"categories_sizes":[],"default_left":[0,0,0,0,0,0,0,0,0,0,0,0,0,0,0,0,0,0,0,0,0,0,0,0,0,0,0,0,0,0,0,0,0,0,0,0,0,0,0,0,0,0,0,0,0,0,0,0,0,0,0,0,0,0,0,0,0,0,0,0,0,0,0,0,0,0,0,0,0,0,0,0,0,0,0,0,0,0,0,0,0,0,0,0,0,0,0,0,0],"id":16,"left_children":[1,3,5,7,9,11,13,15,17,-1,19,21,-1,23,25,27,29,31,33,35,37,39,41,43,45,47,49,51,53,55,57,59,61,63,65,67,69,-1,71,-1,-1,73,-1,75,77,79,81,83,-1,85,87,-1,-1,-1,-1,-1,-1,-1,-1,-1,-1,-1,-1,-1,-1,-1,-1,-1,-1,-1,-1,-1,-1,-1,-1,-1,-1,-1,-1,-1,-1,-1,-1,-1,-1,-1,-1,-1,-1],"loss_changes":[2.3699572E1,2.7419724E0,6.475498E0,1.6242146E0,8.9371806E-1,2.5396519E0,4.087837E0,7.57029E-1,1.199779E0,0E0,7.197674E-1,1.0557632E0,0E0,1.1378784E0,7.9065075E0,4.9377772E-1,1.5948517E0,1.0736139E0,6.082828E-1,8.680225E-1,8.449197E-1,3.1430817E-1,2.4634123E0,2.2540588E0,8.061207E-1,3.3849907E0,2.524867E0,7.367601E-1,7.1679604E-1,4.5447707E-1,6.2179214E-1,1.5281017E0,8.8552946E-1,9.62937E-1,7.23542E-1,1.0479937E0,4.222355E-1,0E0,4.8448813E-1,0E0,0E0,1.2370297E0,0E0,5.3176016E-1,1.524235E0,5.8900356E-2,5.698752E-1,2.4328575E0,0E0,2.5148497E0,1.9741869E-1,0E0,0E0,0E0,0E0,0E0,0E0,0E0,0E0,0E0,0E0,0E0,0E0,0E0,0E0,0E0,0E0,0E0,0E0,0E0,0E0,0E0,0E0,0E0,0E0,0E0,0E0,0E0,0E0,0E0,0E0,0E0,0E0,0E0,0E0,0E0,0E0,0E0,0E0],"parents":[2147483647,0,0,1,1,2,2,3,3,4,4,5,5,6,6,7,7,8,8,10,10,11,11,13,13,14,14,15,15,16,16,17,17,18,18,19,19,20,20,21,21,22,22,23,23,24,24,25,25,26,26,27,27,28,28,29,29,30,30,31,31,32,32,33,33,34,34,35,35,36,36,38,38,41,41,43,43,44,44,45,45,46,46,47,47,49,49,50,50],"right_children":[2,4,6,8,10,12,14,16,18,-1,20,22,-1,24,26,28,30,32,34,36,38,40,42,44,46,48,50,52,54,56,58,60,62,64,66,68,70,-1,72,-1,-1,74,-1,76,78,80,82,84,-1,86,88,-1,-1,-1,-1,-1,-1,-1,-1,-1,-1,-1,-1,-1,-1,-1,-1,-1,-1,-1,-1,-1,-1,-1,-1,-1,-1,-1,-1,-1,-1,-1,-1,-1,-1,-1,-1,-1,-1],"split_conditions":[1E0,1.82E2,-7.28E2,1E0,-1.656E3,1E0,5E0,9E0,4E0,-1.176997E-2,1E0,-7.16E2,4.7627874E-3,-1.87E2,1.07E2,-4.82E2,1E1,1.07E2,4E0,6.98E2,1E0,1E0,-1.054E3,-4.82E2,1.25E2,1.84E2,1.5E1,-1.624E3,2E1,4.94E2,1E0,-7.45E2,3.82E2,1.07E2,6E0,6.21E2,1.6E1,-9.831057E-3,-1.69E2,3.5E-2,1.7013079E-2,1E0,3.5E-2,6E0,3.7E1,7E0,8E0,9E0,-4.5327796E-3,7E0,1.95E2,-2.9052796E-3,7.2674663E-3,-5.200417E-3,3.9423487E-4,1.0249508E-2,2.7304087E-2,3.7479305E-3,-6.5004653E-3,6.967917E-3,3.5E-2,-5.855114E-3,1.2785489E-2,2.8992837E-2,5.1783095E-3,-2.715524E-3,4.799724E-3,-1.1654309E-3,1.2847346E-2,-6.031493E-3,3.5222073E-3,1.3444143E-3,1.6870657E-2,-1.0413586E-2,1.8462867E-2,-7.6229363E-3,4.092028E-3,2.9185584E-2,1.6299203E-3,-7.2790124E-3,-1.4887962E-2,-5.7387105E-3,1.33387325E-2,3.5E-2,4.4348114E-3,6.397534E-3,1.8010858E-2,1.7163074E-3,-9.25416E-3],"split_indices":[17,2,1,19,0,26,0,4,5,0,23,0,0,0,0,0,4,0,4,0,27,12,1,0,1,2,5,1,0,1,16,1,1,0,4,0,4,0,1,0,0,8,0,5,1,4,4,5,0,4,0,0,0,0,0,0,0,0,0,0,0,0,0,0,0,0,0,0,0,0,0,0,0,0,0,0,0,0,0,0,0,0,0,0,0,0,0,0,0],"split_type":[0,0,0,0,0,0,0,0,0,0,0,0,0,0,0,0,0,0,0,0,0,0,0,0,0,0,0,0,0,0,0,0,0,0,0,0,0,0,0,0,0,0,0,0,0,0,0,0,0,0,0,0,0,0,0,0,0,0,0,0,0,0,0,0,0,0,0,0,0,0,0,0,0,0,0,0,0,0,0,0,0,0,0,0,0,0,0,0,0],"sum_hessian":[1.8373174E3,1.4345607E3,4.0275665E2,8.435802E2,5.9098047E2,5.917796E1,3.435787E2,5.700988E2,2.7348138E2,2.1000793E1,5.699797E2,5.0060726E1,9.117233E0,9.0470985E1,2.5310771E2,4.5017368E2,1.19925156E2,4.330214E1,2.3017924E2,5.4379626E2,2.6183424E1,2.7019272E1,2.3041452E1,5.9185947E1,3.1285034E1,4.4469383E1,2.0863834E2,7.65338E1,3.7363986E2,1.8933931E1,1.0099122E2,1.5934465E1,2.7367674E1,2.0549484E1,2.0962976E2,4.0047037E2,1.4332591E2,5.440242E0,2.0743183E1,2.1804153E1,5.2151194E0,1.361891E1,9.422543E0,3.807118E1,2.111477E1,1.746736E1,1.3817676E1,3.92387E1,5.230683E0,1.8959967E2,1.9038662E1,2.67048E1,4.9829E1,6.949526E1,3.0414462E2,1.2081893E1,6.8520384E0,8.401702E1,1.69742E1,8.388773E0,7.545692E0,8.716487E0,1.8651186E1,5.2078323E0,1.5341651E1,3.866645E1,1.709633E2,3.8765054E2,1.2819827E1,1.3129729E2,1.202862E1,8.33183E0,1.2411353E1,5.3424683E0,8.276442E0,1.54134865E1,2.265769E1,1.3144384E1,7.970386E0,8.26045E0,9.206909E0,7.051573E0,6.7661023E0,3.2417145E1,6.821556E0,9.000693E1,9.959274E1,5.2961335E0,1.3742529E1],"tree_param":{"num_deleted":"0","num_feature":"28","num_nodes":"89","size_leaf_vector":"1"}},{"base_weights":[8.4876716E-2,1.6127365E-2,3.237722E-1,5.7449687E-2,-4.7411516E-2,4.2100713E-1,1.9499493E-1,8.251114E-2,1.3728649E-2,-1.9056663E-1,-3.454547E-2,8.078137E-2,4.733237E-1,2.2147371E-1,-1.7030118E-1,5.4221254E-2,1.9383255E-1,2.5949501E-3,1.7357608E-2,-2.4785894E-1,6.484437E-4,-1.8872539E-2,-1.5127221E-1,3.8444456E-1,-1.4249304E-1,7E-1,4.0890402E-1,-1.6454697E-2,2.4123466E-1,-1.4554213E-2,-2.2354438E-3,3.1393956E-2,1.6882609E-1,1.1119201E-1,3.2857344E-1,-8.6765E-3,2.1237485E-1,-1.7494394E-2,-1.7323807E-1,-6.5826373E-3,-1.8096122E-1,-1.7756803E-1,6.069706E-3,-5.414951E-3,3.5E-2,-6.181116E-2,-1.5395745E-2,3.8844445E-1,3.5E-2,4.7025985E-1,1.7364757E-1,3.5E-2,2.0786509E-1,6.716219E-3,2.3049976E-4,1.0863814E-2,-3.8185676E-3,2.5551708E-3,1.3093541E-2,1.1446941E-2,2.9606158E-2,-5.423899E-3,3.938181E-4,3.2817852E-3,1.771035E-2,5.9694536E-5,-1.2074451E-2,1.7034864E-3,-2.5599406E-3,1.9994797E-3,-1.2978273E-2,-4.6168705E-3,-1.1651673E-2,3.7843117E-3,-1.0507642E-2,3.5E-2,5.918313E-3,3.1719256E-2,1.4739987E-2,2.0264126E-2,1.4567197E-3,6.7426846E-3,2.0043422E-2],"categories":[],"categories_nodes":[],"categories_segments":[],"categories_sizes":[],"default_left":[0,0,0,0,0,0,0,0,0,0,0,0,0,0,0,0,0,0,0,0,0,0,0,0,0,0,0,0,0,0,0,0,0,0,0,0,0,0,0,0,0,0,0,0,0,0,0,0,0,0,0,0,0,0,0,0,0,0,0,0,0,0,0,0,0,0,0,0,0,0,0,0,0,0,0,0,0,0,0,0,0,0,0],"id":17,"left_children":[1,3,5,7,9,11,13,15,17,19,21,23,25,27,29,31,33,35,-1,37,-1,39,41,43,45,47,49,-1,51,-1,-1,53,55,57,59,61,63,-1,65,67,69,71,-1,-1,-1,73,-1,75,-1,77,79,-1,81,-1,-1,-1,-1,-1,-1,-1,-1,-1,-1,-1,-1,-1,-1,-1,-1,-1,-1,-1,-1,-1,-1,-1,-1,-1,-1,-1,-1,-1,-1],"loss_changes":[3.0330362E1,3.7712967E0,5.0856514E0,9.523215E-1,1.0362029E0,4.131958E0,1.7731419E0,1.7307708E0,1.1805271E0,5.4506135E-1,9.497368E-1,2.2536006E0,4.248863E0,1.9041948E0,1.7950854E-1,1.1517177E0,1.2067027E0,7.3242414E-1,0E0,2.158289E-1,0E0,9.1555774E-1,4.6247876E-1,2.4104857E0,2.4014157E-1,9.0172386E-1,2.5011063E0,0E0,3.12461E0,0E0,0E0,1.019521E0,8.865707E-1,6.268915E-1,9.6557283E-1,4.868433E-1,3.0546135E-1,0E0,2.7353865E-1,7.794929E-1,5.730324E-1,2.45543E-1,0E0,0E0,0E0,3.07654E-1,0E0,1.2277553E0,0E0,3.8830147E0,1.280247E0,0E0,2.1459875E0,0E0,0E0,0E0,0E0,0E0,0E0,0E0,0E0,0E0,0E0,0E0,0E0,0E0,0E0,0E0,0E0,0E0,0E0,0E0,0E0,0E0,0E0,0E0,0E0,0E0,0E0,0E0,0E0,0E0,0E0],"parents":[2147483647,0,0,1,1,2,2,3,3,4,4,5,5,6,6,7,7,8,8,9,9,10,10,11,11,12,12,13,13,14,14,15,15,16,16,17,17,19,19,21,21,22,22,23,23,24,24,25,25,26,26,28,28,31,31,32,32,33,33,34,34,35,35,36,36,38,38,39,39,40,40,41,41,45,45,47,47,49,49,50,50,52,52],"right_children":[2,4,6,8,10,12,14,16,18,20,22,24,26,28,30,32,34,36,-1,38,-1,40,42,44,46,48,50,-1,52,-1,-1,54,56,58,60,62,64,-1,66,68,70,72,-1,-1,-1,74,-1,76,-1,78,80,-1,82,-1,-1,-1,-1,-1,-1,-1,-1,-1,-1,-1,-1,-1,-1,-1,-1,-1,-1,-1,-1,-1,-1,-1,-1,-1,-1,-1,-1,-1,-1],"split_conditions":[1E0,2.91E2,1.3E2,1E0,-1.519E3,4E0,1E0,9E0,1.86E2,1E0,1E0,4.32E2,4E0,-1.799E3,1E0,2.5E1,1.95E2,1.956E3,1.7357608E-2,1.9E1,6.484437E-4,1E0,2.8E1,1.94E2,2E1,4.6E2,1.174E3,-1.6454697E-2,-1.581E3,-1.4554213E-2,-2.2354438E-3,4E0,3E1,3.1E1,2E1,1E0,7E0,-1.7494394E-2,2.1E1,2.91E2,-4.97E2,5.32E2,6.069706E-3,-5.414951E-3,3.5E-2,3.82E2,-1.5395745E-2,1.82E2,3.5E-2,1.7E2,7E0,3.5E-2,9.43E2,6.716219E-3,2.3049976E-4,1.0863814E-2,-3.8185676E-3,2.5551708E-3,1.3093541E-2,1.1446941E-2,2.9606158E-2,-5.423899E-3,3.938181E-4,3.2817852E-3,1.771035E-2,5.9694536E-5,-1.2074451E-2,1.7034864E-3,-2.5599406E-3,1.9994797E-3,-1.2978273E-2,-4.6168705E-3,-1.1651673E-2,3.7843117E-3,-1.0507642E-2,3.5E-2,5.918313E-3,3.1719256E-2,1.4739987E-2,2.0264126E-2,1.4567197E-3,6.7426846E-3,2.0043422E-2],"split_indices":[17,2,2,11,0,5,20,4,2,12,14,3,4,0,27,6,0,3,0,6,0,20,4,3,6,3,3,0,0,0,0,4,6,4,6,7,4,0,6,0,0,2,0,0,0,0,0,3,0,0,5,0,2,0,0,0,0,0,0,0,0,0,0,0,0,0,0,0,0,0,0,0,0,0,0,0,0,0,0,0,0,0,0],"split_type":[0,0,0,0,0,0,0,0,0,0,0,0,0,0,0,0,0,0,0,0,0,0,0,0,0,0,0,0,0,0,0,0,0,0,0,0,0,0,0,0,0,0,0,0,0,0,0,0,0,0,0,0,0,0,0,0,0,0,0,0,0,0,0,0,0,0,0,0,0,0,0,0,0,0,0,0,0,0,0,0,0,0,0],"sum_hessian":[1.8460378E3,1.434333E3,4.1170493E2,8.6916797E2,5.65165E2,2.3328831E2,1.7841661E2,5.5191565E2,3.1725232E2,4.5466522E1,5.196985E2,3.1430866E1,2.0185745E2,1.6672513E2,1.1691484E1,4.4126495E2,1.1065072E2,3.0797614E2,9.276176E0,3.530961E1,1.0156915E1,4.5920285E2,6.049561E1,1.301205E1,1.8418818E1,2.392585E1,1.779316E2,5.234377E0,1.6149075E2,5.288144E0,6.40334E0,3.6903375E2,7.22312E1,6.971667E1,4.093405E1,2.9318213E2,1.4794002E1,1.3357315E1,2.1952293E1,4.278063E2,3.1396553E1,5.5492687E1,5.002919E0,5.57497E0,7.4370794E0,1.3303772E1,5.115045E0,1.3337787E1,1.0588064E1,1.403332E2,3.7598392E1,6.3642673E0,1.5512648E2,7.537056E1,2.9366318E2,6.0408546E1,1.1822653E1,5.0798214E1,1.8918457E1,3.1060385E1,9.873666E0,4.0918785E1,2.5226334E2,7.990167E0,6.8038344E0,6.450071E0,1.5502222E1,2.2397038E2,2.0383592E2,8.367466E0,2.3029087E1,2.2926933E1,3.2565754E1,7.1584315E0,6.1453404E0,5.146242E0,8.191545E0,7.115722E1,6.917598E1,1.3751745E1,2.3846647E1,1.1378236E2,4.134412E1],"tree_param":{"num_deleted":"0","num_feature":"28","num_nodes":"83","size_leaf_vector":"1"}},{"base_weights":[7.488383E-2,1.985373E-2,2.6527035E-1,1.0190529E-2,1.9095345E-1,3.5E-2,2.4589767E-1,3.9179154E-2,-4.646211E-2,1.4397265E-1,2.4011254E-2,-2.5952753E-1,2.6200882E-1,2.8798861E-2,1.6903006E-1,-2.2187069E-1,-3.3404995E-2,1.8902533E-1,-6.4893E-3,-1.7261462E-2,-6.108771E-3,1.8564665E-1,3.4351447E-1,4.8697982E-2,-2.6129546E-2,1.6772905E-2,1.3511097E-1,-2.7426586E-1,-3.36653E-3,-1.79605E-3,-8.356069E-2,1.1088863E-1,3.9391404E-1,1.1512104E-1,4.8278463E-1,2.620879E-1,6.056931E-1,8.9537975E-4,6.185261E-3,-3.625539E-3,4.717857E-3,2.0203653E-3,1.0134472E-2,-2.0124095E-2,-1.0780438E-2,1.3577103E-3,-5.48299E-3,-2.609433E-3,-1.010573E-2,9.466614E-3,-4.045324E-3,2.4824793E-2,9.521869E-3,3.688255E-3,2.7270675E-2,3.5E-2,8.892572E-3,3.2021184E-2,1.1398962E-2,7.60748E-3,3.5E-2],"categories":[],"categories_nodes":[],"categories_segments":[],"categories_sizes":[],"default_left":[0,0,0,0,0,0,0,0,0,0,0,0,0,0,0,0,0,0,0,0,0,0,0,0,0,0,0,0,0,0,0,0,0,0,0,0,0,0,0,0,0,0,0,0,0,0,0,0,0,0,0,0,0,0,0,0,0,0,0,0,0],"id":18,"left_children":[1,3,5,7,9,-1,11,13,15,17,-1,19,21,23,25,27,29,31,-1,-1,-1,33,35,37,39,-1,41,43,-1,45,47,49,51,53,55,57,59,-1,-1,-1,-1,-1,-1,-1,-1,-1,-1,-1,-1,-1,-1,-1,-1,-1,-1,-1,-1,-1,-1,-1,-1],"loss_changes":[1.9517353E1,2.3898754E0,5.0930653E0,2.2523313E0,9.810798E-1,0E0,3.406128E0,1.2177329E0,1.0560064E0,8.6208797E-1,0E0,1.1280382E-1,2.4119473E0,9.2062956E-1,3.3253992E-1,2.405653E-1,6.868175E-1,8.9637494E-1,0E0,0E0,0E0,4.293646E0,3.9237041E0,1.4245512E0,1.2604709E0,0E0,3.583889E-1,9.0451E-2,0E0,8.361892E-1,6.124004E-1,6.757987E-1,2.3564291E-1,2.9679396E0,3.954668E0,1.7596903E0,3.7485352E0,0E0,0E0,0E0,0E0,0E0,0E0,0E0,0E0,0E0,0E0,0E0,0E0,0E0,0E0,0E0,0E0,0E0,0E0,0E0,0E0,0E0,0E0,0E0,0E0],"parents":[2147483647,0,0,1,1,2,2,3,3,4,4,6,6,7,7,8,8,9,9,11,11,12,12,13,13,14,14,15,15,16,16,17,17,21,21,22,22,23,23,24,24,26,26,27,27,29,29,30,30,31,31,32,32,33,33,34,34,35,35,36,36],"right_children":[2,4,6,8,10,-1,12,14,16,18,-1,20,22,24,26,28,30,32,-1,-1,-1,34,36,38,40,-1,42,44,-1,46,48,50,52,54,56,58,60,-1,-1,-1,-1,-1,-1,-1,-1,-1,-1,-1,-1,-1,-1,-1,-1,-1,-1,-1,-1,-1,-1,-1,-1],"split_conditions":[1E0,1E0,-1.799E3,4.15E2,7.54E2,3.5E-2,1.2E1,1.785E3,1E0,3.67E2,2.4011254E-2,1.06E2,1.76E2,6.89E2,-1.799E3,1E0,1E0,3.4E1,-6.4893E-3,-1.7261462E-2,-6.108771E-3,1.12E3,1E0,4.26E2,1E0,1.6772905E-2,-5.67E2,-6.85E2,-3.36653E-3,3.67E2,1E0,1.4E1,2E1,1E0,1.526E3,2.46E2,-7E0,8.9537975E-4,6.185261E-3,-3.625539E-3,4.717857E-3,2.0203653E-3,1.0134472E-2,-2.0124095E-2,-1.0780438E-2,1.3577103E-3,-5.48299E-3,-2.609433E-3,-1.010573E-2,9.466614E-3,-4.045324E-3,2.4824793E-2,9.521869E-3,3.688255E-3,2.7270675E-2,3.5E-2,8.892572E-3,3.2021184E-2,1.1398962E-2,7.60748E-3,3.5E-2],"split_indices":[17,23,1,2,1,0,6,3,22,1,0,3,3,3,1,26,11,1,0,0,0,2,26,3,12,0,1,1,0,1,14,2,6,13,2,3,1,0,0,0,0,0,0,0,0,0,0,0,0,0,0,0,0,0,0,0,0,0,0,0,0],"split_type":[0,0,0,0,0,0,0,0,0,0,0,0,0,0,0,0,0,0,0,0,0,0,0,0,0,0,0,0,0,0,0,0,0,0,0,0,0,0,0,0,0,0,0,0,0,0,0,0,0,0,0,0,0,0,0,0,0,0,0,0,0],"sum_hessian":[1.8623809E3,1.4456333E3,4.1674753E2,1.3693558E3,7.627757E1,7.808374E0,4.0893915E2,9.06048E2,4.633078E2,6.690861E1,9.368964E0,1.2166104E1,3.9677304E2,8.401112E2,6.593677E1,3.099052E1,4.323173E2,5.7719227E1,9.189383E0,6.559686E0,5.6064186E0,2.065424E2,1.9023064E2,6.1678107E2,2.2333015E2,9.658114E0,5.6278652E1,2.2565283E1,8.425239E0,2.658255E2,1.6649179E2,4.2900017E1,1.4819208E1,1.6804453E2,3.8497883E1,1.4667612E2,4.355452E1,4.381569E2,1.7862418E2,1.6154265E2,6.1787502E1,2.4101297E1,3.2177353E1,5.243072E0,1.732221E1,2.1016594E2,5.5659554E1,1.3279219E2,3.3699596E1,3.0456314E1,1.2443704E1,8.89485E0,5.9243584E0,1.5437845E2,1.3666074E1,1.6360054E1,2.2137829E1,1.0659897E1,1.3601622E2,1.4442102E1,2.9112415E1],"tree_param":{"num_deleted":"0","num_feature":"28","num_nodes":"61","size_leaf_vector":"1"}},{"base_weights":[7.8722194E-2,2.2079684E-2,2.7039847E-1,-1.3643492E-2,9.1959745E-2,3.8841707E-1,1.3049106E-1,-4.014444E-2,7.961976E-2,1.3035952E-1,3.4675505E-2,3.5259232E-1,3.5E-2,2.0603599E-2,2.4819839E-1,-9.32349E-2,3.2381568E-2,3.7562348E-2,2.2422668E-1,1.1719831E-1,3.9731905E-1,-6.58063E-2,1.0512616E-1,1.877902E-1,4.491463E-1,-2.0725459E-2,2.7268762E-2,3.5E-2,1.4510955E-1,-1.079732E-1,1.829028E-1,1.47351E-2,3.2583636E-1,1.0631311E-1,-4.859677E-2,3.2435227E-2,1.00606404E-1,1.4078945E-1,5.853941E-3,3.2750715E-2,6.5095015E-3,-2.3297639E-1,2.1450642E-2,4.0110525E-1,1.7537294E-2,1.3433625E-1,2.7221328E-2,5.229457E-1,2.4049234E-2,-9.125945E-2,1.5077329E-1,-2.1638478E-1,2.7057385E-1,-6.790805E-3,-2.7550426E-3,2.2004094E-2,3.5528752E-3,-1.2209271E-2,1.6667055E-3,3.5E-2,5.6670867E-3,1.4973764E-2,2.845845E-3,-4.0559643E-3,9.170081E-3,1.7212632E-3,1.2466184E-2,5.9769326E-3,2.3154896E-2,-6.1065243E-3,8.736111E-3,-8.930707E-3,-1.6267745E-2,-6.549064E-3,6.45018E-3,-5.8689825E-3,2.972216E-2,-4.0360647E-3,3.4639079E-3,1.48579795E-2,2.8637943E-3,1.798557E-2,3.446871E-2,-1.073121E-2,1.4139659E-2,-3.3532057E-3,-1.5070188E-2,1.7919013E-2,-8.028129E-4,-5.454385E-3,-1.45908175E-2,5.420688E-3,2.5857037E-2],"categories":[],"categories_nodes":[],"categories_segments":[],"categories_sizes":[],"default_left":[0,0,0,0,0,0,0,0,0,0,0,0,0,0,0,0,0,0,0,0,0,0,0,0,0,0,0,0,0,0,0,0,0,0,0,0,0,0,0,0,0,0,0,0,0,0,0,0,0,0,0,0,0,0,0,0,0,0,0,0,0,0,0,0,0,0,0,0,0,0,0,0,0,0,0,0,0,0,0,0,0,0,0,0,0,0,0,0,0,0,0,0,0],"id":19,"left_children":[1,3,5,7,9,11,13,15,17,19,21,23,-1,25,27,29,31,33,35,37,39,41,43,45,47,49,-1,-1,51,53,55,57,59,61,63,-1,65,67,69,-1,-1,71,73,75,77,79,-1,81,83,85,87,89,91,-1,-1,-1,-1,-1,-1,-1,-1,-1,-1,-1,-1,-1,-1,-1,-1,-1,-1,-1,-1,-1,-1,-1,-1,-1,-1,-1,-1,-1,-1,-1,-1,-1,-1,-1,-1,-1,-1,-1,-1],"loss_changes":[2.0188557E1,3.5881143E0,6.95348E0,2.3553E0,1.0649362E0,3.6811066E0,2.5249317E0,2.8590822E0,1.2743253E0,9.7483253E-1,1.3977761E0,3.4042873E0,0E0,2.2289906E0,6.5419483E0,1.7637191E0,1.6224458E0,9.8015E-1,2.4178276E0,7.3063254E-1,8.261483E-1,1.1951851E0,2.9971638E0,1.5036886E0,4.3019123E0,1.1720097E0,0E0,0E0,3.9312947E0,5.923047E-1,6.039445E-1,1.4405981E0,1.3479712E0,8.594352E-1,5.7122624E-1,0E0,3.6376092E-1,1.5181866E0,1.0960928E0,0E0,0E0,8.283794E-2,9.108315E-1,2.7178316E0,4.6552122E-1,9.021889E-1,0E0,2.9342308E0,1.3817624E0,3.2792193E-1,9.852696E-1,1.5072381E-1,2.4961624E0,0E0,0E0,0E0,0E0,0E0,0E0,0E0,0E0,0E0,0E0,0E0,0E0,0E0,0E0,0E0,0E0,0E0,0E0,0E0,0E0,0E0,0E0,0E0,0E0,0E0,0E0,0E0,0E0,0E0,0E0,0E0,0E0,0E0,0E0,0E0,0E0,0E0,0E0,0E0,0E0],"parents":[2147483647,0,0,1,1,2,2,3,3,4,4,5,5,6,6,7,7,8,8,9,9,10,10,11,11,13,13,14,14,15,15,16,16,17,17,18,18,19,19,20,20,21,21,22,22,23,23,24,24,25,25,28,28,29,29,30,30,31,31,32,32,33,33,34,34,36,36,37,37,38,38,41,41,42,42,43,43,44,44,45,45,47,47,48,48,49,49,50,50,51,51,52,52],"right_children":[2,4,6,8,10,12,14,16,18,20,22,24,-1,26,28,30,32,34,36,38,40,42,44,46,48,50,-1,-1,52,54,56,58,60,62,64,-1,66,68,70,-1,-1,72,74,76,78,80,-1,82,84,86,88,90,92,-1,-1,-1,-1,-1,-1,-1,-1,-1,-1,-1,-1,-1,-1,-1,-1,-1,-1,-1,-1,-1,-1,-1,-1,-1,-1,-1,-1,-1,-1,-1,-1,-1,-1,-1,-1,-1,-1,-1,-1],"split_conditions":[1E0,1E0,9.2E1,1E0,2.91E2,2.276E3,6.45E2,1E0,9E0,1.79E2,5.72E2,1.9E1,3.5E-2,3E1,7.12E2,1E0,1E0,1E0,8E0,1.214E3,1.89E2,1.9E1,5E0,1E0,9.94E2,8E0,2.7268762E-2,3.5E-2,8.98E2,3.44E2,4E0,1E0,1.8E1,4E0,2.6E1,3.2435227E-2,8.63E2,9.43E2,1.793E3,3.2750715E-2,6.5095015E-3,6E0,7E0,1.5E1,1.8E1,1.4E1,2.7221328E-2,4.72E2,1.461E3,5.5E2,9E0,