{"learner":{"attributes":{},"feature_names":["total_plsqa","shooter_sq","assister_sq","match_state_Leading","match_state_nan","player_dif_Pos","player_dif_nan"],"feature_types":["float","float","float","float","float","float","float"],"gradient_booster":{"model":{"gbtree_model_param":{"num_parallel_tree":"1","num_trees":"265"},"iteration_indptr":[0,1,2,3,4,5,6,7,8,9,10,11,12,13,14,15,16,17,18,19,20,21,22,23,24,25,26,27,28,29,30,31,32,33,34,35,36,37,38,39,40,41,42,43,44,45,46,47,48,49,50,51,52,53,54,55,56,57,58,59,60,61,62,63,64,65,66,67,68,69,70,71,72,73,74,75,76,77,78,79,80,81,82,83,84,85,86,87,88,89,90,91,92,93,94,95,96,97,98,99,100,101,102,103,104,105,106,107,108,109,110,111,112,113,114,115,116,117,118,119,120,121,122,123,124,125,126,127,128,129,130,131,132,133,134,135,136,137,138,139,140,141,142,143,144,145,146,147,148,149,150,151,152,153,154,155,156,157,158,159,160,161,162,163,164,165,166,167,168,169,170,171,172,173,174,175,176,177,178,179,180,181,182,183,184,185,186,187,188,189,190,191,192,193,194,195,196,197,198,199,200,201,202,203,204,205,206,207,208,209,210,211,212,213,214,215,216,217,218,219,220,221,222,223,224,225,226,227,228,229,230,231,232,233,234,235,236,237,238,239,240,241,242,243,244,245,246,247,248,249,250,251,252,253,254,255,256,257,258,259,260,261,262,263,264,265],"tree_info":[0,0,0,0,0,0,0,0,0,0,0,0,0,0,0,0,0,0,0,0,0,0,0,0,0,0,0,0,0,0,0,0,0,0,0,0,0,0,0,0,0,0,0,0,0,0,0,0,0,0,0,0,0,0,0,0,0,0,0,0,0,0,0,0,0,0,0,0,0,0,0,0,0,0,0,0,0,0,0,0,0,0,0,0,0,0,0,0,0,0,0,0,0,0,0,0,0,0,0,0,0,0,0,0,0,0,0,0,0,0,0,0,0,0,0,0,0,0,0,0,0,0,0,0,0,0,0,0,0,0,0,0,0,0,0,0,0,0,0,0,0,0,0,0,0,0,0,0,0,0,0,0,0,0,0,0,0,0,0,0,0,0,0,0,0,0,0,0,0,0,0,0,0,0,0,0,0,0,0,0,0,0,0,0,0,0,0,0,0,0,0,0,0,0,0,0,0,0,0,0,0,0,0,0,0,0,0,0,0,0,0,0,0,0,0,0,0,0,0,0,0,0,0,0,0,0,0,0,0,0,0,0,0,0,0,0,0,0,0,0,0,0,0,0,0,0,0,0,0,0,0,0,0,0,0,0,0,0,0,0,0,0,0,0,0],"trees":[{"base_weights":[-5.178094E-1,-6.845896E-1,5.7488877E-2,-8.04239E-1,-4.9815476E-1,-9.476537E-2,6.706347E-1,-6.00745E-1,-8.361729E-1,-5.48838E-1,-1.6819692E-1,-3.6158305E-1,1.3148229E-1,1.9484743E-1,1.0250983E0,-1.9909238E-2,-4.892169E-3,-2.7910722E-2,-2.2307463E-2,-1.9606818E-2,-1.4238539E-2,-7.4266195E-3,3.9107115E-3,-1.5715063E-2,-7.6113115E-3,2.471698E-3,3.266755E-2,2.3303481E-3,3.2262173E-2,2.108164E-2,4.8453093E-2],"categories":[],"categories_nodes":[],"categories_segments":[],"categories_sizes":[],"default_left":[0,0,0,0,1,0,0,1,0,0,0,0,1,0,0,0,0,0,0,0,0,0,0,0,0,0,0,0,0,0,0],"id":0,"left_children":[1,3,5,7,9,11,13,15,17,19,21,23,25,27,29,-1,-1,-1,-1,-1,-1,-1,-1,-1,-1,-1,-1,-1,-1,-1,-1],"loss_changes":[5.484446E2,9.7345215E1,1.20367325E2,1.5775879E1,2.8525543E1,6.241335E1,4.2248787E1,9.679047E0,1.8014038E1,1.0509857E1,5.7061143E0,7.648041E0,2.5465034E1,1.0871727E1,2.4325394E1,0E0,0E0,0E0,0E0,0E0,0E0,0E0,0E0,0E0,0E0,0E0,0E0,0E0,0E0,0E0,0E0],"parents":[2147483647,0,0,1,1,2,2,3,3,4,4,5,5,6,6,7,7,8,8,9,9,10,10,11,11,12,12,13,13,14,14],"right_children":[2,4,6,8,10,12,14,16,18,20,22,24,26,28,30,-1,-1,-1,-1,-1,-1,-1,-1,-1,-1,-1,-1,-1,-1,-1,-1],"split_conditions":[1.20962E-1,7.44068E-2,2.01852E-1,1.5E-2,9.86667E-2,7.82051E-2,8.12069E-2,8.55556E-2,5E-2,5.72973E-2,1.50556E-1,4.1E-2,1.725E-1,3.48E-1,2.56364E-1,-1.9909238E-2,-4.892169E-3,-2.7910722E-2,-2.2307463E-2,-1.9606818E-2,-1.4238539E-2,-7.4266195E-3,3.9107115E-3,-1.5715063E-2,-7.6113115E-3,2.471698E-3,3.266755E-2,2.3303481E-3,3.2262173E-2,2.108164E-2,4.8453093E-2],"split_indices":[1,1,1,1,2,2,2,2,1,2,2,2,2,1,1,0,0,0,0,0,0,0,0,0,0,0,0,0,0,0,0],"split_type":[0,0,0,0,0,0,0,0,0,0,0,0,0,0,0,0,0,0,0,0,0,0,0,0,0,0,0,0,0,0,0],"sum_hessian":[5.709951E3,4.4270337E3,1.2829177E3,2.6908208E3,1.7362126E3,1.0284196E3,2.5449817E2,3.7248654E2,2.3183342E3,1.5025682E3,2.3364441E2,4.7236508E2,5.560545E2,1.10579796E2,1.4391838E2,3.2378204E2,4.8704502E1,1.1376274E3,1.1807069E3,6.139511E2,8.8861707E2,1.8617467E2,4.746974E1,1.8370515E2,2.886599E2,5.3149646E2,2.4558044E1,1.00015724E2,1.0564075E1,9.644863E1,4.746974E1],"tree_param":{"num_deleted":"0","num_feature":"7","num_nodes":"31","size_leaf_vector":"1"}},{"base_weights":[-5.0768965E-1,-6.8173814E-1,2.9447472E-2,-7.999359E-1,-5.0882465E-1,-1.1163147E-1,6.429864E-1,-5.9006774E-1,-8.348647E-1,-5.567264E-1,-2.0287795E-1,-3.672388E-1,1.06238164E-1,1.8906625E-1,9.7549725E-1,-1.9579131E-2,-4.766458E-3,-2.7831139E-2,-2.2481844E-2,-1.9760149E-2,-1.4558714E-2,-9.054923E-3,-6.1529706E-4,-1.5573788E-2,-7.847167E-3,1.0890412E-3,2.2653487E-2,2.2582891E-3,3.0874625E-2,2.1699544E-2,4.928929E-2],"categories":[],"categories_nodes":[],"categories_segments":[],"categories_sizes":[],"default_left":[0,0,0,0,1,0,0,1,0,0,0,0,1,0,0,0,0,0,0,0,0,0,0,0,0,0,0,0,0,0,0],"id":1,"left_children":[1,3,5,7,9,11,13,15,17,19,21,23,25,27,29,-1,-1,-1,-1,-1,-1,-1,-1,-1,-1,-1,-1,-1,-1,-1,-1],"loss_changes":[5.2881226E2,8.5801636E1,1.2025363E2,1.685608E1,2.4908203E1,6.295656E1,3.8262665E1,9.369415E0,1.4934937E1,9.732208E0,4.1616936E0,7.6834564E0,2.7176025E1,1.0091693E1,2.149385E1,0E0,0E0,0E0,0E0,0E0,0E0,0E0,0E0,0E0,0E0,0E0,0E0,0E0,0E0,0E0,0E0],"parents":[2147483647,0,0,1,1,2,2,3,3,4,4,5,5,6,6,7,7,8,8,9,9,10,10,11,11,12,12,13,13,14,14],"right_children":[2,4,6,8,10,12,14,16,18,20,22,24,26,28,30,-1,-1,-1,-1,-1,-1,-1,-1,-1,-1,-1,-1,-1,-1,-1,-1],"split_conditions":[1.16875E-1,7.22222E-2,2.01852E-1,1.5E-2,9.86667E-2,7.78261E-2,8.12069E-2,8.55556E-2,4.8E-2,5.72973E-2,1.28636E-1,4.1E-2,1.42E-1,3.48E-1,2.71429E-1,-1.9579131E-2,-4.766458E-3,-2.7831139E-2,-2.2481844E-2,-1.9760149E-2,-1.4558714E-2,-9.054923E-3,-6.1529706E-4,-1.5573788E-2,-7.847167E-3,1.0890412E-3,2.2653487E-2,2.2582891E-3,3.0874625E-2,2.1699544E-2,4.928929E-2],"split_indices":[1,1,1,1,2,2,2,2,1,2,2,2,2,1,1,0,0,0,0,0,0,0,0,0,0,0,0,0,0,0,0],"split_type":[0,0,0,0,0,0,0,0,0,0,0,0,0,0,0,0,0,0,0,0,0,0,0,0,0,0,0,0,0,0,0],"sum_hessian":[5.6505586E3,4.267993E3,1.3825653E3,2.5290664E3,1.738927E3,1.1247566E3,2.578087E2,3.6800803E2,2.1610583E3,1.5006919E3,2.382352E2,5.1798E2,6.067767E2,1.1096629E2,1.4684239E2,3.1946347E2,4.8544556E1,1.0236166E3,1.1374418E3,6.086521E2,8.9203973E2,1.5181085E2,8.642435E1,2.0735934E2,3.1062064E2,5.503426E2,5.643408E1,1.0017233E2,1.0793961E1,1.1014508E2,3.6697308E1],"tree_param":{"num_deleted":"0","num_feature":"7","num_nodes":"31","size_leaf_vector":"1"}},{"base_weights":[-4.9772462E-1,-6.6735595E-1,3.9285854E-2,-7.822627E-1,-4.843341E-1,-1.0057601E-1,6.169641E-1,-5.795098E-1,-8.143832E-1,-5.3354514E-1,-1.698326E-1,-3.548792E-1,1.1267848E-1,1.8347526E-1,9.295454E-1,-1.9252235E-2,-4.643644E-3,-2.728952E-2,-2.1643022E-2,-1.940356E-2,-1.3993587E-2,-8.222171E-3,5.094298E-4,-1.5152092E-2,-7.55571E-3,1.9598517E-3,2.9254025E-2,2.1885652E-3,2.9572785E-2,1.9260937E-2,4.320052E-2],"categories":[],"categories_nodes":[],"categories_segments":[],"categories_sizes":[],"default_left":[0,0,0,0,1,0,0,1,0,0,0,0,1,0,0,0,0,0,0,0,0,0,0,0,0,0,0,0,0,0,0],"id":2,"left_children":[1,3,5,7,9,11,13,15,17,19,21,23,25,27,29,-1,-1,-1,-1,-1,-1,-1,-1,-1,-1,-1,-1,-1,-1,-1,-1],"loss_changes":[5.0998022E2,8.8035645E1,1.0898141E2,1.5339233E1,2.4957062E1,5.894203E1,3.4735344E1,9.067009E0,1.7739746E1,9.642303E0,4.561159E0,7.0352554E0,2.3429E1,9.376763E0,1.9364746E1,0E0,0E0,0E0,0E0,0E0,0E0,0E0,0E0,0E0,0E0,0E0,0E0,0E0,0E0,0E0,0E0],"parents":[2147483647,0,0,1,1,2,2,3,3,4,4,5,5,6,6,7,7,8,8,9,9,10,10,11,11,12,12,13,13,14,14],"right_children":[2,4,6,8,10,12,14,16,18,20,22,24,26,28,30,-1,-1,-1,-1,-1,-1,-1,-1,-1,-1,-1,-1,-1,-1,-1,-1],"split_conditions":[1.18235E-1,7.44068E-2,2.01852E-1,1.5E-2,9.86667E-2,7.78261E-2,8.12069E-2,8.55556E-2,5E-2,5.2973E-2,1.3E-1,4.1E-2,1.725E-1,3.48E-1,2.56364E-1,-1.9252235E-2,-4.643644E-3,-2.728952E-2,-2.1643022E-2,-1.940356E-2,-1.3993587E-2,-8.222171E-3,5.094298E-4,-1.5152092E-2,-7.55571E-3,1.9598517E-3,2.9254025E-2,2.1885652E-3,2.9572785E-2,1.9260937E-2,4.320052E-2],"split_indices":[1,1,1,1,2,2,2,2,1,2,2,2,2,1,1,0,0,0,0,0,0,0,0,0,0,0,0,0,0,0,0],"split_type":[0,0,0,0,0,0,0,0,0,0,0,0,0,0,0,0,0,0,0,0,0,0,0,0,0,0,0,0,0,0,0],"sum_hessian":[5.5923853E3,4.2502563E3,1.3421289E3,2.605293E3,1.6449635E3,1.0811561E3,2.6097278E2,3.6362854E2,2.2416643E3,1.4198176E3,2.2514589E2,4.935822E2,5.875739E2,1.1133982E2,1.4963297E2,3.1523962E2,4.8388916E1,1.0956919E3,1.1459724E3,5.1903723E2,9.007804E2,1.4562895E2,7.951694E1,1.9566878E2,2.9791342E2,5.595832E2,2.799071E1,1.0032419E2,1.1015629E1,9.923536E1,5.0397602E1],"tree_param":{"num_deleted":"0","num_feature":"7","num_nodes":"31","size_leaf_vector":"1"}},{"base_weights":[-4.878999E-1,-6.5989465E-1,2.807782E-2,-7.7816087E-1,-4.8892727E-1,-1.2442862E-1,5.267682E-1,-5.6906956E-1,-8.1331265E-1,-5.360194E-1,-1.923123E-1,-3.61667E-1,8.327425E-2,2.5804807E-2,7.6678634E-1,-1.8928487E-2,-4.5236656E-3,-2.756852E-2,-2.2084335E-2,-1.9112078E-2,-1.3970042E-2,-7.3607382E-3,3.0328587E-3,-1.519429E-2,-7.99953E-3,4.2172233E-4,2.1521926E-2,-1.9485066E-3,2.5717624E-2,1.7683242E-2,4.1046154E-2],"categories":[],"categories_nodes":[],"categories_segments":[],"categories_sizes":[],"default_left":[0,0,0,0,1,0,0,1,0,0,0,0,1,0,0,0,0,0,0,0,0,0,0,0,0,0,0,0,0,0,0],"id":3,"left_children":[1,3,5,7,9,11,13,15,17,19,21,23,25,27,29,-1,-1,-1,-1,-1,-1,-1,-1,-1,-1,-1,-1,-1,-1,-1,-1],"loss_changes":[4.9176782E2,8.259424E1,1.0570767E2,1.6392334E1,2.3253662E1,5.252501E1,3.8718704E1,8.771675E0,1.4863892E1,9.30069E0,3.8300123E0,6.1845016E0,2.4487736E1,8.673913E0,2.0810379E1,0E0,0E0,0E0,0E0,0E0,0E0,0E0,0E0,0E0,0E0,0E0,0E0,0E0,0E0,0E0,0E0],"parents":[2147483647,0,0,1,1,2,2,3,3,4,4,5,5,6,6,7,7,8,8,9,9,10,10,11,11,12,12,13,13,14,14],"right_children":[2,4,6,8,10,12,14,16,18,20,22,24,26,28,30,-1,-1,-1,-1,-1,-1,-1,-1,-1,-1,-1,-1,-1,-1,-1,-1],"split_conditions":[1.16875E-1,7.22222E-2,1.9E-1,1.5E-2,9.86667E-2,8E-2,6.56522E-2,8.55556E-2,4.55556E-2,5.72973E-2,1.6E-1,4.1E-2,1.42E-1,3.48E-1,2.71429E-1,-1.8928487E-2,-4.5236656E-3,-2.756852E-2,-2.2084335E-2,-1.9112078E-2,-1.3970042E-2,-7.3607382E-3,3.0328587E-3,-1.519429E-2,-7.99953E-3,4.2172233E-4,2.1521926E-2,-1.9485066E-3,2.5717624E-2,1.7683242E-2,4.1046154E-2],"split_indices":[1,1,1,1,2,2,2,2,1,2,2,2,2,1,1,0,0,0,0,0,0,0,0,0,0,0,0,0,0,0,0],"split_type":[0,0,0,0,0,0,0,0,0,0,0,0,0,0,0,0,0,0,0,0,0,0,0,0,0,0,0,0,0,0,0],"sum_hessian":[5.535354E3,4.151811E3,1.3835433E3,2.4482285E3,1.7035825E3,1.0599072E3,3.2363602E2,3.5934723E2,2.088881E3,1.4673229E3,2.3625964E2,4.9520663E2,5.647006E2,1.0622418E2,2.1741183E2,3.1110974E2,4.8237476E1,8.6983636E2,1.2190448E3,5.927301E2,8.7459283E2,2.0180637E2,3.445327E1,1.9067891E2,3.045277E2,5.1168158E2,5.301906E1,9.68907E1,9.333485E0,1.7160185E2,4.5809986E1],"tree_param":{"num_deleted":"0","num_feature":"7","num_nodes":"31","size_leaf_vector":"1"}},{"base_weights":[-4.7822425E-1,-6.5585816E-1,8.305912E-3,-7.697621E-1,-4.907778E-1,-1.4261036E-1,4.811931E-1,-5.587457E-1,-8.061345E-1,-5.3497946E-1,-2.1072978E-1,-3.6457416E-1,5.3032205E-2,-0E0,7.001078E-1,-1.8312337E-2,-1.9966008E-3,-2.7387878E-2,-2.1943226E-2,-1.9062832E-2,-1.40757905E-2,-7.602088E-3,1.685369E-3,-1.5070905E-2,-8.231597E-3,-4.3349856E-4,2.0645654E-2,-3.4244726E-3,1.9050576E-2,1.6273364E-2,3.887534E-2],"categories":[],"categories_nodes":[],"categories_segments":[],"categories_sizes":[],"default_left":[0,0,0,0,1,0,0,0,0,0,0,0,1,0,0,0,0,0,0,0,0,0,0,0,0,0,0,0,0,0,0],"id":4,"left_children":[1,3,5,7,9,11,13,15,17,19,21,23,25,27,29,-1,-1,-1,-1,-1,-1,-1,-1,-1,-1,-1,-1,-1,-1,-1,-1],"loss_changes":[4.740735E2,7.41333E1,1.0502165E2,1.6615967E1,1.979007E1,4.8529293E1,3.723259E1,8.662697E0,1.392395E1,8.233002E0,2.7395782E0,5.833946E0,2.573737E1,8.62631E0,2.0616089E1,0E0,0E0,0E0,0E0,0E0,0E0,0E0,0E0,0E0,0E0,0E0,0E0,0E0,0E0,0E0,0E0],"parents":[2147483647,0,0,1,1,2,2,3,3,4,4,5,5,6,6,7,7,8,8,9,9,10,10,11,11,12,12,13,13,14,14],"right_children":[2,4,6,8,10,12,14,16,18,20,22,24,26,28,30,-1,-1,-1,-1,-1,-1,-1,-1,-1,-1,-1,-1,-1,-1,-1,-1],"split_conditions":[1.14255E-1,7.09091E-2,1.85333E-1,1.5E-2,9.86667E-2,8E-2,6.56522E-2,1.14405E-1,4.46154E-2,5.53571E-2,1.63333E-1,4.1E-2,1.42E-1,3E-1,2.71429E-1,-1.8312337E-2,-1.9966008E-3,-2.7387878E-2,-2.1943226E-2,-1.9062832E-2,-1.40757905E-2,-7.602088E-3,1.685369E-3,-1.5070905E-2,-8.231597E-3,-4.3349856E-4,2.0645654E-2,-3.4244726E-3,1.9050576E-2,1.6273364E-2,3.887534E-2],"split_indices":[1,1,1,1,2,2,2,0,1,2,2,2,2,1,1,0,0,0,0,0,0,0,0,0,0,0,0,0,0,0,0],"split_type":[0,0,0,0,0,0,0,0,0,0,0,0,0,0,0,0,0,0,0,0,0,0,0,0,0,0,0,0,0,0,0],"sum_hessian":[5.4795503E3,4.0142607E3,1.4652896E3,2.369188E3,1.6450726E3,1.1110505E3,3.5423895E2,3.5516293E2,2.0140251E3,1.417702E3,2.2737068E2,5.208994E2,5.901511E2,1.1199056E2,2.4224838E2,3.2006897E2,3.5093933E1,8.169027E2,1.1971224E3,5.511863E2,8.665157E2,1.9773196E2,2.9638727E1,2.0025842E2,3.2064102E2,5.345276E2,5.5623573E1,9.5757355E1,1.623321E1,1.9523868E2,4.7009693E1],"tree_param":{"num_deleted":"0","num_feature":"7","num_nodes":"31","size_leaf_vector":"1"}},{"base_weights":[-4.6869344E-1,-6.267455E-1,6.372758E-2,-7.394171E-1,-4.2734912E-1,-6.394166E-2,5.783119E-1,-7.6815885E-1,-5.4123765E-1,-4.7745925E-1,-1.20230444E-1,-3.0903465E-1,1.3501482E-1,8.6224355E-2,8.06961E-1,-1.8263502E-2,-2.3741828E-2,-3.8458165E-3,-1.8047454E-2,-1.7480826E-2,-1.205309E-2,-5.8708317E-3,4.7194636E-3,-1.3861439E-2,-6.2368E-3,2.6840013E-3,2.7352354E-2,-2.3564305E-3,1.9886196E-2,1.7142044E-2,3.539871E-2],"categories":[],"categories_nodes":[],"categories_segments":[],"categories_sizes":[],"default_left":[0,0,0,1,1,0,0,0,0,0,0,0,1,0,0,0,0,0,0,0,0,0,0,0,0,0,0,0,0,0,0],"id":5,"left_children":[1,3,5,7,9,11,13,15,17,19,21,23,25,27,29,-1,-1,-1,-1,-1,-1,-1,-1,-1,-1,-1,-1,-1,-1,-1,-1],"loss_changes":[4.570415E2,9.281995E1,8.201464E1,1.3722534E1,2.294107E1,4.8797287E1,2.73331E1,6.945923E0,8.133858E0,9.415039E0,4.624641E0,6.414421E0,1.8818405E1,8.154494E0,1.2579147E1,0E0,0E0,0E0,0E0,0E0,0E0,0E0,0E0,0E0,0E0,0E0,0E0,0E0,0E0,0E0,0E0],"parents":[2147483647,0,0,1,1,2,2,3,3,4,4,5,5,6,6,7,7,8,8,9,9,10,10,11,11,12,12,13,13,14,14],"right_children":[2,4,6,8,10,12,14,16,18,20,22,24,26,28,30,-1,-1,-1,-1,-1,-1,-1,-1,-1,-1,-1,-1,-1,-1,-1,-1],"split_conditions":[1.23281E-1,7.9E-2,2.10571E-1,8.75E-2,9.86667E-2,7.82051E-2,6.83333E-2,1.5E-2,1.5E-2,5.875E-2,1.50556E-1,4.1E-2,1.725E-1,3E-1,2.56364E-1,-1.8263502E-2,-2.3741828E-2,-3.8458165E-3,-1.8047454E-2,-1.7480826E-2,-1.205309E-2,-5.8708317E-3,4.7194636E-3,-1.3861439E-2,-6.2368E-3,2.6840013E-3,2.7352354E-2,-2.3564305E-3,1.9886196E-2,1.7142044E-2,3.539871E-2],"split_indices":[1,1,1,2,2,2,2,1,1,2,2,2,2,1,1,0,0,0,0,0,0,0,0,0,0,0,0,0,0,0,0],"split_type":[0,0,0,0,0,0,0,0,0,0,0,0,0,0,0,0,0,0,0,0,0,0,0,0,0,0,0,0,0,0,0],"sum_hessian":[5.4249604E3,4.1836157E3,1.2413446E3,2.6680662E3,1.5155497E3,9.952109E2,2.4613368E2,2.3229026E3,3.4516367E2,1.3006031E3,2.1494649E2,4.465347E2,5.486762E2,7.9651825E1,1.6648186E2,3.05227E2,2.0176757E3,4.5851795E1,2.9931186E2,5.357378E2,7.648654E2,1.7087688E2,4.4069607E1,1.7289189E2,2.7364282E2,5.209985E2,2.7677692E1,6.2619404E1,1.703242E1,1.05965454E2,6.05164E1],"tree_param":{"num_deleted":"0","num_feature":"7","num_nodes":"31","size_leaf_vector":"1"}},{"base_weights":[-4.5928663E-1,-6.4371955E-1,-1.3728203E-2,-7.532653E-1,-4.8797145E-1,-1.712535E-1,3.9374453E-1,-5.384163E-1,-7.92134E-1,-5.2873015E-1,-2.2276577E-1,-2.3417123E-1,3.9858088E-1,5.540018E-2,6.45235E-1,-1.7707014E-2,-1.5425606E-3,-2.684255E-2,-2.1474248E-2,-1.8914104E-2,-1.3956281E-2,-9.11948E-3,-2.204455E-3,-1.254916E-2,-3.3708792E-3,5.4207314E-3,2.1631094E-2,-1.0468437E-4,2.54276E-2,1.437785E-2,3.549434E-2],"categories":[],"categories_nodes":[],"categories_segments":[],"categories_sizes":[],"default_left":[0,0,0,0,1,1,0,0,0,0,0,0,0,0,0,0,0,0,0,0,0,0,0,0,0,0,0,0,0,0,0],"id":6,"left_children":[1,3,5,7,9,11,13,15,17,19,21,23,25,27,29,-1,-1,-1,-1,-1,-1,-1,-1,-1,-1,-1,-1,-1,-1,-1,-1],"loss_changes":[4.4122363E2,6.3470215E1,1.0117963E2,1.7062988E1,1.6429535E1,4.0935093E1,3.6942E1,8.427673E0,1.2622681E1,7.676483E0,2.3745337E0,2.2690014E1,7.2413445E0,9.303881E0,2.0430061E1,0E0,0E0,0E0,0E0,0E0,0E0,0E0,0E0,0E0,0E0,0E0,0E0,0E0,0E0,0E0,0E0],"parents":[2147483647,0,0,1,1,2,2,3,3,4,4,5,5,6,6,7,7,8,8,9,9,10,10,11,11,12,12,13,13,14,14],"right_children":[2,4,6,8,10,12,14,16,18,20,22,24,26,28,30,-1,-1,-1,-1,-1,-1,-1,-1,-1,-1,-1,-1,-1,-1,-1,-1],"split_conditions":[1.1E-1,7E-2,1.77E-1,1.5E-2,9.86667E-2,1.21525E-1,8.19403E-2,1.14405E-1,4.46154E-2,5.375E-2,1.28636E-1,6.25E-2,1.56667E-1,3.48E-1,2.56364E-1,-1.7707014E-2,-1.5425606E-3,-2.684255E-2,-2.1474248E-2,-1.8914104E-2,-1.3956281E-2,-9.11948E-3,-2.204455E-3,-1.254916E-2,-3.3708792E-3,5.4207314E-3,2.1631094E-2,-1.0468437E-4,2.54276E-2,1.437785E-2,3.549434E-2],"split_indices":[1,1,1,1,2,2,2,0,1,2,2,2,2,1,1,0,0,0,0,0,0,0,0,0,0,0,0,0,0,0,0],"split_type":[0,0,0,0,0,0,0,0,0,0,0,0,0,0,0,0,0,0,0,0,0,0,0,0,0,0,0,0,0,0,0],"sum_hessian":[5.3714893E3,3.7975378E3,1.5739517E3,2.2230608E3,1.574477E3,1.1368444E3,4.371073E2,3.4708636E2,1.8759745E3,1.3613782E3,2.1309889E2,1.0256533E3,1.11190994E2,1.8825966E2,2.4884763E2,3.1239612E2,3.469024E1,7.8822797E2,1.0877465E3,5.133816E2,8.479966E2,1.3450209E2,7.85968E1,4.0478296E2,6.2087036E2,6.914179E1,4.2049202E1,1.7649908E2,1.1760585E1,1.9377068E2,5.5076946E1],"tree_param":{"num_deleted":"0","num_feature":"7","num_nodes":"31","size_leaf_vector":"1"}},{"base_weights":[-4.5002264E-1,-6.242309E-1,8.609567E-3,-7.427445E-1,-4.677462E-1,-1.3513042E-1,4.2246002E-1,-5.2841115E-1,-7.817377E-1,-5.1065E-1,-1.9598712E-1,-3.417445E-1,4.2697735E-2,-6.8967696E-3,6.1814237E-1,-1.7723143E-2,-3.5079669E-3,-2.66207E-2,-2.1203695E-2,-1.8250054E-2,-1.3349034E-2,-6.5801637E-3,9.369879E-3,-1.4244143E-2,-7.646867E-3,-6.0811563E-4,1.8368028E-2,-2.7745077E-3,2.2348624E-2,1.5412103E-2,3.8109303E-2],"categories":[],"categories_nodes":[],"categories_segments":[],"categories_sizes":[],"default_left":[0,0,0,0,1,0,0,1,0,0,0,0,1,0,0,0,0,0,0,0,0,0,0,0,0,0,0,0,0,0,0],"id":7,"left_children":[1,3,5,7,9,11,13,15,17,19,21,23,25,27,29,-1,-1,-1,-1,-1,-1,-1,-1,-1,-1,-1,-1,-1,-1,-1,-1],"loss_changes":[4.254702E2,7.023389E1,8.746588E1,1.6819092E1,1.8912354E1,4.0179707E1,3.218196E1,8.36557E0,1.2565186E1,8.165192E0,2.849967E0,5.2302933E0,2.1322887E1,7.528627E0,1.5599686E1,0E0,0E0,0E0,0E0,0E0,0E0,0E0,0E0,0E0,0E0,0E0,0E0,0E0,0E0,0E0,0E0],"parents":[2147483647,0,0,1,1,2,2,3,3,4,4,5,5,6,6,7,7,8,8,9,9,10,10,11,11,12,12,13,13,14,14],"right_children":[2,4,6,8,10,12,14,16,18,20,22,24,26,28,30,-1,-1,-1,-1,-1,-1,-1,-1,-1,-1,-1,-1,-1,-1,-1,-1],"split_conditions":[1.14255E-1,7E-2,1.84E-1,1.5E-2,9.86667E-2,8E-2,6.56522E-2,8.55556E-2,4.4E-2,5.58333E-2,2.1E-1,4.1E-2,1.42E-1,3.48E-1,3E-1,-1.7723143E-2,-3.5079669E-3,-2.66207E-2,-2.1203695E-2,-1.8250054E-2,-1.3349034E-2,-6.5801637E-3,9.369879E-3,-1.4244143E-2,-7.646867E-3,-6.0811563E-4,1.8368028E-2,-2.7745077E-3,2.2348624E-2,1.5412103E-2,3.8109303E-2],"split_indices":[1,1,1,1,2,2,2,2,1,2,2,2,2,1,1,0,0,0,0,0,0,0,0,0,0,0,0,0,0,0,0],"split_type":[0,0,0,0,0,0,0,0,0,0,0,0,0,0,0,0,0,0,0,0,0,0,0,0,0,0,0,0,0,0,0],"sum_hessian":[5.3192104E3,3.8552053E3,1.4640051E3,2.1876797E3,1.6675255E3,1.0867056E3,3.7729956E2,3.4319125E2,1.8444885E3,1.4370536E3,2.3047192E2,5.031159E2,5.8358966E2,1.1792612E2,2.5937344E2,2.962131E2,4.697814E1,7.538241E2,1.0906644E3,5.680667E2,8.689869E2,2.2237674E2,8.095181E0,1.9289401E2,3.102219E2,5.264405E2,5.7149162E1,1.0804576E2,9.880361E0,2.2732336E2,3.205007E1],"tree_param":{"num_deleted":"0","num_feature":"7","num_nodes":"31","size_leaf_vector":"1"}},{"base_weights":[-4.4089425E-1,-6.2890166E-1,-2.609521E-2,-7.323011E-1,-4.7636828E-1,-1.9076093E-1,3.2393596E-1,-5.1853776E-1,-7.714109E-1,-5.160173E-1,-2.1621346E-1,-2.377285E-1,4.6357203E-1,1.5312662E-2,5.519397E-1,-1.7113917E-2,-1.1137755E-3,-2.6408998E-2,-2.0937504E-2,-1.8428128E-2,-1.3638051E-2,-8.7000225E-3,-2.474038E-3,-1.2414584E-2,-3.8201432E-3,8.01254E-3,2.1648854E-2,-9.909876E-4,2.3478812E-2,1.25134E-2,3.2480747E-2],"categories":[],"categories_nodes":[],"categories_segments":[],"categories_sizes":[],"default_left":[0,0,0,0,1,1,0,0,0,0,0,0,0,0,0,0,0,0,0,0,0,0,0,0,0,0,0,0,0,0,0],"id":8,"left_children":[1,3,5,7,9,11,13,15,17,19,21,23,25,27,29,-1,-1,-1,-1,-1,-1,-1,-1,-1,-1,-1,-1,-1,-1,-1,-1],"loss_changes":[4.1062695E2,5.5878662E1,9.4962746E1,1.65719E1,1.459848E1,3.4589996E1,3.6751774E1,8.187767E0,1.2512573E1,6.598236E0,1.7380619E0,2.001361E1,2.9285774E0,8.836726E0,1.9946533E1,0E0,0E0,0E0,0E0,0E0,0E0,0E0,0E0,0E0,0E0,0E0,0E0,0E0,0E0,0E0,0E0],"parents":[2147483647,0,0,1,1,2,2,3,3,4,4,5,5,6,6,7,7,8,8,9,9,10,10,11,11,12,12,13,13,14,14],"right_children":[2,4,6,8,10,12,14,16,18,20,22,24,26,28,30,-1,-1,-1,-1,-1,-1,-1,-1,-1,-1,-1,-1,-1,-1,-1,-1],"split_conditions":[1.075E-1,7E-2,1.69231E-1,1.5E-2,9.86667E-2,1.31538E-1,8.28571E-2,1.14405E-1,4.33333E-2,5.375E-2,1.28636E-1,6.25E-2,1.725E-1,3.48E-1,2.56364E-1,-1.7113917E-2,-1.1137755E-3,-2.6408998E-2,-2.0937504E-2,-1.8428128E-2,-1.3638051E-2,-8.7000225E-3,-2.474038E-3,-1.2414584E-2,-3.8201432E-3,8.01254E-3,2.1648854E-2,-9.909876E-4,2.3478812E-2,1.25134E-2,3.2480747E-2],"split_indices":[1,1,1,1,2,2,2,0,1,2,2,2,2,1,1,0,0,0,0,0,0,0,0,0,0,0,0,0,0,0,0],"split_type":[0,0,0,0,0,0,0,0,0,0,0,0,0,0,0,0,0,0,0,0,0,0,0,0,0,0,0,0,0,0,0],"sum_hessian":[5.2680625E3,3.6234832E3,1.6445792E3,2.1530745E3,1.4704087E3,1.1200233E3,5.2455585E2,3.393854E2,1.8136891E3,1.2725725E3,1.9783614E2,1.0469141E3,7.310929E1,2.2471352E2,2.9984235E2,3.0507117E2,3.4314228E1,7.192645E2,1.0944246E3,4.794294E2,7.931431E2,1.2358135E2,7.425478E1,3.9954575E2,6.473683E2,4.4916695E1,2.819259E1,2.1258182E2,1.2131702E1,2.4270264E2,5.7139698E1],"tree_param":{"num_deleted":"0","num_feature":"7","num_nodes":"31","size_leaf_vector":"1"}},{"base_weights":[-4.3189582E-1,-6.196013E-1,-2.746359E-2,-7.25474E-1,-4.730812E-1,-1.9262569E-1,3.0202156E-1,-5.0875634E-1,-7.66699E-1,-5.117522E-1,-2.1748412E-1,-2.524532E-1,3.2199425E-1,6.841295E-3,5.248006E-1,-1.7137919E-2,-3.0403254E-3,-2.612359E-2,-2.078005E-2,-1.828802E-2,-1.3519182E-2,-8.603562E-3,-2.7985775E-3,-1.2784811E-2,-4.6479693E-3,2.4109113E-3,1.6837467E-2,-1.1315754E-3,2.2592703E-2,1.1983148E-2,3.0966267E-2],"categories":[],"categories_nodes":[],"categories_segments":[],"categories_sizes":[],"default_left":[0,0,0,0,1,1,0,1,0,0,0,0,0,0,0,0,0,0,0,0,0,0,0,0,0,0,0,0,0,0,0],"id":9,"left_children":[1,3,5,7,9,11,13,15,17,19,21,23,25,27,29,-1,-1,-1,-1,-1,-1,-1,-1,-1,-1,-1,-1,-1,-1,-1,-1],"loss_changes":[3.959192E2,5.4006714E1,9.026997E1,1.70177E1,1.4267761E1,3.419256E1,3.6109676E1,8.147224E0,1.1325806E1,6.707489E0,1.500946E0,1.6401852E1,6.251111E0,8.427057E0,1.845272E1,0E0,0E0,0E0,0E0,0E0,0E0,0E0,0E0,0E0,0E0,0E0,0E0,0E0,0E0,0E0,0E0],"parents":[2147483647,0,0,1,1,2,2,3,3,4,4,5,5,6,6,7,7,8,8,9,9,10,10,11,11,12,12,13,13,14,14],"right_children":[2,4,6,8,10,12,14,16,18,20,22,24,26,28,30,-1,-1,-1,-1,-1,-1,-1,-1,-1,-1,-1,-1,-1,-1,-1,-1],"split_conditions":[1.07143E-1,6.8E-2,1.66667E-1,1.5E-2,9.86667E-2,1.18462E-1,8.28571E-2,8.55556E-2,4.33333E-2,5.375E-2,1.28636E-1,5.85714E-2,1.42E-1,3.48E-1,2.56364E-1,-1.7137919E-2,-3.0403254E-3,-2.612359E-2,-2.078005E-2,-1.828802E-2,-1.3519182E-2,-8.603562E-3,-2.7985775E-3,-1.2784811E-2,-4.6479693E-3,2.4109113E-3,1.6837467E-2,-1.1315754E-3,2.2592703E-2,1.1983148E-2,3.0966267E-2],"split_indices":[1,1,1,1,2,2,2,2,1,2,2,2,2,1,1,0,0,0,0,0,0,0,0,0,0,0,0,0,0,0,0],"split_type":[0,0,0,0,0,0,0,0,0,0,0,0,0,0,0,0,0,0,0,0,0,0,0,0,0,0,0,0,0,0,0],"sum_hessian":[5.218065E3,3.5623865E3,1.6556787E3,2.0614822E3,1.500904E3,1.1044138E3,5.512649E2,3.3567365E2,1.7258086E3,1.3002239E3,2.006802E2,9.9117456E2,1.1323929E2,2.3895602E2,3.1230887E2,2.8926175E2,4.64119E1,7.055393E2,1.0202693E3,4.8982608E2,8.103978E2,1.24542694E2,7.613751E1,3.5211316E2,6.390614E2,5.8708954E1,5.453034E1,2.2665099E2,1.2305033E1,2.5409178E2,5.821708E1],"tree_param":{"num_deleted":"0","num_feature":"7","num_nodes":"31","size_leaf_vector":"1"}},{"base_weights":[-4.2303345E-1,-6.093319E-1,-2.6593033E-2,-7.1747595E-1,-4.666824E-1,-1.7491448E-1,3.1894794E-1,-4.991059E-1,-7.6018417E-1,-5.803127E-1,-3.813833E-1,-2.3434378E-1,3.1477046E-1,2.70105E-2,5.275369E-1,-1.6532896E-2,-7.0904644E-4,-2.5839996E-2,-2.057301E-2,-1.8906265E-2,-1.5007496E-2,-1.2291553E-2,-3.2551545E-3,-1.1810251E-2,-3.8835264E-3,5.1327543E-3,2.0969389E-2,-6.54295E-4,2.1751713E-2,1.1960185E-2,2.9556412E-2],"categories":[],"categories_nodes":[],"categories_segments":[],"categories_sizes":[],"default_left":[0,0,0,0,0,1,0,0,0,0,1,0,0,0,0,0,0,0,0,0,0,0,0,0,0,0,0,0,0,0,0],"id":10,"left_children":[1,3,5,7,9,11,13,15,17,19,21,23,25,27,29,-1,-1,-1,-1,-1,-1,-1,-1,-1,-1,-1,-1,-1,-1,-1,-1],"loss_changes":[3.815752E2,5.2994507E1,8.491936E1,1.7214966E1,1.38508E1,3.3896236E1,2.996436E1,7.944275E0,1.056073E1,1.3899231E0,6.448738E0,1.6975353E1,6.259369E0,7.548771E0,1.5556847E1,0E0,0E0,0E0,0E0,0E0,0E0,0E0,0E0,0E0,0E0,0E0,0E0,0E0,0E0,0E0,0E0],"parents":[2147483647,0,0,1,1,2,2,3,3,4,4,5,5,6,6,7,7,8,8,9,9,10,10,11,11,12,12,13,13,14,14],"right_children":[2,4,6,8,10,12,14,16,18,20,22,24,26,28,30,-1,-1,-1,-1,-1,-1,-1,-1,-1,-1,-1,-1,-1,-1,-1,-1],"split_conditions":[1.07143E-1,6.66667E-2,1.724E-1,1.5E-2,6.75E-2,1.18462E-1,8.19403E-2,1.14405E-1,4.33333E-2,9E-2,1.25238E-1,6.25E-2,1.725E-1,3.48E-1,2.56364E-1,-1.6532896E-2,-7.0904644E-4,-2.5839996E-2,-2.057301E-2,-1.8906265E-2,-1.5007496E-2,-1.2291553E-2,-3.2551545E-3,-1.1810251E-2,-3.8835264E-3,5.1327543E-3,2.0969389E-2,-6.54295E-4,2.1751713E-2,1.1960185E-2,2.9556412E-2],"split_indices":[1,1,1,1,2,2,2,0,1,1,2,2,2,1,1,0,0,0,0,0,0,0,0,0,0,0,0,0,0,0,0],"split_type":[0,0,0,0,0,0,0,0,0,0,0,0,0,0,0,0,0,0,0,0,0,0,0,0,0,0,0,0,0,0,0],"sum_hessian":[5.1692E3,3.515046E3,1.6541542E3,1.9927548E3,1.5222911E3,1.1590663E3,4.9508783E2,3.320485E2,1.6607063E3,6.4525433E2,8.770368E2,1.035464E3,1.2360236E2,2.0826286E2,2.8682498E2,2.9808456E2,3.396394E1,6.921101E2,9.685961E2,3.8520312E2,2.6005118E2,7.919653E2,8.507152E1,4.0698492E2,6.2847906E2,9.3011734E1,3.0590626E1,1.9579077E2,1.2472086E1,2.2758147E2,5.92435E1],"tree_param":{"num_deleted":"0","num_feature":"7","num_nodes":"31","size_leaf_vector":"1"}},{"base_weights":[-4.1429824E-1,-6.023267E-1,-3.2213688E-2,-7.072472E-1,-4.6111605E-1,-1.9560872E-1,2.6697212E-1,-4.8954737E-1,-7.5008106E-1,-5.7369304E-1,-3.767679E-1,-2.5142866E-1,2.6964825E-1,-8.6294726E-2,4.314766E-1,-1.6564429E-2,-2.5958645E-3,-2.5558043E-2,-2.0263435E-2,-1.9156124E-2,-1.5420335E-2,-1.2075169E-2,-2.760901E-3,-1.27443E-2,-5.0129495E-3,4.537409E-3,1.7589157E-2,-4.6332744E-3,1.5229253E-2,9.517616E-3,2.488711E-2],"categories":[],"categories_nodes":[],"categories_segments":[],"categories_sizes":[],"default_left":[0,0,0,0,0,1,0,1,0,0,1,0,0,0,0,0,0,0,0,0,0,0,0,0,0,0,0,0,0,0,0],"id":11,"left_children":[1,3,5,7,9,11,13,15,17,19,21,23,25,27,29,-1,-1,-1,-1,-1,-1,-1,-1,-1,-1,-1,-1,-1,-1,-1,-1],"loss_changes":[3.6772632E2,4.962207E1,8.281959E1,1.6956543E1,1.3061188E1,2.86179E1,3.498094E1,7.923668E0,1.0515076E1,1.1811676E0,5.903E0,1.3913414E1,3.860281E0,7.694643E0,1.7502098E1,0E0,0E0,0E0,0E0,0E0,0E0,0E0,0E0,0E0,0E0,0E0,0E0,0E0,0E0,0E0,0E0],"parents":[2147483647,0,0,1,1,2,2,3,3,4,4,5,5,6,6,7,7,8,8,9,9,10,10,11,11,12,12,13,13,14,14],"right_children":[2,4,6,8,10,12,14,16,18,20,22,24,26,28,30,-1,-1,-1,-1,-1,-1,-1,-1,-1,-1,-1,-1,-1,-1,-1,-1],"split_conditions":[1.06111E-1,6.66667E-2,1.62222E-1,1.5E-2,6.75E-2,1.18462E-1,6.52381E-2,8.55556E-2,4.33333E-2,8.36842E-2,1.28636E-1,5.54545E-2,1.725E-1,3E-1,2.42857E-1,-1.6564429E-2,-2.5958645E-3,-2.5558043E-2,-2.0263435E-2,-1.9156124E-2,-1.5420335E-2,-1.2075169E-2,-2.760901E-3,-1.27443E-2,-5.0129495E-3,4.537409E-3,1.7589157E-2,-4.6332744E-3,1.5229253E-2,9.517616E-3,2.488711E-2],"split_indices":[1,1,1,1,2,2,2,2,1,1,2,2,2,1,1,0,0,0,0,0,0,0,0,0,0,0,0,0,0,0,0],"split_type":[0,0,0,0,0,0,0,0,0,0,0,0,0,0,0,0,0,0,0,0,0,0,0,0,0,0,0,0,0,0,0],"sum_hessian":[5.1214443E3,3.4306956E3,1.6907487E3,1.961632E3,1.4690637E3,1.095063E3,5.956856E2,3.2851428E2,1.6331177E3,6.2172906E2,8.4733466E2,9.7953546E2,1.155275E2,1.8859554E2,4.070901E2,2.826327E2,4.5881577E1,6.789746E2,9.54143E2,2.846645E2,3.3706454E2,7.7472345E2,7.26112E1,3.1594852E2,6.63587E2,8.738691E1,2.8140587E1,1.7126636E2,1.732918E1,3.2009653E2,8.6993576E1],"tree_param":{"num_deleted":"0","num_feature":"7","num_nodes":"31","size_leaf_vector":"1"}},{"base_weights":[-4.0569746E-1,-5.971751E-1,-4.0732205E-2,-7.048743E-1,-4.6760154E-1,-1.9681656E-1,2.578743E-1,-4.801194E-1,-7.5303334E-1,-5.048581E-1,-2.1196921E-1,-2.5019315E-1,2.4468124E-1,-1.1383541E-2,4.5946538E-1,-1.5963849E-2,-3.2795538E-4,-2.5548592E-2,-2.0507934E-2,-1.723726E-2,-1.29450215E-2,-8.191437E-3,-2.9681316E-3,-1.172077E-2,-4.5773345E-3,5.5857943E-3,2.7047062E-2,-2.0025235E-3,1.5827565E-2,1.0660245E-2,2.715447E-2],"categories":[],"categories_nodes":[],"categories_segments":[],"categories_sizes":[],"default_left":[0,0,0,0,1,1,0,0,0,0,0,0,0,0,0,0,0,0,0,0,0,0,0,0,0,0,0,0,0,0,0],"id":12,"left_children":[1,3,5,7,9,11,13,15,17,19,21,23,25,27,29,-1,-1,-1,-1,-1,-1,-1,-1,-1,-1,-1,-1,-1,-1,-1,-1],"loss_changes":[3.544148E2,4.5207886E1,8.16362E1,1.8271118E1,1.3894531E1,2.7261574E1,3.2830185E1,7.6978226E0,8.2453E0,5.765381E0,1.1295395E0,1.3726158E1,3.8922687E0,7.5388913E0,1.4714188E1,0E0,0E0,0E0,0E0,0E0,0E0,0E0,0E0,0E0,0E0,0E0,0E0,0E0,0E0,0E0,0E0],"parents":[2147483647,0,0,1,1,2,2,3,3,4,4,5,5,6,6,7,7,8,8,9,9,10,10,11,11,12,12,13,13,14,14],"right_children":[2,4,6,8,10,12,14,16,18,20,22,24,26,28,30,-1,-1,-1,-1,-1,-1,-1,-1,-1,-1,-1,-1,-1,-1,-1,-1],"split_conditions":[1.03704E-1,6.41667E-2,1.62222E-1,1.5E-2,9.86667E-2,1.18462E-1,8.17241E-2,1.14405E-1,4.125E-2,8.36842E-2,9.08333E-2,6.52381E-2,2.65E-1,3E-1,2.56364E-1,-1.5963849E-2,-3.2795538E-4,-2.5548592E-2,-2.0507934E-2,-1.723726E-2,-1.29450215E-2,-8.191437E-3,-2.9681316E-3,-1.172077E-2,-4.5773345E-3,5.5857943E-3,2.7047062E-2,-2.0025235E-3,1.5827565E-2,1.0660245E-2,2.715447E-2],"split_indices":[1,1,1,1,2,2,2,0,1,1,1,2,2,1,1,0,0,0,0,0,0,0,0,0,0,0,0,0,0,0,0],"split_type":[0,0,0,0,0,0,0,0,0,0,0,0,0,0,0,0,0,0,0,0,0,0,0,0,0,0,0,0,0,0,0],"sum_hessian":[5.0748296E3,3.3267961E3,1.7480337E3,1.8097921E3,1.5170039E3,1.1495234E3,5.9851025E2,3.2506375E2,1.4847284E3,1.3206265E3,1.9637746E2,1.0273207E3,1.2220275E2,2.5599452E2,3.4251572E2,2.914256E2,3.363815E1,6.012815E2,8.834469E2,6.66612E2,6.5401447E2,1.2277745E2,7.360001E1,4.1658972E2,6.107309E2,1.15267586E2,6.935159E0,2.3457689E2,2.1417633E1,2.814725E2,6.1043198E1],"tree_param":{"num_deleted":"0","num_feature":"7","num_nodes":"31","size_leaf_vector":"1"}},{"base_weights":[-3.9721417E-1,-5.979976E-1,-5.8675382E-2,-6.947859E-1,-4.7124663E-1,-2.0930225E-1,2.4020182E-1,-4.7078386E-1,-7.4309146E-1,-5.157111E-1,-2.5050792E-1,-3.670968E-1,-7.239504E-2,-8.649415E-2,3.933345E-1,-1.6002584E-2,-2.1742869E-3,-2.5340179E-2,-2.024724E-2,-1.7186863E-2,-1.330088E-2,-8.595235E-3,-3.4085652E-4,-1.4961275E-2,-8.935056E-3,-3.4890885E-3,9.685E-3,-4.4414275E-3,1.4142074E-2,8.696891E-3,2.2943895E-2],"categories":[],"categories_nodes":[],"categories_segments":[],"categories_sizes":[],"default_left":[0,0,0,0,1,0,0,1,0,0,0,0,1,0,0,0,0,0,0,0,0,0,0,0,0,0,0,0,0,0,0],"id":13,"left_children":[1,3,5,7,9,11,13,15,17,19,21,23,25,27,29,-1,-1,-1,-1,-1,-1,-1,-1,-1,-1,-1,-1,-1,-1,-1,-1],"loss_changes":[3.4159174E2,3.7492676E1,8.455084E1,1.7993408E1,1.2858032E1,2.6724472E1,3.166568E1,7.6955185E0,8.225769E0,3.7044678E0,1.8795652E0,4.5769196E0,1.1656407E1,6.886795E0,1.5526146E1,0E0,0E0,0E0,0E0,0E0,0E0,0E0,0E0,0E0,0E0,0E0,0E0,0E0,0E0,0E0,0E0],"parents":[2147483647,0,0,1,1,2,2,3,3,4,4,5,5,6,6,7,7,8,8,9,9,10,10,11,11,12,12,13,13,14,14],"right_children":[2,4,6,8,10,12,14,16,18,20,22,24,26,28,30,-1,-1,-1,-1,-1,-1,-1,-1,-1,-1,-1,-1,-1,-1,-1,-1],"split_conditions":[1.00857E-1,6.41667E-2,1.6E-1,1.5E-2,8.75E-2,8E-2,6.52381E-2,8.55556E-2,4.05882E-2,8.36842E-2,1.50556E-1,3.76923E-2,1.42E-1,3E-1,2.42857E-1,-1.6002584E-2,-2.1742869E-3,-2.5340179E-2,-2.024724E-2,-1.7186863E-2,-1.330088E-2,-8.595235E-3,-3.4085652E-4,-1.4961275E-2,-8.935056E-3,-3.4890885E-3,9.685E-3,-4.4414275E-3,1.4142074E-2,8.696891E-3,2.2943895E-2],"split_indices":[1,1,1,1,2,2,2,2,1,1,2,2,2,1,1,0,0,0,0,0,0,0,0,0,0,0,0,0,0,0,0],"split_type":[0,0,0,0,0,0,0,0,0,0,0,0,0,0,0,0,0,0,0,0,0,0,0,0,0,0,0,0,0,0,0],"sum_hessian":[5.029266E3,3.155039E3,1.874227E3,1.7816476E3,1.3733915E3,1.2476925E3,6.265345E2,3.2170102E2,1.4599465E3,1.139016E3,2.3437547E2,5.763716E2,6.71321E2,1.9918817E2,4.273463E2,2.7631543E2,4.5385567E1,5.7427264E2,8.8567395E2,6.245906E2,5.144254E2,2.0154848E2,3.2827E1,1.9196873E2,3.8440283E2,6.066065E2,6.4714424E1,1.815257E2,1.766247E1,3.3810403E2,8.9242294E1],"tree_param":{"num_deleted":"0","num_feature":"7","num_nodes":"31","size_leaf_vector":"1"}},{"base_weights":[-3.8887408E-1,-5.663959E-1,-1.6528737E-2,-6.71335E-1,-4.1944006E-1,-1.23204015E-1,3.6520013E-1,-4.615787E-1,-7.1105325E-1,-5.33263E-1,-3.361634E-1,-3.0727553E-1,2.959298E-2,-3.80573E-2,4.9809927E-1,-1.55516565E-2,-1.0462627E-3,-2.4460178E-2,-1.8897934E-2,-1.8788606E-2,-1.4462478E-2,-1.0939656E-2,-2.2659048E-3,-1.31676495E-2,-7.1865283E-3,-2.8979506E-3,6.1942893E-3,-4.426114E-3,1.1839147E-2,1.2921811E-2,3.6656205E-2],"categories":[],"categories_nodes":[],"categories_segments":[],"categories_sizes":[],"default_left":[0,0,0,0,0,0,0,0,0,0,1,0,0,0,0,0,0,0,0,0,0,0,0,0,0,0,0,0,0,0,0],"id":14,"left_children":[1,3,5,7,9,11,13,15,17,19,21,23,25,27,29,-1,-1,-1,-1,-1,-1,-1,-1,-1,-1,-1,-1,-1,-1,-1,-1],"loss_changes":[3.29318E2,5.0952637E1,6.564997E1,1.5121277E1,1.2607056E1,3.5684547E1,1.912045E1,7.454483E0,1.2173218E1,1.6574249E0,5.84639E0,4.5735283E0,1.5508997E1,4.167325E0,1.1074997E1,0E0,0E0,0E0,0E0,0E0,0E0,0E0,0E0,0E0,0E0,0E0,0E0,0E0,0E0,0E0,0E0],"parents":[2147483647,0,0,1,1,2,2,3,3,4,4,5,5,6,6,7,7,8,8,9,9,10,10,11,11,12,12,13,13,14,14],"right_children":[2,4,6,8,10,12,14,16,18,20,22,24,26,28,30,-1,-1,-1,-1,-1,-1,-1,-1,-1,-1,-1,-1,-1,-1,-1,-1],"split_conditions":[1.08E-1,7E-2,1.9E-1,1.5E-2,6.75E-2,8E-2,5.8E-2,1.12521E-1,4.55556E-2,3.03125E-2,1.25238E-1,3.76923E-2,1.4375E-1,3E-1,3.48E-1,-1.55516565E-2,-1.0462627E-3,-2.4460178E-2,-1.8897934E-2,-1.8788606E-2,-1.4462478E-2,-1.0939656E-2,-2.2659048E-3,-1.31676495E-2,-7.1865283E-3,-2.8979506E-3,6.1942893E-3,-4.426114E-3,1.1839147E-2,1.2921811E-2,3.6656205E-2],"split_indices":[1,1,1,1,2,2,2,0,1,2,2,2,1,1,1,0,0,0,0,0,0,0,0,0,0,0,0,0,0,0,0],"split_type":[0,0,0,0,0,0,0,0,0,0,0,0,0,0,0,0,0,0,0,0,0,0,0,0,0,0,0,0,0,0,0],"sum_hessian":[4.9848545E3,3.3739045E3,1.6109498E3,1.9621913E3,1.4117133E3,1.2611749E3,3.497748E2,3.1841898E2,1.6437723E3,5.893609E2,8.223524E2,5.726115E2,6.885635E2,8.6121216E1,2.636536E2,2.7959332E2,3.8825645E1,7.085877E2,9.3518463E2,1.9772993E2,3.9163095E2,7.3886487E2,8.3487526E1,1.8827982E2,3.843317E2,4.0074603E2,2.878174E2,7.070513E1,1.54160795E1,2.44752E2,1.89016E1],"tree_param":{"num_deleted":"0","num_feature":"7","num_nodes":"31","size_leaf_vector":"1"}},{"base_weights":[-3.8065344E-1,-5.822826E-1,-6.1245196E-2,-6.749132E-1,-4.579129E-1,-2.028875E-1,2.2558896E-1,-4.524705E-1,-7.234942E-1,-4.9750692E-1,-2.1899702E-1,-3.5507143E-1,-7.128744E-2,-2.000696E-2,4.0206063E-1,-1.5452628E-2,-1.7740345E-3,-2.5120394E-2,-1.9830192E-2,-1.6888391E-2,-1.3178008E-2,-7.6628937E-3,-6.320812E-4,-1.4367974E-2,-8.707936E-3,-3.411377E-3,9.4416905E-3,-1.8019646E-3,1.8527243E-2,9.327818E-3,2.4256295E-2],"categories":[],"categories_nodes":[],"categories_segments":[],"categories_sizes":[],"default_left":[0,0,0,0,1,0,0,1,0,0,0,0,1,0,0,0,0,0,0,0,0,0,0,0,0,0,0,0,0,0,0],"id":15,"left_children":[1,3,5,7,9,11,13,15,17,19,21,23,25,27,29,-1,-1,-1,-1,-1,-1,-1,-1,-1,-1,-1,-1,-1,-1,-1,-1],"loss_changes":[3.1797803E2,3.3714233E1,7.793172E1,1.7448853E1,1.1736816E1,2.5471138E1,2.7651577E1,7.4650574E0,8.206604E0,3.2470398E0,1.2240639E0,4.1024246E0,1.13259E1,6.5759516E0,1.2634369E1,0E0,0E0,0E0,0E0,0E0,0E0,0E0,0E0,0E0,0E0,0E0,0E0,0E0,0E0,0E0,0E0],"parents":[2147483647,0,0,1,1,2,2,3,3,4,4,5,5,6,6,7,7,8,8,9,9,10,10,11,11,12,12,13,13,14,14],"right_children":[2,4,6,8,10,12,14,16,18,20,22,24,26,28,30,-1,-1,-1,-1,-1,-1,-1,-1,-1,-1,-1,-1,-1,-1,-1,-1],"split_conditions":[1E-1,6.41667E-2,1.6E-1,1.5E-2,9.41667E-2,8E-2,8.12069E-2,8.55556E-2,3.94737E-2,8E-2,1.50556E-1,3.76923E-2,1.42E-1,3.48E-1,2.56364E-1,-1.5452628E-2,-1.7740345E-3,-2.5120394E-2,-1.9830192E-2,-1.6888391E-2,-1.3178008E-2,-7.6628937E-3,-6.320812E-4,-1.4367974E-2,-8.707936E-3,-3.411377E-3,9.4416905E-3,-1.8019646E-3,1.8527243E-2,9.327818E-3,2.4256295E-2],"split_indices":[1,1,1,1,2,2,2,2,1,1,2,2,2,1,1,0,0,0,0,0,0,0,0,0,0,0,0,0,0,0,0],"split_type":[0,0,0,0,0,0,0,0,0,0,0,0,0,0,0,0,0,0,0,0,0,0,0,0,0,0,0,0,0,0,0],"sum_hessian":[4.9414966E3,3.0272856E3,1.914211E3,1.7276543E3,1.2996313E3,1.2829854E3,6.3122577E2,3.1522397E2,1.4124303E3,1.1112186E3,1.8841272E2,5.9162604E2,6.9135925E2,2.6348004E2,3.677457E2,2.7030286E2,4.49211E1,4.888844E2,9.235459E2,5.1106265E2,6.00156E2,1.5649861E2,3.191411E1,1.9618163E2,3.9544443E2,6.253367E2,6.602256E1,2.5034683E2,1.3133206E1,3.0428497E2,6.3460747E1],"tree_param":{"num_deleted":"0","num_feature":"7","num_nodes":"31","size_leaf_vector":"1"}},{"base_weights":[-3.7256008E-1,-5.7244354E-1,-5.9489477E-2,-6.6621155E-1,-4.5039195E-1,-1.9772078E-1,2.1814373E-1,-4.4348872E-1,-7.1585196E-1,-4.890768E-1,-2.1627215E-1,-3.4719726E-1,-6.9223784E-2,-7.986709E-2,3.546067E-1,-1.4864127E-2,-0E0,-2.4850354E-2,-1.9590547E-2,-1.7649919E-2,-1.3449497E-2,-7.986485E-3,-1.8748313E-3,-1.4089198E-2,-8.501248E-3,-3.7425412E-3,6.3214814E-3,-4.1293083E-3,1.2816392E-2,7.484168E-3,1.9481052E-2],"categories":[],"categories_nodes":[],"categories_segments":[],"categories_sizes":[],"default_left":[0,0,0,0,1,0,0,0,0,0,0,0,1,0,0,0,0,0,0,0,0,0,0,0,0,0,0,0,0,0,0],"id":16,"left_children":[1,3,5,7,9,11,13,15,17,19,21,23,25,27,29,-1,-1,-1,-1,-1,-1,-1,-1,-1,-1,-1,-1,-1,-1,-1,-1],"loss_changes":[3.0631757E2,3.3061768E1,7.349389E1,1.740918E1,1.12786255E1,2.4317623E1,2.6043589E1,7.222557E0,7.8779907E0,3.4802551E0,1.2680988E0,3.9610977E0,1.0770657E1,5.835987E0,1.2784748E1,0E0,0E0,0E0,0E0,0E0,0E0,0E0,0E0,0E0,0E0,0E0,0E0,0E0,0E0,0E0,0E0],"parents":[2147483647,0,0,1,1,2,2,3,3,4,4,5,5,6,6,7,7,8,8,9,9,10,10,11,11,12,12,13,13,14,14],"right_children":[2,4,6,8,10,12,14,16,18,20,22,24,26,28,30,-1,-1,-1,-1,-1,-1,-1,-1,-1,-1,-1,-1,-1,-1,-1,-1],"split_conditions":[1E-1,6.34146E-2,1.6E-1,1.5E-2,9.41667E-2,8E-2,6.52381E-2,1.14405E-1,3.94737E-2,4.16667E-2,9.08333E-2,3.76923E-2,1.25238E-1,3E-1,2.33514E-1,-1.4864127E-2,-0E0,-2.4850354E-2,-1.9590547E-2,-1.7649919E-2,-1.3449497E-2,-7.986485E-3,-1.8748313E-3,-1.4089198E-2,-8.501248E-3,-3.7425412E-3,6.3214814E-3,-4.1293083E-3,1.2816392E-2,7.484168E-3,1.9481052E-2],"split_indices":[1,1,1,1,2,2,2,0,1,2,1,2,2,1,1,0,0,0,0,0,0,0,0,0,0,0,0,0,0,0,0],"split_type":[0,0,0,0,0,0,0,0,0,0,0,0,0,0,0,0,0,0,0,0,0,0,0,0,0,0,0,0,0,0,0],"sum_hessian":[4.8991367E3,2.9880974E3,1.9110391E3,1.6824878E3,1.3056097E3,1.2774058E3,6.336333E2,3.121041E2,1.3703837E3,1.1167668E3,1.8884293E2,5.871258E2,6.9027997E2,1.9812627E2,4.35507E2,2.7907397E2,3.3030106E1,4.7953473E2,8.90849E2,3.1371512E2,8.030517E2,1.3898839E2,4.9854538E1,1.9413245E2,3.9299335E2,5.7843835E2,1.11841576E2,1.8005412E2,1.807215E1,3.249825E2,1.1052448E2],"tree_param":{"num_deleted":"0","num_feature":"7","num_nodes":"31","size_leaf_vector":"1"}},{"base_weights":[-3.64592E-1,-5.647302E-1,-6.0903754E-2,-6.563465E-1,-4.4384888E-1,-2.0984486E-1,1.8416326E-1,-4.3457136E-1,-7.061001E-1,-4.820591E-1,-2.0965926E-1,-2.5316638E-1,1.668153E-1,-5.380746E-2,3.5475734E-1,-1.4913309E-2,-1.3950291E-3,-2.425964E-2,-1.9101342E-2,-1.6995747E-2,-1.3124725E-2,-7.794761E-3,-1.0415693E-3,-1.210768E-2,-5.455955E-3,3.4188905E-3,2.3557747E-2,-3.8636732E-3,7.3500285E-3,8.66267E-3,2.4563747E-2],"categories":[],"categories_nodes":[],"categories_segments":[],"categories_sizes":[],"default_left":[0,0,0,0,1,1,0,1,0,0,0,0,0,0,0,0,0,0,0,0,0,0,0,0,0,0,0,0,0,0,0],"id":17,"left_children":[1,3,5,7,9,11,13,15,17,19,21,23,25,27,29,-1,-1,-1,-1,-1,-1,-1,-1,-1,-1,-1,-1,-1,-1,-1,-1],"loss_changes":[2.9499707E2,3.1295044E1,7.067256E1,1.7123169E1,1.0825012E1,1.9789528E1,2.9855606E1,7.2311516E0,7.8549194E0,3.102951E0,1.4464483E0,1.1172272E1,3.4345436E0,6.8530307E0,1.2055172E1,0E0,0E0,0E0,0E0,0E0,0E0,0E0,0E0,0E0,0E0,0E0,0E0,0E0,0E0,0E0,0E0],"parents":[2147483647,0,0,1,1,2,2,3,3,4,4,5,5,6,6,7,7,8,8,9,9,10,10,11,11,12,12,13,13,14,14],"right_children":[2,4,6,8,10,12,14,16,18,20,22,24,26,28,30,-1,-1,-1,-1,-1,-1,-1,-1,-1,-1,-1,-1,-1,-1,-1,-1],"split_conditions":[9.86667E-2,6.34146E-2,1.52857E-1,1.5E-2,9.41667E-2,1.18462E-1,8.12069E-2,8.55556E-2,4.05882E-2,4.72222E-2,9.08333E-2,5.54545E-2,2.65E-1,2.33514E-1,2.71429E-1,-1.4913309E-2,-1.3950291E-3,-2.425964E-2,-1.9101342E-2,-1.6995747E-2,-1.3124725E-2,-7.794761E-3,-1.0415693E-3,-1.210768E-2,-5.455955E-3,3.4188905E-3,2.3557747E-2,-3.8636732E-3,7.3500285E-3,8.66267E-3,2.4563747E-2],"split_indices":[1,1,1,1,2,2,2,2,1,2,1,2,2,1,1,0,0,0,0,0,0,0,0,0,0,0,0,0,0,0,0],"split_type":[0,0,0,0,0,0,0,0,0,0,0,0,0,0,0,0,0,0,0,0,0,0,0,0,0,0,0,0,0,0,0],"sum_hessian":[4.8578306E3,2.9260945E3,1.9317361E3,1.6571448E3,1.2689497E3,1.202958E3,7.28778E2,3.0905624E2,1.3480885E3,1.0872955E3,1.8165413E2,1.0806504E3,1.22307686E2,3.0364532E2,4.251327E2,2.645695E2,4.4486744E1,5.3252234E2,8.1556616E2,3.6358557E2,7.2370996E2,1.3819623E2,4.34579E1,3.4225906E2,7.3839124E2,1.1560508E2,6.7026043E0,2.4498195E2,5.8663387E1,3.7597775E2,4.9154938E1],"tree_param":{"num_deleted":"0","num_feature":"7","num_nodes":"31","size_leaf_vector":"1"}},{"base_weights":[-3.567345E-1,-5.581953E-1,-6.375646E-2,-6.518858E-1,-4.4506323E-1,-2.0169349E-1,1.8856567E-1,-4.2581454E-1,-7.062247E-1,-4.8626125E-1,-2.3845986E-1,-3.396609E-1,-8.333242E-2,-1.389131E-1,3.005869E-1,-1.4476467E-2,-2.9839887E-4,-2.4316376E-2,-1.9270238E-2,-1.6462844E-2,-1.2641884E-2,-8.246732E-3,-1.9675253E-3,-1.4726291E-2,-8.6574275E-3,-3.6931285E-3,8.4798485E-3,-5.821927E-3,1.0472813E-2,6.214655E-3,1.7993255E-2],"categories":[],"categories_nodes":[],"categories_segments":[],"categories_sizes":[],"default_left":[0,0,0,0,1,0,0,0,0,0,0,0,1,0,0,0,0,0,0,0,0,0,0,0,0,0,0,0,0,0,0],"id":18,"left_children":[1,3,5,7,9,11,13,15,17,19,21,23,25,27,29,-1,-1,-1,-1,-1,-1,-1,-1,-1,-1,-1,-1,-1,-1,-1,-1],"loss_changes":[2.8408008E2,2.9127075E1,6.854239E1,1.793103E1,1.0486237E1,2.0536217E1,2.5659386E1,7.0132866E0,6.5533447E0,3.4366302E0,1.1942215E0,3.8507462E0,1.003833E1,4.8317127E0,1.3873077E1,0E0,0E0,0E0,0E0,0E0,0E0,0E0,0E0,0E0,0E0,0E0,0E0,0E0,0E0,0E0,0E0],"parents":[2147483647,0,0,1,1,2,2,3,3,4,4,5,5,6,6,7,7,8,8,9,9,10,10,11,11,12,12,13,13,14,14],"right_children":[2,4,6,8,10,12,14,16,18,20,22,24,26,28,30,-1,-1,-1,-1,-1,-1,-1,-1,-1,-1,-1,-1,-1,-1,-1,-1],"split_conditions":[9.75E-2,6.10256E-2,1.55E-1,1.5E-2,8.75E-2,8E-2,5.8E-2,1.12521E-1,3.94737E-2,7.9E-2,9.08333E-2,3.08333E-2,1.42E-1,3E-1,2.33514E-1,-1.4476467E-2,-2.9839887E-4,-2.4316376E-2,-1.9270238E-2,-1.6462844E-2,-1.2641884E-2,-8.246732E-3,-1.9675253E-3,-1.4726291E-2,-8.6574275E-3,-3.6931285E-3,8.4798485E-3,-5.821927E-3,1.0472813E-2,6.214655E-3,1.7993255E-2],"split_indices":[1,1,1,1,2,2,2,0,1,1,1,2,2,1,1,0,0,0,0,0,0,0,0,0,0,0,0,0,0,0,0],"split_type":[0,0,0,0,0,0,0,0,0,0,0,0,0,0,0,0,0,0,0,0,0,0,0,0,0,0,0,0,0,0,0],"sum_hessian":[4.817465E3,2.8524883E3,1.9649764E3,1.5526853E3,1.2998031E3,1.2719965E3,6.929799E2,3.0609253E2,1.2465928E3,1.0794307E3,2.2037247E2,5.83674E2,6.883225E2,1.75369E2,5.176109E2,2.6800696E2,3.808558E1,4.6160034E2,7.8499243E2,5.382122E2,5.4121844E2,1.786516E2,4.1720875E1,1.4055905E2,4.4311496E2,6.232848E2,6.503771E1,1.5956529E2,1.5803721E1,3.982879E2,1.1932301E2],"tree_param":{"num_deleted":"0","num_feature":"7","num_nodes":"31","size_leaf_vector":"1"}},{"base_weights":[-3.4901398E-1,-5.434621E-1,-5.4383125E-2,-6.356318E-1,-4.2226556E-1,-1.8298674E-1,1.9809002E-1,-4.171563E-1,-6.846018E-1,-4.64648E-1,-2.1786244E-1,-3.2513285E-1,-6.27204E-2,-7.4408256E-2,3.203754E-1,-1.4386649E-2,-1.0388674E-3,-2.3651533E-2,-1.8404514E-2,-1.5528173E-2,-1.1779965E-2,-7.5233323E-3,-1.2162404E-4,-1.3331828E-2,-7.906723E-3,-3.6076084E-3,5.0578215E-3,-3.8691994E-3,1.1753473E-2,8.312372E-3,2.8839767E-2],"categories":[],"categories_nodes":[],"categories_segments":[],"categories_sizes":[],"default_left":[0,0,0,0,1,0,0,1,0,0,0,0,1,0,1,0,0,0,0,0,0,0,0,0,0,0,0,0,0,0,0],"id":19,"left_children":[1,3,5,7,9,11,13,15,17,19,21,23,25,27,29,-1,-1,-1,-1,-1,-1,-1,-1,-1,-1,-1,-1,-1,-1,-1,-1],"loss_changes":[2.7349976E2,3.1088135E1,6.1877575E1,1.630304E1,1.0300079E1,2.1367569E1,2.1567522E1,6.9947968E0,8.11499E0,3.0760345E0,1.42416E0,3.6471977E0,9.184171E0,5.0381985E0,1.1193302E1,0E0,0E0,0E0,0E0,0E0,0E0,0E0,0E0,0E0,0E0,0E0,0E0,0E0,0E0,0E0,0E0],"parents":[2147483647,0,0,1,1,2,2,3,3,4,4,5,5,6,6,7,7,8,8,9,9,10,10,11,11,12,12,13,13,14,14],"right_children":[2,4,6,8,10,12,14,16,18,20,22,24,26,28,30,-1,-1,-1,-1,-1,-1,-1,-1,-1,-1,-1,-1,-1,-1,-1,-1],"split_conditions":[1E-1,6.41667E-2,1.6E-1,1.5E-2,8.75E-2,8E-2,6.52381E-2,8.55556E-2,4.125E-2,8.36842E-2,1.50556E-1,3.76923E-2,1.18462E-1,3E-1,1.725E-1,-1.4386649E-2,-1.0388674E-3,-2.3651533E-2,-1.8404514E-2,-1.5528173E-2,-1.1779965E-2,-7.5233323E-3,-1.2162404E-4,-1.3331828E-2,-7.906723E-3,-3.6076084E-3,5.0578215E-3,-3.8691994E-3,1.1753473E-2,8.312372E-3,2.8839767E-2],"split_indices":[1,1,1,1,2,2,2,2,1,1,2,2,2,1,2,0,0,0,0,0,0,0,0,0,0,0,0,0,0,0,0],"split_type":[0,0,0,0,0,0,0,0,0,0,0,0,0,0,0,0,0,0,0,0,0,0,0,0,0,0,0,0,0,0,0],"sum_hessian":[4.7781694E3,2.8764243E3,1.9017454E3,1.6267042E3,1.24972E3,1.261632E3,6.4011346E2,3.032093E2,1.323495E3,1.0309604E3,2.187595E2,5.747522E2,6.8687976E2,1.9725304E2,4.428604E2,2.5912576E2,4.408353E1,5.2709796E2,7.96397E2,5.8283746E2,4.48123E2,1.8724864E2,3.1510866E1,1.8870583E2,3.8604636E2,5.525658E2,1.3431398E2,1.7884001E2,1.8413025E1,4.1825208E2,2.4608356E1],"tree_param":{"num_deleted":"0","num_feature":"7","num_nodes":"31","size_leaf_vector":"1"}},{"base_weights":[-3.414052E-1,-5.3905755E-1,-6.014469E-2,-6.32528E-1,-4.2730376E-1,-1.9752786E-1,1.6779628E-1,-4.0862513E-1,-6.8708104E-1,-4.6775153E-1,-2.2664808E-1,-2.3858319E-1,1.4995578E-1,-5.141921E-2,3.222308E-1,-1.3955327E-2,-0E0,-2.3786053E-2,-1.8684588E-2,-1.588876E-2,-1.2116289E-2,-7.870561E-3,-1.741493E-3,-1.115594E-2,-4.9604806E-3,3.0167152E-3,2.2308944E-2,-5.0618816E-3,3.4561227E-3,8.450453E-3,2.9524026E-2],"categories":[],"categories_nodes":[],"categories_segments":[],"categories_sizes":[],"default_left":[0,0,0,0,1,1,0,0,0,0,0,0,0,0,1,0,0,0,0,0,0,0,0,0,0,0,0,0,0,0,0],"id":20,"left_children":[1,3,5,7,9,11,13,15,17,19,21,23,25,27,29,-1,-1,-1,-1,-1,-1,-1,-1,-1,-1,-1,-1,-1,-1,-1,-1],"loss_changes":[2.6324384E2,2.8005493E1,6.146871E1,1.7324524E1,9.799988E0,1.7597565E1,2.511598E1,6.7690697E0,6.5217285E0,3.2880554E0,1.1341457E0,1.0325493E1,3.2239606E0,6.0265427E0,1.0459534E1,0E0,0E0,0E0,0E0,0E0,0E0,0E0,0E0,0E0,0E0,0E0,0E0,0E0,0E0,0E0,0E0],"parents":[2147483647,0,0,1,1,2,2,3,3,4,4,5,5,6,6,7,7,8,8,9,9,10,10,11,11,12,12,13,13,14,14],"right_children":[2,4,6,8,10,12,14,16,18,20,22,24,26,28,30,-1,-1,-1,-1,-1,-1,-1,-1,-1,-1,-1,-1,-1,-1,-1,-1],"split_conditions":[9.75E-2,6.10256E-2,1.52857E-1,1.5E-2,8.75E-2,1.18462E-1,8.12069E-2,1.12521E-1,3.94737E-2,7.9E-2,9.08333E-2,5.875E-2,2.65E-1,1.98E-1,1.9E-1,-1.3955327E-2,-0E0,-2.3786053E-2,-1.8684588E-2,-1.588876E-2,-1.2116289E-2,-7.870561E-3,-1.741493E-3,-1.115594E-2,-4.9604806E-3,3.0167152E-3,2.2308944E-2,-5.0618816E-3,3.4561227E-3,8.450453E-3,2.9524026E-2],"split_indices":[1,1,1,1,2,2,2,0,1,1,1,2,2,1,2,0,0,0,0,0,0,0,0,0,0,0,0,0,0,0,0],"split_type":[0,0,0,0,0,0,0,0,0,0,0,0,0,0,0,0,0,0,0,0,0,0,0,0,0,0,0,0,0,0,0],"sum_hessian":[4.739855E3,2.7815466E3,1.9583083E3,1.5071654E3,1.2743813E3,1.2234054E3,7.3490295E2,3.0039517E2,1.2067701E3,1.0563004E3,2.180809E2,1.0959806E3,1.2742482E2,3.029584E2,4.3194455E2,2.6262082E2,3.777434E1,4.445287E2,7.622415E2,5.251722E2,5.3112823E2,1.766038E2,4.1477093E1,3.8334003E2,7.1264056E2,1.20573135E2,6.851685E0,1.79534E2,1.2342439E2,4.104089E2,2.153563E1],"tree_param":{"num_deleted":"0","num_feature":"7","num_nodes":"31","size_leaf_vector":"1"}},{"base_weights":[-3.3390516E-1,-5.047532E-1,-1.836007E-2,-6.0879815E-1,-3.7437192E-1,-1.0759543E-1,2.9865906E-1,-4.0019152E-1,-6.524138E-1,-4.833464E-1,-2.9571238E-1,-2.4338172E-1,3.9561443E-2,-1.19792216E-1,3.8295352E-1,-1.3871669E-2,-7.038292E-4,-2.2561766E-2,-1.7066142E-2,-1.7105157E-2,-1.3037671E-2,-1.0045758E-2,-5.0314646E-3,-1.1137003E-2,-5.4690987E-3,6.756628E-5,1.7122054E-2,-1.1521647E-2,4.7362814E-4,9.6892575E-3,3.0430526E-2],"categories":[],"categories_nodes":[],"categories_segments":[],"categories_sizes":[],"default_left":[0,0,0,0,0,0,0,1,0,0,1,0,1,0,0,0,0,0,0,0,0,0,0,0,0,0,0,0,0,0,0],"id":21,"left_children":[1,3,5,7,9,11,13,15,17,19,21,23,25,27,29,-1,-1,-1,-1,-1,-1,-1,-1,-1,-1,-1,-1,-1,-1,-1,-1],"loss_changes":[2.5333856E2,4.0439453E1,4.680364E1,1.4341614E1,1.09943695E1,2.5990063E1,1.3025738E1,6.7568626E0,1.0086914E1,1.3934937E0,3.6373138E0,4.86182E0,1.2022645E1,2.3955762E0,1.0172226E1,0E0,0E0,0E0,0E0,0E0,0E0,0E0,0E0,0E0,0E0,0E0,0E0,0E0,0E0,0E0,0E0],"parents":[2147483647,0,0,1,1,2,2,3,3,4,4,5,5,6,6,7,7,8,8,9,9,10,10,11,11,12,12,13,13,14,14],"right_children":[2,4,6,8,10,12,14,16,18,20,22,24,26,28,30,-1,-1,-1,-1,-1,-1,-1,-1,-1,-1,-1,-1,-1,-1,-1,-1],"split_conditions":[1.06538E-1,6.66667E-2,1.9E-1,1.5E-2,6.75E-2,9.33333E-2,4.63158E-2,8.55556E-2,4.55556E-2,3.03125E-2,9.86667E-2,4.1E-2,1.725E-1,2.51351E-2,3.48E-1,-1.3871669E-2,-7.038292E-4,-2.2561766E-2,-1.7066142E-2,-1.7105157E-2,-1.3037671E-2,-1.0045758E-2,-5.0314646E-3,-1.1137003E-2,-5.4690987E-3,6.756628E-5,1.7122054E-2,-1.1521647E-2,4.7362814E-4,9.6892575E-3,3.0430526E-2],"split_indices":[1,1,1,1,2,2,2,2,1,2,2,2,2,2,1,0,0,0,0,0,0,0,0,0,0,0,0,0,0,0,0],"split_type":[0,0,0,0,0,0,0,0,0,0,0,0,0,0,0,0,0,0,0,0,0,0,0,0,0,0,0,0,0,0,0],"sum_hessian":[4.7024595E3,3.0488909E3,1.6535684E3,1.6894927E3,1.3593982E3,1.2926174E3,3.6095087E2,2.976576E2,1.3918351E3,5.6290576E2,7.9649243E2,6.733688E2,6.1924866E2,5.9384212E1,3.0156668E2,2.5394914E2,4.3708447E1,6.247164E2,7.671188E2,1.9104893E2,3.7185684E2,6.0448083E2,1.920116E2,2.1176083E2,4.6160794E2,5.813639E2,3.7884766E1,2.0143808E1,3.9240402E1,2.7888913E2,2.2677544E1],"tree_param":{"num_deleted":"0","num_feature":"7","num_nodes":"31","size_leaf_vector":"1"}},{"base_weights":[-3.2653594E-1,-5.277821E-1,-6.600978E-2,-6.185806E-1,-4.2456353E-1,-2.1447381E-1,1.300114E-1,-3.9188728E-1,-6.782907E-1,-4.62291E-1,-2.3208494E-1,-2.5188023E-1,1.1264346E-1,-1.3378488E-1,2.4887955E-1,-1.2468186E-2,1.4928696E-2,-2.3797177E-2,-1.8676102E-2,-1.6096598E-2,-1.2339984E-2,-7.3349746E-3,3.9440542E-3,-1.21145705E-2,-6.030829E-3,8.958888E-4,1.2669172E-2,-5.2650208E-3,1.1058E-2,4.548949E-3,1.4057972E-2],"categories":[],"categories_nodes":[],"categories_segments":[],"categories_sizes":[],"default_left":[0,0,0,0,1,1,0,1,0,0,0,0,0,0,0,0,0,0,0,0,0,0,0,0,0,0,0,0,0,0,0],"id":22,"left_children":[1,3,5,7,9,11,13,15,17,19,21,23,25,27,29,-1,-1,-1,-1,-1,-1,-1,-1,-1,-1,-1,-1,-1,-1,-1,-1],"loss_changes":[2.4437506E2,2.3622803E1,5.9400295E1,1.7794556E1,8.448761E0,1.4341614E1,2.7655651E1,6.638523E0,5.3441467E0,2.9948883E0,1.0665131E0,7.6055756E0,2.804875E0,5.748555E0,1.2523514E1,0E0,0E0,0E0,0E0,0E0,0E0,0E0,0E0,0E0,0E0,0E0,0E0,0E0,0E0,0E0,0E0],"parents":[2147483647,0,0,1,1,2,2,3,3,4,4,5,5,6,6,7,7,8,8,9,9,10,10,11,11,12,12,13,13,14,14],"right_children":[2,4,6,8,10,12,14,16,18,20,22,24,26,28,30,-1,-1,-1,-1,-1,-1,-1,-1,-1,-1,-1,-1,-1,-1,-1,-1],"split_conditions":[9.48571E-2,6E-2,1.42E-1,1.5E-2,8.75E-2,1.18462E-1,6.52381E-2,1.56667E-1,3.62069E-2,5.27273E-2,2.1E-1,4.63158E-2,1.29375E-1,3E-1,2.15714E-1,-1.2468186E-2,1.4928696E-2,-2.3797177E-2,-1.8676102E-2,-1.6096598E-2,-1.2339984E-2,-7.3349746E-3,3.9440542E-3,-1.21145705E-2,-6.030829E-3,8.958888E-4,1.2669172E-2,-5.2650208E-3,1.1058E-2,4.548949E-3,1.4057972E-2],"split_indices":[1,1,1,1,2,2,2,2,1,2,2,2,1,1,1,0,0,0,0,0,0,0,0,0,0,0,0,0,0,0,0],"split_type":[0,0,0,0,0,0,0,0,0,0,0,0,0,0,0,0,0,0,0,0,0,0,0,0,0,0,0,0,0,0,0],"sum_hessian":[4.6659795E3,2.630247E3,2.0357325E3,1.3914222E3,1.2388248E3,1.1597299E3,8.760027E2,2.9498688E2,1.0964353E3,1.0312831E3,2.0754175E2,1.0425061E3,1.17223785E2,2.7073065E2,6.0527203E2,2.8891068E2,6.0762E0,3.465424E2,7.49893E2,4.0792972E2,6.2335333E2,2.0265207E2,4.8896737E0,2.5547528E2,7.870308E2,9.55014E1,2.1722383E1,2.5209444E2,1.863623E1,4.2349075E2,1.8178128E2],"tree_param":{"num_deleted":"0","num_feature":"7","num_nodes":"31","size_leaf_vector":"1"}},{"base_weights":[-3.192704E-1,-5.184236E-1,-6.4123005E-2,-6.090166E-1,-4.159369E-1,-2.0904012E-1,1.2590536E-1,-3.8352445E-1,-6.6882944E-1,-4.5330673E-1,-2.2626057E-1,-2.4573626E-1,1.0939769E-1,-7.899027E-2,2.699443E-1,-1.3209165E-2,-0E0,-2.364963E-2,-1.843896E-2,-1.5190124E-2,-1.1469235E-2,-7.1556335E-3,3.8524764E-3,-1.0832126E-2,-5.4413467E-3,8.690558E-4,1.223047E-2,-9.811615E-3,-0E0,6.5697907E-3,2.0891536E-2],"categories":[],"categories_nodes":[],"categories_segments":[],"categories_sizes":[],"default_left":[0,0,0,0,1,1,0,0,0,0,0,0,0,0,0,0,0,0,0,0,0,0,0,0,0,0,0,0,0,0,0],"id":23,"left_children":[1,3,5,7,9,11,13,15,17,19,21,23,25,27,29,-1,-1,-1,-1,-1,-1,-1,-1,-1,-1,-1,-1,-1,-1,-1,-1],"loss_changes":[2.3502795E2,2.3123291E1,5.610949E1,1.7483276E1,8.166046E0,1.3633377E1,2.610418E1,6.5607605E0,5.3299866E0,3.0182648E0,1.0228481E0,7.3085747E0,2.6238291E0,7.0632753E0,1.05035095E1,0E0,0E0,0E0,0E0,0E0,0E0,0E0,0E0,0E0,0E0,0E0,0E0,0E0,0E0,0E0,0E0],"parents":[2147483647,0,0,1,1,2,2,3,3,4,4,5,5,6,6,7,7,8,8,9,9,10,10,11,11,12,12,13,13,14,14],"right_children":[2,4,6,8,10,12,14,16,18,20,22,24,26,28,30,-1,-1,-1,-1,-1,-1,-1,-1,-1,-1,-1,-1,-1,-1,-1,-1],"split_conditions":[9.48571E-2,6E-2,1.42E-1,1.5E-2,8.75E-2,1.18462E-1,8.12069E-2,1.12521E-1,3.55556E-2,7.9E-2,2.1E-1,5.875E-2,1.29375E-1,3.19149E-2,2.71429E-1,-1.3209165E-2,-0E0,-2.364963E-2,-1.843896E-2,-1.5190124E-2,-1.1469235E-2,-7.1556335E-3,3.8524764E-3,-1.0832126E-2,-5.4413467E-3,8.690558E-4,1.223047E-2,-9.811615E-3,-0E0,6.5697907E-3,2.0891536E-2],"split_indices":[1,1,1,1,2,2,2,0,1,1,2,2,1,2,1,0,0,0,0,0,0,0,0,0,0,0,0,0,0,0,0],"split_type":[0,0,0,0,0,0,0,0,0,0,0,0,0,0,0,0,0,0,0,0,0,0,0,0,0,0,0,0,0,0,0],"sum_hessian":[4.6303525E3,2.5982705E3,2.0320819E3,1.3713256E3,1.226945E3,1.154263E3,8.778189E2,2.923521E2,1.0789735E3,1.0204759E3,2.064691E2,1.0368098E3,1.1745313E2,3.613004E2,5.1651843E2,2.5517021E2,3.71819E1,3.2534772E2,7.536258E2,5.731049E2,4.4737097E2,2.0156604E2,4.9030657E0,3.6525488E2,6.71555E2,9.555757E1,2.189556E1,8.522615E1,2.7607428E2,4.6514255E2,5.1375908E1],"tree_param":{"num_deleted":"0","num_feature":"7","num_nodes":"31","size_leaf_vector":"1"}},{"base_weights":[-3.1213412E-1,-5.0915664E-1,-6.2299978E-2,-5.995224E-1,-4.0741965E-1,-1.8822704E-1,1.4516725E-1,-3.7537637E-1,-6.5940154E-1,-4.4442356E-1,-6.6166315E-3,-3.063748E-1,-8.5573286E-2,-3.1388976E-2,2.9795423E-1,-1.7184053E-2,-7.4581886E-3,-2.2744572E-2,-1.78083E-2,-1.5569522E-2,-1.1803267E-2,-1.3564879E-2,-7.706123E-3,-3.6056074E-3,6.931941E-3,-1.9937723E-3,1.817036E-2,7.7198246E-3,2.6530052E-2],"categories":[],"categories_nodes":[],"categories_segments":[],"categories_sizes":[],"default_left":[0,0,0,0,1,0,0,0,0,0,0,0,1,0,1,0,0,0,0,0,0,0,0,0,0,0,0,0,0],"id":24,"left_children":[1,3,5,7,9,11,13,15,17,19,-1,21,23,25,27,-1,-1,-1,-1,-1,-1,-1,-1,-1,-1,-1,-1,-1,-1],"loss_changes":[2.2596185E2,2.262738E1,5.31257E1,1.7157257E1,7.889267E0,1.5105484E1,2.0831171E1,6.607731E0,5.336487E0,2.9819946E0,0E0,3.6389465E0,7.4795732E0,7.7629585E0,8.804916E0,0E0,0E0,0E0,0E0,0E0,0E0,0E0,0E0,0E0,0E0,0E0,0E0,0E0,0E0],"parents":[2147483647,0,0,1,1,2,2,3,3,4,4,5,5,6,6,7,7,8,8,9,9,11,11,12,12,13,13,14,14],"right_children":[2,4,6,8,10,12,14,16,18,20,-1,22,24,26,28,-1,-1,-1,-1,-1,-1,-1,-1,-1,-1,-1,-1,-1,-1],"split_conditions":[9.48571E-2,6E-2,1.5E-1,1.5E-2,8.75E-2,8E-2,9.08824E-2,6.18182E-2,3.94737E-2,5.27273E-2,-6.6166315E-3,3.06667E-2,1.42E-1,3.48E-1,1.9E-1,-1.7184053E-2,-7.4581886E-3,-2.2744572E-2,-1.78083E-2,-1.5569522E-2,-1.1803267E-2,-1.3564879E-2,-7.706123E-3,-3.6056074E-3,6.931941E-3,-1.9937723E-3,1.817036E-2,7.7198246E-3,2.6530052E-2],"split_indices":[1,1,1,1,2,2,2,2,1,2,0,2,2,1,2,0,0,0,0,0,0,0,0,0,0,0,0,0,0],"split_type":[0,0,0,0,0,0,0,0,0,0,0,0,0,0,0,0,0,0,0,0,0,0,0,0,0,0,0,0,0],"sum_hessian":[4.5956724E3,2.5671257E3,2.0285465E3,1.3517562E3,1.2153695E3,1.2639551E3,7.6459143E2,2.8980707E2,1.0619491E3,1.0099436E3,2.0542593E2,5.8352094E2,6.804341E2,3.539239E2,4.1066757E2,1.090293E2,1.8077777E2,4.1316122E2,6.487879E2,3.986896E2,6.11254E2,1.4123114E2,4.4228976E2,6.159237E2,6.451042E1,3.37899E2,1.6024887E1,3.8754715E2,2.3120409E1],"tree_param":{"num_deleted":"0","num_feature":"7","num_nodes":"29","size_leaf_vector":"1"}},{"base_weights":[-3.0512008E-1,-5.0577664E-1,-6.7518726E-2,-5.9147215E-1,-4.0725604E-1,-2.0351982E-1,1.1877387E-1,-3.674559E-1,-6.528923E-1,-4.5679653E-1,-2.7302104E-1,-2.406498E-1,8.045399E-2,-1.2519139E-1,2.2679135E-1,-1.4439781E-2,-4.6598585E-3,-2.3136958E-2,-1.7944142E-2,-1.497023E-2,-1.1422369E-2,-9.02941E-3,-1.6902946E-3,-1.1434114E-2,-5.800092E-3,1.2305646E-3,1.797632E-2,-4.960412E-3,1.0462004E-2,4.072298E-3,1.2932373E-2],"categories":[],"categories_nodes":[],"categories_segments":[],"categories_sizes":[],"default_left":[0,0,0,0,1,1,0,0,0,0,0,0,0,0,0,0,0,0,0,0,0,0,0,0,0,0,0,0,0,0,0],"id":25,"left_children":[1,3,5,7,9,11,13,15,17,19,21,23,25,27,29,-1,-1,-1,-1,-1,-1,-1,-1,-1,-1,-1,-1,-1,-1,-1,-1],"loss_changes":[2.1723724E2,1.9896973E1,5.312038E1,1.7108643E1,7.0964203E0,1.2899334E1,2.3375187E1,6.521927E0,5.0538635E0,1.8806915E0,1.7276058E0,6.7043114E0,2.4968286E0,5.177667E0,1.102202E1,0E0,0E0,0E0,0E0,0E0,0E0,0E0,0E0,0E0,0E0,0E0,0E0,0E0,0E0,0E0,0E0],"parents":[2147483647,0,0,1,1,2,2,3,3,4,4,5,5,6,6,7,7,8,8,9,9,10,10,11,11,12,12,13,13,14,14],"right_children":[2,4,6,8,10,12,14,16,18,20,22,24,26,28,30,-1,-1,-1,-1,-1,-1,-1,-1,-1,-1,-1,-1,-1,-1,-1,-1],"split_conditions":[9.33333E-2,5.87879E-2,1.42E-1,1.5E-2,7E-2,1.15833E-1,6.52381E-2,9.92328E-2,3.55556E-2,8E-2,1.335E-1,4.63158E-2,2.65E-1,3E-1,2.15714E-1,-1.4439781E-2,-4.6598585E-3,-2.3136958E-2,-1.7944142E-2,-1.497023E-2,-1.1422369E-2,-9.02941E-3,-1.6902946E-3,-1.1434114E-2,-5.800092E-3,1.2305646E-3,1.797632E-2,-4.960412E-3,1.0462004E-2,4.072298E-3,1.2932373E-2],"split_indices":[1,1,1,1,2,2,2,0,1,1,2,2,2,1,1,0,0,0,0,0,0,0,0,0,0,0,0,0,0,0,0],"split_type":[0,0,0,0,0,0,0,0,0,0,0,0,0,0,0,0,0,0,0,0,0,0,0,0,0,0,0,0,0,0,0],"sum_hessian":[4.561951E3,2.470895E3,2.0910562E3,1.3133934E3,1.1575015E3,1.2101193E3,8.8093677E2,2.873726E2,1.0260209E3,8.3924194E2,3.1825952E2,1.0720173E3,1.3810191E2,2.6882632E2,6.121105E2,1.8380873E2,1.0356387E2,3.1339078E2,7.1263007E2,5.2831146E2,3.1093048E2,2.7915298E2,3.910655E1,2.6386017E2,8.0815717E2,1.312467E2,6.855209E0,2.5000096E2,1.882536E1,4.2740067E2,1.8470981E2],"tree_param":{"num_deleted":"0","num_feature":"7","num_nodes":"31","size_leaf_vector":"1"}},{"base_weights":[-2.9822752E-1,-4.9094367E-1,-5.8694955E-2,-5.8074236E-1,-3.9081934E-1,-1.9372647E-1,1.1505225E-1,-3.5962728E-1,-6.4066917E-1,-4.271529E-1,-6.2720557E-3,-2.285359E-1,1.0224074E-1,-7.365498E-2,2.4562351E-1,-1.3188047E-2,-1.93126E-3,-2.22209E-2,-1.7236438E-2,-1.5615824E-2,-1.158786E-2,-1.1166877E-2,-5.4363073E-3,7.290182E-4,1.16785E-2,-9.426757E-3,-0E0,6.3629486E-3,2.4702545E-2],"categories":[],"categories_nodes":[],"categories_segments":[],"categories_sizes":[],"default_left":[0,0,0,0,1,1,0,1,0,0,0,0,0,0,1,0,0,0,0,0,0,0,0,0,0,0,0,0,0],"id":26,"left_children":[1,3,5,7,9,11,13,15,17,19,-1,21,23,25,27,-1,-1,-1,-1,-1,-1,-1,-1,-1,-1,-1,-1,-1,-1],"loss_changes":[2.0882794E2,2.1622986E1,4.7559532E1,1.6479614E1,7.3963776E0,1.1865078E1,2.191746E1,6.468048E0,5.3115845E0,2.9318085E0,0E0,6.5456047E0,2.4577122E0,6.5449886E0,9.299452E0,0E0,0E0,0E0,0E0,0E0,0E0,0E0,0E0,0E0,0E0,0E0,0E0,0E0,0E0],"parents":[2147483647,0,0,1,1,2,2,3,3,4,4,5,5,6,6,7,7,8,8,9,9,11,11,12,12,13,13,14,14],"right_children":[2,4,6,8,10,12,14,16,18,20,-1,22,24,26,28,-1,-1,-1,-1,-1,-1,-1,-1,-1,-1,-1,-1,-1,-1],"split_conditions":[9.48571E-2,6E-2,1.42E-1,1.5E-2,8.75E-2,1.18462E-1,8.12069E-2,7.28395E-2,3.94737E-2,4.2E-2,-6.2720557E-3,4.63158E-2,1.29375E-1,3.19149E-2,1.9E-1,-1.3188047E-2,-1.93126E-3,-2.22209E-2,-1.7236438E-2,-1.5615824E-2,-1.158786E-2,-1.1166877E-2,-5.4363073E-3,7.290182E-4,1.16785E-2,-9.426757E-3,-0E0,6.3629486E-3,2.4702545E-2],"split_indices":[1,1,1,1,2,2,2,2,1,2,0,2,1,2,2,0,0,0,0,0,0,0,0,0,0,0,0,0,0],"split_type":[0,0,0,0,0,0,0,0,0,0,0,0,0,0,0,0,0,0,0,0,0,0,0,0,0,0,0,0,0],"sum_hessian":[4.5290293E3,2.507462E3,2.0215675E3,1.3141992E3,1.1932626E3,1.1390092E3,8.825585E2,2.8499252E2,1.0292068E3,9.8991797E2,2.0334462E2,1.0210642E3,1.1794489E2,3.5971918E2,5.2283923E2,2.2214833E2,6.284418E1,3.9845782E2,6.3074896E2,2.9061365E2,6.993043E2,2.4695308E2,7.7411115E2,9.583438E1,2.211051E1,8.416113E1,2.7555804E2,4.975685E2,2.5270758E1],"tree_param":{"num_deleted":"0","num_feature":"7","num_nodes":"29","size_leaf_vector":"1"}},{"base_weights":[-2.9144353E-1,-4.9055028E-1,-6.684812E-2,-5.735512E-1,-3.948865E-1,-1.9524172E-1,1.1144087E-1,-3.519054E-1,-6.3585496E-1,-4.4393337E-1,-2.6100317E-1,-2.3960645E-1,2.4194239E-2,-1.1901612E-1,2.1226723E-1,-1.6480811E-2,-6.7973565E-3,-2.262533E-2,-1.7420769E-2,-1.5198505E-2,-1.1682179E-2,-8.603304E-3,-1.873548E-3,-1.2975187E-2,-6.268246E-3,-0E0,1.73281E-2,-4.751877E-3,1.0213236E-2,5.587015E-3,2.7097408E-2],"categories":[],"categories_nodes":[],"categories_segments":[],"categories_sizes":[],"default_left":[0,0,0,0,1,1,0,0,0,0,0,0,0,0,0,0,0,0,0,0,0,0,0,0,0,0,0,0,0,0,0],"id":27,"left_children":[1,3,5,7,9,11,13,15,17,19,21,23,25,27,29,-1,-1,-1,-1,-1,-1,-1,-1,-1,-1,-1,-1,-1,-1,-1,-1],"loss_changes":[2.0084521E2,1.7986877E1,4.856167E1,1.6581482E1,6.746887E0,1.21273575E1,2.068943E1,6.4074516E0,4.893921E0,1.9311371E0,1.3602047E0,5.580055E0,2.8604007E0,4.892857E0,1.0248785E1,0E0,0E0,0E0,0E0,0E0,0E0,0E0,0E0,0E0,0E0,0E0,0E0,0E0,0E0,0E0,0E0],"parents":[2147483647,0,0,1,1,2,2,3,3,4,4,5,5,6,6,7,7,8,8,9,9,10,10,11,11,12,12,13,13,14,14],"right_children":[2,4,6,8,10,12,14,16,18,20,22,24,26,28,30,-1,-1,-1,-1,-1,-1,-1,-1,-1,-1,-1,-1,-1,-1,-1,-1],"split_conditions":[9.17647E-2,5.80952E-2,1.42E-1,1.5E-2,7E-2,1.03043E-1,6.52381E-2,6.18182E-2,3.55556E-2,5.27273E-2,1.335E-1,3.06667E-2,2.65E-1,3E-1,3.48E-1,-1.6480811E-2,-6.7973565E-3,-2.262533E-2,-1.7420769E-2,-1.5198505E-2,-1.1682179E-2,-8.603304E-3,-1.873548E-3,-1.2975187E-2,-6.268246E-3,-0E0,1.73281E-2,-4.751877E-3,1.0213236E-2,5.587015E-3,2.7097408E-2],"split_indices":[1,1,1,1,2,2,2,2,1,2,2,2,2,1,1,0,0,0,0,0,0,0,0,0,0,0,0,0,0,0,0],"split_type":[0,0,0,0,0,0,0,0,0,0,0,0,0,0,0,0,0,0,0,0,0,0,0,0,0,0,0,0,0,0,0],"sum_hessian":[4.497024E3,2.3813403E3,2.1156836E3,1.2669114E3,1.114429E3,1.2314661E3,8.8421765E2,2.826621E2,9.842492E2,8.095074E2,3.0492157E2,1.0261064E3,2.0535957E2,2.674933E2,6.1672437E2,1.0557311E2,1.77089E2,3.0201834E2,6.822309E2,3.6460904E2,4.4489835E2,2.668724E2,3.804918E1,1.3491301E2,8.911934E2,1.9842207E2,6.9375057E0,2.4858589E2,1.8907383E1,5.974765E2,1.924791E1],"tree_param":{"num_deleted":"0","num_feature":"7","num_nodes":"31","size_leaf_vector":"1"}},{"base_weights":[-2.8478104E-1,-4.815867E-1,-6.4929076E-2,-5.642883E-1,-3.867008E-1,-1.6402882E-1,1.5515603E-1,-3.443313E-1,-6.265716E-1,-4.3522683E-1,-2.5479546E-1,-2.8244814E-1,-6.380662E-2,-1.2010277E-1,2.2761792E-1,-1.3747149E-2,-4.031335E-3,-2.2365946E-2,-1.7140625E-2,-1.4923507E-2,-1.1437039E-2,-8.4020905E-3,-1.822525E-3,-1.3578396E-2,-7.2830287E-3,-3.933824E-3,2.4022434E-3,-1.3920042E-2,-1.4657737E-3,5.8111013E-3,2.6754295E-2],"categories":[],"categories_nodes":[],"categories_segments":[],"categories_sizes":[],"default_left":[0,0,0,0,1,0,0,0,0,0,0,0,0,0,0,0,0,0,0,0,0,0,0,0,0,0,0,0,0,0,0],"id":28,"left_children":[1,3,5,7,9,11,13,15,17,19,21,23,25,27,29,-1,-1,-1,-1,-1,-1,-1,-1,-1,-1,-1,-1,-1,-1,-1,-1],"loss_changes":[1.9297903E2,1.7575928E1,4.615957E1,1.622998E1,6.5146637E0,1.7119621E1,1.3188261E1,6.3345566E0,4.8692627E0,1.8797607E0,1.292059E0,3.932354E0,7.7536526E0,3.0432396E0,1.0853119E1,0E0,0E0,0E0,0E0,0E0,0E0,0E0,0E0,0E0,0E0,0E0,0E0,0E0,0E0,0E0,0E0],"parents":[2147483647,0,0,1,1,2,2,3,3,4,4,5,5,6,6,7,7,8,8,9,9,10,10,11,11,12,12,13,13,14,14],"right_children":[2,4,6,8,10,12,14,16,18,20,22,24,26,28,30,-1,-1,-1,-1,-1,-1,-1,-1,-1,-1,-1,-1,-1,-1,-1,-1],"split_conditions":[9.17647E-2,5.80952E-2,1.6E-1,1.5E-2,7E-2,8E-2,5.13793E-2,9.92328E-2,3.55556E-2,5.27273E-2,1.335E-1,2.6875E-2,1.29375E-1,1.83784E-2,3.48E-1,-1.3747149E-2,-4.031335E-3,-2.2365946E-2,-1.7140625E-2,-1.4923507E-2,-1.1437039E-2,-8.4020905E-3,-1.822525E-3,-1.3578396E-2,-7.2830287E-3,-3.933824E-3,2.4022434E-3,-1.3920042E-2,-1.4657737E-3,5.8111013E-3,2.6754295E-2],"split_indices":[1,1,1,1,2,2,2,0,1,2,2,2,1,2,1,0,0,0,0,0,0,0,0,0,0,0,0,0,0,0,0],"split_type":[0,0,0,0,0,0,0,0,0,0,0,0,0,0,0,0,0,0,0,0,0,0,0,0,0,0,0,0,0,0,0],"sum_hessian":[4.4658364E3,2.3539697E3,2.1118667E3,1.2496356E3,1.104334E3,1.458097E3,6.5376953E2,2.8041577E2,9.692199E2,8.0119617E2,3.0313782E2,6.644174E2,7.936796E2,1.3452777E2,5.1924176E2,1.7871179E2,1.0170397E2,2.9646292E2,6.7275696E2,3.6029086E2,4.409053E2,2.6514005E2,3.7997776E1,1.1931896E2,5.4509845E2,5.4318195E2,2.5049771E2,1.9990095E1,1.1453767E2,4.971906E2,2.2051146E1],"tree_param":{"num_deleted":"0","num_feature":"7","num_nodes":"31","size_leaf_vector":"1"}},{"base_weights":[-2.7825412E-1,-4.727045E-1,-6.3116945E-2,-5.550775E-1,-3.786246E-1,-1.946164E-1,9.352577E-2,-3.3684775E-1,-6.1732244E-1,-1.4095263E-2,-3.0867445E-1,-2.3915601E-1,2.6510363E-2,-2.3241019E-2,2.6240006E-1,-1.6013356E-2,-6.387029E-3,-2.2106642E-2,-1.6862055E-2,-1.0262416E-2,-5.3681E-3,-1.3682102E-2,-6.393092E-3,-6.6931604E-4,7.4824705E-3,-2.3102125E-3,8.7029245E-3,2.7513164E-3,1.1457823E-2],"categories":[],"categories_nodes":[],"categories_segments":[],"categories_sizes":[],"default_left":[0,0,0,0,0,1,0,0,0,0,1,0,0,0,0,0,0,0,0,0,0,0,0,0,0,0,0,0,0],"id":29,"left_children":[1,3,5,7,9,11,13,15,17,-1,19,21,23,25,27,-1,-1,-1,-1,-1,-1,-1,-1,-1,-1,-1,-1,-1,-1],"loss_changes":[1.8531036E2,1.7164062E1,4.3554535E1,1.5880157E1,6.3171387E0,1.1441029E1,1.9114473E1,6.2392426E0,4.8417664E0,0E0,2.3454819E0,4.8901596E0,2.2211509E0,9.527861E0,7.76091E0,0E0,0E0,0E0,0E0,0E0,0E0,0E0,0E0,0E0,0E0,0E0,0E0,0E0,0E0],"parents":[2147483647,0,0,1,1,2,2,3,3,4,4,5,5,6,6,7,7,8,8,10,10,11,11,12,12,13,13,14,14],"right_children":[2,4,6,8,10,12,14,16,18,-1,20,22,24,26,28,-1,-1,-1,-1,-1,-1,-1,-1,-1,-1,-1,-1,-1,-1],"split_conditions":[9.17647E-2,5.80952E-2,1.37778E-1,1.5E-2,6.75E-2,1.03043E-1,1.18462E-1,6.18182E-2,3.55556E-2,-1.4095263E-2,9.86667E-2,2.6875E-2,1.26667E-1,2.33514E-1,1.04455E-1,-1.6013356E-2,-6.387029E-3,-2.2106642E-2,-1.6862055E-2,-1.0262416E-2,-5.3681E-3,-1.3682102E-2,-6.393092E-3,-6.6931604E-4,7.4824705E-3,-2.3102125E-3,8.7029245E-3,2.7513164E-3,1.1457823E-2],"split_indices":[1,1,1,1,2,2,2,2,1,0,2,2,1,1,0,0,0,0,0,0,0,0,0,0,0,0,0,0,0],"split_type":[0,0,0,0,0,0,0,0,0,0,0,0,0,0,0,0,0,0,0,0,0,0,0,0,0,0,0,0,0],"sum_hessian":[4.4355415E3,2.3273042E3,2.1082373E3,1.2327969E3,1.0945072E3,1.1475726E3,9.6066473E2,2.782198E2,9.545771E2,4.6697427E2,6.2753296E2,9.5692566E2,1.90647E2,5.672253E2,3.9343948E2,1.033565E2,1.7486328E2,2.9104794E2,6.635291E2,4.9336856E2,1.341644E2,9.701184E1,8.599138E2,1.5602992E2,3.4617077E1,4.867991E2,8.0426155E1,1.6521877E2,2.2822072E2],"tree_param":{"num_deleted":"0","num_feature":"7","num_nodes":"29","size_leaf_vector":"1"}},{"base_weights":[-2.71825E-1,-4.6390155E-1,-6.1327077E-2,-5.4391366E-1,-3.6830822E-1,-1.4921273E-1,1.6265087E-1,-3.295048E-1,-6.037019E-1,-1.377658E-2,-2.986639E-1,-2.6499808E-1,-5.168599E-2,1.2756543E-1,7.2878826E-1,-1.0700691E-2,1.3607431E-2,-2.1183234E-2,-1.6111834E-2,-1.0087194E-2,-5.305788E-3,-1.3163196E-2,-6.774115E-3,-2.612503E-3,7.634325E-3,-4.249715E-3,5.8540786E-3,-3.8199755E-3,2.4820099E-2],"categories":[],"categories_nodes":[],"categories_segments":[],"categories_sizes":[],"default_left":[0,0,0,0,0,0,0,1,0,0,1,0,1,0,0,0,0,0,0,0,0,0,0,0,0,0,0,0,0],"id":30,"left_children":[1,3,5,7,9,11,13,15,17,-1,19,21,23,25,27,-1,-1,-1,-1,-1,-1,-1,-1,-1,-1,-1,-1,-1,-1],"loss_changes":[1.7790524E2,1.6760529E1,4.151134E1,1.5118561E1,6.0487213E0,1.6929485E1,1.1165599E1,6.1951675E0,5.2445374E0,0E0,2.408184E0,4.1700935E0,8.928928E0,1.0300025E1,3.3745918E0,0E0,0E0,0E0,0E0,0E0,0E0,0E0,0E0,0E0,0E0,0E0,0E0,0E0,0E0],"parents":[2147483647,0,0,1,1,2,2,3,3,4,4,5,5,6,6,7,7,8,8,10,10,11,11,12,12,13,13,14,14],"right_children":[2,4,6,8,10,12,14,16,18,-1,20,22,24,26,28,-1,-1,-1,-1,-1,-1,-1,-1,-1,-1,-1,-1,-1,-1],"split_conditions":[9.17647E-2,6E-2,1.66667E-1,1.5E-2,6.75E-2,8E-2,3.48E-1,1.42E-1,3.94737E-2,-1.377658E-2,9.41667E-2,2.6875E-2,1.42E-1,5.27273E-2,2.6875E-2,-1.0700691E-2,1.3607431E-2,-2.1183234E-2,-1.6111834E-2,-1.0087194E-2,-5.305788E-3,-1.3163196E-2,-6.774115E-3,-2.612503E-3,7.634325E-3,-4.249715E-3,5.8540786E-3,-3.8199755E-3,2.4820099E-2],"split_indices":[1,1,1,1,2,2,1,2,1,0,2,2,2,2,2,0,0,0,0,0,0,0,0,0,0,0,0,0,0],"split_type":[0,0,0,0,0,0,0,0,0,0,0,0,0,0,0,0,0,0,0,0,0,0,0,0,0,0,0,0,0],"sum_hessian":[4.4060435E3,2.3013284E3,2.104715E3,1.2448077E3,1.0565208E3,1.5136722E3,5.910428E2,2.760914E2,9.687163E2,4.5032108E2,6.0619965E2,6.881401E2,8.2553217E2,5.596907E2,3.1352083E1,2.68498E2,7.5934167E0,3.713593E2,5.97357E2,4.5745242E2,1.4874725E2,1.2054298E2,5.6759705E2,7.4272534E2,8.2806816E1,1.1036572E2,4.4932495E2,2.6523652E0,2.8699718E1],"tree_param":{"num_deleted":"0","num_feature":"7","num_nodes":"29","size_leaf_vector":"1"}},{"base_weights":[-2.6550746E-1,-4.6218938E-1,-6.671365E-2,-5.4170585E-1,-3.759754E-1,-1.9037366E-1,8.919135E-2,-3.220575E-1,-6.1012614E-1,-1.3923143E-2,-3.0256483E-1,-2.321595E-1,1.771828E-2,-7.178477E-2,1.9983253E-1,-1.3081939E-2,-3.4200181E-3,-2.182639E-2,-1.6706409E-2,-1.0067449E-2,-5.147391E-3,-1.0470233E-2,-5.6898966E-3,-9.1170215E-5,1.6492778E-2,-8.777183E-3,-8.09582E-5,4.524312E-3,1.5863197E-2],"categories":[],"categories_nodes":[],"categories_segments":[],"categories_sizes":[],"default_left":[0,0,0,0,0,1,0,0,0,0,1,0,0,0,0,0,0,0,0,0,0,0,0,0,0,0,0,0,0],"id":31,"left_children":[1,3,5,7,9,11,13,15,17,-1,19,21,23,25,27,-1,-1,-1,-1,-1,-1,-1,-1,-1,-1,-1,-1,-1,-1],"loss_changes":[1.7089511E2,1.4213501E1,4.2141884E1,1.6224121E1,6.225586E0,1.0714806E1,1.727121E1,6.1713066E0,3.9416199E0,0E0,2.1820984E0,4.6496773E0,2.5263152E0,5.8379927E0,8.756588E0,0E0,0E0,0E0,0E0,0E0,0E0,0E0,0E0,0E0,0E0,0E0,0E0,0E0,0E0],"parents":[2147483647,0,0,1,1,2,2,3,3,4,4,5,5,6,6,7,7,8,8,10,10,11,11,12,12,13,13,14,14],"right_children":[2,4,6,8,10,12,14,16,18,-1,20,22,24,26,28,-1,-1,-1,-1,-1,-1,-1,-1,-1,-1,-1,-1,-1,-1],"split_conditions":[9E-2,5.63636E-2,1.37778E-1,1.5E-2,7E-2,1.03043E-1,8.12069E-2,9.92328E-2,3.5E-2,-1.3923143E-2,9.90909E-2,4.63158E-2,2.65E-1,3.19149E-2,2.56364E-1,-1.3081939E-2,-3.4200181E-3,-2.182639E-2,-1.6706409E-2,-1.0067449E-2,-5.147391E-3,-1.0470233E-2,-5.6898966E-3,-9.1170215E-5,1.6492778E-2,-8.777183E-3,-8.09582E-5,4.524312E-3,1.5863197E-2],"split_indices":[1,1,1,1,2,2,2,0,1,0,2,2,2,2,1,0,0,0,0,0,0,0,0,0,0,0,0,0,0],"split_type":[0,0,0,0,0,0,0,0,0,0,0,0,0,0,0,0,0,0,0,0,0,0,0,0,0,0,0,0,0],"sum_hessian":[4.377155E3,2.1976682E3,2.1794863E3,1.1347264E3,1.0629418E3,1.216976E3,9.6251044E2,2.7395996E2,8.607665E2,4.751133E2,5.878285E2,1.0152753E3,2.0170059E2,3.905164E2,5.719941E2,1.7401274E2,9.994723E1,2.5771768E2,6.0304877E2,4.6394336E2,1.2388515E2,2.6378302E2,7.514923E2,1.9513626E2,6.564335E0,8.980554E1,3.0071085E2,5.0166742E2,7.032664E1],"tree_param":{"num_deleted":"0","num_feature":"7","num_nodes":"29","size_leaf_vector":"1"}},{"base_weights":[-2.5931507E-1,-4.5350775E-1,-6.4838566E-2,-5.319962E-1,-3.6732987E-1,-1.8548371E-1,8.639857E-2,-3.149221E-1,-5.9939194E-1,-1.3630541E-2,-2.9515558E-1,-2.2643144E-1,1.7267311E-2,-2.228566E-2,2.4190703E-1,-1.5370731E-2,-5.7564005E-3,-2.1568775E-2,-1.6387997E-2,-9.833774E-3,-5.0021526E-3,-1.2936133E-2,-6.0664825E-3,-8.8468005E-5,1.5994616E-2,-2.2031881E-3,8.168046E-3,6.0080574E-3,2.163284E-2],"categories":[],"categories_nodes":[],"categories_segments":[],"categories_sizes":[],"default_left":[0,0,0,0,0,1,0,0,0,0,1,0,0,0,1,0,0,0,0,0,0,0,0,0,0,0,0,0,0],"id":32,"left_children":[1,3,5,7,9,11,13,15,17,-1,19,21,23,25,27,-1,-1,-1,-1,-1,-1,-1,-1,-1,-1,-1,-1,-1,-1],"loss_changes":[1.640043E2,1.3874542E1,3.981357E1,1.5712433E1,5.9295197E0,1.0189339E1,1.6443893E1,6.1059685E0,4.039032E0,0E0,2.0779495E0,4.527134E0,2.3932273E0,8.505386E0,7.2190704E0,0E0,0E0,0E0,0E0,0E0,0E0,0E0,0E0,0E0,0E0,0E0,0E0,0E0,0E0],"parents":[2147483647,0,0,1,1,2,2,3,3,4,4,5,5,6,6,7,7,8,8,10,10,11,11,12,12,13,13,14,14],"right_children":[2,4,6,8,10,12,14,16,18,-1,20,22,24,26,28,-1,-1,-1,-1,-1,-1,-1,-1,-1,-1,-1,-1,-1,-1],"split_conditions":[9E-2,5.66667E-2,1.37778E-1,1.5E-2,7E-2,1.03043E-1,1.18462E-1,6.18182E-2,3.5E-2,-1.3630541E-2,9.90909E-2,2.6875E-2,2.65E-1,2.33514E-1,1.9E-1,-1.5370731E-2,-5.7564005E-3,-2.1568775E-2,-1.6387997E-2,-9.833774E-3,-5.0021526E-3,-1.2936133E-2,-6.0664825E-3,-8.8468005E-5,1.5994616E-2,-2.2031881E-3,8.168046E-3,6.0080574E-3,2.163284E-2],"split_indices":[1,1,1,1,2,2,2,2,1,0,2,2,2,1,2,0,0,0,0,0,0,0,0,0,0,0,0,0,0],"split_type":[0,0,0,0,0,0,0,0,0,0,0,0,0,0,0,0,0,0,0,0,0,0,0,0,0,0,0,0,0],"sum_hessian":[4.349074E3,2.1735056E3,2.1755686E3,1.1290499E3,1.0444557E3,1.2117681E3,9.638005E2,2.7193665E2,8.5711334E2,4.6558078E2,5.7887494E2,1.01001685E3,2.0175122E2,5.664259E2,3.973746E2,1.00415794E2,1.7152086E2,2.5306656E2,6.0404675E2,4.559881E2,1.2288686E2,1.0107036E2,9.0894653E2,1.9512418E2,6.6270432E0,4.8533807E2,8.108781E1,3.6917487E2,2.8199722E1],"tree_param":{"num_deleted":"0","num_feature":"7","num_nodes":"29","size_leaf_vector":"1"}},{"base_weights":[-2.532194E-1,-4.493E-1,-6.709658E-2,-4.899298E-1,-2.9170394E-1,-1.8564588E-1,8.112411E-2,-5.557208E-1,-4.02437E-1,-2.7602183E-2,-3.3167574E-1,-2.2517864E-1,9.481582E-3,-2.4281371E-2,2.3269306E-1,-1.1514176E-2,-1.810144E-2,-1.4208539E-2,-1.0625158E-2,-3.217232E-3,1.8536549E-2,-1.6012223E-2,-6.8578883E-3,-1.2706393E-2,-6.0452423E-3,-3.006338E-4,1.5514962E-2,-2.1932188E-3,7.891933E-3,2.214585E-3,1.0328164E-2],"categories":[],"categories_nodes":[],"categories_segments":[],"categories_sizes":[],"default_left":[0,1,0,0,0,1,0,0,0,0,0,0,0,0,0,0,0,0,0,0,0,0,0,0,0,0,0,0,0,0,0],"id":33,"left_children":[1,3,5,7,9,11,13,15,17,19,21,23,25,27,29,-1,-1,-1,-1,-1,-1,-1,-1,-1,-1,-1,-1,-1,-1,-1,-1],"loss_changes":[1.5747775E2,1.2794861E1,3.9123863E1,8.670471E0,4.433201E0,9.654095E0,1.58822365E1,6.7706604E0,1.7451477E0,3.0383775E0,7.2731056E0,4.35688E0,2.3251734E0,8.108244E0,6.9538593E0,0E0,0E0,0E0,0E0,0E0,0E0,0E0,0E0,0E0,0E0,0E0,0E0,0E0,0E0,0E0,0E0],"parents":[2147483647,0,0,1,1,2,2,3,3,4,4,5,5,6,6,7,7,8,8,9,9,10,10,11,11,12,12,13,13,14,14],"right_children":[2,4,6,8,10,12,14,16,18,20,22,24,26,28,30,-1,-1,-1,-1,-1,-1,-1,-1,-1,-1,-1,-1,-1,-1,-1,-1],"split_conditions":[8.82759E-2,7.4E-2,1.36774E-1,5.77778E-2,1.5E-2,1.03043E-1,1.18462E-1,1.5E-2,4.83333E-2,1.63333E-1,5.1746E-2,2.6875E-2,2.65E-1,2.33514E-1,1.04455E-1,-1.1514176E-2,-1.810144E-2,-1.4208539E-2,-1.0625158E-2,-3.217232E-3,1.8536549E-2,-1.6012223E-2,-6.8578883E-3,-1.2706393E-2,-6.0452423E-3,-3.006338E-4,1.5514962E-2,-2.1932188E-3,7.891933E-3,2.214585E-3,1.0328164E-2],"split_indices":[1,2,1,1,1,2,2,1,2,2,1,2,2,1,0,0,0,0,0,0,0,0,0,0,0,0,0,0,0,0,0],"split_type":[0,0,0,0,0,0,0,0,0,0,0,0,0,0,0,0,0,0,0,0,0,0,0,0,0,0,0,0,0,0,0],"sum_hessian":[4.3217695E3,2.1019006E3,2.2198691E3,1.6652046E3,4.36696E2,1.2349802E3,9.848888E2,9.4111E2,7.2409454E2,5.949441E1,3.772016E2,1.0288E3,2.061802E2,5.799532E2,4.049356E2,2.1048233E2,7.306276E2,2.8127966E2,4.428149E2,5.5134373E1,4.3600364E0,1.2295947E2,2.5424213E2,1.0382226E2,9.249778E2,1.9949234E2,6.6878543E0,4.984821E2,8.147107E1,1.702817E2,2.346539E2],"tree_param":{"num_deleted":"0","num_feature":"7","num_nodes":"31","size_leaf_vector":"1"}},{"base_weights":[-2.4722779E-1,-4.407403E-1,-6.519225E-2,-4.8107567E-1,-2.8503087E-1,-1.546828E-1,1.2137712E-1,-5.4662955E-1,-3.9424372E-1,-2.6075551E-2,-3.2446E-1,-2.531686E-1,-7.095168E-2,-1.0328917E-1,1.9245917E-1,-1.1273891E-2,-1.782797E-2,-1.3944422E-2,-1.0395407E-2,-3.1314453E-3,1.798839E-2,-1.564589E-2,-6.639138E-3,-1.1610662E-2,-6.2982463E-3,-2.8868322E-3,7.4534914E-3,-1.3049288E-2,-1.4551991E-3,4.9336716E-3,2.302234E-2],"categories":[],"categories_nodes":[],"categories_segments":[],"categories_sizes":[],"default_left":[0,1,0,0,0,0,0,0,0,0,0,0,0,0,0,0,0,0,0,0,0,0,0,0,0,0,0,0,0,0,0],"id":34,"left_children":[1,3,5,7,9,11,13,15,17,19,21,23,25,27,29,-1,-1,-1,-1,-1,-1,-1,-1,-1,-1,-1,-1,-1,-1,-1,-1],"loss_changes":[1.5106314E2,1.2414215E1,3.708531E1,8.476898E0,4.2561417E0,1.2185009E1,1.1555402E1,6.639496E0,1.6947708E0,2.886865E0,7.046406E0,3.5111618E0,6.568628E0,2.845986E0,8.105579E0,0E0,0E0,0E0,0E0,0E0,0E0,0E0,0E0,0E0,0E0,0E0,0E0,0E0,0E0,0E0,0E0],"parents":[2147483647,0,0,1,1,2,2,3,3,4,4,5,5,6,6,7,7,8,8,9,9,10,10,11,11,12,12,13,13,14,14],"right_children":[2,4,6,8,10,12,14,16,18,20,22,24,26,28,30,-1,-1,-1,-1,-1,-1,-1,-1,-1,-1,-1,-1,-1,-1,-1,-1],"split_conditions":[8.82759E-2,7.4E-2,1.55E-1,5.77778E-2,1.5E-2,8E-2,5.8E-2,1.5E-2,4.83333E-2,1.63333E-1,5.21429E-2,3.06667E-2,1.35323E-1,1.83784E-2,3.48E-1,-1.1273891E-2,-1.782797E-2,-1.3944422E-2,-1.0395407E-2,-3.1314453E-3,1.798839E-2,-1.564589E-2,-6.639138E-3,-1.1610662E-2,-6.2982463E-3,-2.8868322E-3,7.4534914E-3,-1.3049288E-2,-1.4551991E-3,4.9336716E-3,2.302234E-2],"split_indices":[1,2,1,1,1,2,2,1,2,2,1,2,0,2,1,0,0,0,0,0,0,0,0,0,0,0,0,0,0,0,0],"split_type":[0,0,0,0,0,0,0,0,0,0,0,0,0,0,0,0,0,0,0,0,0,0,0,0,0,0,0,0,0,0,0],"sum_hessian":[4.295192E3,2.079255E3,2.2159368E3,1.6455874E3,4.336675E2,1.4996371E3,7.162997E2,9.2836725E2,7.172202E2,5.9420452E1,3.7424707E2,6.8449963E2,8.1513745E2,1.7025163E2,5.4604803E2,2.08591E2,7.1977625E2,2.780957E2,4.391245E2,5.500229E1,4.4181614E0,1.241364E2,2.5011067E2,1.6038652E2,5.241131E2,7.58107E2,5.7030483E1,2.0872087E1,1.4937955E2,5.239695E2,2.2078594E1],"tree_param":{"num_deleted":"0","num_feature":"7","num_nodes":"31","size_leaf_vector":"1"}},{"base_weights":[-2.4135971E-1,-4.322687E-1,-6.3364096E-2,-4.722975E-1,-2.7847192E-1,-1.8901785E-1,6.403541E-2,-5.3759044E-1,-3.8615248E-1,-2.4605602E-2,-3.1735396E-1,-2.9132417E-1,-1.2407392E-1,1.7227344E-2,3.950687E-1,-1.10368235E-2,-1.7555518E-2,-1.36827985E-2,-1.01689845E-2,-3.0477694E-3,1.7460033E-2,-1.5484416E-2,-6.522621E-3,-1.2899837E-2,-7.4931504E-3,-4.2696972E-3,4.099702E-3,-8.74524E-4,8.62039E-3,8.901603E-3,2.0007884E-2],"categories":[],"categories_nodes":[],"categories_segments":[],"categories_sizes":[],"default_left":[0,1,0,0,0,0,1,0,0,0,0,0,0,0,0,0,0,0,0,0,0,0,0,0,0,0,0,0,0,0,0],"id":35,"left_children":[1,3,5,7,9,11,13,15,17,19,21,23,25,27,29,-1,-1,-1,-1,-1,-1,-1,-1,-1,-1,-1,-1,-1,-1,-1,-1],"loss_changes":[1.448417E2,1.2038727E1,3.553096E1,8.282623E0,4.0847206E0,7.142769E0,1.6808418E1,6.506775E0,1.6448059E0,2.7430816E0,6.826206E0,1.919178E0,3.3241434E0,1.225027E1,2.724577E0,0E0,0E0,0E0,0E0,0E0,0E0,0E0,0E0,0E0,0E0,0E0,0E0,0E0,0E0,0E0,0E0],"parents":[2147483647,0,0,1,1,2,2,3,3,4,4,5,5,6,6,7,7,8,8,9,9,10,10,11,11,12,12,13,13,14,14],"right_children":[2,4,6,8,10,12,14,16,18,20,22,24,26,28,30,-1,-1,-1,-1,-1,-1,-1,-1,-1,-1,-1,-1,-1,-1,-1,-1],"split_conditions":[8.82759E-2,7.4E-2,1.29375E-1,5.77778E-2,1.5E-2,6.81132E-2,1.21525E-1,1.5E-2,4.83333E-2,1.63333E-1,5.1746E-2,2.6875E-2,1.35323E-1,2.33514E-1,1.9E-1,-1.10368235E-2,-1.7555518E-2,-1.36827985E-2,-1.01689845E-2,-3.0477694E-3,1.7460033E-2,-1.5484416E-2,-6.522621E-3,-1.2899837E-2,-7.4931504E-3,-4.2696972E-3,4.099702E-3,-8.74524E-4,8.62039E-3,8.901603E-3,2.0007884E-2],"split_indices":[1,2,1,1,1,2,2,1,2,2,1,2,0,1,2,0,0,0,0,0,0,0,0,0,0,0,0,0,0,0,0],"split_type":[0,0,0,0,0,0,0,0,0,0,0,0,0,0,0,0,0,0,0,0,0,0,0,0,0,0,0,0,0,0,0],"sum_hessian":[4.2693413E3,2.0572134E3,2.212128E3,1.6264923E3,4.30721E2,1.1151832E3,1.0969446E3,9.159612E2,7.105311E2,5.9348858E1,3.7137216E2,4.2733344E2,6.878498E2,9.6421875E2,1.3272589E2,2.0675052E2,7.0921063E2,2.7499637E2,4.3553476E2,5.4873913E1,4.4749475E0,1.1977509E2,2.5159706E2,9.1441635E1,3.3589178E2,6.454956E2,4.2354183E1,8.2286914E2,1.4134958E2,1.0188862E2,3.0837273E1],"tree_param":{"num_deleted":"0","num_feature":"7","num_nodes":"31","size_leaf_vector":"1"}},{"base_weights":[-2.3558953E-1,-4.2388648E-1,-6.1557848E-2,-5.166602E-1,-3.568996E-1,-1.1783205E-1,2.1089503E-1,-1.778433E-2,-1.3120317E-2,-1.6693154E-1,-3.871481E-1,-2.2545385E-1,-3.135171E-2,-2.3548214E-1,2.5394806E-1,-7.187115E-3,6.1734673E-3,-1.6633345E-2,-8.763614E-3,-1.0648465E-2,-5.5562016E-3,-3.4477045E-3,2.5269615E-3,-9.518888E-3,9.281428E-3,6.1350437E-3,2.1895617E-2],"categories":[],"categories_nodes":[],"categories_segments":[],"categories_sizes":[],"default_left":[0,0,0,0,0,0,0,0,0,0,0,0,0,0,0,0,0,0,0,0,0,0,0,0,0,0,0],"id":36,"left_children":[1,3,5,7,9,11,13,-1,-1,15,17,19,21,23,25,-1,-1,-1,-1,-1,-1,-1,-1,-1,-1,-1,-1],"loss_changes":[1.3884952E2,1.1858368E1,3.389282E1,4.081238E0,6.4486237E0,1.6934168E1,7.385248E0,0E0,0E0,4.7084084E0,1.5552643E1,3.8438454E0,9.908847E0,1.681632E0,7.3847237E0,0E0,0E0,0E0,0E0,0E0,0E0,0E0,0E0,0E0,0E0,0E0,0E0],"parents":[2147483647,0,0,1,1,2,2,3,3,4,4,5,5,6,6,9,9,10,10,11,11,12,12,13,13,14,14],"right_children":[2,4,6,8,10,12,14,-1,-1,16,18,20,22,24,26,-1,-1,-1,-1,-1,-1,-1,-1,-1,-1,-1,-1],"split_conditions":[8.82759E-2,6.18182E-2,1.9E-1,5.25E-2,1.5E-2,8E-2,3.12E-2,-1.778433E-2,-1.3120317E-2,1.12521E-1,5.13953E-2,3.06667E-2,1.29375E-1,1.23569E-1,3.48E-1,-7.187115E-3,6.1734673E-3,-1.6633345E-2,-8.763614E-3,-1.0648465E-2,-5.5562016E-3,-3.4477045E-3,2.5269615E-3,-9.518888E-3,9.281428E-3,6.1350437E-3,2.1895617E-2],"split_indices":[1,2,1,1,1,2,2,0,0,0,1,2,1,0,1,0,0,0,0,0,0,0,0,0,0,0,0],"split_type":[0,0,0,0,0,0,0,0,0,0,0,0,0,0,0,0,0,0,0,0,0,0,0,0,0,0,0],"sum_hessian":[4.2441396E3,2.0357627E3,2.2083772E3,8.448267E2,1.190936E3,1.8327906E3,3.755864E2,4.2119247E2,4.2363422E2,1.676459E2,1.0232901E3,8.1257434E2,1.0202164E3,3.1230745E1,3.4435562E2,1.4202277E2,2.5623148E1,3.6528055E2,6.580096E2,1.860138E2,6.2656055E2,5.946195E2,4.2559683E2,2.8677626E1,2.5531209E0,3.1548663E2,2.8868998E1],"tree_param":{"num_deleted":"0","num_feature":"7","num_nodes":"27","size_leaf_vector":"1"}},{"base_weights":[-2.2992864E-1,-3.9747056E-1,-4.1390605E-2,-4.7393182E-1,-2.974182E-1,-9.9289104E-2,2.0409872E-1,-2.7963668E-1,-5.239361E-1,-1.1455913E-2,-2.3637089E-1,-2.1245931E-1,-1.1293623E-2,-2.2918957E-1,2.4555941E-1,-1.1818982E-2,-2.2419135E-3,-1.9423543E-2,-1.3710449E-2,-8.0810115E-3,-3.5188226E-3,-1.021469E-2,-5.1907226E-3,-9.935352E-4,1.0870391E-2,-9.30934E-3,9.094504E-3,5.931302E-3,2.110649E-2],"categories":[],"categories_nodes":[],"categories_segments":[],"categories_sizes":[],"default_left":[0,0,0,0,0,0,0,0,0,0,1,0,1,0,0,0,0,0,0,0,0,0,0,0,0,0,0,0,0],"id":37,"left_children":[1,3,5,7,9,11,13,15,17,-1,19,21,23,25,27,-1,-1,-1,-1,-1,-1,-1,-1,-1,-1,-1,-1,-1,-1],"loss_changes":[1.3309723E2,1.6419647E1,2.8272038E1,1.1545349E1,4.5404434E0,1.5948049E1,6.925063E0,5.896305E0,7.1022644E0,0E0,2.0027504E0,3.175047E0,7.297206E0,1.6193802E0,6.890995E0,0E0,0E0,0E0,0E0,0E0,0E0,0E0,0E0,0E0,0E0,0E0,0E0,0E0,0E0],"parents":[2147483647,0,0,1,1,2,2,3,3,4,4,5,5,6,6,7,7,8,8,10,10,11,11,12,12,13,13,14,14],"right_children":[2,4,6,8,10,12,14,16,18,-1,20,22,24,26,28,-1,-1,-1,-1,-1,-1,-1,-1,-1,-1,-1,-1,-1,-1],"split_conditions":[9.48571E-2,6.28571E-2,1.9E-1,1.5E-2,6.75E-2,8E-2,3.12E-2,9.92328E-2,4E-2,-1.1455913E-2,9.86667E-2,3.06667E-2,1.725E-1,1.23569E-1,3.48E-1,-1.1818982E-2,-2.2419135E-3,-1.9423543E-2,-1.3710449E-2,-8.0810115E-3,-3.5188226E-3,-1.021469E-2,-5.1907226E-3,-9.935352E-4,1.0870391E-2,-9.30934E-3,9.094504E-3,5.931302E-3,2.110649E-2],"split_indices":[1,1,1,1,2,2,2,0,1,0,2,2,2,0,1,0,0,0,0,0,0,0,0,0,0,0,0,0,0],"split_type":[0,0,0,0,0,0,0,0,0,0,0,0,0,0,0,0,0,0,0,0,0,0,0,0,0,0,0,0,0],"sum_hessian":[4.219524E3,2.2315857E3,1.9879382E3,1.2578497E3,9.737359E2,1.6111722E3,3.7676605E2,2.6220743E2,9.9564233E2,4.0072296E2,5.7301294E2,7.0104865E2,9.1012354E2,3.1059631E1,3.4570642E2,1.655511E2,9.665631E1,3.411552E2,6.544871E2,4.4341855E2,1.295944E2,1.5850362E2,5.4254504E2,8.6288367E2,4.72399E1,2.8491327E1,2.5683036E0,3.165857E2,2.9120743E1],"tree_param":{"num_deleted":"0","num_feature":"7","num_nodes":"29","size_leaf_vector":"1"}},{"base_weights":[-2.2438787E-1,-4.0752876E-1,-5.792378E-2,-4.9986708E-1,-3.4124705E-1,-1.7629401E-1,6.060857E-2,-1.728391E-2,-1.2628355E-2,-1.5568751E-1,-3.7105036E-1,-2.7333304E-1,-1.1530561E-1,1.6159404E-2,3.7150308E-1,-6.797362E-3,6.047681E-3,-1.6095975E-2,-8.348843E-3,-1.2232162E-2,-7.002663E-3,-3.9947224E-3,4.1229604E-3,-2.5722693E-4,1.3320254E-2,8.376822E-3,1.8722085E-2],"categories":[],"categories_nodes":[],"categories_segments":[],"categories_sizes":[],"default_left":[0,0,0,0,0,0,1,0,0,0,0,0,0,0,0,0,0,0,0,0,0,0,0,0,0,0,0],"id":38,"left_children":[1,3,5,7,9,11,13,-1,-1,15,17,19,21,23,25,-1,-1,-1,-1,-1,-1,-1,-1,-1,-1,-1,-1],"loss_changes":[1.2768892E2,1.14600525E1,3.0984152E1,3.9939117E0,6.1022034E0,6.280594E0,1.4994467E1,0E0,0E0,4.3575563E0,1.4735153E1,1.751297E0,3.124998E0,1.0446353E1,2.3715897E0,0E0,0E0,0E0,0E0,0E0,0E0,0E0,0E0,0E0,0E0,0E0,0E0],"parents":[2147483647,0,0,1,1,2,2,3,3,4,4,5,5,6,6,9,9,10,10,11,11,12,12,13,13,14,14],"right_children":[2,4,6,8,10,12,14,-1,-1,16,18,20,22,24,26,-1,-1,-1,-1,-1,-1,-1,-1,-1,-1,-1,-1],"split_conditions":[8.82759E-2,6.18182E-2,1.29375E-1,5.25E-2,1.5E-2,6.81132E-2,1.21525E-1,-1.728391E-2,-1.2628355E-2,1.12521E-1,5.13953E-2,2.6875E-2,1.35323E-1,3E-1,1.9E-1,-6.797362E-3,6.047681E-3,-1.6095975E-2,-8.348843E-3,-1.2232162E-2,-7.002663E-3,-3.9947224E-3,4.1229604E-3,-2.5722693E-4,1.3320254E-2,8.376822E-3,1.8722085E-2],"split_indices":[1,2,1,1,1,2,2,0,0,0,1,2,0,1,2,0,0,0,0,0,0,0,0,0,0,0,0],"split_type":[0,0,0,0,0,0,0,0,0,0,0,0,0,0,0,0,0,0,0,0,0,0,0,0,0,0,0],"sum_hessian":[4.195575E3,1.9949102E3,2.2006653E3,8.249833E2,1.1699269E3,1.1027085E3,1.0979567E3,4.099284E2,4.1505487E2,1.659463E2,1.0039806E3,4.19723E2,6.829855E2,9.638636E2,1.3409314E2,1.4024905E2,2.5697245E1,3.5524338E2,6.487372E2,8.9009735E1,3.3071326E2,6.4065796E2,4.232748E1,9.1193646E2,5.1927086E1,1.027456E2,3.1347538E1],"tree_param":{"num_deleted":"0","num_feature":"7","num_nodes":"27","size_leaf_vector":"1"}},{"base_weights":[-2.1893272E-1,-4.1037467E-1,-6.5271094E-2,-4.4336507E-1,-2.160039E-1,-1.7749298E-1,5.8821835E-2,-5.051567E-1,-3.747436E-1,4.542173E-2,-2.637132E-1,-2.8912243E-1,-1.2527138E-1,-6.1880726E-2,1.6506647E-1,-9.783751E-3,-1.7030768E-2,-1.352213E-2,-1.0130463E-2,-1.0316437E-3,1.7320916E-2,-1.5880173E-2,-5.293756E-3,-1.192074E-2,-7.405858E-3,-4.5043617E-3,8.309475E-4,-8.005819E-3,-2.5095564E-4,3.671675E-3,1.4027268E-2],"categories":[],"categories_nodes":[],"categories_segments":[],"categories_sizes":[],"default_left":[0,1,0,0,0,0,0,0,0,0,0,0,1,0,1,0,0,0,0,0,0,0,0,0,0,0,0,0,0,0,0],"id":39,"left_children":[1,3,5,7,9,11,13,15,17,19,21,23,25,27,29,-1,-1,-1,-1,-1,-1,-1,-1,-1,-1,-1,-1,-1,-1,-1,-1],"loss_changes":[1.2250644E2,1.138562E1,3.238134E1,5.8950806E0,3.569643E0,6.83593E0,1.418963E1,8.403015E0,1.446907E0,2.1202505E0,4.905031E0,1.2402E0,3.2587585E0,5.5031295E0,7.1850567E0,0E0,0E0,0E0,0E0,0E0,0E0,0E0,0E0,0E0,0E0,0E0,0E0,0E0,0E0,0E0,0E0],"parents":[2147483647,0,0,1,1,2,2,3,3,4,4,5,5,6,6,7,7,8,8,9,9,10,10,11,11,12,12,13,13,14,14],"right_children":[2,4,6,8,10,12,14,16,18,20,22,24,26,28,30,-1,-1,-1,-1,-1,-1,-1,-1,-1,-1,-1,-1,-1,-1,-1,-1],"split_conditions":[8.425E-2,8.625E-2,1.29375E-1,5.25E-2,1.5E-2,5.92593E-2,9.16667E-2,1.5E-2,4.23333E-2,1.63333E-1,4.6E-2,2.6875E-2,1.19333E-1,3.19149E-2,1.50556E-1,-9.783751E-3,-1.7030768E-2,-1.352213E-2,-1.0130463E-2,-1.0316437E-3,1.7320916E-2,-1.5880173E-2,-5.293756E-3,-1.192074E-2,-7.405858E-3,-4.5043617E-3,8.309475E-4,-8.005819E-3,-2.5095564E-4,3.671675E-3,1.4027268E-2],"split_indices":[1,2,1,1,1,2,2,1,2,2,1,2,2,2,2,0,0,0,0,0,0,0,0,0,0,0,0,0,0,0,0],"split_type":[0,0,0,0,0,0,0,0,0,0,0,0,0,0,0,0,0,0,0,0,0,0,0,0,0,0,0,0,0,0,0],"sum_hessian":[4.172344E3,1.8548512E3,2.317493E3,1.5813203E3,2.7353085E2,1.2186189E3,1.0988741E3,8.2153906E2,7.597813E2,4.0611862E1,2.3291899E2,3.824475E2,8.361713E2,5.126223E2,5.862518E2,2.1796307E2,6.03576E2,2.3732817E2,5.224531E2,3.612292E1,4.4889407E0,5.367001E1,1.7924898E2,9.935296E1,2.8309454E2,7.2206384E2,1.1410751E2,1.0254172E2,4.1008063E2,5.176806E2,6.857119E1],"tree_param":{"num_deleted":"0","num_feature":"7","num_nodes":"31","size_leaf_vector":"1"}},{"base_weights":[-2.1361427E-1,-4.0225944E-1,-6.345059E-2,-4.3494585E-1,-2.107364E-1,-1.7292945E-1,5.7004426E-2,-4.884398E-1,-3.5698843E-1,4.4431332E-2,-2.576765E-1,-2.82507E-1,-1.2185251E-1,-6.0169175E-2,1.5975001E-1,-9.567412E-3,-1.616861E-2,-1.3076183E-2,-9.594346E-3,-1.003052E-3,1.681655E-2,-1.5625322E-2,-5.158061E-3,-1.1680417E-2,-7.227136E-3,-4.3844525E-3,8.0600544E-4,-7.81616E-3,-2.4350593E-4,3.3252658E-3,1.2167762E-2],"categories":[],"categories_nodes":[],"categories_segments":[],"categories_sizes":[],"default_left":[0,1,0,0,0,0,0,0,0,0,0,0,1,0,1,0,0,0,0,0,0,0,0,0,0,0,0,0,0,0,0],"id":40,"left_children":[1,3,5,7,9,11,13,15,17,19,21,23,25,27,29,-1,-1,-1,-1,-1,-1,-1,-1,-1,-1,-1,-1,-1,-1,-1,-1],"loss_changes":[1.17326385E2,1.10017395E1,3.0613083E1,5.7598877E0,3.4125996E0,6.5330925E0,1.3333935E1,7.102066E0,1.2454376E0,2.0146556E0,4.7424145E0,1.1946602E0,3.0875359E0,5.221758E0,6.7442904E0,0E0,0E0,0E0,0E0,0E0,0E0,0E0,0E0,0E0,0E0,0E0,0E0,0E0,0E0,0E0,0E0],"parents":[2147483647,0,0,1,1,2,2,3,3,4,4,5,5,6,6,7,7,8,8,9,9,10,10,11,11,12,12,13,13,14,14],"right_children":[2,4,6,8,10,12,14,16,18,20,22,24,26,28,30,-1,-1,-1,-1,-1,-1,-1,-1,-1,-1,-1,-1,-1,-1,-1,-1],"split_conditions":[8.425E-2,8.625E-2,1.29375E-1,5.73913E-2,1.5E-2,5.92593E-2,9.16667E-2,1.5E-2,4.23333E-2,1.63333E-1,4.6E-2,2.6875E-2,1.19333E-1,3.19149E-2,1.36429E-1,-9.567412E-3,-1.616861E-2,-1.3076183E-2,-9.594346E-3,-1.003052E-3,1.681655E-2,-1.5625322E-2,-5.158061E-3,-1.1680417E-2,-7.227136E-3,-4.3844525E-3,8.0600544E-4,-7.81616E-3,-2.4350593E-4,3.3252658E-3,1.2167762E-2],"split_indices":[1,2,1,1,1,2,2,1,2,2,1,2,2,2,2,0,0,0,0,0,0,0,0,0,0,0,0,0,0,0,0],"split_type":[0,0,0,0,0,0,0,0,0,0,0,0,0,0,0,0,0,0,0,0,0,0,0,0,0,0,0,0,0,0,0],"sum_hessian":[4.1497847E3,1.8362649E3,2.31352E3,1.5641633E3,2.721016E2,1.2136974E3,1.0998226E3,9.175802E2,6.4658307E2,4.0639454E1,2.3146214E2,3.7987784E2,8.338196E2,5.1194748E2,5.878751E2,2.1627605E2,7.0130414E2,1.9593587E2,4.5064725E2,3.609545E1,4.544002E0,5.2952587E1,1.7850955E2,9.841082E1,2.81467E2,7.19649E2,1.1417062E2,1.0193682E2,4.1001065E2,4.9444565E2,9.342946E1],"tree_param":{"num_deleted":"0","num_feature":"7","num_nodes":"31","size_leaf_vector":"1"}},{"base_weights":[-2.0840119E-1,-3.9926693E-1,-6.54932E-2,-4.3063435E-1,-2.0814046E-1,-1.710526E-1,5.5241477E-2,-4.8731962E-1,-3.6392227E-1,4.9332857E-2,-2.5781566E-1,-2.7959576E-1,-1.1964283E-1,-2.0787552E-1,9.889244E-2,-9.321752E-3,-1.6495202E-2,-1.3151959E-2,-9.858121E-3,-8.6056214E-4,1.6329993E-2,-1.5510589E-2,-5.1221023E-3,-1.1397676E-2,-7.1030054E-3,-3.9772475E-3,4.0011597E-3,-1.4681277E-2,-4.7039906E-3,1.1549736E-3,8.343384E-3],"categories":[],"categories_nodes":[],"categories_segments":[],"categories_sizes":[],"default_left":[0,1,0,0,0,0,0,0,0,0,0,0,1,0,0,0,0,0,0,0,0,0,0,0,0,0,0,0,0,0,0],"id":41,"left_children":[1,3,5,7,9,11,13,15,17,19,21,23,25,27,29,-1,-1,-1,-1,-1,-1,-1,-1,-1,-1,-1,-1,-1,-1,-1,-1],"loss_changes":[1.12361694E2,1.009079E1,3.0224377E1,4.9419556E0,3.3928995E0,6.791088E0,1.2651915E1,8.15036E0,1.18824E0,1.8845745E0,4.3509645E0,1.2385826E0,2.864874E0,1.7653403E0,1.0089941E1,0E0,0E0,0E0,0E0,0E0,0E0,0E0,0E0,0E0,0E0,0E0,0E0,0E0,0E0,0E0,0E0],"parents":[2147483647,0,0,1,1,2,2,3,3,4,4,5,5,6,6,7,7,8,8,9,9,10,10,11,11,12,12,13,13,14,14],"right_children":[2,4,6,8,10,12,14,16,18,20,22,24,26,28,30,-1,-1,-1,-1,-1,-1,-1,-1,-1,-1,-1,-1,-1,-1,-1,-1],"split_conditions":[8.2069E-2,8.75E-2,1.29375E-1,5.25E-2,1.5E-2,5.92593E-2,4.1E-2,1.5E-2,4.2E-2,1.63333E-1,4.6E-2,2.82222E-2,1.6E-1,1.33333E-2,2.15714E-1,-9.321752E-3,-1.6495202E-2,-1.3151959E-2,-9.858121E-3,-8.6056214E-4,1.6329993E-2,-1.5510589E-2,-5.1221023E-3,-1.1397676E-2,-7.1030054E-3,-3.9772475E-3,4.0011597E-3,-1.4681277E-2,-4.7039906E-3,1.1549736E-3,8.343384E-3],"split_indices":[1,2,1,1,1,2,2,1,2,2,1,2,2,2,1,0,0,0,0,0,0,0,0,0,0,0,0,0,0,0,0],"split_type":[0,0,0,0,0,0,0,0,0,0,0,0,0,0,0,0,0,0,0,0,0,0,0,0,0,0,0,0,0,0,0],"sum_hessian":[4.1278354E3,1.7643328E3,2.3635024E3,1.5111951E3,2.5313765E2,1.2627643E3,1.1007382E3,8.061254E2,7.050697E2,3.9314365E1,2.1382329E2,3.9988043E2,8.6288385E2,1.5392688E2,9.468113E2,2.1598747E2,5.9013794E2,2.1490726E2,4.9016245E2,3.471659E1,4.5977726E0,4.9842537E1,1.6398074E2,1.1143293E2,2.884475E2,8.237106E2,3.917327E1,1.950032E1,1.3442656E2,7.120766E2,2.347347E2],"tree_param":{"num_deleted":"0","num_feature":"7","num_nodes":"31","size_leaf_vector":"1"}},{"base_weights":[-2.0330021E-1,-3.9268163E-1,-6.467433E-2,-4.237083E-1,-2.0455673E-1,-1.6730446E-1,5.3503856E-2,-4.786836E-1,-3.579995E-1,4.8192568E-2,-2.5419307E-1,-2.745113E-1,-1.1661139E-1,1.2754398E-2,3.34031E-1,-9.112552E-3,-1.6230373E-2,-1.2929923E-2,-9.702406E-3,-8.3666E-4,1.586044E-2,-1.5258708E-2,-5.0458787E-3,-1.1870927E-2,-7.1310773E-3,-3.873457E-3,3.829915E-3,-3.294512E-4,1.2630692E-2,7.4610813E-3,1.6981859E-2],"categories":[],"categories_nodes":[],"categories_segments":[],"categories_sizes":[],"default_left":[0,1,0,0,0,0,1,0,0,0,0,0,1,0,0,0,0,0,0,0,0,0,0,0,0,0,0,0,0,0,0],"id":42,"left_children":[1,3,5,7,9,11,13,15,17,19,21,23,25,27,29,-1,-1,-1,-1,-1,-1,-1,-1,-1,-1,-1,-1,-1,-1,-1,-1],"loss_changes":[1.0758089E2,9.6362915E0,2.8892756E1,4.602356E0,3.2852736E0,6.6664085E0,1.2433818E1,7.953247E0,1.082077E0,1.7912937E0,4.1369867E0,1.2995491E0,2.696846E0,9.587783E0,2.0500593E0,0E0,0E0,0E0,0E0,0E0,0E0,0E0,0E0,0E0,0E0,0E0,0E0,0E0,0E0,0E0,0E0],"parents":[2147483647,0,0,1,1,2,2,3,3,4,4,5,5,6,6,7,7,8,8,9,9,10,10,11,11,12,12,13,13,14,14],"right_children":[2,4,6,8,10,12,14,16,18,20,22,24,26,28,30,-1,-1,-1,-1,-1,-1,-1,-1,-1,-1,-1,-1,-1,-1,-1,-1],"split_conditions":[8.13333E-2,8.75E-2,1.29375E-1,5.25E-2,1.5E-2,5.92593E-2,1.21525E-1,1.5E-2,4.2E-2,1.63333E-1,4.6E-2,8.77886E-2,1.6E-1,3E-1,1.9E-1,-9.112552E-3,-1.6230373E-2,-1.2929923E-2,-9.702406E-3,-8.3666E-4,1.586044E-2,-1.5258708E-2,-5.0458787E-3,-1.1870927E-2,-7.1310773E-3,-3.873457E-3,3.829915E-3,-3.294512E-4,1.2630692E-2,7.4610813E-3,1.6981859E-2],"split_indices":[1,2,1,1,1,2,2,1,2,2,1,0,2,1,2,0,0,0,0,0,0,0,0,0,0,0,0,0,0,0,0],"split_type":[0,0,0,0,0,0,0,0,0,0,0,0,0,0,0,0,0,0,0,0,0,0,0,0,0,0,0,0,0,0,0],"sum_hessian":[4.106471E3,1.7324463E3,2.374025E3,1.4827417E3,2.4970459E2,1.2724146E3,1.1016104E3,7.9632025E2,6.864214E2,3.934483E1,2.1035976E2,4.025015E2,8.699131E2,9.6526843E2,1.363419E2,2.1438812E2,5.819322E2,2.086531E2,4.7776828E2,3.4694553E1,4.6502743E0,4.9188362E1,1.611714E2,8.606473E1,3.1643677E2,8.3039685E2,3.951623E1,9.1291455E2,5.2353912E1,1.04288795E2,3.2053104E1],"tree_param":{"num_deleted":"0","num_feature":"7","num_nodes":"31","size_leaf_vector":"1"}},{"base_weights":[-1.9827524E-1,-3.8478506E-1,-6.283042E-2,-4.155004E-1,-1.9953516E-1,-1.3049655E-1,1.08703054E-1,-4.701129E-1,-3.504294E-1,4.706661E-2,-2.4834943E-1,-2.1789317E-1,-5.774198E-2,6.609505E-2,3.8254434E-1,-8.9067E-3,-1.596677E-2,-1.2681157E-2,-9.487771E-3,-8.134141E-4,1.5407143E-2,-1.50083685E-2,-4.9158502E-3,-1.006547E-2,-5.3945654E-3,-2.3822272E-3,6.8331077E-3,1.1642976E-3,1.6332258E-2,7.889436E-3,1.724149E-2],"categories":[],"categories_nodes":[],"categories_segments":[],"categories_sizes":[],"default_left":[0,1,0,0,0,0,1,0,0,0,0,0,0,0,0,0,0,0,0,0,0,0,0,0,0,0,0,0,0,0,0],"id":43,"left_children":[1,3,5,7,9,11,13,15,17,19,21,23,25,27,29,-1,-1,-1,-1,-1,-1,-1,-1,-1,-1,-1,-1,-1,-1,-1,-1],"loss_changes":[1.02988525E2,9.3003845E0,2.7570183E1,4.481476E0,3.1389837E0,1.0671526E1,7.5423675E0,7.756195E0,1.0486069E0,1.702871E0,3.996931E0,3.0710754E0,5.7500687E0,7.284852E0,1.3056812E0,0E0,0E0,0E0,0E0,0E0,0E0,0E0,0E0,0E0,0E0,0E0,0E0,0E0,0E0,0E0,0E0],"parents":[2147483647,0,0,1,1,2,2,3,3,4,4,5,5,6,6,7,7,8,8,9,9,10,10,11,11,12,12,13,13,14,14],"right_children":[2,4,6,8,10,12,14,16,18,20,22,24,26,28,30,-1,-1,-1,-1,-1,-1,-1,-1,-1,-1,-1,-1,-1,-1,-1,-1],"split_conditions":[8.13333E-2,8.75E-2,1.6E-1,5.25E-2,1.5E-2,8E-2,1.21525E-1,1.5E-2,4.2E-2,1.63333E-1,4.6E-2,3.06667E-2,1.35323E-1,3.48E-1,1.725E-1,-8.9067E-3,-1.596677E-2,-1.2681157E-2,-9.487771E-3,-8.134141E-4,1.5407143E-2,-1.50083685E-2,-4.9158502E-3,-1.006547E-2,-5.3945654E-3,-2.3822272E-3,6.8331077E-3,1.1642976E-3,1.6332258E-2,7.889436E-3,1.724149E-2],"split_indices":[1,2,1,1,1,2,2,1,2,2,1,2,0,1,2,0,0,0,0,0,0,0,0,0,0,0,0,0,0,0,0],"split_type":[0,0,0,0,0,0,0,0,0,0,0,0,0,0,0,0,0,0,0,0,0,0,0,0,0,0,0,0,0,0,0],"sum_hessian":[4.0856233E3,1.7157007E3,2.3699226E3,1.4672402E3,2.4846051E2,1.7019391E3,6.679836E2,7.8678125E2,6.80459E2,3.9374676E1,2.0908583E2,7.6823376E2,9.3370526E2,5.8177203E2,8.6211525E1,2.1283286E2,5.7394836E2,2.0643704E2,4.7402194E2,3.4673145E1,4.7015295E0,4.8551636E1,1.605342E2,1.8083276E2,5.8740106E2,8.7081964E2,6.2885616E1,5.534107E2,2.8361378E1,5.7669945E1,2.8541582E1],"tree_param":{"num_deleted":"0","num_feature":"7","num_nodes":"31","size_leaf_vector":"1"}},{"base_weights":[-1.9333974E-1,-3.7698263E-1,-6.101213E-2,-4.073786E-1,-1.9461766E-1,-1.5947917E-1,5.1501013E-2,-4.6160945E-1,-3.4296256E-1,4.595558E-2,-2.4261183E-1,-2.6264897E-1,-1.1102421E-1,-1.623723E-1,1.0079668E-1,-8.7042E-3,-1.5704455E-2,-1.2434953E-2,-9.276401E-3,-7.9079747E-4,1.4969393E-2,-1.475963E-2,-4.788709E-3,-1.1485023E-2,-6.788428E-3,-3.496891E-3,1.3395854E-2,-1.4386135E-2,-3.654398E-3,1.2309272E-3,8.213908E-3],"categories":[],"categories_nodes":[],"categories_segments":[],"categories_sizes":[],"default_left":[0,1,0,0,0,0,0,0,0,0,0,0,1,0,0,0,0,0,0,0,0,0,0,0,0,0,0,0,0,0,0],"id":44,"left_children":[1,3,5,7,9,11,13,15,17,19,21,23,25,27,29,-1,-1,-1,-1,-1,-1,-1,-1,-1,-1,-1,-1,-1,-1,-1,-1],"loss_changes":[9.857503E1,8.971649E0,2.6304047E1,4.360962E0,2.9985056E0,6.081852E0,1.1644318E1,7.5593414E0,1.0154572E0,1.6190352E0,3.8599663E0,1.269228E0,2.6194553E0,2.2287807E0,9.131439E0,0E0,0E0,0E0,0E0,0E0,0E0,0E0,0E0,0E0,0E0,0E0,0E0,0E0,0E0,0E0,0E0],"parents":[2147483647,0,0,1,1,2,2,3,3,4,4,5,5,6,6,7,7,8,8,9,9,10,10,11,11,12,12,13,13,14,14],"right_children":[2,4,6,8,10,12,14,16,18,20,22,24,26,28,30,-1,-1,-1,-1,-1,-1,-1,-1,-1,-1,-1,-1,-1,-1,-1,-1],"split_conditions":[8.13333E-2,8.75E-2,1.29375E-1,5.25E-2,1.5E-2,5.92593E-2,4.72222E-2,1.5E-2,4.2E-2,1.63333E-1,4.6E-2,8.77886E-2,2.65E-1,1.33333E-2,2.15714E-1,-8.7042E-3,-1.5704455E-2,-1.2434953E-2,-9.276401E-3,-7.9079747E-4,1.4969393E-2,-1.475963E-2,-4.788709E-3,-1.1485023E-2,-6.788428E-3,-3.496891E-3,1.3395854E-2,-1.4386135E-2,-3.654398E-3,1.2309272E-3,8.213908E-3],"split_indices":[1,2,1,1,1,2,2,1,2,2,1,0,2,2,1,0,0,0,0,0,0,0,0,0,0,0,0,0,0,0,0],"split_type":[0,0,0,0,0,0,0,0,0,0,0,0,0,0,0,0,0,0,0,0,0,0,0,0,0,0,0,0,0,0,0],"sum_hessian":[4.0653186E3,1.6994136E3,2.365905E3,1.4521627E3,2.4725093E2,1.2636328E3,1.1022722E3,7.775019E2,6.7466077E2,3.9403896E1,2.0784703E2,3.9769818E2,8.6593463E2,2.0371353E2,8.9855865E2,2.113206E2,5.661813E2,2.042812E2,4.7037958E2,3.4652332E1,4.751561E0,4.793193E1,1.599151E2,8.476713E1,3.1293103E2,8.598712E2,6.0634456E0,1.9245167E1,1.8446837E2,6.718289E2,2.2672975E2],"tree_param":{"num_deleted":"0","num_feature":"7","num_nodes":"31","size_leaf_vector":"1"}},{"base_weights":[-1.885417E-1,-3.4958896E-1,-4.3514412E-2,-4.386288E-1,-2.8475216E-1,-9.117275E-2,1.7288831E-1,-1.54694775E-2,-1.0920264E-2,-3.4464705E-1,-2.060382E-1,-1.7121288E-1,-7.153527E-3,-9.64603E-3,2.0157619E-1,-3.5260806E-3,-1.2566442E-2,-6.7170877E-3,-6.117283E-4,-7.853078E-3,-3.859949E-3,-1.1111075E-3,8.715927E-3,4.777109E-3,1.8112484E-2],"categories":[],"categories_nodes":[],"categories_segments":[],"categories_sizes":[],"default_left":[0,0,0,0,0,0,0,0,0,0,1,0,0,0,0,0,0,0,0,0,0,0,0,0,0],"id":45,"left_children":[1,3,5,7,9,11,13,-1,-1,15,17,19,21,-1,23,-1,-1,-1,-1,-1,-1,-1,-1,-1,-1],"loss_changes":[9.431055E1,1.0449524E1,2.1995956E1,3.7846222E0,4.8517075E0,1.1688903E1,5.5146475E0,0E0,0E0,1.0222702E1,1.4988613E0,3.181982E0,7.5432158E0,0E0,5.6416388E0,0E0,0E0,0E0,0E0,0E0,0E0,0E0,0E0,0E0,0E0],"parents":[2147483647,0,0,1,1,2,2,3,3,4,4,5,5,6,6,9,9,10,10,11,11,12,12,14,14],"right_children":[2,4,6,8,10,12,14,-1,-1,16,18,20,22,-1,24,-1,-1,-1,-1,-1,-1,-1,-1,-1,-1],"split_conditions":[9E-2,6.33333E-2,1.9E-1,5.25E-2,6.14286E-2,9.33333E-2,2.51351E-2,-1.54694775E-2,-1.0920264E-2,1.5E-2,1.23077E-1,4.1E-2,1.34286E-1,-9.64603E-3,3.48E-1,-3.5260806E-3,-1.2566442E-2,-6.7170877E-3,-6.117283E-4,-7.853078E-3,-3.859949E-3,-1.1111075E-3,8.715927E-3,4.777109E-3,1.8112484E-2],"split_indices":[1,2,1,1,1,2,2,0,0,1,2,2,0,0,1,0,0,0,0,0,0,0,0,0,0],"split_type":[0,0,0,0,0,0,0,0,0,0,0,0,0,0,0,0,0,0,0,0,0,0,0,0,0],"sum_hessian":[4.045633E3,1.9139717E3,2.1316614E3,7.983554E2,1.1156162E3,1.7497762E3,3.8188504E2,3.8374454E2,4.1461087E2,6.260978E2,4.8951846E2,8.9199695E2,8.5777936E2,1.8867483E1,3.6301758E2,1.5716684E2,4.689309E2,4.4371466E2,4.58038E1,2.7808395E2,6.1391296E2,7.826436E2,7.513577E1,3.3209143E2,3.092614E1],"tree_param":{"num_deleted":"0","num_feature":"7","num_nodes":"25","size_leaf_vector":"1"}},{"base_weights":[-1.8382666E-1,-3.618322E-1,-5.7453126E-2,-3.9183885E-1,-1.8329792E-1,-1.519605E-1,4.975797E-2,-4.6822953E-1,-3.4622353E-1,4.8329595E-2,-2.3014612E-1,-2.5094405E-1,-1.0578339E-1,-5.598471E-2,